<?xml version="1.0"?>
<MethodSetup Method="MLP::MLP">
  <GeneralInfo>
    <Info name="TMVA Release" value="4.1.4 [262404]"/>
    <Info name="ROOT Release" value="5.34/07 [336391]"/>
    <Info name="Creator" value="pseyfert"/>
    <Info name="Date" value="Wed Jan  1 12:56:28 2014"/>
    <Info name="Host" value="Linux lxbuild175.cern.ch 2.6.18-308.4.1.el5 #1 SMP Wed Apr 18 16:26:27 CEST 2012 x86_64 x86_64 x86_64 GNU/Linux"/>
    <Info name="Dir" value="/auto/sigma0/pseyfert/zoontuple/Bender_v22r7/Phys/Tau23Mu/scripts/TMVA_training_v3"/>
    <Info name="Training events" value="38856"/>
    <Info name="TrainingTime" value="7.51699332e+02"/>
    <Info name="AnalysisType" value="Classification"/>
  </GeneralInfo>
  <Options>
    <Option name="NCycles" modified="Yes">600</Option>
    <Option name="HiddenLayers" modified="Yes">N+5</Option>
    <Option name="NeuronType" modified="Yes">tanh</Option>
    <Option name="RandomSeed" modified="No">1</Option>
    <Option name="EstimatorType" modified="No">MSE</Option>
    <Option name="NeuronInputType" modified="No">sum</Option>
    <Option name="V" modified="Yes">False</Option>
    <Option name="VerbosityLevel" modified="No">Default</Option>
    <Option name="VarTransform" modified="Yes">N</Option>
    <Option name="H" modified="Yes">False</Option>
    <Option name="CreateMVAPdfs" modified="No">False</Option>
    <Option name="IgnoreNegWeightsInTraining" modified="No">False</Option>
    <Option name="TrainingMethod" modified="No">BP</Option>
    <Option name="LearningRate" modified="No">2.000000e-02</Option>
    <Option name="DecayRate" modified="No">1.000000e-02</Option>
    <Option name="TestRate" modified="Yes">5</Option>
    <Option name="EpochMonitoring" modified="No">False</Option>
    <Option name="Sampling" modified="No">1.000000e+00</Option>
    <Option name="SamplingEpoch" modified="No">1.000000e+00</Option>
    <Option name="SamplingImportance" modified="No">1.000000e+00</Option>
    <Option name="SamplingTraining" modified="No">True</Option>
    <Option name="SamplingTesting" modified="No">False</Option>
    <Option name="ResetStep" modified="No">50</Option>
    <Option name="Tau" modified="No">3.000000e+00</Option>
    <Option name="BPMode" modified="No">sequential</Option>
    <Option name="BatchSize" modified="No">-1</Option>
    <Option name="ConvergenceImprove" modified="No">1.000000e-30</Option>
    <Option name="ConvergenceTests" modified="No">-1</Option>
    <Option name="UseRegulator" modified="Yes">False</Option>
    <Option name="UpdateLimit" modified="No">10000</Option>
    <Option name="CalculateErrors" modified="No">False</Option>
    <Option name="WeightRange" modified="No">1.000000e+00</Option>
  </Options>
  <Variables NVar="16">
    <Variable VarIndex="0" Expression="TMath::Exp(-1000*LifeTime)" Label="TMath::Exp(-1000*LifeTime)" Title="transformed decay time" Unit="1" Internal="TMath_Exp__M_1000_T_LifeTime_" Type="F" Min="1.93987222e-11" Max="7.31256723e-01"/>
    <Variable VarIndex="1" Expression="IPSig" Label="IPSig" Title="IP significance" Unit="1" Internal="IPSig" Type="F" Min="1.11495918e-02" Max="2.17485733e+01"/>
    <Variable VarIndex="2" Expression="VertexChi2" Label="VertexChi2" Title="vertex #chi^{2}" Unit="1" Internal="VertexChi2" Type="F" Min="1.89490011e-03" Max="1.49983969e+01"/>
    <Variable VarIndex="3" Expression="acos(dira)" Label="acos(dira)" Title="pointing angle" Unit="1" Internal="acos_dira_" Type="F" Min="0.00000000e+00" Max="1.37716651e-01"/>
    <Variable VarIndex="4" Expression="pt" Label="pt" Title="p_{T}" Unit="[MeV/c]" Internal="pt" Type="F" Min="4.12933426e+01" Max="3.79619180e+04"/>
    <Variable VarIndex="5" Expression="min(p0_IPSig,min(p1_IPSig,p2_IPSig))" Label="min(p0_IPSig,min(p1_IPSig,p2_IPSig))" Title="min. #mu IP significance" Unit="1" Internal="min_p0_IPSig,min_p1_IPSig,p2_IPSig__" Type="F" Min="2.30495882e+00" Max="1.02738922e+02"/>
    <Variable VarIndex="6" Expression="DOCAone" Label="DOCAone" Title="DOCA (#mu 1 and 2)" Unit="mm" Internal="DOCAone" Type="F" Min="2.63570382e-06" Max="7.38568008e-01"/>
    <Variable VarIndex="7" Expression="DOCAtwo" Label="DOCAtwo" Title="DOCA (#mu 2 and 3)" Unit="mm" Internal="DOCAtwo" Type="F" Min="2.43484504e-08" Max="6.22791827e-01"/>
    <Variable VarIndex="8" Expression="DOCAthree" Label="DOCAthree" Title="DOCA (#mu 1 and 3)" Unit="mm" Internal="DOCAthree" Type="F" Min="6.10736777e-07" Max="1.01704800e+00"/>
    <Variable VarIndex="9" Expression="isolationd" Label="isolationd" Title="isolationd" Unit="" Internal="isolationd" Type="F" Min="0.00000000e+00" Max="7.00000000e+00"/>
    <Variable VarIndex="10" Expression="isolatione" Label="isolatione" Title="isolatione" Unit="" Internal="isolatione" Type="F" Min="0.00000000e+00" Max="8.00000000e+00"/>
    <Variable VarIndex="11" Expression="isolationf" Label="isolationf" Title="isolationf" Unit="" Internal="isolationf" Type="F" Min="0.00000000e+00" Max="8.00000000e+00"/>
    <Variable VarIndex="12" Expression="CDF3" Label="CDF3" Title="cone isolation" Unit="1" Internal="CDF3" Type="F" Min="3.00450996e-03" Max="1.00000000e+00"/>
    <Variable VarIndex="13" Expression="p0_track_MatchChi2" Label="p0_track_MatchChi2" Title="track match #chi^{2} (#mu 1)" Unit="1" Internal="p0_track_MatchChi2" Type="F" Min="5.59116006e-02" Max="7.63943100e+01"/>
    <Variable VarIndex="14" Expression="p1_track_MatchChi2" Label="p1_track_MatchChi2" Title="track match #chi^{2} (#mu 2)" Unit="1" Internal="p1_track_MatchChi2" Type="F" Min="1.31226135e-02" Max="7.59046707e+01"/>
    <Variable VarIndex="15" Expression="p2_track_MatchChi2" Label="p2_track_MatchChi2" Title="track match #chi^{2} (#mu 3)" Unit="1" Internal="p2_track_MatchChi2" Type="F" Min="1.51327997e-02" Max="7.93785172e+01"/>
  </Variables>
  <Spectators NSpec="0"/>
  <Classes NClass="2">
    <Class Name="Signal" Index="0"/>
    <Class Name="Background" Index="1"/>
  </Classes>
  <Transformations NTransformations="1">
    <Transform Name="Normalize">
      <Selection>
        <Input NInputs="16">
          <Input Type="Variable" Label="TMath::Exp(-1000*LifeTime)" Expression="TMath::Exp(-1000*LifeTime)"/>
          <Input Type="Variable" Label="IPSig" Expression="IPSig"/>
          <Input Type="Variable" Label="VertexChi2" Expression="VertexChi2"/>
          <Input Type="Variable" Label="acos(dira)" Expression="acos(dira)"/>
          <Input Type="Variable" Label="pt" Expression="pt"/>
          <Input Type="Variable" Label="min(p0_IPSig,min(p1_IPSig,p2_IPSig))" Expression="min(p0_IPSig,min(p1_IPSig,p2_IPSig))"/>
          <Input Type="Variable" Label="DOCAone" Expression="DOCAone"/>
          <Input Type="Variable" Label="DOCAtwo" Expression="DOCAtwo"/>
          <Input Type="Variable" Label="DOCAthree" Expression="DOCAthree"/>
          <Input Type="Variable" Label="isolationd" Expression="isolationd"/>
          <Input Type="Variable" Label="isolatione" Expression="isolatione"/>
          <Input Type="Variable" Label="isolationf" Expression="isolationf"/>
          <Input Type="Variable" Label="CDF3" Expression="CDF3"/>
          <Input Type="Variable" Label="p0_track_MatchChi2" Expression="p0_track_MatchChi2"/>
          <Input Type="Variable" Label="p1_track_MatchChi2" Expression="p1_track_MatchChi2"/>
          <Input Type="Variable" Label="p2_track_MatchChi2" Expression="p2_track_MatchChi2"/>
        </Input>
        <Output NOutputs="16">
          <Output Type="Variable" Label="TMath::Exp(-1000*LifeTime)" Expression="TMath::Exp(-1000*LifeTime)"/>
          <Output Type="Variable" Label="IPSig" Expression="IPSig"/>
          <Output Type="Variable" Label="VertexChi2" Expression="VertexChi2"/>
          <Output Type="Variable" Label="acos(dira)" Expression="acos(dira)"/>
          <Output Type="Variable" Label="pt" Expression="pt"/>
          <Output Type="Variable" Label="min(p0_IPSig,min(p1_IPSig,p2_IPSig))" Expression="min(p0_IPSig,min(p1_IPSig,p2_IPSig))"/>
          <Output Type="Variable" Label="DOCAone" Expression="DOCAone"/>
          <Output Type="Variable" Label="DOCAtwo" Expression="DOCAtwo"/>
          <Output Type="Variable" Label="DOCAthree" Expression="DOCAthree"/>
          <Output Type="Variable" Label="isolationd" Expression="isolationd"/>
          <Output Type="Variable" Label="isolatione" Expression="isolatione"/>
          <Output Type="Variable" Label="isolationf" Expression="isolationf"/>
          <Output Type="Variable" Label="CDF3" Expression="CDF3"/>
          <Output Type="Variable" Label="p0_track_MatchChi2" Expression="p0_track_MatchChi2"/>
          <Output Type="Variable" Label="p1_track_MatchChi2" Expression="p1_track_MatchChi2"/>
          <Output Type="Variable" Label="p2_track_MatchChi2" Expression="p2_track_MatchChi2"/>
        </Output>
      </Selection>
      <Class ClassIndex="0">
        <Ranges>
          <Range Index="0" Min="1.9398722211905195e-11" Max="7.3125672340393066e-01"/>
          <Range Index="1" Min="1.1149591766297817e-02" Max="2.1748573303222656e+01"/>
          <Range Index="2" Min="1.8949001096189022e-03" Max="1.4998396873474121e+01"/>
          <Range Index="3" Min="0.0000000000000000e+00" Max="1.3410498201847076e-01"/>
          <Range Index="4" Min="6.2147693634033203e+01" Max="3.7961917968750000e+04"/>
          <Range Index="5" Min="2.3049588203430176e+00" Max="1.0273892211914062e+02"/>
          <Range Index="6" Min="2.6357038223068230e-06" Max="7.3856800794601440e-01"/>
          <Range Index="7" Min="2.4348450367028818e-08" Max="6.2279182672500610e-01"/>
          <Range Index="8" Min="6.1073677670719917e-07" Max="1.0170480012893677e+00"/>
          <Range Index="9" Min="0.0000000000000000e+00" Max="6.0000000000000000e+00"/>
          <Range Index="10" Min="0.0000000000000000e+00" Max="6.0000000000000000e+00"/>
          <Range Index="11" Min="0.0000000000000000e+00" Max="7.0000000000000000e+00"/>
          <Range Index="12" Min="3.0045099556446075e-03" Max="1.0000000000000000e+00"/>
          <Range Index="13" Min="5.5911600589752197e-02" Max="7.2067237854003906e+01"/>
          <Range Index="14" Min="1.3122613541781902e-02" Max="7.5904670715332031e+01"/>
          <Range Index="15" Min="1.5132799744606018e-02" Max="7.9378517150878906e+01"/>
        </Ranges>
      </Class>
      <Class ClassIndex="1">
        <Ranges>
          <Range Index="0" Min="2.1115165509399958e-05" Max="7.2635984420776367e-01"/>
          <Range Index="1" Min="1.3430085778236389e-01" Max="2.0998762130737305e+01"/>
          <Range Index="2" Min="2.2036740556359291e-02" Max="1.4987717628479004e+01"/>
          <Range Index="3" Min="0.0000000000000000e+00" Max="1.3771665096282959e-01"/>
          <Range Index="4" Min="4.1293342590332031e+01" Max="2.1269572265625000e+04"/>
          <Range Index="5" Min="2.7823791503906250e+00" Max="4.9517536163330078e+01"/>
          <Range Index="6" Min="3.9169070078060031e-05" Max="7.3149055242538452e-01"/>
          <Range Index="7" Min="7.3474417149554938e-05" Max="3.6525428295135498e-01"/>
          <Range Index="8" Min="3.1205789127852768e-05" Max="6.7212939262390137e-01"/>
          <Range Index="9" Min="0.0000000000000000e+00" Max="7.0000000000000000e+00"/>
          <Range Index="10" Min="0.0000000000000000e+00" Max="8.0000000000000000e+00"/>
          <Range Index="11" Min="0.0000000000000000e+00" Max="8.0000000000000000e+00"/>
          <Range Index="12" Min="3.8299348670989275e-03" Max="1.0000000000000000e+00"/>
          <Range Index="13" Min="1.5180341899394989e-01" Max="7.6394309997558594e+01"/>
          <Range Index="14" Min="1.4624765515327454e-01" Max="6.7723579406738281e+01"/>
          <Range Index="15" Min="4.5327022671699524e-02" Max="6.8506652832031250e+01"/>
        </Ranges>
      </Class>
      <Class ClassIndex="2">
        <Ranges>
          <Range Index="0" Min="1.9398722211905195e-11" Max="7.3125672340393066e-01"/>
          <Range Index="1" Min="1.1149591766297817e-02" Max="2.1748573303222656e+01"/>
          <Range Index="2" Min="1.8949001096189022e-03" Max="1.4998396873474121e+01"/>
          <Range Index="3" Min="0.0000000000000000e+00" Max="1.3771665096282959e-01"/>
          <Range Index="4" Min="4.1293342590332031e+01" Max="3.7961917968750000e+04"/>
          <Range Index="5" Min="2.3049588203430176e+00" Max="1.0273892211914062e+02"/>
          <Range Index="6" Min="2.6357038223068230e-06" Max="7.3856800794601440e-01"/>
          <Range Index="7" Min="2.4348450367028818e-08" Max="6.2279182672500610e-01"/>
          <Range Index="8" Min="6.1073677670719917e-07" Max="1.0170480012893677e+00"/>
          <Range Index="9" Min="0.0000000000000000e+00" Max="7.0000000000000000e+00"/>
          <Range Index="10" Min="0.0000000000000000e+00" Max="8.0000000000000000e+00"/>
          <Range Index="11" Min="0.0000000000000000e+00" Max="8.0000000000000000e+00"/>
          <Range Index="12" Min="3.0045099556446075e-03" Max="1.0000000000000000e+00"/>
          <Range Index="13" Min="5.5911600589752197e-02" Max="7.6394309997558594e+01"/>
          <Range Index="14" Min="1.3122613541781902e-02" Max="7.5904670715332031e+01"/>
          <Range Index="15" Min="1.5132799744606018e-02" Max="7.9378517150878906e+01"/>
        </Ranges>
      </Class>
    </Transform>
  </Transformations>
  <MVAPdfs/>
  <Weights>
    <Layout NLayers="3">
      <Layer Index="0" NNeurons="17">
        <Neuron NSynapses="21">
          -4.9221146459303877e-01 1.2631975708474636e+00 8.7134054543224415e-01 1.4796282200100626e+00 -1.1011293359036978e+00 2.9496657553579331e-01 -1.8884123748944381e-01 1.7883458927914127e+00 -7.2594579145920124e-01 -1.2520556585658880e+00 -1.5781247108778644e+00 -4.0261594664037903e-01 -1.1564887721811439e+00 -1.8271748375258723e-01 1.2572121473853592e-01 6.8806973445054453e-01 1.1169045552176614e-01 1.6251573804892296e+00 2.7896349776438900e-01 1.3844416818229182e+00 -5.2288037108390972e-01 
        </Neuron>
        <Neuron NSynapses="21">
          -1.0162235448308021e+00 1.2578707774377267e+00 3.2041766781209770e-02 -1.4541905734270562e+00 1.0930433484647599e-01 2.4607272822863604e+00 -1.0841609941296264e+00 -1.7622471730690434e+00 -2.1237402370589450e-01 2.4187192710197637e-02 1.6888483069704470e+00 -6.9239370474379291e-01 -2.4469961195363743e-01 -2.3694626522878698e-01 1.2385787422836649e-01 -1.4423526967492630e+00 1.3693314565325225e+00 -1.6362664181806450e+00 1.3968613240412338e+00 1.2023321625230186e+00 1.3625434632613147e+00 
        </Neuron>
        <Neuron NSynapses="21">
          3.3161479230839042e-01 4.5815894621024933e-01 -7.2075539814369116e-01 -1.6340136095831346e+00 -3.9782606057504899e-01 -1.8023767231713467e-01 1.3737532947373956e+00 1.3066773371399638e+00 1.1909771253919088e+00 1.0058220059841680e+00 -1.5993202169891056e+00 1.1775202785412688e+00 -1.7566211172210953e+00 -4.7359210870298124e-01 -1.3019225770871188e+00 -1.7763636793011355e+00 9.6796040219267532e-01 7.1108188935308431e-02 -3.7369124422850253e-01 3.7060386815537649e-01 -1.4565629207337155e-01 
        </Neuron>
        <Neuron NSynapses="21">
          3.0441554620036665e-01 2.0653174164135395e+00 -4.8143645623232645e-01 -5.3034688288773824e-01 -9.5279667787304922e-01 1.1145167949482335e+00 -9.0483342165077418e-01 -9.2334661697461817e-01 -1.1555148125839598e+00 4.9554484525169401e-01 1.1707465613302903e+00 1.0223503824977576e+00 -4.2932330412014952e-01 -2.1202216271126706e+00 -1.1946942216345502e+00 1.0118686134496844e+00 4.9673543463045394e-01 1.6459046210132142e+00 6.1303103289203009e-01 9.9197731364995601e-01 -7.3572091284561481e-01 
        </Neuron>
        <Neuron NSynapses="21">
          -5.7088943309503548e-01 -1.8362146714312452e-01 8.4646599823837498e-01 -1.6420095516997255e+00 -1.1798888405972656e+00 -1.2994260390580763e+00 -4.4282278729285574e-01 -3.9435008637071400e-01 1.6138721386110972e+00 -1.8341150186095370e+00 -8.9618529537170666e-01 1.4425690435533094e+00 -9.5959331264055547e-01 -7.8254730646838611e-01 -7.8787188915431372e-01 1.1160489704597948e-01 -1.3183767303439766e+00 -1.5305532698707569e+00 6.6620077150428059e-01 1.6678058240907470e+00 -1.2960295092005474e+00 
        </Neuron>
        <Neuron NSynapses="21">
          2.0993770559821110e+00 -2.3538019413086064e+00 -1.0447204077744421e+00 -6.4062961114633588e-01 4.1520895174269978e-01 -1.6361153535090158e+00 -6.9942063268457297e-02 3.2982236652492211e-02 6.0732163462128441e-01 -1.7078239472136698e+00 1.6850359008076015e+00 1.7471373985698169e-01 -1.0829362667082039e+00 9.4484180350682412e-01 -3.4957984130223124e-01 -1.5788508280312699e+00 -9.6928478087930636e-01 -3.4558152737944670e-01 1.5022282659390569e+00 7.7805174266244925e-01 -3.5085488849288321e-01 
        </Neuron>
        <Neuron NSynapses="21">
          -5.9705830154134065e-01 1.0538710409484675e+00 -2.1632725094065011e+00 3.8117157899074944e-01 6.6294665594232416e-02 -1.5919883345625339e+00 3.4111647940555168e-01 -1.6158225981044927e+00 2.8610741879352730e-01 8.0032872697003865e-01 1.6989211709224108e+00 -2.3960505810166342e+00 2.4549811910651811e-01 1.1577591215257903e+00 1.7144399622364084e+00 1.6661019873474692e-01 -6.7103355878035165e-01 -5.0524364988532977e-01 -1.7564319704403062e+00 1.5694138722083644e+00 1.0444292862730868e+00 
        </Neuron>
        <Neuron NSynapses="21">
          -5.2006158449969409e-01 9.8016415123848866e-01 -6.9286763394253810e-03 -1.9656942253562704e+00 2.6114235592849305e-01 1.5259007477641080e+00 -8.2385847676361201e-01 -8.7179930336097955e-01 2.3170390278597111e-01 8.3427309094328772e-01 5.1502093810881433e-01 6.9031534965019592e-01 -1.5664119959335465e+00 9.4343163543512543e-01 1.4239403610759198e+00 5.0658544249798543e-01 -2.4406731370249635e-01 8.1743888609844340e-01 -1.4785962241775381e+00 -6.0391410272957169e-01 8.0324012629420483e-01 
        </Neuron>
        <Neuron NSynapses="21">
          -1.1189449089733470e+00 -1.2742492948928069e-01 1.1903747563016172e+00 3.3925138351559947e-01 -4.7013340782420243e-01 1.0682301282162534e+00 1.5817405640348881e+00 -2.1528025991329693e+00 9.6401155069058408e-01 -3.1736445938421731e-01 4.2332564879822038e-01 -2.0978585650482997e+00 -1.6198996447518059e+00 7.2843345297827045e-01 2.0287425324555493e+00 -1.7356692213480742e+00 -8.1538634681536282e-01 -8.2129417673732008e-01 3.6980688832377084e-01 1.7683070011786723e+00 -3.0308110338542937e-01 
        </Neuron>
        <Neuron NSynapses="21">
          3.8234189900414169e-02 2.1328433135278746e-01 7.6933952991440335e-01 8.0846826587415987e-01 1.1058167932789182e+00 1.0393015901110199e+00 -9.1905329512958300e-01 -2.2190776875116693e+00 1.1632438210767218e+00 -9.3645907966771205e-02 -1.4521882452497599e+00 -6.1096329991625231e-01 2.3752940173616716e-01 6.0856594416851284e-01 -1.0288712197280825e+00 1.5557367949845347e+00 1.0291227455329703e+00 -8.3155523498627315e-01 -6.7041167468710516e-01 1.6341390030608527e+00 1.1684862481128917e+00 
        </Neuron>
        <Neuron NSynapses="21">
          1.6862736437151521e-01 2.7275710061741493e-01 -2.0283398320700341e+00 -1.7177942194153712e+00 1.8705834429544721e+00 1.4994730862258128e+00 6.0670281998989695e-01 -4.8480935960453692e-02 2.3234848648915620e+00 -1.5885447143755427e+00 -1.3911102470340169e+00 -3.9477953539621724e-01 -1.4640674640162936e+00 4.5712804806037899e-01 2.6982603983764641e+00 -1.2250286360326939e+00 1.6641610288383442e+00 -4.5852018854659227e-01 -1.9049542685084653e+00 -1.0783611954242680e+00 1.1993358003406522e+00 
        </Neuron>
        <Neuron NSynapses="21">
          -2.9791389607582974e-01 2.3098534182803079e-01 -1.3718877102336322e+00 8.5117456561690996e-01 -1.3660304023557275e+00 8.7480779934963182e-01 -9.1577122737269340e-02 -1.6715303395347114e+00 -1.0853497645461183e+00 -1.7832582817024980e+00 -4.8874412096531655e-01 -1.9121397942166287e+00 -1.5478550068491306e+00 -1.7408710253439252e+00 7.5666264990218912e-01 -1.0068687348435497e+00 6.7052875979679027e-01 1.2404020137175409e+00 -1.2998883049685841e+00 1.5521373711032252e-01 -8.9920587348631487e-01 
        </Neuron>
        <Neuron NSynapses="21">
          -1.1485071589953000e-01 -2.7143304899618226e-01 1.1191004235192135e+00 -6.8424056672181210e-01 -2.3321514661870588e-01 1.3888624531876667e-01 -6.6928335630723457e-01 -1.4336170711479683e+00 3.0145249057403239e-01 -5.3018647935487932e-02 1.7847204547593956e+00 -3.5258166618954606e-01 1.6250372121372714e-01 1.0841216318675315e+00 -1.7224159759821707e+00 1.2625558859447401e+00 4.0451050538115257e-01 -8.7616466819565930e-01 -5.6640074264744222e-01 8.6880067229991587e-01 9.1192404753546275e-01 
        </Neuron>
        <Neuron NSynapses="21">
          -4.0634358545125210e-01 9.3544756793840245e-01 -5.8201193818984975e-01 7.8251442421685846e-01 7.7086319638488776e-01 6.2546500594703258e-01 -5.3416799054647113e-01 -4.5043250046905348e-02 -5.4598040059996040e-03 -1.4396964301740600e+00 -6.1243993889659609e-01 -1.5905675046062993e+00 -1.4891791632223734e+00 -1.6664541182181463e+00 2.4224787713692524e+00 -1.8091407946952645e+00 7.0857793897246679e-01 -1.8686080328942454e+00 9.5289421785142880e-01 -1.0966716055464154e+00 6.7883703705226964e-02 
        </Neuron>
        <Neuron NSynapses="21">
          -8.3917825220965983e-02 -9.1055188911261298e-01 3.8987230458472073e-03 -5.1571184901000273e-02 -1.7486480839642593e+00 -8.1957239781747948e-01 -1.9585061202676577e+00 -1.0608922308423372e+00 2.3873954876232841e+00 -8.8946012466273405e-01 2.2624649691987239e-01 -8.2648212255469600e-01 -1.2935565214316782e+00 -2.0416500420034946e+00 -1.8990867672201681e-01 -1.3860959323466457e+00 5.8606026590788496e-01 -1.3568005985387737e+00 -1.9225222984150043e+00 1.7542719991274072e+00 3.1190619264864655e-01 
        </Neuron>
        <Neuron NSynapses="21">
          2.0324920802336427e-01 4.4220292535042610e-01 -1.9271499253374444e+00 7.6852316259148235e-01 6.5632826860234872e-01 -1.1899804928325250e+00 -1.0208197763954316e+00 -2.9908460383536889e-01 -1.1473401758922950e+00 1.5624072020479302e-01 1.8786544006961461e+00 9.6239018298821744e-01 1.4521792874849953e+00 -1.2662919989873751e+00 1.4729413862073166e+00 -1.9114984934628680e+00 1.1775020196438779e-02 -1.9593691924872505e+00 -1.9877102627140062e+00 -5.4090284034795398e-02 1.0556765162171693e+00 
        </Neuron>
        <Neuron NSynapses="21">
          4.8453668264180400e-01 7.9011611052505537e-01 5.9374842922629101e-01 5.7108731256456335e-01 -8.0106207542061780e-01 4.8103299802539447e-02 2.2530052256146291e+00 -1.2545710242800805e+00 5.7069166393127271e-02 -1.0749626780800907e+00 -4.0271407902831552e-01 2.8304250997327934e-01 3.3397671844295940e-01 -9.8716899048626205e-01 1.6549182358292128e-01 1.6505859825510620e+00 9.4640295726768331e-01 8.9712313435345345e-02 -6.2432918107540203e-01 -1.4714655858615757e+00 -1.5453112418286823e+00 
        </Neuron>
      </Layer>
      <Layer Index="1" NNeurons="22">
        <Neuron NSynapses="1">
          2.9630179862141859e-01 
        </Neuron>
        <Neuron NSynapses="1">
          -3.4787230607863090e-01 
        </Neuron>
        <Neuron NSynapses="1">
          -5.7433067328904241e-01 
        </Neuron>
        <Neuron NSynapses="1">
          -3.7353819328830216e-03 
        </Neuron>
        <Neuron NSynapses="1">
          -2.6796623950700767e-02 
        </Neuron>
        <Neuron NSynapses="1">
          1.8357257821882048e-01 
        </Neuron>
        <Neuron NSynapses="1">
          -1.1768645030189269e+00 
        </Neuron>
        <Neuron NSynapses="1">
          1.0596853325443840e+00 
        </Neuron>
        <Neuron NSynapses="1">
          -1.4469446745631971e+00 
        </Neuron>
        <Neuron NSynapses="1">
          -7.2143884562154625e-01 
        </Neuron>
        <Neuron NSynapses="1">
          1.1866212094861351e-02 
        </Neuron>
        <Neuron NSynapses="1">
          -6.5751907989943192e-01 
        </Neuron>
        <Neuron NSynapses="1">
          -1.3235155349229881e+00 
        </Neuron>
        <Neuron NSynapses="1">
          1.0524302673044765e-01 
        </Neuron>
        <Neuron NSynapses="1">
          -8.4285227146873509e-01 
        </Neuron>
        <Neuron NSynapses="1">
          -9.8822221218891815e-01 
        </Neuron>
        <Neuron NSynapses="1">
          -2.0375044134756520e-01 
        </Neuron>
        <Neuron NSynapses="1">
          6.3392705148436046e-01 
        </Neuron>
        <Neuron NSynapses="1">
          7.8095160020349041e-01 
        </Neuron>
        <Neuron NSynapses="1">
          -1.4465690812080242e-01 
        </Neuron>
        <Neuron NSynapses="1">
          1.1534336052817995e+00 
        </Neuron>
        <Neuron NSynapses="1">
          1.9451232702563770e+00 
        </Neuron>
      </Layer>
      <Layer Index="2" NNeurons="1">
        <Neuron NSynapses="0"/>
      </Layer>
    </Layout>
  </Weights>
</MethodSetup>
