<?xml version="1.0"?>
<MethodSetup Method="MLP::MLPCJ">
  <GeneralInfo>
    <Info name="TMVA Release" value="4.1.4 [262404]"/>
    <Info name="ROOT Release" value="5.34/07 [336391]"/>
    <Info name="Creator" value="pseyfert"/>
    <Info name="Date" value="Fri Dec 20 21:29:35 2013"/>
    <Info name="Host" value="Linux lxbuild175.cern.ch 2.6.18-308.4.1.el5 #1 SMP Wed Apr 18 16:26:27 CEST 2012 x86_64 x86_64 x86_64 GNU/Linux"/>
    <Info name="Dir" value="/auto/sigma0/pseyfert/zoontuple/Bender_v22r7/Phys/Tau23Mu/scripts/TMVA_training_v3"/>
    <Info name="Training events" value="41107"/>
    <Info name="TrainingTime" value="6.81864363e+02"/>
    <Info name="AnalysisType" value="Classification"/>
  </GeneralInfo>
  <Options>
    <Option name="NCycles" modified="Yes">600</Option>
    <Option name="HiddenLayers" modified="Yes">N+5</Option>
    <Option name="NeuronType" modified="Yes">tanh</Option>
    <Option name="RandomSeed" modified="No">1</Option>
    <Option name="EstimatorType" modified="Yes">CE</Option>
    <Option name="NeuronInputType" modified="No">sum</Option>
    <Option name="V" modified="Yes">False</Option>
    <Option name="VerbosityLevel" modified="No">Default</Option>
    <Option name="VarTransform" modified="Yes">N</Option>
    <Option name="H" modified="Yes">False</Option>
    <Option name="CreateMVAPdfs" modified="No">False</Option>
    <Option name="IgnoreNegWeightsInTraining" modified="No">False</Option>
    <Option name="TrainingMethod" modified="No">BP</Option>
    <Option name="LearningRate" modified="No">2.000000e-02</Option>
    <Option name="DecayRate" modified="No">1.000000e-02</Option>
    <Option name="TestRate" modified="Yes">5</Option>
    <Option name="EpochMonitoring" modified="No">False</Option>
    <Option name="Sampling" modified="No">1.000000e+00</Option>
    <Option name="SamplingEpoch" modified="No">1.000000e+00</Option>
    <Option name="SamplingImportance" modified="No">1.000000e+00</Option>
    <Option name="SamplingTraining" modified="No">True</Option>
    <Option name="SamplingTesting" modified="No">False</Option>
    <Option name="ResetStep" modified="No">50</Option>
    <Option name="Tau" modified="No">3.000000e+00</Option>
    <Option name="BPMode" modified="No">sequential</Option>
    <Option name="BatchSize" modified="No">-1</Option>
    <Option name="ConvergenceImprove" modified="No">1.000000e-30</Option>
    <Option name="ConvergenceTests" modified="No">-1</Option>
    <Option name="UseRegulator" modified="Yes">False</Option>
    <Option name="UpdateLimit" modified="No">10000</Option>
    <Option name="CalculateErrors" modified="No">False</Option>
    <Option name="WeightRange" modified="No">1.000000e+00</Option>
  </Options>
  <Variables NVar="14">
    <Variable VarIndex="0" Expression="TMath::Exp(-1000*LifeTime)" Label="TMath::Exp(-1000*LifeTime)" Title="transformed decay time" Unit="1" Internal="TMath_Exp__M_1000_T_LifeTime_" Type="F" Min="1.93987222e-11" Max="7.31256723e-01"/>
    <Variable VarIndex="1" Expression="IPSig" Label="IPSig" Title="IP significance" Unit="1" Internal="IPSig" Type="F" Min="1.11495918e-02" Max="2.49779434e+01"/>
    <Variable VarIndex="2" Expression="VertexChi2" Label="VertexChi2" Title="vertex #chi^{2}" Unit="1" Internal="VertexChi2" Type="F" Min="1.89490011e-03" Max="1.49983969e+01"/>
    <Variable VarIndex="3" Expression="acos(dira)" Label="acos(dira)" Title="pointing angle" Unit="1" Internal="acos_dira_" Type="F" Min="0.00000000e+00" Max="1.37716651e-01"/>
    <Variable VarIndex="4" Expression="pt" Label="pt" Title="p_{T}" Unit="[MeV/c]" Internal="pt" Type="F" Min="4.12933426e+01" Max="3.79619180e+04"/>
    <Variable VarIndex="5" Expression="min(p0_IPSig,min(p1_IPSig,p2_IPSig))" Label="min(p0_IPSig,min(p1_IPSig,p2_IPSig))" Title="min. #mu IP significance" Unit="1" Internal="min_p0_IPSig,min_p1_IPSig,p2_IPSig__" Type="F" Min="2.30495882e+00" Max="1.02738922e+02"/>
    <Variable VarIndex="6" Expression="DOCAone" Label="DOCAone" Title="DOCA (#mu 1 and 2)" Unit="mm" Internal="DOCAone" Type="F" Min="2.63570382e-06" Max="9.23672736e-01"/>
    <Variable VarIndex="7" Expression="DOCAtwo" Label="DOCAtwo" Title="DOCA (#mu 2 and 3)" Unit="mm" Internal="DOCAtwo" Type="F" Min="2.43484504e-08" Max="7.44905770e-01"/>
    <Variable VarIndex="8" Expression="DOCAthree" Label="DOCAthree" Title="DOCA (#mu 1 and 3)" Unit="mm" Internal="DOCAthree" Type="F" Min="6.10736777e-07" Max="1.05343544e+00"/>
    <Variable VarIndex="9" Expression="iso" Label="iso" Title="track isolation" Unit="1" Internal="iso" Type="F" Min="0.00000000e+00" Max="1.70000000e+01"/>
    <Variable VarIndex="10" Expression="CDF3" Label="CDF3" Title="cone isolation" Unit="1" Internal="CDF3" Type="F" Min="3.00450996e-03" Max="1.00000000e+00"/>
    <Variable VarIndex="11" Expression="p0_track_MatchChi2" Label="p0_track_MatchChi2" Title="track match #chi^{2} (#mu 1)" Unit="1" Internal="p0_track_MatchChi2" Type="F" Min="5.59116006e-02" Max="8.45542831e+01"/>
    <Variable VarIndex="12" Expression="p1_track_MatchChi2" Label="p1_track_MatchChi2" Title="track match #chi^{2} (#mu 2)" Unit="1" Internal="p1_track_MatchChi2" Type="F" Min="1.31226135e-02" Max="7.59046707e+01"/>
    <Variable VarIndex="13" Expression="p2_track_MatchChi2" Label="p2_track_MatchChi2" Title="track match #chi^{2} (#mu 3)" Unit="1" Internal="p2_track_MatchChi2" Type="F" Min="1.51327997e-02" Max="7.93785172e+01"/>
  </Variables>
  <Spectators NSpec="0"/>
  <Classes NClass="2">
    <Class Name="Signal" Index="0"/>
    <Class Name="Background" Index="1"/>
  </Classes>
  <Transformations NTransformations="1">
    <Transform Name="Normalize">
      <Selection>
        <Input NInputs="14">
          <Input Type="Variable" Label="TMath::Exp(-1000*LifeTime)" Expression="TMath::Exp(-1000*LifeTime)"/>
          <Input Type="Variable" Label="IPSig" Expression="IPSig"/>
          <Input Type="Variable" Label="VertexChi2" Expression="VertexChi2"/>
          <Input Type="Variable" Label="acos(dira)" Expression="acos(dira)"/>
          <Input Type="Variable" Label="pt" Expression="pt"/>
          <Input Type="Variable" Label="min(p0_IPSig,min(p1_IPSig,p2_IPSig))" Expression="min(p0_IPSig,min(p1_IPSig,p2_IPSig))"/>
          <Input Type="Variable" Label="DOCAone" Expression="DOCAone"/>
          <Input Type="Variable" Label="DOCAtwo" Expression="DOCAtwo"/>
          <Input Type="Variable" Label="DOCAthree" Expression="DOCAthree"/>
          <Input Type="Variable" Label="iso" Expression="iso"/>
          <Input Type="Variable" Label="CDF3" Expression="CDF3"/>
          <Input Type="Variable" Label="p0_track_MatchChi2" Expression="p0_track_MatchChi2"/>
          <Input Type="Variable" Label="p1_track_MatchChi2" Expression="p1_track_MatchChi2"/>
          <Input Type="Variable" Label="p2_track_MatchChi2" Expression="p2_track_MatchChi2"/>
        </Input>
        <Output NOutputs="14">
          <Output Type="Variable" Label="TMath::Exp(-1000*LifeTime)" Expression="TMath::Exp(-1000*LifeTime)"/>
          <Output Type="Variable" Label="IPSig" Expression="IPSig"/>
          <Output Type="Variable" Label="VertexChi2" Expression="VertexChi2"/>
          <Output Type="Variable" Label="acos(dira)" Expression="acos(dira)"/>
          <Output Type="Variable" Label="pt" Expression="pt"/>
          <Output Type="Variable" Label="min(p0_IPSig,min(p1_IPSig,p2_IPSig))" Expression="min(p0_IPSig,min(p1_IPSig,p2_IPSig))"/>
          <Output Type="Variable" Label="DOCAone" Expression="DOCAone"/>
          <Output Type="Variable" Label="DOCAtwo" Expression="DOCAtwo"/>
          <Output Type="Variable" Label="DOCAthree" Expression="DOCAthree"/>
          <Output Type="Variable" Label="iso" Expression="iso"/>
          <Output Type="Variable" Label="CDF3" Expression="CDF3"/>
          <Output Type="Variable" Label="p0_track_MatchChi2" Expression="p0_track_MatchChi2"/>
          <Output Type="Variable" Label="p1_track_MatchChi2" Expression="p1_track_MatchChi2"/>
          <Output Type="Variable" Label="p2_track_MatchChi2" Expression="p2_track_MatchChi2"/>
        </Output>
      </Selection>
      <Class ClassIndex="0">
        <Ranges>
          <Range Index="0" Min="1.9398722211905195e-11" Max="7.3125672340393066e-01"/>
          <Range Index="1" Min="1.1149591766297817e-02" Max="2.1987730026245117e+01"/>
          <Range Index="2" Min="1.8949001096189022e-03" Max="1.4998396873474121e+01"/>
          <Range Index="3" Min="0.0000000000000000e+00" Max="1.3410498201847076e-01"/>
          <Range Index="4" Min="6.2147693634033203e+01" Max="3.7961917968750000e+04"/>
          <Range Index="5" Min="2.3049588203430176e+00" Max="1.0273892211914062e+02"/>
          <Range Index="6" Min="2.6357038223068230e-06" Max="7.3856800794601440e-01"/>
          <Range Index="7" Min="2.4348450367028818e-08" Max="6.9920772314071655e-01"/>
          <Range Index="8" Min="6.1073677670719917e-07" Max="1.0170480012893677e+00"/>
          <Range Index="9" Min="0.0000000000000000e+00" Max="1.3000000000000000e+01"/>
          <Range Index="10" Min="3.0045099556446075e-03" Max="1.0000000000000000e+00"/>
          <Range Index="11" Min="5.5911600589752197e-02" Max="7.2067237854003906e+01"/>
          <Range Index="12" Min="1.3122613541781902e-02" Max="7.5904670715332031e+01"/>
          <Range Index="13" Min="1.5132799744606018e-02" Max="7.9378517150878906e+01"/>
        </Ranges>
      </Class>
      <Class ClassIndex="1">
        <Ranges>
          <Range Index="0" Min="2.1115165509399958e-05" Max="7.2934836149215698e-01"/>
          <Range Index="1" Min="1.3430085778236389e-01" Max="2.4977943420410156e+01"/>
          <Range Index="2" Min="2.2036740556359291e-02" Max="1.4991107940673828e+01"/>
          <Range Index="3" Min="0.0000000000000000e+00" Max="1.3771665096282959e-01"/>
          <Range Index="4" Min="4.1293342590332031e+01" Max="2.1269572265625000e+04"/>
          <Range Index="5" Min="2.7823791503906250e+00" Max="4.9517536163330078e+01"/>
          <Range Index="6" Min="3.9169070078060031e-05" Max="9.2367273569107056e-01"/>
          <Range Index="7" Min="5.9152989706490189e-05" Max="7.4490576982498169e-01"/>
          <Range Index="8" Min="3.1205789127852768e-05" Max="1.0534354448318481e+00"/>
          <Range Index="9" Min="0.0000000000000000e+00" Max="1.7000000000000000e+01"/>
          <Range Index="10" Min="3.8299348670989275e-03" Max="1.0000000000000000e+00"/>
          <Range Index="11" Min="1.4428974688053131e-01" Max="8.4554283142089844e+01"/>
          <Range Index="12" Min="1.4624765515327454e-01" Max="6.7723579406738281e+01"/>
          <Range Index="13" Min="4.5327022671699524e-02" Max="6.8506652832031250e+01"/>
        </Ranges>
      </Class>
      <Class ClassIndex="2">
        <Ranges>
          <Range Index="0" Min="1.9398722211905195e-11" Max="7.3125672340393066e-01"/>
          <Range Index="1" Min="1.1149591766297817e-02" Max="2.4977943420410156e+01"/>
          <Range Index="2" Min="1.8949001096189022e-03" Max="1.4998396873474121e+01"/>
          <Range Index="3" Min="0.0000000000000000e+00" Max="1.3771665096282959e-01"/>
          <Range Index="4" Min="4.1293342590332031e+01" Max="3.7961917968750000e+04"/>
          <Range Index="5" Min="2.3049588203430176e+00" Max="1.0273892211914062e+02"/>
          <Range Index="6" Min="2.6357038223068230e-06" Max="9.2367273569107056e-01"/>
          <Range Index="7" Min="2.4348450367028818e-08" Max="7.4490576982498169e-01"/>
          <Range Index="8" Min="6.1073677670719917e-07" Max="1.0534354448318481e+00"/>
          <Range Index="9" Min="0.0000000000000000e+00" Max="1.7000000000000000e+01"/>
          <Range Index="10" Min="3.0045099556446075e-03" Max="1.0000000000000000e+00"/>
          <Range Index="11" Min="5.5911600589752197e-02" Max="8.4554283142089844e+01"/>
          <Range Index="12" Min="1.3122613541781902e-02" Max="7.5904670715332031e+01"/>
          <Range Index="13" Min="1.5132799744606018e-02" Max="7.9378517150878906e+01"/>
        </Ranges>
      </Class>
    </Transform>
  </Transformations>
  <MVAPdfs/>
  <Weights>
    <Layout NLayers="3">
      <Layer Index="0" NNeurons="15">
        <Neuron NSynapses="19">
          -2.5469189876240039e-01 6.1609724299141544e-01 1.4192799718771565e+00 1.2000525730316616e+00 -1.6547149760837900e+00 -1.5793265610133427e+00 -1.5950670998350240e+00 2.1433653202428435e+00 7.7832770090233439e-01 -1.1987486292833687e+00 -2.0486811075563662e+00 -7.0550530948338319e-01 -1.0777223421784703e+00 -2.7434555843891600e-01 -4.1412307440838481e-01 2.8577064320817952e-01 -4.3689851967756860e-01 1.3246617413691160e+00 1.8036513592115317e+00 
        </Neuron>
        <Neuron NSynapses="19">
          1.4970890417058234e+00 1.6706922250462606e+00 -1.0119647920642059e+00 6.5706180962906302e-01 -8.5026341981760256e-01 7.3226215656983520e-02 -6.0162220778925246e-01 1.1028289273874297e+00 -6.2127787053549284e+00 -1.5060975465107069e+00 3.6049684712920049e-01 -4.7437067850263043e-01 2.5980457314555361e+00 -4.4880088321555173e-01 -4.2568514276630048e-01 3.7646659260820403e-01 -1.1993256872973511e-01 1.3813465075461189e+00 1.5451557234905289e+00 
        </Neuron>
        <Neuron NSynapses="19">
          -2.2031738759648003e+00 2.2305799554258234e+00 1.0148937117387513e+00 8.0424792406856105e-01 6.6958075628394265e-01 2.9974413042281527e+00 7.2308709174054913e-03 -5.7608723063558398e-01 -2.0738062776034602e-01 1.3348169566883944e-01 1.9036279630513930e+00 2.0748724952439561e+00 1.8847724114298299e+00 9.6178039362710688e-01 -1.3400015728817338e+00 3.4194146400094000e-01 -1.4352863866474679e+00 -1.5216239955011115e+00 -1.5279221181891871e+00 
        </Neuron>
        <Neuron NSynapses="19">
          -2.7086978078691404e+00 1.2211982572314757e+00 3.0570015916601168e-01 9.2960988899884089e-01 4.2697470060491782e-01 -1.6423540058135755e+00 8.1980787457989590e-01 1.9673443640189709e+00 -2.0522274407543080e+00 7.9047366472537939e-01 -3.7451790302945355e-02 1.6741043431958569e+00 -4.7556248990673670e-02 -1.0717837776962096e+00 -1.6071844332001195e+00 1.0234964895134220e+00 1.5006944467449237e+00 1.0928747558107494e+00 -1.1075016181328432e+00 
        </Neuron>
        <Neuron NSynapses="19">
          -2.1602301362697269e+00 -8.7226728072315074e-01 2.2493270636938019e+00 -1.1364729046639663e+00 3.5859149959154744e+00 -8.8483916335214866e-02 8.5118944092430926e-01 -1.5285568055781806e+00 -3.9735811917659354e-02 1.6605526734418499e+00 9.8590053458276372e-01 -3.0382665675463166e-01 -3.0956885799856240e+00 -2.0812843479819323e+00 -6.4054799446632804e-01 1.8244786978086027e+00 1.8616703375368480e+00 -1.4915154046715395e+00 1.6862260947619792e-01 
        </Neuron>
        <Neuron NSynapses="19">
          1.3406062973720161e+00 -3.6254452089675286e+00 -6.6596022853319903e-01 -1.6221317242940483e+00 4.6550334579734326e-01 -2.8727369099015805e+00 -2.1546230001812745e+00 -8.8521073173617437e-01 3.1656061365603390e+00 5.3283317343688208e-01 2.4866752589548726e+00 1.8718748728964794e+00 -6.0294875284513438e-01 -6.8343302711724740e-01 -1.4126712639854791e-01 -5.5396128484407496e+00 5.7330688675025177e-01 -2.0235049114975658e+00 4.3915251264936700e-01 
        </Neuron>
        <Neuron NSynapses="19">
          -1.3028787040101812e+00 2.4968818590771162e+00 5.3034314108147407e-01 1.1429632828548249e-01 1.2509893663442055e+00 1.6671152200387063e+00 -1.3474329915885896e+00 2.5679649224366159e+00 5.6068177882707293e-01 9.1517372860938195e-01 3.6025614665689032e-01 -1.3435150479364806e+00 -5.9099830711416990e-01 -4.4274538320622803e-01 -2.0103496676040713e+00 9.3361206137994479e-01 5.3954448942943334e-01 -2.0299693230665810e+00 8.9272095088629666e-01 
        </Neuron>
        <Neuron NSynapses="19">
          -9.2782206318962546e-01 -2.5595243686999400e+00 1.0813021910517269e+00 1.4460051391263862e+00 -2.6408063281174785e+00 2.1341914667462572e-01 1.7157925999825494e+00 2.5718847445348056e+00 8.4970594878592687e-01 1.0240552623558257e+00 -1.2348917356122624e+00 -1.1777706096938747e+00 1.2544792607672257e+00 6.5812075567308415e-01 -8.1560564044449646e-01 1.9540329862509193e-01 5.6523368539661289e-01 -2.5813064654070811e-01 6.9603896537322618e-01 
        </Neuron>
        <Neuron NSynapses="19">
          2.0477112381600233e+00 -2.0447389168521051e+00 -2.6831473629461799e-01 8.4634635183184326e-01 2.1842761910108281e+00 2.2176769432643995e+00 9.7418961638650958e-01 -3.2006502146353624e+00 -1.2727885704913855e+00 4.7010558842139638e-01 -1.4595163492070149e-05 -9.6594211426872023e-01 9.2621488256443807e-01 -1.1955444879328794e+00 -9.0559453787350119e-01 1.5850190932861834e+00 -5.2939291672825262e-01 7.3960659294810815e-01 1.8622752875923168e+00 
        </Neuron>
        <Neuron NSynapses="19">
          3.0696263399764667e-01 1.8469163055837334e+00 2.1146161648832025e+00 2.9309202890482409e+00 -2.1143143707635410e+00 1.7949656499037354e+00 1.3325672409957621e+00 -7.7199528425984687e-01 -3.4986129550850773e+00 -6.1719181591392234e+00 2.1146665106961176e+00 2.5532577074800495e+00 -1.7622340037332305e+00 -6.8410719453043023e-01 -8.2072728266515904e-01 -2.9430367160370413e-01 1.9434788005591754e+00 -9.7541801244575366e-01 -6.3369985148630936e-01 
        </Neuron>
        <Neuron NSynapses="19">
          -8.2826064626182727e-01 1.8129609125309001e-01 1.6238447247211878e+00 4.5995330518947175e-01 1.1094470346497025e+00 1.0501832995470701e+00 -1.8919667515878771e+00 -1.2191215229530727e+00 -1.5012479489280072e-02 -4.5413917890212185e-01 4.2546714362583277e-01 5.5975866816442532e-01 1.2628880329679854e-01 -1.5698792600144769e+00 1.3431958507540829e+00 -1.1996254215853307e-02 -4.5590281854830117e-01 -1.5388677628499754e+00 1.6657544893213290e+00 
        </Neuron>
        <Neuron NSynapses="19">
          1.8705334981565498e+00 3.6707680283386206e+00 2.0140191894457310e-01 -1.2565816441013833e+00 -2.2358567429159831e-01 5.5076967132575527e-01 1.0576286400961283e+00 1.3288573365665557e+00 -1.1083479000060031e-01 5.2623356340126115e-01 2.7072703954262749e-02 -4.7886114947648801e+00 3.0939255171217928e-01 -1.4456486016036691e+00 5.6091333949835465e-01 1.1246625091291432e-01 -8.8255357390860134e-01 -7.3094171841846445e-01 3.8508897036506545e-01 
        </Neuron>
        <Neuron NSynapses="19">
          -6.4035780460825109e-01 6.7452399639833749e-01 8.2620349824065464e-01 1.5417016871216982e+00 -7.7336167744174603e-03 2.2045176839667235e-02 2.4572690917621314e+00 -2.1986019995493580e+00 2.4650752504852219e-01 -4.2007340303600260e-01 -6.5771143008446076e-01 -2.7688889364289597e+00 -2.6178033356266770e+00 -6.3288500353938326e-01 -1.9605856051880532e+00 2.6722981484205982e-01 -1.5396053998248365e+00 -1.2469221465211846e+00 -2.8874741940926862e-01 
        </Neuron>
        <Neuron NSynapses="19">
          -8.3326783733157284e-01 1.6101655692155612e+00 -1.4596168693803710e-01 -1.1835847612970324e-02 8.6442042858059509e-01 3.2600935658255248e-01 2.5786543069396983e+00 2.1092666910807205e+00 4.0444058037391256e-01 -7.6846194168277288e-02 -6.4035884687453759e-01 2.2728476149150749e+00 -1.8363987568631843e+00 -2.5725433058246217e-01 -1.3995839985808908e-01 -5.7713787489250612e-01 6.2025738704816384e-03 8.8655056719347358e-01 -6.4187644715427439e-01 
        </Neuron>
        <Neuron NSynapses="19">
          -2.0258726119506121e+00 2.1977959903066098e+00 2.9440472041463572e-01 -9.4802644892667487e-01 -1.1527182844435606e+00 3.9479471997969435e+00 1.1809860265472205e+00 5.8273106638054450e-01 -6.5221387637785160e+00 -2.1662542289099780e+00 1.1638025129088008e+00 -3.5917764313293782e-01 1.0009140499394407e+00 3.7638222261304721e-01 7.1999805891341462e-01 -1.8513665581923031e+00 -1.8370358346350097e+00 -3.0967054157594909e-01 -1.7711210479139252e+00 
        </Neuron>
      </Layer>
      <Layer Index="1" NNeurons="20">
        <Neuron NSynapses="1">
          2.7553348357522606e-01 
        </Neuron>
        <Neuron NSynapses="1">
          -3.3120124767219838e-01 
        </Neuron>
        <Neuron NSynapses="1">
          1.5449325653955108e+00 
        </Neuron>
        <Neuron NSynapses="1">
          -1.9325648387676184e+00 
        </Neuron>
        <Neuron NSynapses="1">
          2.8840850145375536e+00 
        </Neuron>
        <Neuron NSynapses="1">
          -4.8953759453874568e-01 
        </Neuron>
        <Neuron NSynapses="1">
          -1.7891502303208415e+00 
        </Neuron>
        <Neuron NSynapses="1">
          -8.4419045351607669e-01 
        </Neuron>
        <Neuron NSynapses="1">
          1.6623439905075086e+00 
        </Neuron>
        <Neuron NSynapses="1">
          7.0923394768645787e-01 
        </Neuron>
        <Neuron NSynapses="1">
          -3.9064226645572858e-01 
        </Neuron>
        <Neuron NSynapses="1">
          8.4073587887471235e-01 
        </Neuron>
        <Neuron NSynapses="1">
          1.4471765830400816e+00 
        </Neuron>
        <Neuron NSynapses="1">
          -1.7091678247776108e+00 
        </Neuron>
        <Neuron NSynapses="1">
          -1.6760103425705757e+00 
        </Neuron>
        <Neuron NSynapses="1">
          -1.4920030026284865e+00 
        </Neuron>
        <Neuron NSynapses="1">
          2.9817904675060863e-01 
        </Neuron>
        <Neuron NSynapses="1">
          2.4821301361438315e+00 
        </Neuron>
        <Neuron NSynapses="1">
          -1.5023233533366596e+00 
        </Neuron>
        <Neuron NSynapses="1">
          -2.5645110833182522e-01 
        </Neuron>
      </Layer>
      <Layer Index="2" NNeurons="1">
        <Neuron NSynapses="0"/>
      </Layer>
    </Layout>
  </Weights>
</MethodSetup>
