<?xml version="1.0"?>
<MethodSetup Method="MLP::MLP">
  <GeneralInfo>
    <Info name="TMVA Release" value="4.1.4 [262404]"/>
    <Info name="ROOT Release" value="5.34/07 [336391]"/>
    <Info name="Creator" value="pseyfert"/>
    <Info name="Date" value="Wed Jan  1 12:55:02 2014"/>
    <Info name="Host" value="Linux lxbuild175.cern.ch 2.6.18-308.4.1.el5 #1 SMP Wed Apr 18 16:26:27 CEST 2012 x86_64 x86_64 x86_64 GNU/Linux"/>
    <Info name="Dir" value="/auto/sigma0/pseyfert/zoontuple/Bender_v22r7/Phys/Tau23Mu/scripts/TMVA_training_v3"/>
    <Info name="Training events" value="38856"/>
    <Info name="TrainingTime" value="6.65956841e+02"/>
    <Info name="AnalysisType" value="Classification"/>
  </GeneralInfo>
  <Options>
    <Option name="NCycles" modified="Yes">600</Option>
    <Option name="HiddenLayers" modified="Yes">N+5</Option>
    <Option name="NeuronType" modified="Yes">tanh</Option>
    <Option name="RandomSeed" modified="No">1</Option>
    <Option name="EstimatorType" modified="No">MSE</Option>
    <Option name="NeuronInputType" modified="No">sum</Option>
    <Option name="V" modified="Yes">False</Option>
    <Option name="VerbosityLevel" modified="No">Default</Option>
    <Option name="VarTransform" modified="Yes">N</Option>
    <Option name="H" modified="Yes">False</Option>
    <Option name="CreateMVAPdfs" modified="No">False</Option>
    <Option name="IgnoreNegWeightsInTraining" modified="No">False</Option>
    <Option name="TrainingMethod" modified="No">BP</Option>
    <Option name="LearningRate" modified="No">2.000000e-02</Option>
    <Option name="DecayRate" modified="No">1.000000e-02</Option>
    <Option name="TestRate" modified="Yes">5</Option>
    <Option name="EpochMonitoring" modified="No">False</Option>
    <Option name="Sampling" modified="No">1.000000e+00</Option>
    <Option name="SamplingEpoch" modified="No">1.000000e+00</Option>
    <Option name="SamplingImportance" modified="No">1.000000e+00</Option>
    <Option name="SamplingTraining" modified="No">True</Option>
    <Option name="SamplingTesting" modified="No">False</Option>
    <Option name="ResetStep" modified="No">50</Option>
    <Option name="Tau" modified="No">3.000000e+00</Option>
    <Option name="BPMode" modified="No">sequential</Option>
    <Option name="BatchSize" modified="No">-1</Option>
    <Option name="ConvergenceImprove" modified="No">1.000000e-30</Option>
    <Option name="ConvergenceTests" modified="No">-1</Option>
    <Option name="UseRegulator" modified="Yes">False</Option>
    <Option name="UpdateLimit" modified="No">10000</Option>
    <Option name="CalculateErrors" modified="No">False</Option>
    <Option name="WeightRange" modified="No">1.000000e+00</Option>
  </Options>
  <Variables NVar="14">
    <Variable VarIndex="0" Expression="TMath::Exp(-1000*LifeTime)" Label="TMath::Exp(-1000*LifeTime)" Title="transformed decay time" Unit="1" Internal="TMath_Exp__M_1000_T_LifeTime_" Type="F" Min="1.93987222e-11" Max="7.31256723e-01"/>
    <Variable VarIndex="1" Expression="IPSig" Label="IPSig" Title="IP significance" Unit="1" Internal="IPSig" Type="F" Min="1.11495918e-02" Max="2.17485733e+01"/>
    <Variable VarIndex="2" Expression="VertexChi2" Label="VertexChi2" Title="vertex #chi^{2}" Unit="1" Internal="VertexChi2" Type="F" Min="1.89490011e-03" Max="1.49983969e+01"/>
    <Variable VarIndex="3" Expression="acos(dira)" Label="acos(dira)" Title="pointing angle" Unit="1" Internal="acos_dira_" Type="F" Min="0.00000000e+00" Max="1.37716651e-01"/>
    <Variable VarIndex="4" Expression="pt" Label="pt" Title="p_{T}" Unit="[MeV/c]" Internal="pt" Type="F" Min="4.12933426e+01" Max="3.79619180e+04"/>
    <Variable VarIndex="5" Expression="min(p0_IPSig,min(p1_IPSig,p2_IPSig))" Label="min(p0_IPSig,min(p1_IPSig,p2_IPSig))" Title="min. #mu IP significance" Unit="1" Internal="min_p0_IPSig,min_p1_IPSig,p2_IPSig__" Type="F" Min="2.30495882e+00" Max="1.02738922e+02"/>
    <Variable VarIndex="6" Expression="DOCAone" Label="DOCAone" Title="DOCA (#mu 1 and 2)" Unit="mm" Internal="DOCAone" Type="F" Min="2.63570382e-06" Max="7.38568008e-01"/>
    <Variable VarIndex="7" Expression="DOCAtwo" Label="DOCAtwo" Title="DOCA (#mu 2 and 3)" Unit="mm" Internal="DOCAtwo" Type="F" Min="2.43484504e-08" Max="6.22791827e-01"/>
    <Variable VarIndex="8" Expression="DOCAthree" Label="DOCAthree" Title="DOCA (#mu 1 and 3)" Unit="mm" Internal="DOCAthree" Type="F" Min="6.10736777e-07" Max="1.01704800e+00"/>
    <Variable VarIndex="9" Expression="iso" Label="iso" Title="track isolation" Unit="1" Internal="iso" Type="F" Min="0.00000000e+00" Max="1.70000000e+01"/>
    <Variable VarIndex="10" Expression="CDF3" Label="CDF3" Title="cone isolation" Unit="1" Internal="CDF3" Type="F" Min="3.00450996e-03" Max="1.00000000e+00"/>
    <Variable VarIndex="11" Expression="p0_track_MatchChi2" Label="p0_track_MatchChi2" Title="track match #chi^{2} (#mu 1)" Unit="1" Internal="p0_track_MatchChi2" Type="F" Min="5.59116006e-02" Max="7.63943100e+01"/>
    <Variable VarIndex="12" Expression="p1_track_MatchChi2" Label="p1_track_MatchChi2" Title="track match #chi^{2} (#mu 2)" Unit="1" Internal="p1_track_MatchChi2" Type="F" Min="1.31226135e-02" Max="7.59046707e+01"/>
    <Variable VarIndex="13" Expression="p2_track_MatchChi2" Label="p2_track_MatchChi2" Title="track match #chi^{2} (#mu 3)" Unit="1" Internal="p2_track_MatchChi2" Type="F" Min="1.51327997e-02" Max="7.93785172e+01"/>
  </Variables>
  <Spectators NSpec="0"/>
  <Classes NClass="2">
    <Class Name="Signal" Index="0"/>
    <Class Name="Background" Index="1"/>
  </Classes>
  <Transformations NTransformations="1">
    <Transform Name="Normalize">
      <Selection>
        <Input NInputs="14">
          <Input Type="Variable" Label="TMath::Exp(-1000*LifeTime)" Expression="TMath::Exp(-1000*LifeTime)"/>
          <Input Type="Variable" Label="IPSig" Expression="IPSig"/>
          <Input Type="Variable" Label="VertexChi2" Expression="VertexChi2"/>
          <Input Type="Variable" Label="acos(dira)" Expression="acos(dira)"/>
          <Input Type="Variable" Label="pt" Expression="pt"/>
          <Input Type="Variable" Label="min(p0_IPSig,min(p1_IPSig,p2_IPSig))" Expression="min(p0_IPSig,min(p1_IPSig,p2_IPSig))"/>
          <Input Type="Variable" Label="DOCAone" Expression="DOCAone"/>
          <Input Type="Variable" Label="DOCAtwo" Expression="DOCAtwo"/>
          <Input Type="Variable" Label="DOCAthree" Expression="DOCAthree"/>
          <Input Type="Variable" Label="iso" Expression="iso"/>
          <Input Type="Variable" Label="CDF3" Expression="CDF3"/>
          <Input Type="Variable" Label="p0_track_MatchChi2" Expression="p0_track_MatchChi2"/>
          <Input Type="Variable" Label="p1_track_MatchChi2" Expression="p1_track_MatchChi2"/>
          <Input Type="Variable" Label="p2_track_MatchChi2" Expression="p2_track_MatchChi2"/>
        </Input>
        <Output NOutputs="14">
          <Output Type="Variable" Label="TMath::Exp(-1000*LifeTime)" Expression="TMath::Exp(-1000*LifeTime)"/>
          <Output Type="Variable" Label="IPSig" Expression="IPSig"/>
          <Output Type="Variable" Label="VertexChi2" Expression="VertexChi2"/>
          <Output Type="Variable" Label="acos(dira)" Expression="acos(dira)"/>
          <Output Type="Variable" Label="pt" Expression="pt"/>
          <Output Type="Variable" Label="min(p0_IPSig,min(p1_IPSig,p2_IPSig))" Expression="min(p0_IPSig,min(p1_IPSig,p2_IPSig))"/>
          <Output Type="Variable" Label="DOCAone" Expression="DOCAone"/>
          <Output Type="Variable" Label="DOCAtwo" Expression="DOCAtwo"/>
          <Output Type="Variable" Label="DOCAthree" Expression="DOCAthree"/>
          <Output Type="Variable" Label="iso" Expression="iso"/>
          <Output Type="Variable" Label="CDF3" Expression="CDF3"/>
          <Output Type="Variable" Label="p0_track_MatchChi2" Expression="p0_track_MatchChi2"/>
          <Output Type="Variable" Label="p1_track_MatchChi2" Expression="p1_track_MatchChi2"/>
          <Output Type="Variable" Label="p2_track_MatchChi2" Expression="p2_track_MatchChi2"/>
        </Output>
      </Selection>
      <Class ClassIndex="0">
        <Ranges>
          <Range Index="0" Min="1.9398722211905195e-11" Max="7.3125672340393066e-01"/>
          <Range Index="1" Min="1.1149591766297817e-02" Max="2.1748573303222656e+01"/>
          <Range Index="2" Min="1.8949001096189022e-03" Max="1.4998396873474121e+01"/>
          <Range Index="3" Min="0.0000000000000000e+00" Max="1.3410498201847076e-01"/>
          <Range Index="4" Min="6.2147693634033203e+01" Max="3.7961917968750000e+04"/>
          <Range Index="5" Min="2.3049588203430176e+00" Max="1.0273892211914062e+02"/>
          <Range Index="6" Min="2.6357038223068230e-06" Max="7.3856800794601440e-01"/>
          <Range Index="7" Min="2.4348450367028818e-08" Max="6.2279182672500610e-01"/>
          <Range Index="8" Min="6.1073677670719917e-07" Max="1.0170480012893677e+00"/>
          <Range Index="9" Min="0.0000000000000000e+00" Max="1.3000000000000000e+01"/>
          <Range Index="10" Min="3.0045099556446075e-03" Max="1.0000000000000000e+00"/>
          <Range Index="11" Min="5.5911600589752197e-02" Max="7.2067237854003906e+01"/>
          <Range Index="12" Min="1.3122613541781902e-02" Max="7.5904670715332031e+01"/>
          <Range Index="13" Min="1.5132799744606018e-02" Max="7.9378517150878906e+01"/>
        </Ranges>
      </Class>
      <Class ClassIndex="1">
        <Ranges>
          <Range Index="0" Min="2.1115165509399958e-05" Max="7.2635984420776367e-01"/>
          <Range Index="1" Min="1.3430085778236389e-01" Max="2.0998762130737305e+01"/>
          <Range Index="2" Min="2.2036740556359291e-02" Max="1.4987717628479004e+01"/>
          <Range Index="3" Min="0.0000000000000000e+00" Max="1.3771665096282959e-01"/>
          <Range Index="4" Min="4.1293342590332031e+01" Max="2.1269572265625000e+04"/>
          <Range Index="5" Min="2.7823791503906250e+00" Max="4.9517536163330078e+01"/>
          <Range Index="6" Min="3.9169070078060031e-05" Max="7.3149055242538452e-01"/>
          <Range Index="7" Min="7.3474417149554938e-05" Max="3.6525428295135498e-01"/>
          <Range Index="8" Min="3.1205789127852768e-05" Max="6.7212939262390137e-01"/>
          <Range Index="9" Min="0.0000000000000000e+00" Max="1.7000000000000000e+01"/>
          <Range Index="10" Min="3.8299348670989275e-03" Max="1.0000000000000000e+00"/>
          <Range Index="11" Min="1.5180341899394989e-01" Max="7.6394309997558594e+01"/>
          <Range Index="12" Min="1.4624765515327454e-01" Max="6.7723579406738281e+01"/>
          <Range Index="13" Min="4.5327022671699524e-02" Max="6.8506652832031250e+01"/>
        </Ranges>
      </Class>
      <Class ClassIndex="2">
        <Ranges>
          <Range Index="0" Min="1.9398722211905195e-11" Max="7.3125672340393066e-01"/>
          <Range Index="1" Min="1.1149591766297817e-02" Max="2.1748573303222656e+01"/>
          <Range Index="2" Min="1.8949001096189022e-03" Max="1.4998396873474121e+01"/>
          <Range Index="3" Min="0.0000000000000000e+00" Max="1.3771665096282959e-01"/>
          <Range Index="4" Min="4.1293342590332031e+01" Max="3.7961917968750000e+04"/>
          <Range Index="5" Min="2.3049588203430176e+00" Max="1.0273892211914062e+02"/>
          <Range Index="6" Min="2.6357038223068230e-06" Max="7.3856800794601440e-01"/>
          <Range Index="7" Min="2.4348450367028818e-08" Max="6.2279182672500610e-01"/>
          <Range Index="8" Min="6.1073677670719917e-07" Max="1.0170480012893677e+00"/>
          <Range Index="9" Min="0.0000000000000000e+00" Max="1.7000000000000000e+01"/>
          <Range Index="10" Min="3.0045099556446075e-03" Max="1.0000000000000000e+00"/>
          <Range Index="11" Min="5.5911600589752197e-02" Max="7.6394309997558594e+01"/>
          <Range Index="12" Min="1.3122613541781902e-02" Max="7.5904670715332031e+01"/>
          <Range Index="13" Min="1.5132799744606018e-02" Max="7.9378517150878906e+01"/>
        </Ranges>
      </Class>
    </Transform>
  </Transformations>
  <MVAPdfs/>
  <Weights>
    <Layout NLayers="3">
      <Layer Index="0" NNeurons="15">
        <Neuron NSynapses="19">
          -3.3782845129724581e-01 1.3060704689131852e+00 5.3432299467245725e-01 1.3447683696787920e+00 -1.6798342857181232e+00 -1.3001874751638447e+00 -5.6719895332923209e-01 1.8950002612574075e+00 -8.6773914006381792e-01 -1.3188950649614284e+00 -8.2389752414398532e-01 -3.5575816274898808e-01 -6.0226146973785921e-01 -3.5599376983451425e-01 -1.8008251042729601e-01 1.2746350514547085e+00 -5.7419269935713269e-01 1.2166981177444320e+00 3.3063897433115580e-01 
        </Neuron>
        <Neuron NSynapses="19">
          8.4474635756168370e-01 -1.5320814663677336e+00 -2.3747887029173734e-01 9.9627223913779717e-01 -3.4195160858535867e-01 -1.4630221753135506e+00 -1.6370971677655580e-01 1.5864688066959769e+00 -6.5165415373045499e-01 -1.2605342794315095e+00 2.7883189079199056e-01 6.1047665745448521e-01 1.5171764315536187e+00 -3.8983321028625584e-01 -3.3830427538265062e-01 1.4062167906580919e-01 -5.2730315507547121e-01 -1.5270417422826945e+00 1.4887199419836974e+00 
        </Neuron>
        <Neuron NSynapses="19">
          -9.2119470635047840e-01 8.0904249981361587e-01 9.1406177961320079e-01 9.2282244129980939e-01 1.1194384741438663e+00 1.0085635923298877e+00 -6.2768766043000224e-01 -1.3552091404259847e+00 -4.1543476690124997e-01 -2.3742189368267250e-01 1.0444164615471507e+00 1.3844164532423739e+00 1.7165151675452657e+00 8.5085164263360946e-01 -1.3587396541311227e+00 1.0860212338472166e+00 -1.7230423726715458e+00 -7.4306573263304010e-01 -4.6015498444261554e-01 
        </Neuron>
        <Neuron NSynapses="19">
          -2.3448582816423249e+00 8.7723968944405006e-01 1.0541189744298025e+00 -8.4301257082525660e-01 4.8532978422758943e-01 -6.6392205951406036e-01 7.0332503062653950e-01 2.0783476380574815e+00 -1.1481242687223565e+00 2.8161118019664345e-02 -6.3483023269135808e-01 7.1103365755539272e-01 -6.1560243819720839e-01 -1.3196464269901842e+00 -1.4194336497858133e+00 1.1383861574511431e+00 8.9953388842003701e-01 8.2609345839228110e-01 -6.9501866181495964e-01 
        </Neuron>
        <Neuron NSynapses="19">
          -2.5287464871023793e+00 -1.1153473547089878e+00 1.6883669864134201e+00 1.1190455645199162e+00 2.2865260468444140e+00 3.1819113035235591e-01 1.1641384188861086e+00 -7.4351114511517091e-01 3.0625630966280232e-01 -3.4948162823710727e-01 1.1339119688524448e+00 -1.0459691536411464e+00 -1.6253473983492737e+00 -1.9033268558143466e+00 -5.4637863031132816e-01 3.0158391472722246e-01 1.5728817719591008e+00 -2.0470951059367857e+00 -1.0932285928312830e+00 
        </Neuron>
        <Neuron NSynapses="19">
          1.0487109508063934e+00 -2.8011459576396952e-01 -7.4006785835534639e-01 -6.0597084479556906e-01 6.8464820876649479e-01 -2.2036736185856984e+00 -1.5262457579082445e+00 8.0344946008493678e-01 2.5844426125260997e+00 -1.4801123653641086e+00 1.0449954749593462e+00 -9.3923316877846141e-01 -9.1605291058256422e-01 -5.8729440236056818e-01 -2.3879842919736344e-02 -1.2965158019822476e+00 1.7528742992202173e-01 -2.2192213222320534e-01 3.1938262214062416e-02 
        </Neuron>
        <Neuron NSynapses="19">
          -1.4636713448649659e+00 1.8445047553126324e+00 9.7492436750555822e-01 -1.5876501630840503e-02 9.3813439130269483e-01 -1.5156361860916565e+00 -1.4278806962880066e+00 2.6007692676804289e-01 -9.0046219482871215e-01 1.4298264953097717e+00 1.0724142070451423e+00 -5.1938101338365364e-02 -3.6294309726223556e-01 -4.1844507467748948e-01 -2.3646776863859005e+00 1.2729841895612961e+00 -4.7235999937229121e-02 -2.1149047059908805e+00 4.2566701273601087e-01 
        </Neuron>
        <Neuron NSynapses="19">
          -1.4768851560783833e+00 4.3920584559976800e-01 1.7704261533011634e+00 2.0414591113316067e+00 -1.3107513608056189e+00 -1.2867101559699567e-01 1.6161842852200263e+00 1.7228782428326681e+00 -3.6599527655270975e-01 -1.8985897612742055e+00 -7.7006042021284227e-01 -1.4811379985703548e+00 1.3969741662727797e+00 6.5791897449405534e-01 -7.2295064522768449e-01 5.7636288687532310e-02 5.7959402080842555e-02 -1.6404517501590830e+00 1.9992331503283919e-01 
        </Neuron>
        <Neuron NSynapses="19">
          1.0548160195608438e+00 -2.8664347966910142e-01 1.0464369080217326e-01 8.8422560954809104e-01 1.3246770783773842e+00 1.0096976228228383e-01 1.0444169418912399e+00 -1.3632915952813094e+00 1.9340660514887359e-01 4.0508755508571076e-01 2.1162053508842230e-01 5.6907203141053719e-01 9.3666781960560119e-01 -1.1654539767007968e+00 -1.0051361833754366e+00 1.3336348388910104e+00 -1.0397123101974588e+00 -4.8234810788268112e-01 1.2030337147918244e+00 
        </Neuron>
        <Neuron NSynapses="19">
          6.0408339108090348e-01 -6.2495423606390066e-01 2.2343306054148311e+00 2.2766184395698064e+00 -2.1026941149710603e+00 3.4859535371421994e-02 2.5277363989035273e-01 6.9601180546648223e-01 -3.2153521580229261e-01 -9.8810141853415967e-01 2.1391331256937622e+00 1.7936542848971364e+00 -1.8134381218278344e+00 -8.1424076127715239e-01 -7.9738613899816257e-01 8.0360195270551826e-01 1.1889253693582109e+00 -8.3670512210596004e-01 -3.7484529279052892e-01 
        </Neuron>
        <Neuron NSynapses="19">
          -1.1630443107823702e+00 1.6887621890349269e-01 1.2066071516342882e+00 1.1526862883354505e+00 1.3424638420945803e-01 -3.6990869516275687e-01 -1.8437983480275253e+00 1.0195994244035738e+00 3.5193003304918882e-02 -1.8541383727334930e+00 2.3005777879370745e-01 3.8755172206765748e-01 3.1611761565326257e-01 -1.4921637173402384e+00 1.4270613910535883e+00 1.8455214109136206e-01 -3.3935545876008433e-01 -3.3619160171001128e-01 5.8549569415868952e-01 
        </Neuron>
        <Neuron NSynapses="19">
          5.5538593748891141e-01 1.1641060099695026e+00 5.5286046457768134e-01 -1.0489326397852787e+00 -8.7612387593970587e-01 1.3630842913845294e+00 1.4166812492062559e+00 8.8204829661476325e-01 -9.6548270720148233e-01 1.6897806922061156e+00 -1.0994922467975228e+00 -1.3634629159322265e+00 -1.6283938429175837e-01 -1.4641785404295342e+00 6.8498893128199678e-01 1.8203590053040717e+00 -1.4594768090156001e+00 1.7384899727865966e-01 -1.5679226392893239e-01 
        </Neuron>
        <Neuron NSynapses="19">
          -1.8828824276329421e+00 -1.6424500154984648e-02 1.2402837479446172e+00 1.1440206044392349e+00 2.2919870198515213e-01 -1.1356144535747452e+00 1.9865248313078225e+00 -1.6425667152698240e+00 -9.1139938187863173e-02 -4.5691797558423974e-01 -5.1739954604658078e-01 -1.4176611766615699e+00 -2.2841373938496545e+00 -9.0313551488249577e-01 -1.8071346593220292e+00 -1.0561274426060381e+00 -1.9845254354900552e+00 -5.5813736628328980e-01 -1.1308157113406367e+00 
        </Neuron>
        <Neuron NSynapses="19">
          -2.4400652173111728e+00 1.2973559964030621e+00 -5.9157264479252986e-02 7.6213560367551647e-01 -6.5836973357286177e-01 -2.4453822388150648e-01 1.9606885370778777e+00 1.2820974697118468e+00 -5.2912843528045184e-01 -2.1183400855779335e+00 -4.8042440350848487e-01 -8.8781618225308567e-01 -1.8327062839906030e+00 -1.9223935072465936e-01 -1.0178966482773777e-02 1.4675144662570854e+00 -5.3502324027518078e-01 -2.9181429115466495e-01 -8.1701377293375077e-01 
        </Neuron>
        <Neuron NSynapses="19">
          -1.3454557064295876e+00 8.0445184452268392e-01 3.7825401807782283e-01 -1.7618192356846953e+00 -1.3286022001715674e+00 1.3391031581909034e+00 1.0725617967658156e+00 3.3714423950768768e-01 7.7624974462705748e-02 1.5270663913128601e-01 9.6711508678969083e-01 1.0177171962361569e+00 1.0750256267578995e+00 3.0858268227930691e-01 5.9221684402851260e-01 -8.7054654396779119e-01 -1.2880402911698490e+00 6.4725651831335176e-02 -1.3929951840634911e+00 
        </Neuron>
      </Layer>
      <Layer Index="1" NNeurons="20">
        <Neuron NSynapses="1">
          -4.5272470550877691e-01 
        </Neuron>
        <Neuron NSynapses="1">
          1.4413905492303983e-01 
        </Neuron>
        <Neuron NSynapses="1">
          1.0738409000836777e+00 
        </Neuron>
        <Neuron NSynapses="1">
          -9.2911226557162085e-01 
        </Neuron>
        <Neuron NSynapses="1">
          7.2411343996348243e-02 
        </Neuron>
        <Neuron NSynapses="1">
          -1.0561023810167702e+00 
        </Neuron>
        <Neuron NSynapses="1">
          -5.0808043576669815e-01 
        </Neuron>
        <Neuron NSynapses="1">
          9.4912084380828862e-02 
        </Neuron>
        <Neuron NSynapses="1">
          5.9266627205708522e-01 
        </Neuron>
        <Neuron NSynapses="1">
          3.2633415518799863e-01 
        </Neuron>
        <Neuron NSynapses="1">
          -9.7296512520453349e-02 
        </Neuron>
        <Neuron NSynapses="1">
          -2.2180125756518684e-01 
        </Neuron>
        <Neuron NSynapses="1">
          6.2217697996965382e-01 
        </Neuron>
        <Neuron NSynapses="1">
          -1.3664090176759620e+00 
        </Neuron>
        <Neuron NSynapses="1">
          -1.1229471037166843e+00 
        </Neuron>
        <Neuron NSynapses="1">
          -1.4431579075547372e+00 
        </Neuron>
        <Neuron NSynapses="1">
          2.4172227653771805e-02 
        </Neuron>
        <Neuron NSynapses="1">
          1.6229740181791601e+00 
        </Neuron>
        <Neuron NSynapses="1">
          -9.8719980023069687e-03 
        </Neuron>
        <Neuron NSynapses="1">
          4.3892183234688359e-01 
        </Neuron>
      </Layer>
      <Layer Index="2" NNeurons="1">
        <Neuron NSynapses="0"/>
      </Layer>
    </Layout>
  </Weights>
</MethodSetup>
