<?xml version="1.0"?>
<MethodSetup Method="MLP::MLPBFGS">
  <GeneralInfo>
    <Info name="TMVA Release" value="4.1.4 [262404]"/>
    <Info name="ROOT Release" value="5.34/07 [336391]"/>
    <Info name="Creator" value="pseyfert"/>
    <Info name="Date" value="Thu Dec 12 16:39:26 2013"/>
    <Info name="Host" value="Linux lxbuild175.cern.ch 2.6.18-308.4.1.el5 #1 SMP Wed Apr 18 16:26:27 CEST 2012 x86_64 x86_64 x86_64 GNU/Linux"/>
    <Info name="Dir" value="/auto/sigma0/pseyfert/zoontuple/Bender_v22r7/Phys/Tau23Mu/scripts/TMVA_training"/>
    <Info name="Training events" value="52358"/>
    <Info name="TrainingTime" value="4.72634852e+03"/>
    <Info name="AnalysisType" value="Classification"/>
  </GeneralInfo>
  <Options>
    <Option name="NCycles" modified="Yes">600</Option>
    <Option name="HiddenLayers" modified="Yes">N+5</Option>
    <Option name="NeuronType" modified="Yes">tanh</Option>
    <Option name="RandomSeed" modified="No">1</Option>
    <Option name="EstimatorType" modified="Yes">CE</Option>
    <Option name="NeuronInputType" modified="No">sum</Option>
    <Option name="V" modified="Yes">False</Option>
    <Option name="VerbosityLevel" modified="No">Default</Option>
    <Option name="VarTransform" modified="Yes">N</Option>
    <Option name="H" modified="Yes">True</Option>
    <Option name="CreateMVAPdfs" modified="No">False</Option>
    <Option name="IgnoreNegWeightsInTraining" modified="No">False</Option>
    <Option name="TrainingMethod" modified="Yes">BFGS</Option>
    <Option name="LearningRate" modified="No">2.000000e-02</Option>
    <Option name="DecayRate" modified="No">1.000000e-02</Option>
    <Option name="TestRate" modified="Yes">5</Option>
    <Option name="EpochMonitoring" modified="No">False</Option>
    <Option name="Sampling" modified="No">1.000000e+00</Option>
    <Option name="SamplingEpoch" modified="No">1.000000e+00</Option>
    <Option name="SamplingImportance" modified="No">1.000000e+00</Option>
    <Option name="SamplingTraining" modified="No">True</Option>
    <Option name="SamplingTesting" modified="No">False</Option>
    <Option name="ResetStep" modified="No">50</Option>
    <Option name="Tau" modified="No">3.000000e+00</Option>
    <Option name="BPMode" modified="No">sequential</Option>
    <Option name="BatchSize" modified="No">-1</Option>
    <Option name="ConvergenceImprove" modified="No">1.000000e-30</Option>
    <Option name="ConvergenceTests" modified="No">-1</Option>
    <Option name="UseRegulator" modified="Yes">False</Option>
    <Option name="UpdateLimit" modified="No">10000</Option>
    <Option name="CalculateErrors" modified="No">False</Option>
    <Option name="WeightRange" modified="No">1.000000e+00</Option>
  </Options>
  <Variables NVar="13">
    <Variable VarIndex="0" Expression="TMath::Exp(-1000*LifeTime)" Label="TMath::Exp(-1000*LifeTime)" Title="transformed decay time" Unit="1" Internal="TMath_Exp__M_1000_T_LifeTime_" Type="F" Min="1.93987222e-11" Max="7.31256723e-01"/>
    <Variable VarIndex="1" Expression="IPSig" Label="IPSig" Title="IP significance" Unit="1" Internal="IPSig" Type="F" Min="1.11495918e-02" Max="2.49779434e+01"/>
    <Variable VarIndex="2" Expression="VertexChi2" Label="VertexChi2" Title="vertex #chi^{2}" Unit="1" Internal="VertexChi2" Type="F" Min="8.02233350e-04" Max="1.49983969e+01"/>
    <Variable VarIndex="3" Expression="acos(dira)" Label="acos(dira)" Title="pointing angle" Unit="1" Internal="acos_dira_" Type="F" Min="0.00000000e+00" Max="1.37716651e-01"/>
    <Variable VarIndex="4" Expression="pt" Label="pt" Title="p_{T}" Unit="[MeV/c]" Internal="pt" Type="F" Min="4.12933426e+01" Max="5.52403477e+04"/>
    <Variable VarIndex="5" Expression="min(p0_IPSig,min(p1_IPSig,p2_IPSig))" Label="min(p0_IPSig,min(p1_IPSig,p2_IPSig))" Title="min. #mu IP significance" Unit="1" Internal="min_p0_IPSig,min_p1_IPSig,p2_IPSig__" Type="F" Min="2.30495882e+00" Max="1.02738922e+02"/>
    <Variable VarIndex="6" Expression="DOCAone" Label="DOCAone" Title="DOCA (#mu 1 and 2)" Unit="mm" Internal="DOCAone" Type="F" Min="2.63570382e-06" Max="9.23672736e-01"/>
    <Variable VarIndex="7" Expression="DOCAtwo" Label="DOCAtwo" Title="DOCA (#mu 2 and 3)" Unit="mm" Internal="DOCAtwo" Type="F" Min="2.43484504e-08" Max="7.44905770e-01"/>
    <Variable VarIndex="8" Expression="DOCAthree" Label="DOCAthree" Title="DOCA (#mu 1 and 3)" Unit="mm" Internal="DOCAthree" Type="F" Min="6.10736777e-07" Max="1.05343544e+00"/>
    <Variable VarIndex="9" Expression="CDF3" Label="CDF3" Title="cone isolation" Unit="1" Internal="CDF3" Type="F" Min="3.00450996e-03" Max="1.00000000e+00"/>
    <Variable VarIndex="10" Expression="p0_track_MatchChi2" Label="p0_track_MatchChi2" Title="track match #chi^{2} (#mu 1)" Unit="1" Internal="p0_track_MatchChi2" Type="F" Min="4.38715070e-02" Max="8.45542831e+01"/>
    <Variable VarIndex="11" Expression="p1_track_MatchChi2" Label="p1_track_MatchChi2" Title="track match #chi^{2} (#mu 2)" Unit="1" Internal="p1_track_MatchChi2" Type="F" Min="1.31226135e-02" Max="7.59046707e+01"/>
    <Variable VarIndex="12" Expression="p2_track_MatchChi2" Label="p2_track_MatchChi2" Title="track match #chi^{2} (#mu 3)" Unit="1" Internal="p2_track_MatchChi2" Type="F" Min="1.51327997e-02" Max="7.93785172e+01"/>
  </Variables>
  <Spectators NSpec="0"/>
  <Classes NClass="2">
    <Class Name="Signal" Index="0"/>
    <Class Name="Background" Index="1"/>
  </Classes>
  <Transformations NTransformations="1">
    <Transform Name="Normalize">
      <Selection>
        <Input NInputs="13">
          <Input Type="Variable" Label="TMath::Exp(-1000*LifeTime)" Expression="TMath::Exp(-1000*LifeTime)"/>
          <Input Type="Variable" Label="IPSig" Expression="IPSig"/>
          <Input Type="Variable" Label="VertexChi2" Expression="VertexChi2"/>
          <Input Type="Variable" Label="acos(dira)" Expression="acos(dira)"/>
          <Input Type="Variable" Label="pt" Expression="pt"/>
          <Input Type="Variable" Label="min(p0_IPSig,min(p1_IPSig,p2_IPSig))" Expression="min(p0_IPSig,min(p1_IPSig,p2_IPSig))"/>
          <Input Type="Variable" Label="DOCAone" Expression="DOCAone"/>
          <Input Type="Variable" Label="DOCAtwo" Expression="DOCAtwo"/>
          <Input Type="Variable" Label="DOCAthree" Expression="DOCAthree"/>
          <Input Type="Variable" Label="CDF3" Expression="CDF3"/>
          <Input Type="Variable" Label="p0_track_MatchChi2" Expression="p0_track_MatchChi2"/>
          <Input Type="Variable" Label="p1_track_MatchChi2" Expression="p1_track_MatchChi2"/>
          <Input Type="Variable" Label="p2_track_MatchChi2" Expression="p2_track_MatchChi2"/>
        </Input>
        <Output NOutputs="13">
          <Output Type="Variable" Label="TMath::Exp(-1000*LifeTime)" Expression="TMath::Exp(-1000*LifeTime)"/>
          <Output Type="Variable" Label="IPSig" Expression="IPSig"/>
          <Output Type="Variable" Label="VertexChi2" Expression="VertexChi2"/>
          <Output Type="Variable" Label="acos(dira)" Expression="acos(dira)"/>
          <Output Type="Variable" Label="pt" Expression="pt"/>
          <Output Type="Variable" Label="min(p0_IPSig,min(p1_IPSig,p2_IPSig))" Expression="min(p0_IPSig,min(p1_IPSig,p2_IPSig))"/>
          <Output Type="Variable" Label="DOCAone" Expression="DOCAone"/>
          <Output Type="Variable" Label="DOCAtwo" Expression="DOCAtwo"/>
          <Output Type="Variable" Label="DOCAthree" Expression="DOCAthree"/>
          <Output Type="Variable" Label="CDF3" Expression="CDF3"/>
          <Output Type="Variable" Label="p0_track_MatchChi2" Expression="p0_track_MatchChi2"/>
          <Output Type="Variable" Label="p1_track_MatchChi2" Expression="p1_track_MatchChi2"/>
          <Output Type="Variable" Label="p2_track_MatchChi2" Expression="p2_track_MatchChi2"/>
        </Output>
      </Selection>
      <Class ClassIndex="0">
        <Ranges>
          <Range Index="0" Min="1.9398722211905195e-11" Max="7.3125672340393066e-01"/>
          <Range Index="1" Min="1.1149591766297817e-02" Max="2.1987730026245117e+01"/>
          <Range Index="2" Min="8.0223334953188896e-04" Max="1.4998396873474121e+01"/>
          <Range Index="3" Min="0.0000000000000000e+00" Max="1.3410498201847076e-01"/>
          <Range Index="4" Min="6.2147693634033203e+01" Max="5.5240347656250000e+04"/>
          <Range Index="5" Min="2.3049588203430176e+00" Max="1.0273892211914062e+02"/>
          <Range Index="6" Min="2.6357038223068230e-06" Max="8.1560057401657104e-01"/>
          <Range Index="7" Min="2.4348450367028818e-08" Max="6.9920772314071655e-01"/>
          <Range Index="8" Min="6.1073677670719917e-07" Max="1.0170480012893677e+00"/>
          <Range Index="9" Min="3.0045099556446075e-03" Max="1.0000000000000000e+00"/>
          <Range Index="10" Min="4.3871507048606873e-02" Max="7.7615455627441406e+01"/>
          <Range Index="11" Min="1.3122613541781902e-02" Max="7.5904670715332031e+01"/>
          <Range Index="12" Min="1.5132799744606018e-02" Max="7.9378517150878906e+01"/>
        </Ranges>
      </Class>
      <Class ClassIndex="1">
        <Ranges>
          <Range Index="0" Min="2.1115165509399958e-05" Max="7.2934836149215698e-01"/>
          <Range Index="1" Min="1.3430085778236389e-01" Max="2.4977943420410156e+01"/>
          <Range Index="2" Min="2.2036740556359291e-02" Max="1.4991107940673828e+01"/>
          <Range Index="3" Min="0.0000000000000000e+00" Max="1.3771665096282959e-01"/>
          <Range Index="4" Min="4.1293342590332031e+01" Max="2.1269572265625000e+04"/>
          <Range Index="5" Min="2.7823791503906250e+00" Max="5.1121429443359375e+01"/>
          <Range Index="6" Min="3.9169070078060031e-05" Max="9.2367273569107056e-01"/>
          <Range Index="7" Min="4.2437626689206809e-05" Max="7.4490576982498169e-01"/>
          <Range Index="8" Min="3.1205789127852768e-05" Max="1.0534354448318481e+00"/>
          <Range Index="9" Min="3.8299348670989275e-03" Max="1.0000000000000000e+00"/>
          <Range Index="10" Min="1.4428974688053131e-01" Max="8.4554283142089844e+01"/>
          <Range Index="11" Min="1.4624765515327454e-01" Max="6.7723579406738281e+01"/>
          <Range Index="12" Min="4.5327022671699524e-02" Max="6.8506652832031250e+01"/>
        </Ranges>
      </Class>
      <Class ClassIndex="2">
        <Ranges>
          <Range Index="0" Min="1.9398722211905195e-11" Max="7.3125672340393066e-01"/>
          <Range Index="1" Min="1.1149591766297817e-02" Max="2.4977943420410156e+01"/>
          <Range Index="2" Min="8.0223334953188896e-04" Max="1.4998396873474121e+01"/>
          <Range Index="3" Min="0.0000000000000000e+00" Max="1.3771665096282959e-01"/>
          <Range Index="4" Min="4.1293342590332031e+01" Max="5.5240347656250000e+04"/>
          <Range Index="5" Min="2.3049588203430176e+00" Max="1.0273892211914062e+02"/>
          <Range Index="6" Min="2.6357038223068230e-06" Max="9.2367273569107056e-01"/>
          <Range Index="7" Min="2.4348450367028818e-08" Max="7.4490576982498169e-01"/>
          <Range Index="8" Min="6.1073677670719917e-07" Max="1.0534354448318481e+00"/>
          <Range Index="9" Min="3.0045099556446075e-03" Max="1.0000000000000000e+00"/>
          <Range Index="10" Min="4.3871507048606873e-02" Max="8.4554283142089844e+01"/>
          <Range Index="11" Min="1.3122613541781902e-02" Max="7.5904670715332031e+01"/>
          <Range Index="12" Min="1.5132799744606018e-02" Max="7.9378517150878906e+01"/>
        </Ranges>
      </Class>
    </Transform>
  </Transformations>
  <MVAPdfs/>
  <Weights>
    <Layout NLayers="3">
      <Layer Index="0" NNeurons="14">
        <Neuron NSynapses="18">
          -2.0094898751788062e+00 2.4431045963921640e+00 6.2602673857736724e-01 1.5883315180767681e+00 -1.0886345419156225e+00 1.6881185228669144e+00 -1.2732969410408568e-01 3.1287359812197248e+00 -2.7448839861986234e+00 -3.9286148337404686e-01 -1.4053287176225473e+00 -1.3115758190168630e-01 -4.0847435038684116e-01 -8.9430439208102064e-02 -2.1764944871375186e-01 -6.6415050718597468e-01 -1.0404371910504022e+00 1.3584129319588454e+00 
        </Neuron>
        <Neuron NSynapses="18">
          -5.3092733986928020e-01 -1.7375013982337528e+00 -4.1644695522029274e+00 -7.1238304690511234e-01 9.6296702638116760e-01 1.7729008844271390e+00 -8.2211667700682991e+00 1.9466927224816042e+00 -7.3057418051093737e-01 2.3902407300952586e-01 -1.5273906966829043e+00 1.7784493665930099e+00 -2.2025806082613473e+00 1.6290316269117762e+00 -4.9295299554141581e-01 -6.7662099256328989e-01 -2.3219140533480305e+00 1.2336686109809236e-01 
        </Neuron>
        <Neuron NSynapses="18">
          -1.5372343422596249e+00 2.8652244775222502e+00 7.5969839651763060e-01 1.2417795477243059e+00 1.3678665570679420e+00 -5.0849620536481421e-01 7.0443461649605549e-02 1.6742375349510459e+00 1.5009249782273002e-02 -9.8556210069256411e-01 5.9942828125063463e-01 -6.8167072096010062e-01 1.2145430426586115e+00 1.2274920063125749e+00 9.3274314677000880e-01 1.0813760776051036e+00 4.4639437678493959e-01 2.5423733787497449e+00 
        </Neuron>
        <Neuron NSynapses="18">
          -2.8011240182534247e+00 -2.2657411760488895e+00 1.6274329830908023e+00 -1.7043806141871836e+00 2.4856107941860981e+00 -9.3042594745150109e-01 -2.9957241432514041e+00 -2.4850921040046847e+00 -2.1879820649207362e+00 8.0249392503825934e-01 2.2343878648347189e+00 -2.0531625609213071e+00 -1.2432627129340654e-02 -8.7872536108347576e-01 9.8807051603294893e-01 -3.6363201739176405e-02 -1.2718433440658912e+00 3.2453683302550149e+00 
        </Neuron>
        <Neuron NSynapses="18">
          1.3350220289725689e+00 3.4371083816242241e+00 2.1453298843948598e+00 -5.2439884412132409e-01 -1.3007612335932639e+00 -1.9308650810022199e+00 -1.7329533287048569e+00 5.8814932232655381e-01 -1.2787868301272229e-01 2.8455611378500438e+00 1.5330128950107114e+00 1.1177234499355362e+00 -5.3979338886075479e-01 1.7120280577799660e-01 1.6190677226759524e+00 -4.6305433573929786e+00 -1.5856663553547059e+00 -3.1276270750232971e-01 
        </Neuron>
        <Neuron NSynapses="18">
          -2.6695869640579406e-01 4.5352888820797843e-01 -4.2579545398224317e-01 -2.3185905970785075e+00 -3.5911246941310193e-01 3.1430855064556065e+00 4.0109313634267663e+00 -1.9634055006020172e+00 -2.2987340407903196e+00 -8.3997049823703229e-01 -1.3731635375515359e+00 2.3392228603600236e+00 5.1615087149470573e-01 1.9758275076628624e+00 -9.0902572939466142e-01 7.7369136921608588e+00 7.4840027980599555e-01 -5.9506460910520378e+00 
        </Neuron>
        <Neuron NSynapses="18">
          1.2778740989526920e+00 -1.7626862406591184e+00 -2.2882607536673891e+00 2.7897177366807330e-01 8.9043878510489116e-01 1.3665075280259328e-01 1.0082480697079335e+00 1.2224717138452637e+00 -5.0206521229059642e-01 -1.4488166747648883e+00 8.8734177608639409e-01 -3.3562053894386051e-01 -4.5797321035969905e+00 4.9289959196883198e-01 2.1084324947882953e+00 -2.7297521353728599e-01 -2.5279640815901211e-01 2.9331647058018484e-01 
        </Neuron>
        <Neuron NSynapses="18">
          5.5135354658903324e-01 1.6572421744113494e-01 1.4153489679508753e+00 9.9935997343869565e-01 6.3955245020650142e-01 -2.9558395181335748e+00 2.4647335140163401e-01 6.4370410004523348e-01 -3.5332578597174519e-01 4.4742767990897903e-01 1.8997226424211953e+00 -3.0241654352227737e-01 -4.3571623154126488e-01 1.7816970570595179e+00 1.5606356382237583e+00 -1.2252698770930004e+00 -1.2050298084108113e+00 -4.1380318649226516e-01 
        </Neuron>
        <Neuron NSynapses="18">
          -9.8863733649118557e-01 1.0932775688985477e+00 -8.3003182860783642e-01 -5.0195298502929142e-01 -2.4509431655561898e-02 -6.8031189609428266e-01 -5.4251816100482886e-01 2.0004260107145568e+00 6.0658405023198485e+00 3.1878905272329411e-01 -1.9144795204273694e-02 2.6715209879179671e+00 -4.0900254807947750e-01 7.9680329895846291e-01 -2.0184457990647894e-01 -4.9814467178357313e+00 3.4696585605194969e+00 -8.8850693592053820e-01 
        </Neuron>
        <Neuron NSynapses="18">
          1.9012240824782820e+00 2.2151372965262022e+00 -2.4449423898322470e-01 -1.2600121533923057e+00 -1.6962998045153618e-01 2.5339904537262270e+00 6.6762628620574338e-01 9.3993701287950238e-01 2.6046249364220095e+00 -5.0354263854885117e-01 -1.5720825152294865e-01 6.8903089675348772e-01 8.8045252235104254e-01 -1.6887099362918288e+00 1.8977174592078916e+00 4.0801083663447452e-01 4.8184902882694292e-01 2.5432278229569555e-01 
        </Neuron>
        <Neuron NSynapses="18">
          -2.3371049423615911e+00 4.8533236727974174e+00 1.0434516352135110e+00 -1.6694834357103332e+00 5.2374958292001506e-01 -1.7413512060227154e+00 -2.5898987025293908e-02 3.9656530582339533e+00 2.4405606014946601e-01 -1.8890180918563824e+00 -5.8079845203366887e-01 4.1490956128027356e-01 2.8927339104074097e+00 1.3911267182131275e+00 5.5856590077707247e-01 -1.6560996548495308e-01 -1.0888861805558048e+00 -6.1798338386716301e-01 
        </Neuron>
        <Neuron NSynapses="18">
          -1.7638157120343390e+00 -1.1190027821892308e-01 2.1800936480789715e-01 2.1063490867966056e-01 8.8109806565904980e-01 -3.1107683933123438e+00 1.6853025412273670e+00 1.3529639065954990e+00 1.0757642758633355e+00 -2.0949360364119278e+00 1.8270845317809452e+00 3.8664209364115865e-01 1.9545819973699794e+00 2.3237402268546173e-01 -1.4105670262435188e+00 -3.3171403455970261e-01 4.5418394224985255e+00 2.4648084722388588e+00 
        </Neuron>
        <Neuron NSynapses="18">
          1.6570348441399259e+00 -3.7177384387527768e-01 7.7824534427041903e-01 -1.0915959230344394e+00 -6.6890777732902285e-01 -2.8950512663547445e+00 5.5141211240614663e-02 -1.7706002114239134e+00 2.6301588319077562e+00 -6.7069013912862419e-01 1.0239402228013834e+00 -2.0923695510501847e+00 -2.6371354469564212e-01 -7.4052569863033213e-01 1.9808419518433311e+00 1.2443098475466716e+00 2.8674068642834855e-01 -1.5301537349850809e+00 
        </Neuron>
        <Neuron NSynapses="18">
          1.9401273105456769e+00 -2.0424250244732169e+00 1.3468216251514453e-01 1.2671450166050213e-01 -2.1880548391989056e+00 -1.2046229043901764e+00 -4.4151274331565515e+00 -8.0825562745535962e-01 -2.2611970587910992e+00 -3.1604760474674372e+00 -2.4527630368445354e+00 4.1782707903637659e+00 -3.6517051535290146e+00 -2.0116594953167910e+00 9.4895659349262851e-01 -9.4178449532941388e-01 2.9785191265621243e+00 -4.1538492929597091e+00 
        </Neuron>
      </Layer>
      <Layer Index="1" NNeurons="19">
        <Neuron NSynapses="1">
          1.3458318142429047e+00 
        </Neuron>
        <Neuron NSynapses="1">
          2.9130944128490994e+00 
        </Neuron>
        <Neuron NSynapses="1">
          1.1711962577419879e+00 
        </Neuron>
        <Neuron NSynapses="1">
          -9.7301354390567296e-01 
        </Neuron>
        <Neuron NSynapses="1">
          -4.9340506439213294e-01 
        </Neuron>
        <Neuron NSynapses="1">
          5.0491242938273890e+00 
        </Neuron>
        <Neuron NSynapses="1">
          1.3122463789238412e+00 
        </Neuron>
        <Neuron NSynapses="1">
          -3.4683278800861030e+00 
        </Neuron>
        <Neuron NSynapses="1">
          4.7350759154290154e+00 
        </Neuron>
        <Neuron NSynapses="1">
          1.3534729589117478e+00 
        </Neuron>
        <Neuron NSynapses="1">
          1.7469511151731334e+00 
        </Neuron>
        <Neuron NSynapses="1">
          1.3477548423861931e+00 
        </Neuron>
        <Neuron NSynapses="1">
          -1.0782297898031870e+00 
        </Neuron>
        <Neuron NSynapses="1">
          1.0078010297163763e-01 
        </Neuron>
        <Neuron NSynapses="1">
          -2.3257550683237493e+00 
        </Neuron>
        <Neuron NSynapses="1">
          9.8345184463201485e-01 
        </Neuron>
        <Neuron NSynapses="1">
          6.9974790277205079e-01 
        </Neuron>
        <Neuron NSynapses="1">
          -6.0171828629367941e-01 
        </Neuron>
        <Neuron NSynapses="1">
          -1.2231131777937791e+00 
        </Neuron>
      </Layer>
      <Layer Index="2" NNeurons="1">
        <Neuron NSynapses="0"/>
      </Layer>
    </Layout>
  </Weights>
</MethodSetup>
