<?xml version="1.0"?>
<MethodSetup Method="MLP::MLPMSE">
  <GeneralInfo>
    <Info name="TMVA Release" value="4.1.4 [262404]"/>
    <Info name="ROOT Release" value="5.34/07 [336391]"/>
    <Info name="Creator" value="pseyfert"/>
    <Info name="Date" value="Thu Dec 12 16:30:33 2013"/>
    <Info name="Host" value="Linux lxbuild175.cern.ch 2.6.18-308.4.1.el5 #1 SMP Wed Apr 18 16:26:27 CEST 2012 x86_64 x86_64 x86_64 GNU/Linux"/>
    <Info name="Dir" value="/auto/sigma0/pseyfert/zoontuple/Bender_v22r7/Phys/Tau23Mu/scripts/TMVA_training_v3"/>
    <Info name="Training events" value="52072"/>
    <Info name="TrainingTime" value="8.97210945e+02"/>
    <Info name="AnalysisType" value="Classification"/>
  </GeneralInfo>
  <Options>
    <Option name="NCycles" modified="Yes">600</Option>
    <Option name="HiddenLayers" modified="Yes">N+5</Option>
    <Option name="NeuronType" modified="Yes">tanh</Option>
    <Option name="RandomSeed" modified="No">1</Option>
    <Option name="EstimatorType" modified="Yes">MSE</Option>
    <Option name="NeuronInputType" modified="No">sum</Option>
    <Option name="V" modified="Yes">False</Option>
    <Option name="VerbosityLevel" modified="No">Default</Option>
    <Option name="VarTransform" modified="Yes">N</Option>
    <Option name="H" modified="Yes">False</Option>
    <Option name="CreateMVAPdfs" modified="No">False</Option>
    <Option name="IgnoreNegWeightsInTraining" modified="No">False</Option>
    <Option name="TrainingMethod" modified="No">BP</Option>
    <Option name="LearningRate" modified="No">2.000000e-02</Option>
    <Option name="DecayRate" modified="No">1.000000e-02</Option>
    <Option name="TestRate" modified="Yes">5</Option>
    <Option name="EpochMonitoring" modified="No">False</Option>
    <Option name="Sampling" modified="No">1.000000e+00</Option>
    <Option name="SamplingEpoch" modified="No">1.000000e+00</Option>
    <Option name="SamplingImportance" modified="No">1.000000e+00</Option>
    <Option name="SamplingTraining" modified="No">True</Option>
    <Option name="SamplingTesting" modified="No">False</Option>
    <Option name="ResetStep" modified="No">50</Option>
    <Option name="Tau" modified="No">3.000000e+00</Option>
    <Option name="BPMode" modified="No">sequential</Option>
    <Option name="BatchSize" modified="No">-1</Option>
    <Option name="ConvergenceImprove" modified="No">1.000000e-30</Option>
    <Option name="ConvergenceTests" modified="No">-1</Option>
    <Option name="UseRegulator" modified="Yes">False</Option>
    <Option name="UpdateLimit" modified="No">10000</Option>
    <Option name="CalculateErrors" modified="No">False</Option>
    <Option name="WeightRange" modified="No">1.000000e+00</Option>
  </Options>
  <Variables NVar="14">
    <Variable VarIndex="0" Expression="TMath::Exp(-1000*LifeTime)" Label="TMath::Exp(-1000*LifeTime)" Title="transformed decay time" Unit="1" Internal="TMath_Exp__M_1000_T_LifeTime_" Type="F" Min="1.93987222e-11" Max="7.31256723e-01"/>
    <Variable VarIndex="1" Expression="IPSig" Label="IPSig" Title="IP significance" Unit="1" Internal="IPSig" Type="F" Min="1.11495918e-02" Max="2.49779434e+01"/>
    <Variable VarIndex="2" Expression="VertexChi2" Label="VertexChi2" Title="vertex #chi^{2}" Unit="1" Internal="VertexChi2" Type="F" Min="8.02233350e-04" Max="1.49983969e+01"/>
    <Variable VarIndex="3" Expression="acos(dira)" Label="acos(dira)" Title="pointing angle" Unit="1" Internal="acos_dira_" Type="F" Min="0.00000000e+00" Max="1.37716651e-01"/>
    <Variable VarIndex="4" Expression="pt" Label="pt" Title="p_{T}" Unit="[MeV/c]" Internal="pt" Type="F" Min="4.12933426e+01" Max="5.52403477e+04"/>
    <Variable VarIndex="5" Expression="min(p0_IPSig,min(p1_IPSig,p2_IPSig))" Label="min(p0_IPSig,min(p1_IPSig,p2_IPSig))" Title="min. #mu IP significance" Unit="1" Internal="min_p0_IPSig,min_p1_IPSig,p2_IPSig__" Type="F" Min="2.30495882e+00" Max="1.02738922e+02"/>
    <Variable VarIndex="6" Expression="DOCAone" Label="DOCAone" Title="DOCA (#mu 1 and 2)" Unit="mm" Internal="DOCAone" Type="F" Min="2.63570382e-06" Max="9.23672736e-01"/>
    <Variable VarIndex="7" Expression="DOCAtwo" Label="DOCAtwo" Title="DOCA (#mu 2 and 3)" Unit="mm" Internal="DOCAtwo" Type="F" Min="2.43484504e-08" Max="7.44905770e-01"/>
    <Variable VarIndex="8" Expression="DOCAthree" Label="DOCAthree" Title="DOCA (#mu 1 and 3)" Unit="mm" Internal="DOCAthree" Type="F" Min="6.10736777e-07" Max="1.05343544e+00"/>
    <Variable VarIndex="9" Expression="iso" Label="iso" Title="track isolation" Unit="1" Internal="iso" Type="F" Min="0.00000000e+00" Max="1.70000000e+01"/>
    <Variable VarIndex="10" Expression="CDF3" Label="CDF3" Title="cone isolation" Unit="1" Internal="CDF3" Type="F" Min="3.00450996e-03" Max="1.00000000e+00"/>
    <Variable VarIndex="11" Expression="p0_track_MatchChi2" Label="p0_track_MatchChi2" Title="track match #chi^{2} (#mu 1)" Unit="1" Internal="p0_track_MatchChi2" Type="F" Min="4.38715070e-02" Max="8.45542831e+01"/>
    <Variable VarIndex="12" Expression="p1_track_MatchChi2" Label="p1_track_MatchChi2" Title="track match #chi^{2} (#mu 2)" Unit="1" Internal="p1_track_MatchChi2" Type="F" Min="1.31226135e-02" Max="7.59046707e+01"/>
    <Variable VarIndex="13" Expression="p2_track_MatchChi2" Label="p2_track_MatchChi2" Title="track match #chi^{2} (#mu 3)" Unit="1" Internal="p2_track_MatchChi2" Type="F" Min="1.51327997e-02" Max="7.93785172e+01"/>
  </Variables>
  <Spectators NSpec="0"/>
  <Classes NClass="2">
    <Class Name="Signal" Index="0"/>
    <Class Name="Background" Index="1"/>
  </Classes>
  <Transformations NTransformations="1">
    <Transform Name="Normalize">
      <Selection>
        <Input NInputs="14">
          <Input Type="Variable" Label="TMath::Exp(-1000*LifeTime)" Expression="TMath::Exp(-1000*LifeTime)"/>
          <Input Type="Variable" Label="IPSig" Expression="IPSig"/>
          <Input Type="Variable" Label="VertexChi2" Expression="VertexChi2"/>
          <Input Type="Variable" Label="acos(dira)" Expression="acos(dira)"/>
          <Input Type="Variable" Label="pt" Expression="pt"/>
          <Input Type="Variable" Label="min(p0_IPSig,min(p1_IPSig,p2_IPSig))" Expression="min(p0_IPSig,min(p1_IPSig,p2_IPSig))"/>
          <Input Type="Variable" Label="DOCAone" Expression="DOCAone"/>
          <Input Type="Variable" Label="DOCAtwo" Expression="DOCAtwo"/>
          <Input Type="Variable" Label="DOCAthree" Expression="DOCAthree"/>
          <Input Type="Variable" Label="iso" Expression="iso"/>
          <Input Type="Variable" Label="CDF3" Expression="CDF3"/>
          <Input Type="Variable" Label="p0_track_MatchChi2" Expression="p0_track_MatchChi2"/>
          <Input Type="Variable" Label="p1_track_MatchChi2" Expression="p1_track_MatchChi2"/>
          <Input Type="Variable" Label="p2_track_MatchChi2" Expression="p2_track_MatchChi2"/>
        </Input>
        <Output NOutputs="14">
          <Output Type="Variable" Label="TMath::Exp(-1000*LifeTime)" Expression="TMath::Exp(-1000*LifeTime)"/>
          <Output Type="Variable" Label="IPSig" Expression="IPSig"/>
          <Output Type="Variable" Label="VertexChi2" Expression="VertexChi2"/>
          <Output Type="Variable" Label="acos(dira)" Expression="acos(dira)"/>
          <Output Type="Variable" Label="pt" Expression="pt"/>
          <Output Type="Variable" Label="min(p0_IPSig,min(p1_IPSig,p2_IPSig))" Expression="min(p0_IPSig,min(p1_IPSig,p2_IPSig))"/>
          <Output Type="Variable" Label="DOCAone" Expression="DOCAone"/>
          <Output Type="Variable" Label="DOCAtwo" Expression="DOCAtwo"/>
          <Output Type="Variable" Label="DOCAthree" Expression="DOCAthree"/>
          <Output Type="Variable" Label="iso" Expression="iso"/>
          <Output Type="Variable" Label="CDF3" Expression="CDF3"/>
          <Output Type="Variable" Label="p0_track_MatchChi2" Expression="p0_track_MatchChi2"/>
          <Output Type="Variable" Label="p1_track_MatchChi2" Expression="p1_track_MatchChi2"/>
          <Output Type="Variable" Label="p2_track_MatchChi2" Expression="p2_track_MatchChi2"/>
        </Output>
      </Selection>
      <Class ClassIndex="0">
        <Ranges>
          <Range Index="0" Min="1.9398722211905195e-11" Max="7.3125672340393066e-01"/>
          <Range Index="1" Min="1.1149591766297817e-02" Max="2.1987730026245117e+01"/>
          <Range Index="2" Min="8.0223334953188896e-04" Max="1.4998396873474121e+01"/>
          <Range Index="3" Min="0.0000000000000000e+00" Max="1.3410498201847076e-01"/>
          <Range Index="4" Min="6.2147693634033203e+01" Max="5.5240347656250000e+04"/>
          <Range Index="5" Min="2.3049588203430176e+00" Max="1.0273892211914062e+02"/>
          <Range Index="6" Min="2.6357038223068230e-06" Max="8.1560057401657104e-01"/>
          <Range Index="7" Min="2.4348450367028818e-08" Max="6.9920772314071655e-01"/>
          <Range Index="8" Min="6.1073677670719917e-07" Max="1.0170480012893677e+00"/>
          <Range Index="9" Min="0.0000000000000000e+00" Max="1.3000000000000000e+01"/>
          <Range Index="10" Min="3.0045099556446075e-03" Max="1.0000000000000000e+00"/>
          <Range Index="11" Min="4.3871507048606873e-02" Max="7.7615455627441406e+01"/>
          <Range Index="12" Min="1.3122613541781902e-02" Max="7.5904670715332031e+01"/>
          <Range Index="13" Min="1.5132799744606018e-02" Max="7.9378517150878906e+01"/>
        </Ranges>
      </Class>
      <Class ClassIndex="1">
        <Ranges>
          <Range Index="0" Min="2.1115165509399958e-05" Max="7.2934836149215698e-01"/>
          <Range Index="1" Min="1.3430085778236389e-01" Max="2.4977943420410156e+01"/>
          <Range Index="2" Min="2.2036740556359291e-02" Max="1.4991107940673828e+01"/>
          <Range Index="3" Min="0.0000000000000000e+00" Max="1.3771665096282959e-01"/>
          <Range Index="4" Min="4.1293342590332031e+01" Max="2.1269572265625000e+04"/>
          <Range Index="5" Min="2.7823791503906250e+00" Max="4.9517536163330078e+01"/>
          <Range Index="6" Min="3.9169070078060031e-05" Max="9.2367273569107056e-01"/>
          <Range Index="7" Min="5.9152989706490189e-05" Max="7.4490576982498169e-01"/>
          <Range Index="8" Min="3.1205789127852768e-05" Max="1.0534354448318481e+00"/>
          <Range Index="9" Min="0.0000000000000000e+00" Max="1.7000000000000000e+01"/>
          <Range Index="10" Min="3.8299348670989275e-03" Max="1.0000000000000000e+00"/>
          <Range Index="11" Min="1.4428974688053131e-01" Max="8.4554283142089844e+01"/>
          <Range Index="12" Min="1.4624765515327454e-01" Max="6.7723579406738281e+01"/>
          <Range Index="13" Min="4.5327022671699524e-02" Max="6.8506652832031250e+01"/>
        </Ranges>
      </Class>
      <Class ClassIndex="2">
        <Ranges>
          <Range Index="0" Min="1.9398722211905195e-11" Max="7.3125672340393066e-01"/>
          <Range Index="1" Min="1.1149591766297817e-02" Max="2.4977943420410156e+01"/>
          <Range Index="2" Min="8.0223334953188896e-04" Max="1.4998396873474121e+01"/>
          <Range Index="3" Min="0.0000000000000000e+00" Max="1.3771665096282959e-01"/>
          <Range Index="4" Min="4.1293342590332031e+01" Max="5.5240347656250000e+04"/>
          <Range Index="5" Min="2.3049588203430176e+00" Max="1.0273892211914062e+02"/>
          <Range Index="6" Min="2.6357038223068230e-06" Max="9.2367273569107056e-01"/>
          <Range Index="7" Min="2.4348450367028818e-08" Max="7.4490576982498169e-01"/>
          <Range Index="8" Min="6.1073677670719917e-07" Max="1.0534354448318481e+00"/>
          <Range Index="9" Min="0.0000000000000000e+00" Max="1.7000000000000000e+01"/>
          <Range Index="10" Min="3.0045099556446075e-03" Max="1.0000000000000000e+00"/>
          <Range Index="11" Min="4.3871507048606873e-02" Max="8.4554283142089844e+01"/>
          <Range Index="12" Min="1.3122613541781902e-02" Max="7.5904670715332031e+01"/>
          <Range Index="13" Min="1.5132799744606018e-02" Max="7.9378517150878906e+01"/>
        </Ranges>
      </Class>
    </Transform>
  </Transformations>
  <MVAPdfs/>
  <Weights>
    <Layout NLayers="3">
      <Layer Index="0" NNeurons="15">
        <Neuron NSynapses="19">
          -4.7281141347280470e-01 1.4995232905799967e+00 5.3253889378469010e-01 1.5453401180850843e+00 -1.5574513206276994e+00 -1.3582697086087392e+00 -5.9649058177386005e-01 1.7924687151125336e+00 -3.7870548906195706e-01 -1.1964956586016062e+00 -1.1867457747672914e+00 -2.1407248874025772e-01 -9.5251294621628735e-01 -3.2881954323892615e-01 -2.6703640242639987e-01 1.6990988970926217e+00 -5.3911583076781777e-01 1.3840757835965944e+00 -5.7252857739388685e-01 
        </Neuron>
        <Neuron NSynapses="19">
          1.0982086198411189e+00 -6.9905836282272671e-01 -3.0443972886084936e-01 1.2018291181738292e+00 -2.6025061110644637e-01 -1.3739636573049161e+00 -3.4944566153210577e-01 1.4203165606502217e+00 -9.0905453162719752e-01 -1.2751106398958358e+00 2.7616596632428286e-01 3.4329620499387162e-02 1.7137512133476787e+00 -5.5790668590599435e-01 -3.6681185100320640e-01 1.0020838581142286e+00 -1.2755181534463955e-01 -1.4821191519044374e+00 2.6466610840959310e+00 
        </Neuron>
        <Neuron NSynapses="19">
          -1.1668611582417063e+00 6.7222782601233333e-01 1.1375874657067369e+00 8.0833871959716053e-01 1.3509301773039140e+00 1.0028330570245174e+00 -5.1851880666409711e-01 -1.2972069882647621e+00 -6.5450099683894014e-01 -9.3655740320138986e-02 1.4011836802656747e+00 1.5124434996210319e+00 1.6091874194936477e+00 9.2140462084198593e-01 -1.3344357684596047e+00 6.3203377180310216e-01 -1.3903509577146917e+00 -5.8766130330568911e-01 -6.1877297739785719e-01 
        </Neuron>
        <Neuron NSynapses="19">
          -2.0658576299009659e+00 8.1711667837808755e-01 8.1852737475364945e-01 -6.4302246297129173e-01 -1.6014248537102799e-01 -6.0108959447746602e-01 7.0040697882485159e-01 1.7410665356619381e+00 -1.0285932896639851e+00 2.2109451669807917e-01 -1.6402817167244756e+00 7.8603870815160382e-01 -5.4766833141921512e-01 -1.3379529429567429e+00 -1.5226045115283333e+00 1.0004916485094633e+00 1.4106878016275897e+00 9.3365252683752353e-01 -5.9534778442610947e-01 
        </Neuron>
        <Neuron NSynapses="19">
          -2.4534749089272645e+00 -2.4701334544014757e+00 1.7029440648614513e+00 1.1674178616914974e+00 1.2790292936617085e+00 1.7467878687057137e-01 1.1017548604098584e+00 -3.1829987022742345e-01 -3.1044885832286179e-01 -4.7810187768908918e-01 8.9470237778038575e-01 -1.0824553745255436e+00 -1.8606838911033985e+00 -2.0038137640205038e+00 -6.5712323977546994e-01 -8.7515971300961601e-02 2.1298546976903934e+00 -2.0943606648203184e+00 -1.0019078404850381e+00 
        </Neuron>
        <Neuron NSynapses="19">
          1.1012337011293503e+00 -1.1673445073117139e+00 -7.9460518824169901e-01 -6.7980990611053083e-01 -6.8535679043421027e-01 -2.3033719903372121e+00 -1.5786359724501762e+00 1.1767955410672120e+00 2.6468430102517497e+00 -1.4593892706374105e+00 1.2391737880503513e+00 -7.3152547805721446e-01 -8.5874193213308092e-01 -5.3444912014519830e-01 -1.3518885211703088e-01 -1.7915561889683249e+00 7.9441344347382736e-01 -2.2204347599137850e-01 4.8104634988539945e-02 
        </Neuron>
        <Neuron NSynapses="19">
          -1.5382522481112559e+00 1.1471673562425972e+00 8.9159831092092656e-01 -1.1457386336284216e-01 4.4903686931552368e-02 -1.5792492793491173e+00 -1.3909328571196815e+00 6.0708664766976739e-01 -8.3013529312656575e-01 1.4505603242933571e+00 3.1402246240774312e-01 8.4072829241944910e-02 -3.2902152021814540e-01 -3.4944691271982931e-01 -2.1892520179137627e+00 6.2031079368962694e-01 6.8633977923565215e-01 -1.8883708289567624e+00 -5.3075705649818194e-01 
        </Neuron>
        <Neuron NSynapses="19">
          -1.6032565212577496e+00 -6.0250456047249890e-01 1.8027648772147358e+00 2.1410708189363055e+00 -2.6789564750158159e+00 -1.6650611803599427e-01 1.7084762472407240e+00 2.1840992008039084e+00 -1.2511569313470952e-01 -1.9096448896048910e+00 -3.3871535606209741e-01 -1.3893412947008561e+00 1.3869466670252053e+00 7.4368875262643719e-01 -8.8941449824681051e-01 4.5956834887791058e-02 7.0210029923338202e-01 -1.6082626653747822e+00 -3.9074303111379721e-01 
        </Neuron>
        <Neuron NSynapses="19">
          1.1827053807152283e+00 -1.2211114846990410e+00 6.4234878120968272e-02 9.4978154634039280e-01 2.6310188894736297e-01 1.4012156585124365e-02 1.0216624153388418e+00 -1.0729983694989456e+00 2.8100625535845464e-01 4.8121125075788174e-01 1.9001996275652464e-01 6.3887519067415510e-01 9.8641688704500996e-01 -1.0918563702276849e+00 -1.0232745686646372e+00 6.7022454479745130e-01 -3.8682123971731408e-01 -5.0914879000322744e-01 2.8317303822095397e-01 
        </Neuron>
        <Neuron NSynapses="19">
          6.8743350734780062e-01 -1.0192270793924474e+00 2.1467531181751998e+00 2.0142943042609085e+00 -2.2506630315128429e+00 9.6933506251942830e-02 4.5405848670963977e-01 5.0324691869295779e-01 -9.5342967225270991e-01 -7.9500848613680719e-01 1.0252464890770314e+00 1.6159713706060856e+00 -1.6764933145409027e+00 -8.1719314746801774e-01 -7.6028758580137157e-01 2.8593808016545547e-01 1.8452775546156215e+00 -8.7023473836927223e-01 4.4058731704158421e-01 
        </Neuron>
        <Neuron NSynapses="19">
          -1.1283604619279766e+00 9.4341863938820014e-01 1.3911426762764063e+00 1.1589053027595400e+00 8.4076864659042211e-02 -5.3106411576185875e-01 -1.8230895195221846e+00 1.1453687404164410e+00 4.9784226531488354e-02 -1.7442883083808318e+00 5.9127576571402704e-02 2.2682796446193326e-01 -1.2859632654711991e-03 -1.5294206137170403e+00 1.2965595460113153e+00 -4.8579979567552861e-01 -3.9173081032114454e-01 -1.3024803488992734e-01 1.6292970677063404e-01 
        </Neuron>
        <Neuron NSynapses="19">
          6.3613842820742794e-01 -6.9140605307444425e-02 5.0439899093801976e-01 -1.1299450347489166e+00 -1.7002946834198438e+00 1.2026635509304231e+00 1.2795714498899968e+00 1.2913911830602098e+00 -1.2242533842288670e+00 1.5822847566413722e+00 -2.0848575778722798e+00 -1.3134571488133151e+00 -4.4158316035977245e-02 -1.5829347961075064e+00 5.3846943197759767e-01 1.0265255658318659e+00 -7.3993368097695422e-01 2.7914494777775328e-01 -9.3675610095398620e-01 
        </Neuron>
        <Neuron NSynapses="19">
          -1.7760699837916125e+00 -1.4851338490748263e+00 1.1021090863880112e+00 1.0499851463797050e+00 1.6264481029243438e-01 -1.2076813628759662e+00 1.6486562211162854e+00 -1.1965107675854452e+00 -6.3184378867344571e-01 -9.1441376044171396e-01 -1.6224082445663139e+00 -1.5816405329627665e+00 -2.1903204736338657e+00 -7.0102371167582267e-01 -1.8936184836153886e+00 -1.1526529300077486e+00 -1.3806590098324953e+00 -4.7162394752636899e-01 -8.5327046495879211e-01 
        </Neuron>
        <Neuron NSynapses="19">
          -2.1936668986550121e+00 8.1182263773804586e-01 -1.0187259077055857e-02 6.2501760396471662e-01 -1.7160184656865267e+00 -2.8981061642265987e-01 2.2905953433987802e+00 1.7769156905007264e+00 -1.3588949392285676e-01 -1.9255179779457490e+00 -2.1986143532031615e+00 -7.9884442255551436e-01 -1.7659442705437101e+00 -1.0336660455053942e-01 -1.3336130568569010e-01 1.0032018065894661e+00 1.6114227036194928e-01 -2.6037267588126417e-01 -7.6257392568787030e-01 
        </Neuron>
        <Neuron NSynapses="19">
          -1.4108702500155192e+00 1.9759931215703141e+00 4.5182365336327646e-01 -1.7211937338485346e+00 -2.3535972713310951e-01 1.4286609065736173e+00 1.1008076597743175e+00 -8.4090375902278025e-02 -1.4855071196978638e+00 1.3589359247120675e-01 1.8960772058228925e+00 8.7974916105140077e-01 1.0283186976394569e+00 2.3305874169691335e-01 7.1668063311530084e-01 -4.6883503036045032e-01 -2.0269911322443903e+00 5.7477539822628002e-03 -7.8822692982616660e-01 
        </Neuron>
      </Layer>
      <Layer Index="1" NNeurons="20">
        <Neuron NSynapses="1">
          -1.6524718233369345e-01 
        </Neuron>
        <Neuron NSynapses="1">
          -7.9633926496310992e-01 
        </Neuron>
        <Neuron NSynapses="1">
          6.3719688006696951e-01 
        </Neuron>
        <Neuron NSynapses="1">
          -1.2964092293584704e+00 
        </Neuron>
        <Neuron NSynapses="1">
          1.0812717919008456e-01 
        </Neuron>
        <Neuron NSynapses="1">
          -1.0107663842344448e+00 
        </Neuron>
        <Neuron NSynapses="1">
          -4.8771738339782483e-01 
        </Neuron>
        <Neuron NSynapses="1">
          -3.0160000865693515e-01 
        </Neuron>
        <Neuron NSynapses="1">
          3.6676989082950773e-01 
        </Neuron>
        <Neuron NSynapses="1">
          5.4861560879925431e-01 
        </Neuron>
        <Neuron NSynapses="1">
          -5.7147320457102013e-01 
        </Neuron>
        <Neuron NSynapses="1">
          2.3328408237556458e-01 
        </Neuron>
        <Neuron NSynapses="1">
          6.6906243168945867e-01 
        </Neuron>
        <Neuron NSynapses="1">
          -1.4723089169614962e+00 
        </Neuron>
        <Neuron NSynapses="1">
          -1.0145240141017680e+00 
        </Neuron>
        <Neuron NSynapses="1">
          -2.0676165595916263e-01 
        </Neuron>
        <Neuron NSynapses="1">
          -2.7229675787597413e-01 
        </Neuron>
        <Neuron NSynapses="1">
          1.8009635509698410e+00 
        </Neuron>
        <Neuron NSynapses="1">
          -1.3759494288261459e-01 
        </Neuron>
        <Neuron NSynapses="1">
          4.9859499744249081e-01 
        </Neuron>
      </Layer>
      <Layer Index="2" NNeurons="1">
        <Neuron NSynapses="0"/>
      </Layer>
    </Layout>
  </Weights>
</MethodSetup>
