<?xml version="1.0"?>
<MethodSetup Method="MLP::MLPMSE">
  <GeneralInfo>
    <Info name="TMVA Release" value="4.1.4 [262404]"/>
    <Info name="ROOT Release" value="5.34/07 [336391]"/>
    <Info name="Creator" value="pseyfert"/>
    <Info name="Date" value="Thu Dec 12 17:05:46 2013"/>
    <Info name="Host" value="Linux lxbuild175.cern.ch 2.6.18-308.4.1.el5 #1 SMP Wed Apr 18 16:26:27 CEST 2012 x86_64 x86_64 x86_64 GNU/Linux"/>
    <Info name="Dir" value="/auto/sigma0/pseyfert/zoontuple/Bender_v22r7/Phys/Tau23Mu/scripts/TMVA_training"/>
    <Info name="Training events" value="52358"/>
    <Info name="TrainingTime" value="1.16689089e+03"/>
    <Info name="AnalysisType" value="Classification"/>
  </GeneralInfo>
  <Options>
    <Option name="NCycles" modified="Yes">600</Option>
    <Option name="HiddenLayers" modified="Yes">N+5</Option>
    <Option name="NeuronType" modified="Yes">tanh</Option>
    <Option name="RandomSeed" modified="No">1</Option>
    <Option name="EstimatorType" modified="Yes">MSE</Option>
    <Option name="NeuronInputType" modified="No">sum</Option>
    <Option name="V" modified="Yes">False</Option>
    <Option name="VerbosityLevel" modified="No">Default</Option>
    <Option name="VarTransform" modified="Yes">N</Option>
    <Option name="H" modified="Yes">False</Option>
    <Option name="CreateMVAPdfs" modified="No">False</Option>
    <Option name="IgnoreNegWeightsInTraining" modified="No">False</Option>
    <Option name="TrainingMethod" modified="No">BP</Option>
    <Option name="LearningRate" modified="No">2.000000e-02</Option>
    <Option name="DecayRate" modified="No">1.000000e-02</Option>
    <Option name="TestRate" modified="Yes">5</Option>
    <Option name="EpochMonitoring" modified="No">False</Option>
    <Option name="Sampling" modified="No">1.000000e+00</Option>
    <Option name="SamplingEpoch" modified="No">1.000000e+00</Option>
    <Option name="SamplingImportance" modified="No">1.000000e+00</Option>
    <Option name="SamplingTraining" modified="No">True</Option>
    <Option name="SamplingTesting" modified="No">False</Option>
    <Option name="ResetStep" modified="No">50</Option>
    <Option name="Tau" modified="No">3.000000e+00</Option>
    <Option name="BPMode" modified="No">sequential</Option>
    <Option name="BatchSize" modified="No">-1</Option>
    <Option name="ConvergenceImprove" modified="No">1.000000e-30</Option>
    <Option name="ConvergenceTests" modified="No">-1</Option>
    <Option name="UseRegulator" modified="Yes">False</Option>
    <Option name="UpdateLimit" modified="No">10000</Option>
    <Option name="CalculateErrors" modified="No">False</Option>
    <Option name="WeightRange" modified="No">1.000000e+00</Option>
  </Options>
  <Variables NVar="15">
    <Variable VarIndex="0" Expression="TMath::Exp(-1000*LifeTime)" Label="TMath::Exp(-1000*LifeTime)" Title="transformed decay time" Unit="1" Internal="TMath_Exp__M_1000_T_LifeTime_" Type="F" Min="1.93987222e-11" Max="7.31256723e-01"/>
    <Variable VarIndex="1" Expression="IPSig" Label="IPSig" Title="IP significance" Unit="1" Internal="IPSig" Type="F" Min="1.11495918e-02" Max="2.49779434e+01"/>
    <Variable VarIndex="2" Expression="VertexChi2" Label="VertexChi2" Title="vertex #chi^{2}" Unit="1" Internal="VertexChi2" Type="F" Min="8.02233350e-04" Max="1.49983969e+01"/>
    <Variable VarIndex="3" Expression="acos(dira)" Label="acos(dira)" Title="pointing angle" Unit="1" Internal="acos_dira_" Type="F" Min="0.00000000e+00" Max="1.37716651e-01"/>
    <Variable VarIndex="4" Expression="pt" Label="pt" Title="p_{T}" Unit="[MeV/c]" Internal="pt" Type="F" Min="4.12933426e+01" Max="5.52403477e+04"/>
    <Variable VarIndex="5" Expression="Laura_SumBDT" Label="Laura_SumBDT" Title="Laura_SumBDT" Unit="" Internal="Laura_SumBDT" Type="F" Min="-2.57286167e+00" Max="5.00000000e+00"/>
    <Variable VarIndex="6" Expression="min(p0_IPSig,min(p1_IPSig,p2_IPSig))" Label="min(p0_IPSig,min(p1_IPSig,p2_IPSig))" Title="min. #mu IP significance" Unit="1" Internal="min_p0_IPSig,min_p1_IPSig,p2_IPSig__" Type="F" Min="2.30495882e+00" Max="1.02738922e+02"/>
    <Variable VarIndex="7" Expression="DOCAone" Label="DOCAone" Title="DOCA (#mu 1 and 2)" Unit="mm" Internal="DOCAone" Type="F" Min="2.63570382e-06" Max="9.23672736e-01"/>
    <Variable VarIndex="8" Expression="DOCAtwo" Label="DOCAtwo" Title="DOCA (#mu 2 and 3)" Unit="mm" Internal="DOCAtwo" Type="F" Min="2.43484504e-08" Max="7.44905770e-01"/>
    <Variable VarIndex="9" Expression="DOCAthree" Label="DOCAthree" Title="DOCA (#mu 1 and 3)" Unit="mm" Internal="DOCAthree" Type="F" Min="6.10736777e-07" Max="1.05343544e+00"/>
    <Variable VarIndex="10" Expression="iso" Label="iso" Title="track isolation" Unit="1" Internal="iso" Type="F" Min="0.00000000e+00" Max="1.70000000e+01"/>
    <Variable VarIndex="11" Expression="CDF3" Label="CDF3" Title="cone isolation" Unit="1" Internal="CDF3" Type="F" Min="3.00450996e-03" Max="1.00000000e+00"/>
    <Variable VarIndex="12" Expression="p0_track_MatchChi2" Label="p0_track_MatchChi2" Title="track match #chi^{2} (#mu 1)" Unit="1" Internal="p0_track_MatchChi2" Type="F" Min="4.38715070e-02" Max="8.45542831e+01"/>
    <Variable VarIndex="13" Expression="p1_track_MatchChi2" Label="p1_track_MatchChi2" Title="track match #chi^{2} (#mu 2)" Unit="1" Internal="p1_track_MatchChi2" Type="F" Min="1.31226135e-02" Max="7.59046707e+01"/>
    <Variable VarIndex="14" Expression="p2_track_MatchChi2" Label="p2_track_MatchChi2" Title="track match #chi^{2} (#mu 3)" Unit="1" Internal="p2_track_MatchChi2" Type="F" Min="1.51327997e-02" Max="7.93785172e+01"/>
  </Variables>
  <Spectators NSpec="0"/>
  <Classes NClass="2">
    <Class Name="Signal" Index="0"/>
    <Class Name="Background" Index="1"/>
  </Classes>
  <Transformations NTransformations="1">
    <Transform Name="Normalize">
      <Selection>
        <Input NInputs="15">
          <Input Type="Variable" Label="TMath::Exp(-1000*LifeTime)" Expression="TMath::Exp(-1000*LifeTime)"/>
          <Input Type="Variable" Label="IPSig" Expression="IPSig"/>
          <Input Type="Variable" Label="VertexChi2" Expression="VertexChi2"/>
          <Input Type="Variable" Label="acos(dira)" Expression="acos(dira)"/>
          <Input Type="Variable" Label="pt" Expression="pt"/>
          <Input Type="Variable" Label="Laura_SumBDT" Expression="Laura_SumBDT"/>
          <Input Type="Variable" Label="min(p0_IPSig,min(p1_IPSig,p2_IPSig))" Expression="min(p0_IPSig,min(p1_IPSig,p2_IPSig))"/>
          <Input Type="Variable" Label="DOCAone" Expression="DOCAone"/>
          <Input Type="Variable" Label="DOCAtwo" Expression="DOCAtwo"/>
          <Input Type="Variable" Label="DOCAthree" Expression="DOCAthree"/>
          <Input Type="Variable" Label="iso" Expression="iso"/>
          <Input Type="Variable" Label="CDF3" Expression="CDF3"/>
          <Input Type="Variable" Label="p0_track_MatchChi2" Expression="p0_track_MatchChi2"/>
          <Input Type="Variable" Label="p1_track_MatchChi2" Expression="p1_track_MatchChi2"/>
          <Input Type="Variable" Label="p2_track_MatchChi2" Expression="p2_track_MatchChi2"/>
        </Input>
        <Output NOutputs="15">
          <Output Type="Variable" Label="TMath::Exp(-1000*LifeTime)" Expression="TMath::Exp(-1000*LifeTime)"/>
          <Output Type="Variable" Label="IPSig" Expression="IPSig"/>
          <Output Type="Variable" Label="VertexChi2" Expression="VertexChi2"/>
          <Output Type="Variable" Label="acos(dira)" Expression="acos(dira)"/>
          <Output Type="Variable" Label="pt" Expression="pt"/>
          <Output Type="Variable" Label="Laura_SumBDT" Expression="Laura_SumBDT"/>
          <Output Type="Variable" Label="min(p0_IPSig,min(p1_IPSig,p2_IPSig))" Expression="min(p0_IPSig,min(p1_IPSig,p2_IPSig))"/>
          <Output Type="Variable" Label="DOCAone" Expression="DOCAone"/>
          <Output Type="Variable" Label="DOCAtwo" Expression="DOCAtwo"/>
          <Output Type="Variable" Label="DOCAthree" Expression="DOCAthree"/>
          <Output Type="Variable" Label="iso" Expression="iso"/>
          <Output Type="Variable" Label="CDF3" Expression="CDF3"/>
          <Output Type="Variable" Label="p0_track_MatchChi2" Expression="p0_track_MatchChi2"/>
          <Output Type="Variable" Label="p1_track_MatchChi2" Expression="p1_track_MatchChi2"/>
          <Output Type="Variable" Label="p2_track_MatchChi2" Expression="p2_track_MatchChi2"/>
        </Output>
      </Selection>
      <Class ClassIndex="0">
        <Ranges>
          <Range Index="0" Min="1.9398722211905195e-11" Max="7.3125672340393066e-01"/>
          <Range Index="1" Min="1.1149591766297817e-02" Max="2.1987730026245117e+01"/>
          <Range Index="2" Min="8.0223334953188896e-04" Max="1.4998396873474121e+01"/>
          <Range Index="3" Min="0.0000000000000000e+00" Max="1.3410498201847076e-01"/>
          <Range Index="4" Min="6.2147693634033203e+01" Max="5.5240347656250000e+04"/>
          <Range Index="5" Min="-2.5728616714477539e+00" Max="5.0000000000000000e+00"/>
          <Range Index="6" Min="2.3049588203430176e+00" Max="1.0273892211914062e+02"/>
          <Range Index="7" Min="2.6357038223068230e-06" Max="8.1560057401657104e-01"/>
          <Range Index="8" Min="2.4348450367028818e-08" Max="6.9920772314071655e-01"/>
          <Range Index="9" Min="6.1073677670719917e-07" Max="1.0170480012893677e+00"/>
          <Range Index="10" Min="0.0000000000000000e+00" Max="1.3000000000000000e+01"/>
          <Range Index="11" Min="3.0045099556446075e-03" Max="1.0000000000000000e+00"/>
          <Range Index="12" Min="4.3871507048606873e-02" Max="7.7615455627441406e+01"/>
          <Range Index="13" Min="1.3122613541781902e-02" Max="7.5904670715332031e+01"/>
          <Range Index="14" Min="1.5132799744606018e-02" Max="7.9378517150878906e+01"/>
        </Ranges>
      </Class>
      <Class ClassIndex="1">
        <Ranges>
          <Range Index="0" Min="2.1115165509399958e-05" Max="7.2934836149215698e-01"/>
          <Range Index="1" Min="1.3430085778236389e-01" Max="2.4977943420410156e+01"/>
          <Range Index="2" Min="2.2036740556359291e-02" Max="1.4991107940673828e+01"/>
          <Range Index="3" Min="0.0000000000000000e+00" Max="1.3771665096282959e-01"/>
          <Range Index="4" Min="4.1293342590332031e+01" Max="2.1269572265625000e+04"/>
          <Range Index="5" Min="-2.2138717174530029e+00" Max="-5.2525274455547333e-02"/>
          <Range Index="6" Min="2.7823791503906250e+00" Max="5.1121429443359375e+01"/>
          <Range Index="7" Min="3.9169070078060031e-05" Max="9.2367273569107056e-01"/>
          <Range Index="8" Min="4.2437626689206809e-05" Max="7.4490576982498169e-01"/>
          <Range Index="9" Min="3.1205789127852768e-05" Max="1.0534354448318481e+00"/>
          <Range Index="10" Min="0.0000000000000000e+00" Max="1.7000000000000000e+01"/>
          <Range Index="11" Min="3.8299348670989275e-03" Max="1.0000000000000000e+00"/>
          <Range Index="12" Min="1.4428974688053131e-01" Max="8.4554283142089844e+01"/>
          <Range Index="13" Min="1.4624765515327454e-01" Max="6.7723579406738281e+01"/>
          <Range Index="14" Min="4.5327022671699524e-02" Max="6.8506652832031250e+01"/>
        </Ranges>
      </Class>
      <Class ClassIndex="2">
        <Ranges>
          <Range Index="0" Min="1.9398722211905195e-11" Max="7.3125672340393066e-01"/>
          <Range Index="1" Min="1.1149591766297817e-02" Max="2.4977943420410156e+01"/>
          <Range Index="2" Min="8.0223334953188896e-04" Max="1.4998396873474121e+01"/>
          <Range Index="3" Min="0.0000000000000000e+00" Max="1.3771665096282959e-01"/>
          <Range Index="4" Min="4.1293342590332031e+01" Max="5.5240347656250000e+04"/>
          <Range Index="5" Min="-2.5728616714477539e+00" Max="5.0000000000000000e+00"/>
          <Range Index="6" Min="2.3049588203430176e+00" Max="1.0273892211914062e+02"/>
          <Range Index="7" Min="2.6357038223068230e-06" Max="9.2367273569107056e-01"/>
          <Range Index="8" Min="2.4348450367028818e-08" Max="7.4490576982498169e-01"/>
          <Range Index="9" Min="6.1073677670719917e-07" Max="1.0534354448318481e+00"/>
          <Range Index="10" Min="0.0000000000000000e+00" Max="1.7000000000000000e+01"/>
          <Range Index="11" Min="3.0045099556446075e-03" Max="1.0000000000000000e+00"/>
          <Range Index="12" Min="4.3871507048606873e-02" Max="8.4554283142089844e+01"/>
          <Range Index="13" Min="1.3122613541781902e-02" Max="7.5904670715332031e+01"/>
          <Range Index="14" Min="1.5132799744606018e-02" Max="7.9378517150878906e+01"/>
        </Ranges>
      </Class>
    </Transform>
  </Transformations>
  <MVAPdfs/>
  <Weights>
    <Layout NLayers="3">
      <Layer Index="0" NNeurons="16">
        <Neuron NSynapses="20">
          4.2729318700322366e-01 1.8604276256351586e+00 5.4092916169375482e-01 1.3435166038431028e+00 -1.4944830591265981e+00 -1.4356630192059177e+00 3.1069172666742562e-01 1.1245239176353574e+00 -1.2433413010992918e+00 -6.3905516079969221e-02 -1.4181765507409749e+00 4.1113918269954974e-01 -1.1166567175319446e+00 -1.2752959430794406e-01 2.0638132313019880e-01 -1.1512297305105294e-01 -1.2574243549063808e+00 1.5878583031200453e+00 5.7511320500009766e-01 1.3853978962006388e+00 
        </Neuron>
        <Neuron NSynapses="20">
          -1.7744402724837680e-01 -3.8316595641817219e-01 1.3265723902471549e+00 9.1814948871501892e-02 -1.6529124593335445e+00 -7.0032931843670509e-01 2.3045842158880381e-01 -1.7051768931998215e+00 -2.0690452099050964e+00 -3.0036305161877169e-01 6.8594646513912394e-01 2.1547335911602822e-01 -1.2004638459904457e-01 -2.5316010170705366e-01 9.3108219298519701e-01 -2.2147000411017836e-01 -2.1437951565965916e+00 3.1218680673062882e-01 -2.3762165229101764e-01 1.1155724328949264e+00 
        </Neuron>
        <Neuron NSynapses="20">
          -1.1620367590553813e+00 7.3911298890193466e-01 1.3350039980951813e+00 4.9250417094481791e-01 1.2492039753880367e-01 -9.9550307953229233e-01 -2.8643905730695346e-01 4.8827003932229601e-01 1.1291752790113954e+00 5.3666701366289815e-01 1.5195069902266365e+00 2.9753978074320031e-01 -1.5736742549271356e+00 1.0234321664836785e+00 6.8612356447397194e-01 -2.2640284014154989e-03 -2.7725174542860231e-01 2.3199135323527223e-01 9.4555608498508370e-01 6.8424278215416900e-01 
        </Neuron>
        <Neuron NSynapses="20">
          -5.9838869151621210e-01 5.3435069463955642e-01 8.7931370249486329e-02 2.2406933403802481e-01 1.5274141782326618e+00 -7.4834265122152721e-01 4.4968145236949988e-02 -1.2627589797675822e+00 2.2426935860722549e-01 -8.1926242985972364e-01 -8.1867199862670226e-01 -1.5953943085499851e+00 9.3871502888050262e-01 1.0860409044060004e+00 1.2512879387529565e+00 -3.6408461086184463e-01 -5.6689424095738594e-01 -2.0852976512490624e+00 2.4790058113236024e+00 4.9762604815251860e-01 
        </Neuron>
        <Neuron NSynapses="20">
          1.2884476582868543e+00 7.3899681556112673e-01 1.3447844986184512e+00 -1.1642293729019950e+00 -2.7069526178115166e-01 -9.6996636855556373e-01 1.1871582971751851e+00 -1.2115850244734088e+00 -2.1214578885171962e+00 -1.4089058893243533e+00 -3.8068268707669267e-01 5.2192490186813878e-02 1.8635259495978025e+00 -1.3696885236048479e+00 -7.9186372503507985e-01 1.4243442036818317e+00 -5.0713302753323386e-01 -1.3378951678712485e+00 -1.1617512768768472e+00 1.0056028788244632e-01 
        </Neuron>
        <Neuron NSynapses="20">
          -2.7146908916389361e+00 -1.4474255718155857e+00 8.1610557391350780e-01 1.5110307536135004e+00 -1.1590032487249626e+00 1.1156764534933257e+00 -1.3560058059567817e+00 -1.0562135765920067e+00 -3.8308532507484810e-01 4.3036935868202369e-01 -1.8386081070927653e+00 -6.4591041218179795e-02 4.6601075688200638e-01 5.9398211189008365e-01 -1.2241968410600457e+00 1.3683842566671538e+00 1.4846811159976663e+00 -1.4335029717751682e+00 2.2137744955187411e+00 -1.0745324849333977e+00 
        </Neuron>
        <Neuron NSynapses="20">
          -2.2114922686287319e-01 3.0389318629991491e-01 3.5889310459979451e-01 1.4811538913698321e+00 1.3794862529523808e+00 -8.5202079684127119e-01 -5.6358092136129273e-02 -4.5458157384280842e-02 -2.3685699321496827e+00 7.3512728288877682e-01 -9.1678039609486631e-02 -2.0490239871077045e+00 8.3634129370225552e-01 -1.1769220954101240e+00 -7.5830906922951902e-01 9.1523984962920535e-01 4.2355486719091537e+00 -1.5218727844946776e+00 -1.0616865131176287e+00 1.5337312116739488e+00 
        </Neuron>
        <Neuron NSynapses="20">
          1.1147031260554094e+00 4.2803432876829739e-01 -1.4245591083024207e+00 -1.0919784468312930e+00 -1.5676184095101580e+00 7.6080217309813158e-01 1.0529910385751828e+00 1.2153825104740959e-01 -1.0268603031060708e+00 -7.6743789887562169e-02 -1.5493052005452286e+00 3.1085154467215825e-01 1.7643269759850824e+00 -2.5321961585655156e-01 -5.4554234787668721e-01 3.4528292398864652e-01 -1.2412539479603844e+00 7.0475579574683811e-01 1.3018602095350140e+00 -1.4936077086935171e+00 
        </Neuron>
        <Neuron NSynapses="20">
          9.6109947178421240e-01 1.0914748232537042e+00 9.2759665392496016e-01 2.1990307517181229e-01 6.0494136677674626e-01 -1.3565907802070358e+00 -1.1447331386449726e+00 3.2396209167422108e-01 -1.4950087963162551e+00 -5.1062396973038082e-01 1.3951871398292748e+00 6.6016875276668185e-01 -4.9399961617679608e-02 1.5468704205518562e+00 1.2019203761149797e+00 -1.5558791632023496e+00 -5.5071452047262193e-01 4.3020546361678769e-01 3.5358434405733441e-01 -1.7012445464392218e+00 
        </Neuron>
        <Neuron NSynapses="20">
          -2.8693715585156360e-01 1.4681269399419357e+00 1.9483771246518233e+00 -2.6398211811370067e+00 5.7863150692754030e-02 -1.4019836069502600e+00 -1.7922312013402053e-01 7.0527907273331658e-01 -9.7244824760845150e-01 -1.0551788766002459e+00 -1.2749051563941542e+00 4.3040656425865387e-01 1.6943992131904044e+00 1.1212627785028766e+00 -4.5465520715216101e-01 -5.3818866835627011e-01 -8.2911641525811930e-01 1.4153417252331904e+00 -4.7602553519671315e-01 -1.3915405859817458e+00 
        </Neuron>
        <Neuron NSynapses="20">
          -1.3655183378817852e+00 6.6792464040814081e-01 5.3541257352480986e-01 -2.0341928288304021e+00 1.0876339681779374e+00 1.3763489477026755e-01 -8.7135306418025027e-01 -2.4177191556546976e-01 1.0291854481199947e+00 8.3133337813743247e-01 3.4017283486135036e-01 -1.7874119201274333e-01 -1.6802853875420365e+00 -7.1208334371288440e-01 1.4787664608321214e+00 8.1840642561032539e-01 3.1472733506062572e-01 -8.8660369918644913e-02 8.8142316654315300e-01 -1.7152522125637399e+00 
        </Neuron>
        <Neuron NSynapses="20">
          -1.8064401037862426e-01 -5.3512784410368719e-01 -1.3132333789326520e+00 9.7300532802335582e-01 9.3045120441259743e-01 -9.0265912870296661e-01 4.8407168395609829e-01 1.0496973861559226e-01 -1.3847222899971920e+00 1.5963744441765743e-01 8.0777115324874571e-01 8.7502222987550324e-02 8.0455568151537671e-01 -9.5190756849981251e-01 3.3791306479804800e-01 -8.6350120150986420e-02 2.2679747868260128e-01 2.4411824579499070e-01 -4.4095476677988782e-01 -1.3127513858610469e+00 
        </Neuron>
        <Neuron NSynapses="20">
          -1.7481257291548216e+00 -2.2354518866588058e-01 -1.4987910065063272e+00 -1.3987412884790433e+00 -1.4483683662223241e+00 -6.4359624382512104e-01 -1.1287841414488442e+00 2.1751039707208505e-01 8.3759197685507547e-01 -4.1077490319292081e-01 -1.5343724709227052e-01 -7.3239373301789679e-01 4.6963418693037784e-01 1.9001681686577041e+00 9.3383263713625353e-01 -3.6938667273015391e-01 -1.5672318483702352e+00 -5.6481085409948406e-01 -8.6341803385660520e-01 -1.6343227665415632e+00 
        </Neuron>
        <Neuron NSynapses="20">
          -3.8874591400132430e-01 7.3080754465843500e-01 2.2648938845721003e+00 -5.0718166252283114e-01 8.1227434753154082e-02 -1.3065767605962757e+00 -1.5448385080664979e+00 6.6083168398873149e-01 6.3372854946455615e-01 -6.5306030500330836e-01 -1.0575044032104641e+00 8.7169586824710721e-01 1.3937064931284004e+00 8.1696320327706118e-01 -4.3242305444225571e-01 -2.0626774733316144e-01 2.9210925368079377e-01 9.5173547244705670e-01 1.5374262214887124e+00 -2.8671979365415784e-01 
        </Neuron>
        <Neuron NSynapses="20">
          -5.8433420577039485e-01 -1.4462888478300581e-01 -1.0583942330163798e+00 -7.9937524419863137e-01 -1.5224745430404152e+00 -1.9361807018732415e+00 -1.3689515321011032e+00 7.3193004823750374e-01 -2.1101727490163511e+00 1.5599115144669324e+00 -1.7104164829319310e+00 6.1066203252963502e-01 -8.7039180383352721e-01 8.9705859548126976e-01 1.1240222492592282e-01 -1.6183114647838357e+00 4.9676777621170662e-02 6.5886517788163057e-01 -4.9976588303661995e-01 -1.4806183810599687e+00 
        </Neuron>
        <Neuron NSynapses="20">
          -1.9031509314718293e+00 -1.0240458334132720e+00 1.4646188089540828e+00 -1.2926222742321997e-01 -9.6218223639602016e-02 -2.7841556205908976e-03 -1.2332845024277987e+00 -2.1469239738100061e+00 -3.4173913027664987e-01 -1.4082891007111873e+00 1.2064035529738550e+00 -1.0494361368264686e+00 -1.4737543997725528e+00 1.5149857998407172e+00 1.0576030268887697e+00 -4.2585553312055507e-01 1.0219147424655937e+00 -1.8290866122986376e+00 1.3674020064847350e+00 9.6224014781876166e-01 
        </Neuron>
      </Layer>
      <Layer Index="1" NNeurons="21">
        <Neuron NSynapses="1">
          1.3560299541776216e-01 
        </Neuron>
        <Neuron NSynapses="1">
          -7.3905826555636533e-01 
        </Neuron>
        <Neuron NSynapses="1">
          1.3443266132948836e-01 
        </Neuron>
        <Neuron NSynapses="1">
          -6.5156724090878382e-01 
        </Neuron>
        <Neuron NSynapses="1">
          1.0949260520205012e-02 
        </Neuron>
        <Neuron NSynapses="1">
          1.6709617519751410e+00 
        </Neuron>
        <Neuron NSynapses="1">
          4.1739344419726554e-01 
        </Neuron>
        <Neuron NSynapses="1">
          1.6346500880874631e-01 
        </Neuron>
        <Neuron NSynapses="1">
          -8.4014854656524751e-01 
        </Neuron>
        <Neuron NSynapses="1">
          -1.3665695245706062e-02 
        </Neuron>
        <Neuron NSynapses="1">
          -1.7162476997405625e+00 
        </Neuron>
        <Neuron NSynapses="1">
          5.7227429001614121e-04 
        </Neuron>
        <Neuron NSynapses="1">
          -1.6527719742456066e+00 
        </Neuron>
        <Neuron NSynapses="1">
          7.3261272593227317e-02 
        </Neuron>
        <Neuron NSynapses="1">
          -5.0219880115005118e-02 
        </Neuron>
        <Neuron NSynapses="1">
          -1.4741608586817166e-03 
        </Neuron>
        <Neuron NSynapses="1">
          2.5413584467487216e-01 
        </Neuron>
        <Neuron NSynapses="1">
          -1.0047028615466388e-01 
        </Neuron>
        <Neuron NSynapses="1">
          -2.0120552262384730e-01 
        </Neuron>
        <Neuron NSynapses="1">
          -5.4539233320886289e-02 
        </Neuron>
        <Neuron NSynapses="1">
          -6.0889005576164645e-01 
        </Neuron>
      </Layer>
      <Layer Index="2" NNeurons="1">
        <Neuron NSynapses="0"/>
      </Layer>
    </Layout>
  </Weights>
</MethodSetup>
