<?xml version="1.0"?>
<MethodSetup Method="MLP::MLP">
  <GeneralInfo>
    <Info name="TMVA Release" value="4.1.4 [262404]"/>
    <Info name="ROOT Release" value="5.34/07 [336391]"/>
    <Info name="Creator" value="pseyfert"/>
    <Info name="Date" value="Sat Dec 21 19:28:24 2013"/>
    <Info name="Host" value="Linux lxbuild175.cern.ch 2.6.18-308.4.1.el5 #1 SMP Wed Apr 18 16:26:27 CEST 2012 x86_64 x86_64 x86_64 GNU/Linux"/>
    <Info name="Dir" value="/auto/sigma0/pseyfert/zoontuple/Bender_v22r7/Phys/Tau23Mu/scripts/TMVA_training_v3"/>
    <Info name="Training events" value="41107"/>
    <Info name="TrainingTime" value="7.11373036e+02"/>
    <Info name="AnalysisType" value="Classification"/>
  </GeneralInfo>
  <Options>
    <Option name="NCycles" modified="Yes">600</Option>
    <Option name="HiddenLayers" modified="Yes">N+5</Option>
    <Option name="NeuronType" modified="Yes">tanh</Option>
    <Option name="RandomSeed" modified="No">1</Option>
    <Option name="EstimatorType" modified="No">MSE</Option>
    <Option name="NeuronInputType" modified="No">sum</Option>
    <Option name="V" modified="Yes">False</Option>
    <Option name="VerbosityLevel" modified="No">Default</Option>
    <Option name="VarTransform" modified="Yes">N</Option>
    <Option name="H" modified="Yes">False</Option>
    <Option name="CreateMVAPdfs" modified="No">False</Option>
    <Option name="IgnoreNegWeightsInTraining" modified="No">False</Option>
    <Option name="TrainingMethod" modified="No">BP</Option>
    <Option name="LearningRate" modified="No">2.000000e-02</Option>
    <Option name="DecayRate" modified="No">1.000000e-02</Option>
    <Option name="TestRate" modified="Yes">5</Option>
    <Option name="EpochMonitoring" modified="No">False</Option>
    <Option name="Sampling" modified="No">1.000000e+00</Option>
    <Option name="SamplingEpoch" modified="No">1.000000e+00</Option>
    <Option name="SamplingImportance" modified="No">1.000000e+00</Option>
    <Option name="SamplingTraining" modified="No">True</Option>
    <Option name="SamplingTesting" modified="No">False</Option>
    <Option name="ResetStep" modified="No">50</Option>
    <Option name="Tau" modified="No">3.000000e+00</Option>
    <Option name="BPMode" modified="No">sequential</Option>
    <Option name="BatchSize" modified="No">-1</Option>
    <Option name="ConvergenceImprove" modified="No">1.000000e-30</Option>
    <Option name="ConvergenceTests" modified="No">-1</Option>
    <Option name="UseRegulator" modified="Yes">False</Option>
    <Option name="UpdateLimit" modified="No">10000</Option>
    <Option name="CalculateErrors" modified="No">False</Option>
    <Option name="WeightRange" modified="No">1.000000e+00</Option>
  </Options>
  <Variables NVar="15">
    <Variable VarIndex="0" Expression="TMath::Exp(-1000*LifeTime)" Label="TMath::Exp(-1000*LifeTime)" Title="transformed decay time" Unit="1" Internal="TMath_Exp__M_1000_T_LifeTime_" Type="F" Min="1.93987222e-11" Max="7.31256723e-01"/>
    <Variable VarIndex="1" Expression="IPSig" Label="IPSig" Title="IP significance" Unit="1" Internal="IPSig" Type="F" Min="1.11495918e-02" Max="2.49779434e+01"/>
    <Variable VarIndex="2" Expression="VertexChi2" Label="VertexChi2" Title="vertex #chi^{2}" Unit="1" Internal="VertexChi2" Type="F" Min="1.89490011e-03" Max="1.49983969e+01"/>
    <Variable VarIndex="3" Expression="acos(dira)" Label="acos(dira)" Title="pointing angle" Unit="1" Internal="acos_dira_" Type="F" Min="0.00000000e+00" Max="1.37716651e-01"/>
    <Variable VarIndex="4" Expression="pt" Label="pt" Title="p_{T}" Unit="[MeV/c]" Internal="pt" Type="F" Min="4.12933426e+01" Max="3.79619180e+04"/>
    <Variable VarIndex="5" Expression="Laura_SumBDT" Label="Laura_SumBDT" Title="Laura_SumBDT" Unit="" Internal="Laura_SumBDT" Type="F" Min="-2.57286167e+00" Max="5.00000000e+00"/>
    <Variable VarIndex="6" Expression="min(p0_IPSig,min(p1_IPSig,p2_IPSig))" Label="min(p0_IPSig,min(p1_IPSig,p2_IPSig))" Title="min. #mu IP significance" Unit="1" Internal="min_p0_IPSig,min_p1_IPSig,p2_IPSig__" Type="F" Min="2.30495882e+00" Max="1.02738922e+02"/>
    <Variable VarIndex="7" Expression="DOCAone" Label="DOCAone" Title="DOCA (#mu 1 and 2)" Unit="mm" Internal="DOCAone" Type="F" Min="2.63570382e-06" Max="9.23672736e-01"/>
    <Variable VarIndex="8" Expression="DOCAtwo" Label="DOCAtwo" Title="DOCA (#mu 2 and 3)" Unit="mm" Internal="DOCAtwo" Type="F" Min="2.43484504e-08" Max="7.44905770e-01"/>
    <Variable VarIndex="9" Expression="DOCAthree" Label="DOCAthree" Title="DOCA (#mu 1 and 3)" Unit="mm" Internal="DOCAthree" Type="F" Min="6.10736777e-07" Max="1.05343544e+00"/>
    <Variable VarIndex="10" Expression="iso" Label="iso" Title="track isolation" Unit="1" Internal="iso" Type="F" Min="0.00000000e+00" Max="1.70000000e+01"/>
    <Variable VarIndex="11" Expression="CDF3" Label="CDF3" Title="cone isolation" Unit="1" Internal="CDF3" Type="F" Min="3.00450996e-03" Max="1.00000000e+00"/>
    <Variable VarIndex="12" Expression="p0_track_MatchChi2" Label="p0_track_MatchChi2" Title="track match #chi^{2} (#mu 1)" Unit="1" Internal="p0_track_MatchChi2" Type="F" Min="5.59116006e-02" Max="8.45542831e+01"/>
    <Variable VarIndex="13" Expression="p1_track_MatchChi2" Label="p1_track_MatchChi2" Title="track match #chi^{2} (#mu 2)" Unit="1" Internal="p1_track_MatchChi2" Type="F" Min="1.31226135e-02" Max="7.59046707e+01"/>
    <Variable VarIndex="14" Expression="p2_track_MatchChi2" Label="p2_track_MatchChi2" Title="track match #chi^{2} (#mu 3)" Unit="1" Internal="p2_track_MatchChi2" Type="F" Min="1.51327997e-02" Max="7.93785172e+01"/>
  </Variables>
  <Spectators NSpec="0"/>
  <Classes NClass="2">
    <Class Name="Signal" Index="0"/>
    <Class Name="Background" Index="1"/>
  </Classes>
  <Transformations NTransformations="1">
    <Transform Name="Normalize">
      <Selection>
        <Input NInputs="15">
          <Input Type="Variable" Label="TMath::Exp(-1000*LifeTime)" Expression="TMath::Exp(-1000*LifeTime)"/>
          <Input Type="Variable" Label="IPSig" Expression="IPSig"/>
          <Input Type="Variable" Label="VertexChi2" Expression="VertexChi2"/>
          <Input Type="Variable" Label="acos(dira)" Expression="acos(dira)"/>
          <Input Type="Variable" Label="pt" Expression="pt"/>
          <Input Type="Variable" Label="Laura_SumBDT" Expression="Laura_SumBDT"/>
          <Input Type="Variable" Label="min(p0_IPSig,min(p1_IPSig,p2_IPSig))" Expression="min(p0_IPSig,min(p1_IPSig,p2_IPSig))"/>
          <Input Type="Variable" Label="DOCAone" Expression="DOCAone"/>
          <Input Type="Variable" Label="DOCAtwo" Expression="DOCAtwo"/>
          <Input Type="Variable" Label="DOCAthree" Expression="DOCAthree"/>
          <Input Type="Variable" Label="iso" Expression="iso"/>
          <Input Type="Variable" Label="CDF3" Expression="CDF3"/>
          <Input Type="Variable" Label="p0_track_MatchChi2" Expression="p0_track_MatchChi2"/>
          <Input Type="Variable" Label="p1_track_MatchChi2" Expression="p1_track_MatchChi2"/>
          <Input Type="Variable" Label="p2_track_MatchChi2" Expression="p2_track_MatchChi2"/>
        </Input>
        <Output NOutputs="15">
          <Output Type="Variable" Label="TMath::Exp(-1000*LifeTime)" Expression="TMath::Exp(-1000*LifeTime)"/>
          <Output Type="Variable" Label="IPSig" Expression="IPSig"/>
          <Output Type="Variable" Label="VertexChi2" Expression="VertexChi2"/>
          <Output Type="Variable" Label="acos(dira)" Expression="acos(dira)"/>
          <Output Type="Variable" Label="pt" Expression="pt"/>
          <Output Type="Variable" Label="Laura_SumBDT" Expression="Laura_SumBDT"/>
          <Output Type="Variable" Label="min(p0_IPSig,min(p1_IPSig,p2_IPSig))" Expression="min(p0_IPSig,min(p1_IPSig,p2_IPSig))"/>
          <Output Type="Variable" Label="DOCAone" Expression="DOCAone"/>
          <Output Type="Variable" Label="DOCAtwo" Expression="DOCAtwo"/>
          <Output Type="Variable" Label="DOCAthree" Expression="DOCAthree"/>
          <Output Type="Variable" Label="iso" Expression="iso"/>
          <Output Type="Variable" Label="CDF3" Expression="CDF3"/>
          <Output Type="Variable" Label="p0_track_MatchChi2" Expression="p0_track_MatchChi2"/>
          <Output Type="Variable" Label="p1_track_MatchChi2" Expression="p1_track_MatchChi2"/>
          <Output Type="Variable" Label="p2_track_MatchChi2" Expression="p2_track_MatchChi2"/>
        </Output>
      </Selection>
      <Class ClassIndex="0">
        <Ranges>
          <Range Index="0" Min="1.9398722211905195e-11" Max="7.3125672340393066e-01"/>
          <Range Index="1" Min="1.1149591766297817e-02" Max="2.1987730026245117e+01"/>
          <Range Index="2" Min="1.8949001096189022e-03" Max="1.4998396873474121e+01"/>
          <Range Index="3" Min="0.0000000000000000e+00" Max="1.3410498201847076e-01"/>
          <Range Index="4" Min="6.2147693634033203e+01" Max="3.7961917968750000e+04"/>
          <Range Index="5" Min="-2.5728616714477539e+00" Max="5.0000000000000000e+00"/>
          <Range Index="6" Min="2.3049588203430176e+00" Max="1.0273892211914062e+02"/>
          <Range Index="7" Min="2.6357038223068230e-06" Max="7.3856800794601440e-01"/>
          <Range Index="8" Min="2.4348450367028818e-08" Max="6.9920772314071655e-01"/>
          <Range Index="9" Min="6.1073677670719917e-07" Max="1.0170480012893677e+00"/>
          <Range Index="10" Min="0.0000000000000000e+00" Max="1.3000000000000000e+01"/>
          <Range Index="11" Min="3.0045099556446075e-03" Max="1.0000000000000000e+00"/>
          <Range Index="12" Min="5.5911600589752197e-02" Max="7.2067237854003906e+01"/>
          <Range Index="13" Min="1.3122613541781902e-02" Max="7.5904670715332031e+01"/>
          <Range Index="14" Min="1.5132799744606018e-02" Max="7.9378517150878906e+01"/>
        </Ranges>
      </Class>
      <Class ClassIndex="1">
        <Ranges>
          <Range Index="0" Min="2.1115165509399958e-05" Max="7.2934836149215698e-01"/>
          <Range Index="1" Min="1.3430085778236389e-01" Max="2.4977943420410156e+01"/>
          <Range Index="2" Min="2.2036740556359291e-02" Max="1.4991107940673828e+01"/>
          <Range Index="3" Min="0.0000000000000000e+00" Max="1.3771665096282959e-01"/>
          <Range Index="4" Min="4.1293342590332031e+01" Max="2.1269572265625000e+04"/>
          <Range Index="5" Min="-2.2138717174530029e+00" Max="-5.2525274455547333e-02"/>
          <Range Index="6" Min="2.7823791503906250e+00" Max="4.9517536163330078e+01"/>
          <Range Index="7" Min="3.9169070078060031e-05" Max="9.2367273569107056e-01"/>
          <Range Index="8" Min="5.9152989706490189e-05" Max="7.4490576982498169e-01"/>
          <Range Index="9" Min="3.1205789127852768e-05" Max="1.0534354448318481e+00"/>
          <Range Index="10" Min="0.0000000000000000e+00" Max="1.7000000000000000e+01"/>
          <Range Index="11" Min="3.8299348670989275e-03" Max="1.0000000000000000e+00"/>
          <Range Index="12" Min="1.4428974688053131e-01" Max="8.4554283142089844e+01"/>
          <Range Index="13" Min="1.4624765515327454e-01" Max="6.7723579406738281e+01"/>
          <Range Index="14" Min="4.5327022671699524e-02" Max="6.8506652832031250e+01"/>
        </Ranges>
      </Class>
      <Class ClassIndex="2">
        <Ranges>
          <Range Index="0" Min="1.9398722211905195e-11" Max="7.3125672340393066e-01"/>
          <Range Index="1" Min="1.1149591766297817e-02" Max="2.4977943420410156e+01"/>
          <Range Index="2" Min="1.8949001096189022e-03" Max="1.4998396873474121e+01"/>
          <Range Index="3" Min="0.0000000000000000e+00" Max="1.3771665096282959e-01"/>
          <Range Index="4" Min="4.1293342590332031e+01" Max="3.7961917968750000e+04"/>
          <Range Index="5" Min="-2.5728616714477539e+00" Max="5.0000000000000000e+00"/>
          <Range Index="6" Min="2.3049588203430176e+00" Max="1.0273892211914062e+02"/>
          <Range Index="7" Min="2.6357038223068230e-06" Max="9.2367273569107056e-01"/>
          <Range Index="8" Min="2.4348450367028818e-08" Max="7.4490576982498169e-01"/>
          <Range Index="9" Min="6.1073677670719917e-07" Max="1.0534354448318481e+00"/>
          <Range Index="10" Min="0.0000000000000000e+00" Max="1.7000000000000000e+01"/>
          <Range Index="11" Min="3.0045099556446075e-03" Max="1.0000000000000000e+00"/>
          <Range Index="12" Min="5.5911600589752197e-02" Max="8.4554283142089844e+01"/>
          <Range Index="13" Min="1.3122613541781902e-02" Max="7.5904670715332031e+01"/>
          <Range Index="14" Min="1.5132799744606018e-02" Max="7.9378517150878906e+01"/>
        </Ranges>
      </Class>
    </Transform>
  </Transformations>
  <MVAPdfs/>
  <Weights>
    <Layout NLayers="3">
      <Layer Index="0" NNeurons="16">
        <Neuron NSynapses="20">
          9.4809873533208008e-02 1.8059255752982672e+00 8.7955342416349469e-01 1.4345500495086065e+00 -1.7542686467260820e+00 -1.5381557840754991e+00 3.2114661089822222e-01 1.6595953347871186e+00 -2.2453901553001526e-01 -8.5057937411278206e-01 -1.3739819219019787e+00 -6.1411784196837027e-01 -1.0431252217954188e+00 -3.7474679048069248e-01 -3.1358724872589544e-01 -1.4050954565116985e-01 -1.1801978369473021e+00 8.2272179944252122e-01 3.9953038904763527e-01 1.3859301789754861e+00 
        </Neuron>
        <Neuron NSynapses="20">
          -5.0997346660237663e-01 -4.1161503765663254e-01 5.5744175727781131e-01 1.5800337382811358e-01 -2.0156686154209393e+00 -8.2664928823686612e-01 1.0305822294214616e-01 -9.2953359554136805e-01 -1.4230759593617224e+00 1.3668519084346912e-02 6.2913346730009001e-01 1.7248920163362289e+00 -1.0329321094853931e-01 2.2398049485897048e-01 1.8063238058395770e+00 -1.0372552166367701e+00 -1.7890456175283340e+00 1.1795524396510380e+00 -1.6371099767918129e-01 1.1164589704501784e+00 
        </Neuron>
        <Neuron NSynapses="20">
          -1.6188283190677655e+00 7.3744398835208347e-01 1.6629676559835711e+00 4.2435018964954890e-01 -1.6871433727987759e-01 -6.6447784508742602e-01 -2.3415594795093395e-01 3.1472846118677689e-01 1.1865800484112770e+00 1.4280285184410815e+00 1.5768082570946920e+00 1.3124626133252775e+00 -1.5130146055996858e+00 8.6291195231579321e-01 -1.3408127388480953e-01 2.7331278188144364e-01 -2.1522570325437868e-01 -4.7969860831760835e-01 1.1749799663357336e+00 6.8402122568888146e-01 
        </Neuron>
        <Neuron NSynapses="20">
          -6.0062423761283468e-01 5.2066522854163355e-01 -3.0551448700883187e-02 1.9635255316019515e-01 1.5433276692176223e+00 -5.6031098692023062e-01 4.0256934554887830e-01 -9.8060201874378916e-01 1.0923987413460965e+00 -3.9557338285170285e-01 -7.9598431627081412e-01 -1.2416000034327777e+00 9.5985507562308237e-01 1.5246682120087049e+00 1.4573395885313998e+00 -7.5750014455739700e-01 -5.9053714842186189e-01 -1.8831625036987965e+00 2.1475966179175860e+00 4.9748709434338911e-01 
        </Neuron>
        <Neuron NSynapses="20">
          1.1828139672026856e+00 6.8015773027321058e-01 1.1559301254340217e+00 -1.1867950024860221e+00 -4.6172934269766530e-01 -7.4710129900604083e-01 6.5372737094636968e-01 -6.3271412717743225e-01 -1.2050217045271527e+00 -1.2460810295345111e+00 -4.0218543686293429e-01 -7.8381766131724664e-02 1.8343938905801682e+00 -7.5265196132079171e-01 -8.3845023604835311e-01 1.6788044641740107e+00 -1.9193123479758883e-01 -1.2938597613377405e+00 -6.6578328782135909e-01 1.0118772751894956e-01 
        </Neuron>
        <Neuron NSynapses="20">
          -2.6032056484490536e+00 -1.4874952040699576e+00 7.4420915437839097e-01 1.4881653695615091e+00 -1.1641484893831919e+00 1.1273386348216918e+00 -1.6250936645036980e+00 -6.2486213605210139e-01 -5.1111040230797801e-02 5.6915414477994930e-01 -1.8783088817593383e+00 4.1214748685586949e-01 4.7596770021499202e-01 9.8143394692792851e-01 -9.3942709486264453e-01 1.4220939065826117e+00 5.1355903957863402e-01 -1.1578615223125537e+00 2.0072447618720877e+00 -1.0736436186779226e+00 
        </Neuron>
        <Neuron NSynapses="20">
          -4.8585498907993463e-01 2.9150431415861883e-01 2.9941386804278064e-01 1.3921445843931142e+00 1.1593068311694659e+00 -7.0893458965405332e-01 -4.7233729337023939e-02 6.9335896663257734e-01 -1.4916226732716571e+00 1.4099070224095691e+00 -1.5399571470807211e-01 -1.6240806578028979e+00 7.8903003068008970e-01 -5.0846904279042904e-01 -1.4595914887799033e+00 4.8971540751891401e-01 4.7313551796015076e+00 -1.5828167936143356e+00 -9.3841089668587274e-01 1.5339906427465770e+00 
        </Neuron>
        <Neuron NSynapses="20">
          1.3364535925465717e+00 6.7063355498377175e-01 -1.3944641915009188e+00 -1.1920432523192233e+00 -1.4276462323762917e+00 8.8411820149714604e-01 1.1201149705967972e+00 -1.6889978674932685e-01 -2.6817277457678473e-01 6.1681628269894084e-01 -1.4806433202541962e+00 5.5192882517433894e-01 1.8397555253321893e+00 3.0107365195710695e-01 -6.6566774668638928e-01 6.8139888760223200e-01 -1.2175199335596361e+00 6.8830306591345836e-01 1.2042039916119152e+00 -1.4969223268381422e+00 
        </Neuron>
        <Neuron NSynapses="20">
          1.1942220883701455e+00 1.0593999139769641e+00 1.1980758026362199e+00 1.4560588912977157e-01 9.7908055770799252e-01 -1.2666008183004289e+00 -7.9753369838197496e-01 1.2073484193005910e+00 -6.8333734979192207e-01 9.6504013933348509e-02 1.3399016823477439e+00 1.1291817901043633e+00 -3.2791496940456126e-02 2.2530751525058172e+00 9.1255174799428740e-01 -1.5535709804321800e+00 -6.8360096749826438e-01 1.8054889573047064e-01 1.7522618246267405e-01 -1.6994093743987475e+00 
        </Neuron>
        <Neuron NSynapses="20">
          -7.3788318335330305e-01 1.6154453804114297e+00 1.9734508985918136e+00 -2.7840468039835233e+00 4.0767224012928330e-02 -1.3235339292641350e+00 8.0468767455222190e-02 1.7043058051005635e+00 -2.6554742536319431e-01 -8.2013678590224598e-02 -1.2192820929537209e+00 1.1354409229235514e+00 1.7702794764460195e+00 1.6572678101280274e+00 -2.7947922810200471e-01 -4.9685883950576049e-01 -7.3341253117713545e-01 1.3634010537108414e+00 -6.9335355212258742e-01 -1.3994101717294676e+00 
        </Neuron>
        <Neuron NSynapses="20">
          -1.3372585195243660e+00 5.6327231036852832e-01 4.8145170794578990e-01 -1.8571297986057524e+00 1.3276601034412896e+00 1.7399458934881284e-01 -7.2230017707346350e-01 2.7610971764973335e-01 1.8179890630312796e+00 1.1736113033490774e+00 2.5994424145850559e-01 -3.5666940934850025e-02 -1.6693792309226492e+00 -1.3551657620430113e-01 1.6544802004280994e+00 7.3677936992093784e-01 9.9989463457410208e-02 -1.2681759122473488e-01 1.0472398102654876e+00 -1.7082739678014751e+00 
        </Neuron>
        <Neuron NSynapses="20">
          -3.6546908920688898e-01 -4.8286181751919499e-01 -1.2762525319193774e+00 9.7696970530979255e-01 1.2093459522384280e+00 -6.5213971968368301e-01 -8.1163663322981153e-02 -2.8905065502986443e-01 -5.2727957282041127e-01 -9.0301400636599882e-01 7.9399050290673334e-01 -9.0957534282146757e-02 8.1935374630461377e-01 -8.6024335829532672e-01 1.4368717085344176e-01 -2.8485422601362487e-01 2.7867445339742841e-01 1.9165940383113020e-01 -4.7768912237844802e-01 -1.3155132265368252e+00 
        </Neuron>
        <Neuron NSynapses="20">
          -1.6593127168466624e+00 -2.1664218454532330e-01 -1.3002399279526886e+00 -1.5198817474032633e+00 -1.2115433798891768e+00 -2.6840631925847747e-01 -1.0815193125017812e+00 -1.0355147975336003e+00 1.3420933726916633e+00 -3.2396958862205949e-01 -2.3596565038361472e-01 -8.7573221757503728e-01 4.8154938867968100e-01 2.1737448537951436e+00 1.9915914273382676e-01 -2.3423967004858476e-01 -1.4054576591744510e+00 -7.8568150171218132e-01 -1.3026065342598987e+00 -1.6338925944965277e+00 
        </Neuron>
        <Neuron NSynapses="20">
          -1.1094468050984339e-01 5.6528382455781845e-01 2.4063979976034329e+00 -5.3405691922103782e-01 2.6215933764625282e-01 -1.1807990933602368e+00 -1.2927843782267925e+00 9.4074723421785444e-01 1.5463571635110320e+00 -4.0588483145187487e-01 -1.0707701301290162e+00 9.4208273451067970e-01 1.3959019288178736e+00 1.4477987575631612e+00 -3.4728746793819765e-01 1.0087905826931749e-01 1.3017481586837479e-01 9.8962836957609335e-01 1.7133480862386514e+00 -2.8474678434880563e-01 
        </Neuron>
        <Neuron NSynapses="20">
          -2.5063575857113346e-01 -1.1663806195370904e-01 -1.0519485776943607e+00 -8.1012078408617572e-01 -1.4457164529198738e+00 -1.8026283187483108e+00 -1.0450596571173103e+00 1.6886696367992302e+00 -1.5621787765323949e+00 2.0108625073666375e+00 -1.8741355606462857e+00 1.2640296996080542e+00 -8.6123812236987807e-01 1.1513024577342208e+00 -4.7084293257883596e-02 -1.3739483586709982e+00 -3.7476421046095559e-01 7.0243763957188676e-01 -4.9916657157964611e-01 -1.4793375146455157e+00 
        </Neuron>
        <Neuron NSynapses="20">
          -1.9571332013519764e+00 -1.0146924532035180e+00 1.4136413393959935e+00 -5.1161525122314158e-02 -5.4649708705308851e-02 -1.3496207589960643e-01 -1.2351796468274894e+00 -2.2414085190903852e+00 -1.2567988823432499e+00 -1.9730123207162982e+00 1.2751023963461778e+00 -1.5030825142666440e+00 -1.4837823841742743e+00 7.4823493493602888e-01 1.3788095497390132e+00 -3.4549939306716843e-01 7.0928928040450157e-01 -1.8591447039805147e+00 1.2757693707836453e+00 9.6173027436408842e-01 
        </Neuron>
      </Layer>
      <Layer Index="1" NNeurons="21">
        <Neuron NSynapses="1">
          1.0769016261327193e-01 
        </Neuron>
        <Neuron NSynapses="1">
          -5.8211888761295993e-01 
        </Neuron>
        <Neuron NSynapses="1">
          1.1822138997336420e-01 
        </Neuron>
        <Neuron NSynapses="1">
          -7.1856871970743463e-01 
        </Neuron>
        <Neuron NSynapses="1">
          -2.7223634642267954e-02 
        </Neuron>
        <Neuron NSynapses="1">
          6.3082928649745396e-01 
        </Neuron>
        <Neuron NSynapses="1">
          3.1700734497998595e-01 
        </Neuron>
        <Neuron NSynapses="1">
          9.2383782430432004e-01 
        </Neuron>
        <Neuron NSynapses="1">
          6.5127790431380644e-02 
        </Neuron>
        <Neuron NSynapses="1">
          -4.0552440983353233e-01 
        </Neuron>
        <Neuron NSynapses="1">
          -1.7214205955756630e+00 
        </Neuron>
        <Neuron NSynapses="1">
          2.2267815384373824e-01 
        </Neuron>
        <Neuron NSynapses="1">
          -1.5303056219485873e+00 
        </Neuron>
        <Neuron NSynapses="1">
          -1.4059440899174125e+00 
        </Neuron>
        <Neuron NSynapses="1">
          -8.1775083450976518e-02 
        </Neuron>
        <Neuron NSynapses="1">
          -7.0364767925710420e-02 
        </Neuron>
        <Neuron NSynapses="1">
          3.3052365963121144e-01 
        </Neuron>
        <Neuron NSynapses="1">
          -2.0929915176662324e-02 
        </Neuron>
        <Neuron NSynapses="1">
          -2.0739728548079450e-01 
        </Neuron>
        <Neuron NSynapses="1">
          -8.6336540135509968e-02 
        </Neuron>
        <Neuron NSynapses="1">
          -6.3963435488937836e-01 
        </Neuron>
      </Layer>
      <Layer Index="2" NNeurons="1">
        <Neuron NSynapses="0"/>
      </Layer>
    </Layout>
  </Weights>
</MethodSetup>
