<?xml version="1.0"?>
<MethodSetup Method="MLP::MLPMSEBFGW">
  <GeneralInfo>
    <Info name="TMVA Release" value="4.1.4 [262404]"/>
    <Info name="ROOT Release" value="5.34/07 [336391]"/>
    <Info name="Creator" value="pseyfert"/>
    <Info name="Date" value="Thu Dec 12 18:01:27 2013"/>
    <Info name="Host" value="Linux lxbuild175.cern.ch 2.6.18-308.4.1.el5 #1 SMP Wed Apr 18 16:26:27 CEST 2012 x86_64 x86_64 x86_64 GNU/Linux"/>
    <Info name="Dir" value="/auto/sigma0/pseyfert/zoontuple/Bender_v22r7/Phys/Tau23Mu/scripts/TMVA_training"/>
    <Info name="Training events" value="52358"/>
    <Info name="TrainingTime" value="3.91766562e+03"/>
    <Info name="AnalysisType" value="Classification"/>
  </GeneralInfo>
  <Options>
    <Option name="NCycles" modified="Yes">600</Option>
    <Option name="HiddenLayers" modified="Yes">N+5</Option>
    <Option name="NeuronType" modified="Yes">tanh</Option>
    <Option name="RandomSeed" modified="No">1</Option>
    <Option name="EstimatorType" modified="Yes">MSE</Option>
    <Option name="NeuronInputType" modified="No">sum</Option>
    <Option name="V" modified="Yes">False</Option>
    <Option name="VerbosityLevel" modified="No">Default</Option>
    <Option name="VarTransform" modified="Yes">N</Option>
    <Option name="H" modified="Yes">False</Option>
    <Option name="CreateMVAPdfs" modified="No">False</Option>
    <Option name="IgnoreNegWeightsInTraining" modified="No">False</Option>
    <Option name="TrainingMethod" modified="Yes">BFGS</Option>
    <Option name="LearningRate" modified="No">2.000000e-02</Option>
    <Option name="DecayRate" modified="No">1.000000e-02</Option>
    <Option name="TestRate" modified="Yes">5</Option>
    <Option name="EpochMonitoring" modified="No">False</Option>
    <Option name="Sampling" modified="No">1.000000e+00</Option>
    <Option name="SamplingEpoch" modified="No">1.000000e+00</Option>
    <Option name="SamplingImportance" modified="No">1.000000e+00</Option>
    <Option name="SamplingTraining" modified="No">True</Option>
    <Option name="SamplingTesting" modified="No">False</Option>
    <Option name="ResetStep" modified="No">50</Option>
    <Option name="Tau" modified="No">3.000000e+00</Option>
    <Option name="BPMode" modified="No">sequential</Option>
    <Option name="BatchSize" modified="No">-1</Option>
    <Option name="ConvergenceImprove" modified="No">1.000000e-30</Option>
    <Option name="ConvergenceTests" modified="No">-1</Option>
    <Option name="UseRegulator" modified="Yes">False</Option>
    <Option name="UpdateLimit" modified="No">10000</Option>
    <Option name="CalculateErrors" modified="No">False</Option>
    <Option name="WeightRange" modified="No">1.000000e+00</Option>
  </Options>
  <Variables NVar="13">
    <Variable VarIndex="0" Expression="TMath::Exp(-1000*LifeTime)" Label="TMath::Exp(-1000*LifeTime)" Title="transformed decay time" Unit="1" Internal="TMath_Exp__M_1000_T_LifeTime_" Type="F" Min="1.93987222e-11" Max="7.31256723e-01"/>
    <Variable VarIndex="1" Expression="IPSig" Label="IPSig" Title="IP significance" Unit="1" Internal="IPSig" Type="F" Min="1.11495918e-02" Max="2.49779434e+01"/>
    <Variable VarIndex="2" Expression="VertexChi2" Label="VertexChi2" Title="vertex #chi^{2}" Unit="1" Internal="VertexChi2" Type="F" Min="8.02233350e-04" Max="1.49983969e+01"/>
    <Variable VarIndex="3" Expression="acos(dira)" Label="acos(dira)" Title="pointing angle" Unit="1" Internal="acos_dira_" Type="F" Min="0.00000000e+00" Max="1.37716651e-01"/>
    <Variable VarIndex="4" Expression="pt" Label="pt" Title="p_{T}" Unit="[MeV/c]" Internal="pt" Type="F" Min="4.12933426e+01" Max="5.52403477e+04"/>
    <Variable VarIndex="5" Expression="min(p0_IPSig,min(p1_IPSig,p2_IPSig))" Label="min(p0_IPSig,min(p1_IPSig,p2_IPSig))" Title="min. #mu IP significance" Unit="1" Internal="min_p0_IPSig,min_p1_IPSig,p2_IPSig__" Type="F" Min="2.30495882e+00" Max="1.02738922e+02"/>
    <Variable VarIndex="6" Expression="DOCAone" Label="DOCAone" Title="DOCA (#mu 1 and 2)" Unit="mm" Internal="DOCAone" Type="F" Min="2.63570382e-06" Max="9.23672736e-01"/>
    <Variable VarIndex="7" Expression="DOCAtwo" Label="DOCAtwo" Title="DOCA (#mu 2 and 3)" Unit="mm" Internal="DOCAtwo" Type="F" Min="2.43484504e-08" Max="7.44905770e-01"/>
    <Variable VarIndex="8" Expression="DOCAthree" Label="DOCAthree" Title="DOCA (#mu 1 and 3)" Unit="mm" Internal="DOCAthree" Type="F" Min="6.10736777e-07" Max="1.05343544e+00"/>
    <Variable VarIndex="9" Expression="CDF3" Label="CDF3" Title="cone isolation" Unit="1" Internal="CDF3" Type="F" Min="3.00450996e-03" Max="1.00000000e+00"/>
    <Variable VarIndex="10" Expression="p0_track_MatchChi2" Label="p0_track_MatchChi2" Title="track match #chi^{2} (#mu 1)" Unit="1" Internal="p0_track_MatchChi2" Type="F" Min="4.38715070e-02" Max="8.45542831e+01"/>
    <Variable VarIndex="11" Expression="p1_track_MatchChi2" Label="p1_track_MatchChi2" Title="track match #chi^{2} (#mu 2)" Unit="1" Internal="p1_track_MatchChi2" Type="F" Min="1.31226135e-02" Max="7.59046707e+01"/>
    <Variable VarIndex="12" Expression="p2_track_MatchChi2" Label="p2_track_MatchChi2" Title="track match #chi^{2} (#mu 3)" Unit="1" Internal="p2_track_MatchChi2" Type="F" Min="1.51327997e-02" Max="7.93785172e+01"/>
  </Variables>
  <Spectators NSpec="0"/>
  <Classes NClass="2">
    <Class Name="Signal" Index="0"/>
    <Class Name="Background" Index="1"/>
  </Classes>
  <Transformations NTransformations="1">
    <Transform Name="Normalize">
      <Selection>
        <Input NInputs="13">
          <Input Type="Variable" Label="TMath::Exp(-1000*LifeTime)" Expression="TMath::Exp(-1000*LifeTime)"/>
          <Input Type="Variable" Label="IPSig" Expression="IPSig"/>
          <Input Type="Variable" Label="VertexChi2" Expression="VertexChi2"/>
          <Input Type="Variable" Label="acos(dira)" Expression="acos(dira)"/>
          <Input Type="Variable" Label="pt" Expression="pt"/>
          <Input Type="Variable" Label="min(p0_IPSig,min(p1_IPSig,p2_IPSig))" Expression="min(p0_IPSig,min(p1_IPSig,p2_IPSig))"/>
          <Input Type="Variable" Label="DOCAone" Expression="DOCAone"/>
          <Input Type="Variable" Label="DOCAtwo" Expression="DOCAtwo"/>
          <Input Type="Variable" Label="DOCAthree" Expression="DOCAthree"/>
          <Input Type="Variable" Label="CDF3" Expression="CDF3"/>
          <Input Type="Variable" Label="p0_track_MatchChi2" Expression="p0_track_MatchChi2"/>
          <Input Type="Variable" Label="p1_track_MatchChi2" Expression="p1_track_MatchChi2"/>
          <Input Type="Variable" Label="p2_track_MatchChi2" Expression="p2_track_MatchChi2"/>
        </Input>
        <Output NOutputs="13">
          <Output Type="Variable" Label="TMath::Exp(-1000*LifeTime)" Expression="TMath::Exp(-1000*LifeTime)"/>
          <Output Type="Variable" Label="IPSig" Expression="IPSig"/>
          <Output Type="Variable" Label="VertexChi2" Expression="VertexChi2"/>
          <Output Type="Variable" Label="acos(dira)" Expression="acos(dira)"/>
          <Output Type="Variable" Label="pt" Expression="pt"/>
          <Output Type="Variable" Label="min(p0_IPSig,min(p1_IPSig,p2_IPSig))" Expression="min(p0_IPSig,min(p1_IPSig,p2_IPSig))"/>
          <Output Type="Variable" Label="DOCAone" Expression="DOCAone"/>
          <Output Type="Variable" Label="DOCAtwo" Expression="DOCAtwo"/>
          <Output Type="Variable" Label="DOCAthree" Expression="DOCAthree"/>
          <Output Type="Variable" Label="CDF3" Expression="CDF3"/>
          <Output Type="Variable" Label="p0_track_MatchChi2" Expression="p0_track_MatchChi2"/>
          <Output Type="Variable" Label="p1_track_MatchChi2" Expression="p1_track_MatchChi2"/>
          <Output Type="Variable" Label="p2_track_MatchChi2" Expression="p2_track_MatchChi2"/>
        </Output>
      </Selection>
      <Class ClassIndex="0">
        <Ranges>
          <Range Index="0" Min="1.9398722211905195e-11" Max="7.3125672340393066e-01"/>
          <Range Index="1" Min="1.1149591766297817e-02" Max="2.1987730026245117e+01"/>
          <Range Index="2" Min="8.0223334953188896e-04" Max="1.4998396873474121e+01"/>
          <Range Index="3" Min="0.0000000000000000e+00" Max="1.3410498201847076e-01"/>
          <Range Index="4" Min="6.2147693634033203e+01" Max="5.5240347656250000e+04"/>
          <Range Index="5" Min="2.3049588203430176e+00" Max="1.0273892211914062e+02"/>
          <Range Index="6" Min="2.6357038223068230e-06" Max="8.1560057401657104e-01"/>
          <Range Index="7" Min="2.4348450367028818e-08" Max="6.9920772314071655e-01"/>
          <Range Index="8" Min="6.1073677670719917e-07" Max="1.0170480012893677e+00"/>
          <Range Index="9" Min="3.0045099556446075e-03" Max="1.0000000000000000e+00"/>
          <Range Index="10" Min="4.3871507048606873e-02" Max="7.7615455627441406e+01"/>
          <Range Index="11" Min="1.3122613541781902e-02" Max="7.5904670715332031e+01"/>
          <Range Index="12" Min="1.5132799744606018e-02" Max="7.9378517150878906e+01"/>
        </Ranges>
      </Class>
      <Class ClassIndex="1">
        <Ranges>
          <Range Index="0" Min="2.1115165509399958e-05" Max="7.2934836149215698e-01"/>
          <Range Index="1" Min="1.3430085778236389e-01" Max="2.4977943420410156e+01"/>
          <Range Index="2" Min="2.2036740556359291e-02" Max="1.4991107940673828e+01"/>
          <Range Index="3" Min="0.0000000000000000e+00" Max="1.3771665096282959e-01"/>
          <Range Index="4" Min="4.1293342590332031e+01" Max="2.1269572265625000e+04"/>
          <Range Index="5" Min="2.7823791503906250e+00" Max="5.1121429443359375e+01"/>
          <Range Index="6" Min="3.9169070078060031e-05" Max="9.2367273569107056e-01"/>
          <Range Index="7" Min="4.2437626689206809e-05" Max="7.4490576982498169e-01"/>
          <Range Index="8" Min="3.1205789127852768e-05" Max="1.0534354448318481e+00"/>
          <Range Index="9" Min="3.8299348670989275e-03" Max="1.0000000000000000e+00"/>
          <Range Index="10" Min="1.4428974688053131e-01" Max="8.4554283142089844e+01"/>
          <Range Index="11" Min="1.4624765515327454e-01" Max="6.7723579406738281e+01"/>
          <Range Index="12" Min="4.5327022671699524e-02" Max="6.8506652832031250e+01"/>
        </Ranges>
      </Class>
      <Class ClassIndex="2">
        <Ranges>
          <Range Index="0" Min="1.9398722211905195e-11" Max="7.3125672340393066e-01"/>
          <Range Index="1" Min="1.1149591766297817e-02" Max="2.4977943420410156e+01"/>
          <Range Index="2" Min="8.0223334953188896e-04" Max="1.4998396873474121e+01"/>
          <Range Index="3" Min="0.0000000000000000e+00" Max="1.3771665096282959e-01"/>
          <Range Index="4" Min="4.1293342590332031e+01" Max="5.5240347656250000e+04"/>
          <Range Index="5" Min="2.3049588203430176e+00" Max="1.0273892211914062e+02"/>
          <Range Index="6" Min="2.6357038223068230e-06" Max="9.2367273569107056e-01"/>
          <Range Index="7" Min="2.4348450367028818e-08" Max="7.4490576982498169e-01"/>
          <Range Index="8" Min="6.1073677670719917e-07" Max="1.0534354448318481e+00"/>
          <Range Index="9" Min="3.0045099556446075e-03" Max="1.0000000000000000e+00"/>
          <Range Index="10" Min="4.3871507048606873e-02" Max="8.4554283142089844e+01"/>
          <Range Index="11" Min="1.3122613541781902e-02" Max="7.5904670715332031e+01"/>
          <Range Index="12" Min="1.5132799744606018e-02" Max="7.9378517150878906e+01"/>
        </Ranges>
      </Class>
    </Transform>
  </Transformations>
  <MVAPdfs/>
  <Weights>
    <Layout NLayers="3">
      <Layer Index="0" NNeurons="14">
        <Neuron NSynapses="18">
          -8.7987877954024241e-01 1.5585621812908479e+00 -9.0493226765919887e-01 1.3621879489556306e+00 -6.6376447881308720e-01 -3.6855068612291536e-01 1.4498724317461878e-01 1.8554447227197421e+00 -2.5653930176319371e+00 -7.7292774077731463e-01 -1.4234358388360495e+00 -7.9208697689299734e-01 -4.2126189392461888e-01 9.2472375670824780e-01 -2.8994745559654883e-01 8.4414262617817148e-01 -5.1809636017044403e-01 2.5140601443906521e+00 
        </Neuron>
        <Neuron NSynapses="18">
          -1.5061467920714184e+00 1.0224011353544116e+00 -1.3593452415410763e+00 -7.5222940738768851e-01 5.0652626029312442e-01 -3.4560854165033628e-01 -1.1759377923967402e+00 2.4797999180910066e-01 1.7205212740006699e+00 -1.0301509566899600e+00 -1.3844942479164613e+00 -9.8358535333635799e-01 9.1731336192862578e-01 4.3677806701787443e+00 5.9216226612591705e-01 -2.3677858111536046e-01 -1.0853984153107661e-01 1.5190391795497979e+00 
        </Neuron>
        <Neuron NSynapses="18">
          -7.9813494031545140e-01 1.5274903217230718e+00 -1.3930399875337929e+00 7.7751101028079872e-01 6.7893832026538936e-01 2.8368909836397299e-01 1.4432428431654887e+00 7.3993708934864388e-01 9.2314030945043291e-01 -4.1817438511526006e-01 5.9493094551624115e-01 -6.4175157538751082e-01 1.0209417046632121e+00 7.4744623906306573e-01 -8.2428319426347607e-01 5.6179798156375016e-01 -8.8338996913581613e-01 8.6909165570133773e-01 
        </Neuron>
        <Neuron NSynapses="18">
          -2.0822601791555830e+00 -9.5318210462324326e-01 -1.6525206692048209e+00 -2.0819444476844327e+00 1.6248522044157584e-01 -1.6200722187825322e-03 -1.6401510830512140e+00 6.3724887448575374e-01 3.0655650179646932e-01 -2.1172718606237140e-01 2.3750159738224221e+00 -1.8579016092672316e+00 1.0191443479250470e+00 5.5771953902080207e-01 1.5971573021286474e+00 -3.7966940538210103e-01 -9.7425722329263797e-01 -8.2029681549396172e-01 
        </Neuron>
        <Neuron NSynapses="18">
          7.3241097812704981e-01 1.2469664542973478e+00 9.1799355054180221e-01 -7.1298105562950453e-01 -5.3486508649353914e-01 -2.6650233125056060e+00 1.3000155299591312e-01 1.2439671675054598e+00 1.2061547034482492e+00 1.5868912560976237e-01 1.6529953709255867e+00 6.7503242429594090e-01 -8.3927568378740658e-02 -3.7708868519879057e-01 2.4217412008590435e+00 -3.8241451299618112e-01 -1.9415828254355472e+00 -1.0846408051690093e+00 
        </Neuron>
        <Neuron NSynapses="18">
          -2.5186186711079683e-01 2.0900587275716052e-02 5.2003545832377784e-01 -1.8329678037754165e+00 -4.5453282931073466e-02 5.9537559734830992e-01 -1.6495967691968589e+00 -7.6311486211964730e-01 -2.0148615585892382e+00 2.5420195915114365e+00 -1.2627666851774715e+00 -3.4320458879454241e-01 1.1695172062973691e+00 -1.3034991435069534e+00 3.7178293761041220e-01 -1.2979008421161968e+00 -1.7129006359060801e+00 -1.3819844893314150e+00 
        </Neuron>
        <Neuron NSynapses="18">
          -3.1952236464431966e-01 9.0741120788493290e-01 -3.0819856492697756e-01 -1.3955230450830117e-01 -1.1507469179844230e+00 -4.7219862970575832e-01 -2.3469907085614734e+00 1.9332116871547129e+00 3.2527582049371023e-01 -7.8356789066073285e-01 8.4391923538485503e-01 -9.2980553058065540e-01 -8.0943033318916979e-01 -4.9093834350715515e-01 9.0055430469369013e-01 6.4793532781461582e-01 2.0652562270468736e-01 1.0047385370043773e+00 
        </Neuron>
        <Neuron NSynapses="18">
          -5.1325484513078612e-01 3.3904990726478723e-01 1.2071798846358637e+00 6.6970181476946056e-01 1.6047520973992813e-02 -2.8032437143950264e+00 -2.4311556631050946e-01 -7.0952241343019107e-01 4.2276393029048537e-01 -5.3940559210657291e-01 1.9457686472465749e+00 -1.4807389498883992e+00 1.1380497854892755e+00 1.5413552969319320e+00 1.7986366429398211e+00 4.8493801677591991e-01 -1.5845575132019272e+00 7.3283231277575234e-01 
        </Neuron>
        <Neuron NSynapses="18">
          -1.3130940783737979e+00 2.3050417251436217e+00 4.1463337231897696e-01 -8.9622495778399702e-01 -2.4119771459850612e+00 -9.5777928590729300e-01 -2.3036792482976742e+00 7.7949648521990933e-01 1.8451303878302794e+00 -1.3951529404660701e-01 2.0596396301025335e-01 1.4119975724679541e+00 1.7765939575961280e+00 -3.7323847145619848e-01 1.0148767860870465e+00 -8.1932383676907000e-02 9.9552412353475073e-01 9.3328930802420851e-01 
        </Neuron>
        <Neuron NSynapses="18">
          1.2350403489383108e+00 4.0776686790328959e-01 6.3648466977958881e-02 -6.3920254580448210e-01 -1.1216524041385930e-02 1.8733598081993411e-01 -1.1973650909539140e+00 -2.5603697299202949e-01 1.2873556800270840e+00 8.9203547236445149e-02 4.4868033155850235e-03 2.1050001555843019e+00 9.6270266407190941e-01 -1.0550270772810062e+00 2.2458017876205588e-01 -7.9632833967135608e-02 2.4085311459672756e-01 -4.2048479350621609e-01 
        </Neuron>
        <Neuron NSynapses="18">
          -6.2210923716051381e-01 1.4973963425494998e+00 1.6073584695135146e+00 -1.7912287435538299e+00 8.6699114364788821e-01 -1.5609660220657309e+00 -4.1647110489979472e-01 1.7438626669056414e+00 -3.0720963687519665e-01 -1.2929173009187294e+00 -4.4161513934776303e-01 1.2459773585957357e+00 2.2965950817122023e+00 8.3051908212422410e-01 8.9316611098597465e-01 1.2356876974035480e+00 -1.6935384649937106e+00 2.4686421434399377e+00 
        </Neuron>
        <Neuron NSynapses="18">
          2.0080362640023813e-01 -1.2786657805318806e+00 -1.4080787405562023e+00 -6.3395309272637035e-02 7.3039562458465501e-01 -2.3983826583694898e+00 6.7204500993813521e-01 1.5281603165515483e+00 -3.7948707198285575e-01 -1.4682209541912239e-01 1.7029283073348789e+00 4.9914244260413093e-01 1.2829337248240842e+00 3.5770975285460260e-01 -5.6854869190847279e-01 2.9738041359946171e-01 9.6473762336685853e-01 8.8434942494002766e-01 
        </Neuron>
        <Neuron NSynapses="18">
          7.3611972155244998e-01 3.7358073999866964e-01 3.8993386196830515e-01 -1.8999939264383057e+00 2.9493972234227361e-01 -9.5038406786450635e-01 -1.8621794349792438e+00 1.2203407303852929e+00 1.8603842438354894e+00 -1.0641989254469188e-01 1.1391634091142435e+00 -1.8803546178402644e+00 -8.9723166942083599e-01 -3.8107917645512851e-01 1.8137309709582070e+00 8.9305922849577266e-02 3.7625081957632439e-01 -1.2901393651409672e+00 
        </Neuron>
        <Neuron NSynapses="18">
          1.5569560046111792e+00 -1.9254555277164245e+00 1.7844114082836937e+00 4.9615291584177107e-01 -4.1979935016912311e+00 -2.4979911068832641e-01 -9.7158080883133635e-01 -1.2417570684040751e+00 -1.7898294707236515e+00 3.5433656736875631e-02 -2.5835818794068266e+00 7.6002630980393102e-02 -1.9747030243586792e+00 -7.9314267995562349e-01 -4.8617041731358439e-02 -1.0550313961465863e+00 9.7935969393122035e-01 -1.5112633045024666e+00 
        </Neuron>
      </Layer>
      <Layer Index="1" NNeurons="19">
        <Neuron NSynapses="1">
          -1.9724203471121851e-01 
        </Neuron>
        <Neuron NSynapses="1">
          1.7088913525846665e+00 
        </Neuron>
        <Neuron NSynapses="1">
          9.5044468016858494e-02 
        </Neuron>
        <Neuron NSynapses="1">
          -2.5649119176885615e-01 
        </Neuron>
        <Neuron NSynapses="1">
          -1.0685543248189830e+00 
        </Neuron>
        <Neuron NSynapses="1">
          1.8226281542826970e+00 
        </Neuron>
        <Neuron NSynapses="1">
          1.2762239683015679e+00 
        </Neuron>
        <Neuron NSynapses="1">
          -9.3586229819151545e-01 
        </Neuron>
        <Neuron NSynapses="1">
          3.8205114717896493e-01 
        </Neuron>
        <Neuron NSynapses="1">
          6.4205660016733901e-01 
        </Neuron>
        <Neuron NSynapses="1">
          1.3342507978365692e+00 
        </Neuron>
        <Neuron NSynapses="1">
          1.8899536238357942e-01 
        </Neuron>
        <Neuron NSynapses="1">
          1.0679221339784801e+00 
        </Neuron>
        <Neuron NSynapses="1">
          2.7501757962939277e-01 
        </Neuron>
        <Neuron NSynapses="1">
          -1.2789959678307352e+00 
        </Neuron>
        <Neuron NSynapses="1">
          7.2111642844959434e-01 
        </Neuron>
        <Neuron NSynapses="1">
          1.5765972052993532e-01 
        </Neuron>
        <Neuron NSynapses="1">
          -4.7050184071464052e-01 
        </Neuron>
        <Neuron NSynapses="1">
          -9.9169733269516547e-01 
        </Neuron>
      </Layer>
      <Layer Index="2" NNeurons="1">
        <Neuron NSynapses="0"/>
      </Layer>
    </Layout>
  </Weights>
</MethodSetup>
