<?xml version="1.0"?>
<MethodSetup Method="MLP::MLPMSE">
  <GeneralInfo>
    <Info name="TMVA Release" value="4.1.4 [262404]"/>
    <Info name="ROOT Release" value="5.34/07 [336391]"/>
    <Info name="Creator" value="pseyfert"/>
    <Info name="Date" value="Thu Dec 12 16:58:59 2013"/>
    <Info name="Host" value="Linux lxbuild175.cern.ch 2.6.18-308.4.1.el5 #1 SMP Wed Apr 18 16:26:27 CEST 2012 x86_64 x86_64 x86_64 GNU/Linux"/>
    <Info name="Dir" value="/auto/sigma0/pseyfert/zoontuple/Bender_v22r7/Phys/Tau23Mu/scripts/TMVA_training"/>
    <Info name="Training events" value="52358"/>
    <Info name="TrainingTime" value="1.08294861e+03"/>
    <Info name="AnalysisType" value="Classification"/>
  </GeneralInfo>
  <Options>
    <Option name="NCycles" modified="Yes">600</Option>
    <Option name="HiddenLayers" modified="Yes">N+5</Option>
    <Option name="NeuronType" modified="Yes">tanh</Option>
    <Option name="RandomSeed" modified="No">1</Option>
    <Option name="EstimatorType" modified="Yes">MSE</Option>
    <Option name="NeuronInputType" modified="No">sum</Option>
    <Option name="V" modified="Yes">False</Option>
    <Option name="VerbosityLevel" modified="No">Default</Option>
    <Option name="VarTransform" modified="Yes">N</Option>
    <Option name="H" modified="Yes">False</Option>
    <Option name="CreateMVAPdfs" modified="No">False</Option>
    <Option name="IgnoreNegWeightsInTraining" modified="No">False</Option>
    <Option name="TrainingMethod" modified="No">BP</Option>
    <Option name="LearningRate" modified="No">2.000000e-02</Option>
    <Option name="DecayRate" modified="No">1.000000e-02</Option>
    <Option name="TestRate" modified="Yes">5</Option>
    <Option name="EpochMonitoring" modified="No">False</Option>
    <Option name="Sampling" modified="No">1.000000e+00</Option>
    <Option name="SamplingEpoch" modified="No">1.000000e+00</Option>
    <Option name="SamplingImportance" modified="No">1.000000e+00</Option>
    <Option name="SamplingTraining" modified="No">True</Option>
    <Option name="SamplingTesting" modified="No">False</Option>
    <Option name="ResetStep" modified="No">50</Option>
    <Option name="Tau" modified="No">3.000000e+00</Option>
    <Option name="BPMode" modified="No">sequential</Option>
    <Option name="BatchSize" modified="No">-1</Option>
    <Option name="ConvergenceImprove" modified="No">1.000000e-30</Option>
    <Option name="ConvergenceTests" modified="No">-1</Option>
    <Option name="UseRegulator" modified="Yes">False</Option>
    <Option name="UpdateLimit" modified="No">10000</Option>
    <Option name="CalculateErrors" modified="No">False</Option>
    <Option name="WeightRange" modified="No">1.000000e+00</Option>
  </Options>
  <Variables NVar="14">
    <Variable VarIndex="0" Expression="TMath::Exp(-1000*LifeTime)" Label="TMath::Exp(-1000*LifeTime)" Title="transformed decay time" Unit="1" Internal="TMath_Exp__M_1000_T_LifeTime_" Type="F" Min="1.93987222e-11" Max="7.31256723e-01"/>
    <Variable VarIndex="1" Expression="IPSig" Label="IPSig" Title="IP significance" Unit="1" Internal="IPSig" Type="F" Min="1.11495918e-02" Max="2.49779434e+01"/>
    <Variable VarIndex="2" Expression="VertexChi2" Label="VertexChi2" Title="vertex #chi^{2}" Unit="1" Internal="VertexChi2" Type="F" Min="8.02233350e-04" Max="1.49983969e+01"/>
    <Variable VarIndex="3" Expression="acos(dira)" Label="acos(dira)" Title="pointing angle" Unit="1" Internal="acos_dira_" Type="F" Min="0.00000000e+00" Max="1.37716651e-01"/>
    <Variable VarIndex="4" Expression="pt" Label="pt" Title="p_{T}" Unit="[MeV/c]" Internal="pt" Type="F" Min="4.12933426e+01" Max="5.52403477e+04"/>
    <Variable VarIndex="5" Expression="Laura_SumBDT" Label="Laura_SumBDT" Title="Laura_SumBDT" Unit="" Internal="Laura_SumBDT" Type="F" Min="-2.57286167e+00" Max="5.00000000e+00"/>
    <Variable VarIndex="6" Expression="min(p0_IPSig,min(p1_IPSig,p2_IPSig))" Label="min(p0_IPSig,min(p1_IPSig,p2_IPSig))" Title="min. #mu IP significance" Unit="1" Internal="min_p0_IPSig,min_p1_IPSig,p2_IPSig__" Type="F" Min="2.30495882e+00" Max="1.02738922e+02"/>
    <Variable VarIndex="7" Expression="DOCAone" Label="DOCAone" Title="DOCA (#mu 1 and 2)" Unit="mm" Internal="DOCAone" Type="F" Min="2.63570382e-06" Max="9.23672736e-01"/>
    <Variable VarIndex="8" Expression="DOCAtwo" Label="DOCAtwo" Title="DOCA (#mu 2 and 3)" Unit="mm" Internal="DOCAtwo" Type="F" Min="2.43484504e-08" Max="7.44905770e-01"/>
    <Variable VarIndex="9" Expression="DOCAthree" Label="DOCAthree" Title="DOCA (#mu 1 and 3)" Unit="mm" Internal="DOCAthree" Type="F" Min="6.10736777e-07" Max="1.05343544e+00"/>
    <Variable VarIndex="10" Expression="CDF3" Label="CDF3" Title="cone isolation" Unit="1" Internal="CDF3" Type="F" Min="3.00450996e-03" Max="1.00000000e+00"/>
    <Variable VarIndex="11" Expression="p0_track_MatchChi2" Label="p0_track_MatchChi2" Title="track match #chi^{2} (#mu 1)" Unit="1" Internal="p0_track_MatchChi2" Type="F" Min="4.38715070e-02" Max="8.45542831e+01"/>
    <Variable VarIndex="12" Expression="p1_track_MatchChi2" Label="p1_track_MatchChi2" Title="track match #chi^{2} (#mu 2)" Unit="1" Internal="p1_track_MatchChi2" Type="F" Min="1.31226135e-02" Max="7.59046707e+01"/>
    <Variable VarIndex="13" Expression="p2_track_MatchChi2" Label="p2_track_MatchChi2" Title="track match #chi^{2} (#mu 3)" Unit="1" Internal="p2_track_MatchChi2" Type="F" Min="1.51327997e-02" Max="7.93785172e+01"/>
  </Variables>
  <Spectators NSpec="0"/>
  <Classes NClass="2">
    <Class Name="Signal" Index="0"/>
    <Class Name="Background" Index="1"/>
  </Classes>
  <Transformations NTransformations="1">
    <Transform Name="Normalize">
      <Selection>
        <Input NInputs="14">
          <Input Type="Variable" Label="TMath::Exp(-1000*LifeTime)" Expression="TMath::Exp(-1000*LifeTime)"/>
          <Input Type="Variable" Label="IPSig" Expression="IPSig"/>
          <Input Type="Variable" Label="VertexChi2" Expression="VertexChi2"/>
          <Input Type="Variable" Label="acos(dira)" Expression="acos(dira)"/>
          <Input Type="Variable" Label="pt" Expression="pt"/>
          <Input Type="Variable" Label="Laura_SumBDT" Expression="Laura_SumBDT"/>
          <Input Type="Variable" Label="min(p0_IPSig,min(p1_IPSig,p2_IPSig))" Expression="min(p0_IPSig,min(p1_IPSig,p2_IPSig))"/>
          <Input Type="Variable" Label="DOCAone" Expression="DOCAone"/>
          <Input Type="Variable" Label="DOCAtwo" Expression="DOCAtwo"/>
          <Input Type="Variable" Label="DOCAthree" Expression="DOCAthree"/>
          <Input Type="Variable" Label="CDF3" Expression="CDF3"/>
          <Input Type="Variable" Label="p0_track_MatchChi2" Expression="p0_track_MatchChi2"/>
          <Input Type="Variable" Label="p1_track_MatchChi2" Expression="p1_track_MatchChi2"/>
          <Input Type="Variable" Label="p2_track_MatchChi2" Expression="p2_track_MatchChi2"/>
        </Input>
        <Output NOutputs="14">
          <Output Type="Variable" Label="TMath::Exp(-1000*LifeTime)" Expression="TMath::Exp(-1000*LifeTime)"/>
          <Output Type="Variable" Label="IPSig" Expression="IPSig"/>
          <Output Type="Variable" Label="VertexChi2" Expression="VertexChi2"/>
          <Output Type="Variable" Label="acos(dira)" Expression="acos(dira)"/>
          <Output Type="Variable" Label="pt" Expression="pt"/>
          <Output Type="Variable" Label="Laura_SumBDT" Expression="Laura_SumBDT"/>
          <Output Type="Variable" Label="min(p0_IPSig,min(p1_IPSig,p2_IPSig))" Expression="min(p0_IPSig,min(p1_IPSig,p2_IPSig))"/>
          <Output Type="Variable" Label="DOCAone" Expression="DOCAone"/>
          <Output Type="Variable" Label="DOCAtwo" Expression="DOCAtwo"/>
          <Output Type="Variable" Label="DOCAthree" Expression="DOCAthree"/>
          <Output Type="Variable" Label="CDF3" Expression="CDF3"/>
          <Output Type="Variable" Label="p0_track_MatchChi2" Expression="p0_track_MatchChi2"/>
          <Output Type="Variable" Label="p1_track_MatchChi2" Expression="p1_track_MatchChi2"/>
          <Output Type="Variable" Label="p2_track_MatchChi2" Expression="p2_track_MatchChi2"/>
        </Output>
      </Selection>
      <Class ClassIndex="0">
        <Ranges>
          <Range Index="0" Min="1.9398722211905195e-11" Max="7.3125672340393066e-01"/>
          <Range Index="1" Min="1.1149591766297817e-02" Max="2.1987730026245117e+01"/>
          <Range Index="2" Min="8.0223334953188896e-04" Max="1.4998396873474121e+01"/>
          <Range Index="3" Min="0.0000000000000000e+00" Max="1.3410498201847076e-01"/>
          <Range Index="4" Min="6.2147693634033203e+01" Max="5.5240347656250000e+04"/>
          <Range Index="5" Min="-2.5728616714477539e+00" Max="5.0000000000000000e+00"/>
          <Range Index="6" Min="2.3049588203430176e+00" Max="1.0273892211914062e+02"/>
          <Range Index="7" Min="2.6357038223068230e-06" Max="8.1560057401657104e-01"/>
          <Range Index="8" Min="2.4348450367028818e-08" Max="6.9920772314071655e-01"/>
          <Range Index="9" Min="6.1073677670719917e-07" Max="1.0170480012893677e+00"/>
          <Range Index="10" Min="3.0045099556446075e-03" Max="1.0000000000000000e+00"/>
          <Range Index="11" Min="4.3871507048606873e-02" Max="7.7615455627441406e+01"/>
          <Range Index="12" Min="1.3122613541781902e-02" Max="7.5904670715332031e+01"/>
          <Range Index="13" Min="1.5132799744606018e-02" Max="7.9378517150878906e+01"/>
        </Ranges>
      </Class>
      <Class ClassIndex="1">
        <Ranges>
          <Range Index="0" Min="2.1115165509399958e-05" Max="7.2934836149215698e-01"/>
          <Range Index="1" Min="1.3430085778236389e-01" Max="2.4977943420410156e+01"/>
          <Range Index="2" Min="2.2036740556359291e-02" Max="1.4991107940673828e+01"/>
          <Range Index="3" Min="0.0000000000000000e+00" Max="1.3771665096282959e-01"/>
          <Range Index="4" Min="4.1293342590332031e+01" Max="2.1269572265625000e+04"/>
          <Range Index="5" Min="-2.2138717174530029e+00" Max="-5.2525274455547333e-02"/>
          <Range Index="6" Min="2.7823791503906250e+00" Max="5.1121429443359375e+01"/>
          <Range Index="7" Min="3.9169070078060031e-05" Max="9.2367273569107056e-01"/>
          <Range Index="8" Min="4.2437626689206809e-05" Max="7.4490576982498169e-01"/>
          <Range Index="9" Min="3.1205789127852768e-05" Max="1.0534354448318481e+00"/>
          <Range Index="10" Min="3.8299348670989275e-03" Max="1.0000000000000000e+00"/>
          <Range Index="11" Min="1.4428974688053131e-01" Max="8.4554283142089844e+01"/>
          <Range Index="12" Min="1.4624765515327454e-01" Max="6.7723579406738281e+01"/>
          <Range Index="13" Min="4.5327022671699524e-02" Max="6.8506652832031250e+01"/>
        </Ranges>
      </Class>
      <Class ClassIndex="2">
        <Ranges>
          <Range Index="0" Min="1.9398722211905195e-11" Max="7.3125672340393066e-01"/>
          <Range Index="1" Min="1.1149591766297817e-02" Max="2.4977943420410156e+01"/>
          <Range Index="2" Min="8.0223334953188896e-04" Max="1.4998396873474121e+01"/>
          <Range Index="3" Min="0.0000000000000000e+00" Max="1.3771665096282959e-01"/>
          <Range Index="4" Min="4.1293342590332031e+01" Max="5.5240347656250000e+04"/>
          <Range Index="5" Min="-2.5728616714477539e+00" Max="5.0000000000000000e+00"/>
          <Range Index="6" Min="2.3049588203430176e+00" Max="1.0273892211914062e+02"/>
          <Range Index="7" Min="2.6357038223068230e-06" Max="9.2367273569107056e-01"/>
          <Range Index="8" Min="2.4348450367028818e-08" Max="7.4490576982498169e-01"/>
          <Range Index="9" Min="6.1073677670719917e-07" Max="1.0534354448318481e+00"/>
          <Range Index="10" Min="3.0045099556446075e-03" Max="1.0000000000000000e+00"/>
          <Range Index="11" Min="4.3871507048606873e-02" Max="8.4554283142089844e+01"/>
          <Range Index="12" Min="1.3122613541781902e-02" Max="7.5904670715332031e+01"/>
          <Range Index="13" Min="1.5132799744606018e-02" Max="7.9378517150878906e+01"/>
        </Ranges>
      </Class>
    </Transform>
  </Transformations>
  <MVAPdfs/>
  <Weights>
    <Layout NLayers="3">
      <Layer Index="0" NNeurons="15">
        <Neuron NSynapses="19">
          -1.5042526876936835e-01 1.0751935405083229e-01 1.1356889285090537e+00 1.3182184082373203e+00 -1.6543681992491777e+00 7.1825567191587903e-03 -5.1545682643924451e-01 2.0828614665773117e+00 -3.4447138944202349e-01 -1.4832176741850922e+00 -1.3695512668967109e+00 5.0622708953505235e-01 -1.1595716905933420e+00 -1.7702065217577276e-01 -4.8609126566437877e-01 8.8184417452697206e-01 -4.2009407150154121e-01 1.2216596653075620e+00 -2.4143110496055237e-01 
        </Neuron>
        <Neuron NSynapses="19">
          1.1475958944863280e+00 1.9076924397819203e-01 -3.0288041415466427e-01 1.2812988209112353e+00 5.0537417269838525e-01 -2.8851393745751293e+00 -5.9191804762435724e-04 1.6325013621308242e+00 -2.6567413563006861e+00 -2.4679975140802681e+00 6.6342998040101839e-02 -1.5615262893110940e-01 1.5019967782962271e+00 -6.2286432571647932e-01 -2.9902681054437913e-01 5.8212828867797417e-01 -8.0821455201663048e-02 -1.2525778458529608e+00 4.9459985785044358e-01 
        </Neuron>
        <Neuron NSynapses="19">
          -1.0262292881109081e+00 5.8700246032933734e-01 7.7314259990559253e-01 7.6269135330212601e-01 1.5605316564947467e+00 2.4516871576871868e-01 -5.6753668209812658e-01 -1.6539049093728586e+00 -2.2812185057320683e-01 -2.3591141183876213e-01 1.4576716309357336e+00 2.8443644786505698e-02 1.4442886024611168e+00 1.0011238328680112e+00 -1.4685793181134346e+00 7.4132548962250333e-01 -1.6419092480539550e+00 -9.5092180374528612e-01 -2.7991059073777380e-01 
        </Neuron>
        <Neuron NSynapses="19">
          -2.3863120222345073e+00 1.6996345479849315e+00 9.3410698274648229e-01 -9.5371899708996732e-01 1.0080547052463051e+00 -1.0373455481178866e+00 9.9321654197820541e-01 1.3983998617858595e+00 -1.0653344295928147e+00 -5.8091067746999547e-01 -1.5779193449018212e+00 9.2981889191390510e-01 -9.5059483627906693e-01 -1.2545596180893090e+00 -1.5270452468491340e+00 1.0991129877616721e+00 1.3267014542788336e+00 7.8507307784274538e-01 -7.2587369324251783e-01 
        </Neuron>
        <Neuron NSynapses="19">
          -2.0098580978600658e+00 -2.0360869911095483e+00 1.4599470492596898e+00 1.1715461444640694e+00 2.5443843397543833e+00 6.1556387969638815e-01 1.5141137343662439e+00 -3.7509699677284708e-01 4.0235880463395474e-01 -8.5574377789726014e-02 7.9495360728932918e-01 -6.2021769651367864e-01 -1.7449552988381802e+00 -2.0959273710872042e+00 -4.5707392143279496e-01 1.7503536529619446e-01 1.9913135448134247e+00 -1.9865212478931373e+00 -1.0079495488673766e+00 
        </Neuron>
        <Neuron NSynapses="19">
          1.3489135434142030e+00 3.1133705267213165e+00 -1.2112703785544063e+00 -1.0478456986044768e+00 4.8716009628080831e-01 -2.5351874694749181e+00 -1.4358629070449502e+00 7.6386828379012628e-01 -9.1333301753887464e-01 -7.3820027110417752e-01 1.4431695245338030e+00 -1.2338672597600093e+00 -8.6955085453884651e-01 -4.1767400638676000e-01 2.2259522305025473e-01 -1.4944891102122324e+00 5.2398964336789922e-01 3.2149970901466478e-02 5.6348398365516061e-01 
        </Neuron>
        <Neuron NSynapses="19">
          -1.7779861281496740e+00 -3.6572630765050174e-01 1.0042811856476113e+00 -2.5385557057954761e-01 1.4633553271817514e+00 8.1547807759377633e-01 -1.0966340812528739e+00 4.0012183166536647e-01 1.0528151135994253e+00 3.3514228623554119e+00 2.5043646218020482e-01 3.2715370496812390e-01 -4.6501796441192594e-01 -4.5487687263714882e-01 -2.0700705847235921e+00 1.3430869342407878e+00 5.4522593530892138e-01 -1.7640168231880868e+00 1.6934728121243003e-01 
        </Neuron>
        <Neuron NSynapses="19">
          -1.8926086687782351e+00 4.0940786288190273e-01 1.7121961193150093e+00 2.1674648805107268e+00 -1.1643109594760541e+00 -1.0307674009187731e-01 2.0036784316060623e+00 1.8881017741500314e+00 -1.3004411389521486e-01 -1.3751052943110946e+00 -6.8394255566375295e-01 -8.2870578472390088e-01 1.4494278315273610e+00 6.0832916943539617e-01 -7.0905157347430470e-01 -2.1353536736023068e-01 4.9331507870845809e-01 -1.8406808448394814e+00 9.5195396718246644e-02 
        </Neuron>
        <Neuron NSynapses="19">
          1.2454175463509651e+00 5.5756823260504096e-01 1.2908621564656747e-01 7.3411802031420192e-01 1.6246568802527663e+00 3.9096161754063458e-01 1.3339977971491253e+00 -1.1567230654083203e+00 5.6745328842087428e-01 -8.0500277196645542e-02 1.2819662657813571e-01 6.9065789585150728e-01 8.4968985733023150e-01 -1.1658137733820064e+00 -8.3854533623837679e-01 1.3390027988703617e+00 -4.8884220689282232e-01 -9.5295633990609929e-01 1.2747780880457564e+00 
        </Neuron>
        <Neuron NSynapses="19">
          3.6843200325977205e-01 -1.4730823707986362e+00 1.9042772541135251e+00 2.2422806440853758e+00 -1.1670559042598994e+00 -1.7782730416230599e-01 5.1903101641602634e-01 6.4390811860428732e-01 -1.0773662661280591e-01 -1.8405496222614013e+00 7.3306478639571448e-01 1.7138185491756737e+00 -1.8832298757883910e+00 -8.0284837626396810e-01 -7.9049484299403727e-01 4.1705745103127573e-01 2.0827116937020156e+00 -8.9681262945310591e-01 -2.7925049840735633e-01 
        </Neuron>
        <Neuron NSynapses="19">
          -1.1324854714730572e+00 -3.5141849083641563e-01 1.3591762859257652e+00 1.0552939234021308e+00 -2.0205310771391490e-02 1.3181909971881603e-01 -1.5868227880845907e+00 1.4094309948207064e+00 1.3863422554247051e-01 3.7306975479786134e-02 -1.0848964526585313e-01 -2.1546653001974309e-01 2.0086726436162000e-01 -1.5383933937127863e+00 1.4149222390952882e+00 7.1455726199711145e-01 -5.1356870945225919e-01 -4.7628681590793398e-01 3.7915992326662873e-01 
        </Neuron>
        <Neuron NSynapses="19">
          4.9868033655009819e-01 8.9692183499075817e-01 3.4433812595808033e-01 -1.2327910773716924e+00 -3.3867977309498787e-01 8.5108732526712416e-01 1.6046996691037660e+00 1.5246905835960551e+00 -7.4526575217132074e-01 4.8084250537176787e-01 -1.8471715177964956e+00 2.0689721467581867e-02 -2.2203577678416539e-01 -1.5858194244281911e+00 7.4404683036173069e-01 2.1523085718177142e+00 -8.4306660923989596e-01 2.7240169091463606e-01 -4.5256737727149582e-01 
        </Neuron>
        <Neuron NSynapses="19">
          -1.4944447593838828e+00 4.0371076675372780e-01 9.2337691095097674e-01 9.6026750800599769e-01 1.4667176062648999e+00 -1.1503185198620149e-02 1.8834569776682710e+00 -1.2580976311318586e+00 -3.2750141536250826e-01 -5.2635984437849825e-01 -1.4310220223838799e+00 -7.7283733627438156e-01 -2.0578689610646639e+00 -7.9859017979519653e-01 -1.8166449301038863e+00 -1.1855526244567174e+00 -1.4680219823791676e+00 -5.0714307680678328e-01 -1.1820429461015651e+00 
        </Neuron>
        <Neuron NSynapses="19">
          -2.3240622568259806e+00 1.1724044535839584e+00 -1.1501019405430002e-01 7.3778561850983015e-01 -3.6332830014131351e-01 5.0179902177694879e-01 1.9180512313265090e+00 1.4558640789635633e+00 5.6757939014993852e-01 2.7918093101197378e-01 -1.6764359520213559e+00 -6.1074374508448104e-01 -1.6021714361738362e+00 -2.1324515783417811e-01 4.4161769436570276e-02 1.9630743051245672e+00 5.7244423887462426e-02 -1.4683295893761025e-01 -6.0841782915366749e-01 
        </Neuron>
        <Neuron NSynapses="19">
          -1.3311322240523074e+00 1.1246212216268598e+00 4.2874875301960436e-01 -1.5507229424726057e+00 -1.8231927495983209e+00 2.7297200040301978e-01 6.8378266223725503e-01 1.4053903425207889e-01 -1.0799590664389132e+00 -1.5695621524635014e-01 2.0129812463819614e+00 4.8427467303119753e-01 1.1151365038018959e+00 3.5707989955591418e-01 5.0187072547304801e-01 -6.1796784692888340e-01 -1.8936720168015659e+00 -2.1701532559402582e-02 -1.4675094587534196e+00 
        </Neuron>
      </Layer>
      <Layer Index="1" NNeurons="20">
        <Neuron NSynapses="1">
          -4.5257754803897554e-01 
        </Neuron>
        <Neuron NSynapses="1">
          -3.0885187408354603e-01 
        </Neuron>
        <Neuron NSynapses="1">
          1.3733766462784329e+00 
        </Neuron>
        <Neuron NSynapses="1">
          -1.0366045562503050e+00 
        </Neuron>
        <Neuron NSynapses="1">
          2.3402800576293264e-01 
        </Neuron>
        <Neuron NSynapses="1">
          -3.0891108282252294e-01 
        </Neuron>
        <Neuron NSynapses="1">
          2.7347409542600798e-01 
        </Neuron>
        <Neuron NSynapses="1">
          -1.3878199730729673e-01 
        </Neuron>
        <Neuron NSynapses="1">
          3.0031844735129426e-01 
        </Neuron>
        <Neuron NSynapses="1">
          2.5953902745098190e-01 
        </Neuron>
        <Neuron NSynapses="1">
          -1.2010391338467756e+00 
        </Neuron>
        <Neuron NSynapses="1">
          3.7415256190521988e-02 
        </Neuron>
        <Neuron NSynapses="1">
          7.4138317865607706e-01 
        </Neuron>
        <Neuron NSynapses="1">
          -1.4864264632846826e+00 
        </Neuron>
        <Neuron NSynapses="1">
          -1.1146273305512973e+00 
        </Neuron>
        <Neuron NSynapses="1">
          -1.8198431144522302e+00 
        </Neuron>
        <Neuron NSynapses="1">
          -6.9565196077524172e-01 
        </Neuron>
        <Neuron NSynapses="1">
          1.6628566886012315e+00 
        </Neuron>
        <Neuron NSynapses="1">
          -4.2950186440213471e-02 
        </Neuron>
        <Neuron NSynapses="1">
          5.0051519928896626e-01 
        </Neuron>
      </Layer>
      <Layer Index="2" NNeurons="1">
        <Neuron NSynapses="0"/>
      </Layer>
    </Layout>
  </Weights>
</MethodSetup>
