<?xml version="1.0"?>
<MethodSetup Method="MLP::MLPMSE">
  <GeneralInfo>
    <Info name="TMVA Release" value="4.1.4 [262404]"/>
    <Info name="ROOT Release" value="5.34/07 [336391]"/>
    <Info name="Creator" value="pseyfert"/>
    <Info name="Date" value="Thu Dec 12 16:38:47 2013"/>
    <Info name="Host" value="Linux lxbuild175.cern.ch 2.6.18-308.4.1.el5 #1 SMP Wed Apr 18 16:26:27 CEST 2012 x86_64 x86_64 x86_64 GNU/Linux"/>
    <Info name="Dir" value="/auto/sigma0/pseyfert/zoontuple/Bender_v22r7/Phys/Tau23Mu/scripts/TMVA_training_v3"/>
    <Info name="Training events" value="52072"/>
    <Info name="TrainingTime" value="9.61630294e+02"/>
    <Info name="AnalysisType" value="Classification"/>
  </GeneralInfo>
  <Options>
    <Option name="NCycles" modified="Yes">600</Option>
    <Option name="HiddenLayers" modified="Yes">N+5</Option>
    <Option name="NeuronType" modified="Yes">tanh</Option>
    <Option name="RandomSeed" modified="No">1</Option>
    <Option name="EstimatorType" modified="Yes">MSE</Option>
    <Option name="NeuronInputType" modified="No">sum</Option>
    <Option name="V" modified="Yes">False</Option>
    <Option name="VerbosityLevel" modified="No">Default</Option>
    <Option name="VarTransform" modified="Yes">N</Option>
    <Option name="H" modified="Yes">False</Option>
    <Option name="CreateMVAPdfs" modified="No">False</Option>
    <Option name="IgnoreNegWeightsInTraining" modified="No">False</Option>
    <Option name="TrainingMethod" modified="No">BP</Option>
    <Option name="LearningRate" modified="No">2.000000e-02</Option>
    <Option name="DecayRate" modified="No">1.000000e-02</Option>
    <Option name="TestRate" modified="Yes">5</Option>
    <Option name="EpochMonitoring" modified="No">False</Option>
    <Option name="Sampling" modified="No">1.000000e+00</Option>
    <Option name="SamplingEpoch" modified="No">1.000000e+00</Option>
    <Option name="SamplingImportance" modified="No">1.000000e+00</Option>
    <Option name="SamplingTraining" modified="No">True</Option>
    <Option name="SamplingTesting" modified="No">False</Option>
    <Option name="ResetStep" modified="No">50</Option>
    <Option name="Tau" modified="No">3.000000e+00</Option>
    <Option name="BPMode" modified="No">sequential</Option>
    <Option name="BatchSize" modified="No">-1</Option>
    <Option name="ConvergenceImprove" modified="No">1.000000e-30</Option>
    <Option name="ConvergenceTests" modified="No">-1</Option>
    <Option name="UseRegulator" modified="Yes">False</Option>
    <Option name="UpdateLimit" modified="No">10000</Option>
    <Option name="CalculateErrors" modified="No">False</Option>
    <Option name="WeightRange" modified="No">1.000000e+00</Option>
  </Options>
  <Variables NVar="15">
    <Variable VarIndex="0" Expression="TMath::Exp(-1000*LifeTime)" Label="TMath::Exp(-1000*LifeTime)" Title="transformed decay time" Unit="1" Internal="TMath_Exp__M_1000_T_LifeTime_" Type="F" Min="1.93987222e-11" Max="7.31256723e-01"/>
    <Variable VarIndex="1" Expression="IPSig" Label="IPSig" Title="IP significance" Unit="1" Internal="IPSig" Type="F" Min="1.11495918e-02" Max="2.49779434e+01"/>
    <Variable VarIndex="2" Expression="VertexChi2" Label="VertexChi2" Title="vertex #chi^{2}" Unit="1" Internal="VertexChi2" Type="F" Min="8.02233350e-04" Max="1.49983969e+01"/>
    <Variable VarIndex="3" Expression="acos(dira)" Label="acos(dira)" Title="pointing angle" Unit="1" Internal="acos_dira_" Type="F" Min="0.00000000e+00" Max="1.37716651e-01"/>
    <Variable VarIndex="4" Expression="pt" Label="pt" Title="p_{T}" Unit="[MeV/c]" Internal="pt" Type="F" Min="4.12933426e+01" Max="5.52403477e+04"/>
    <Variable VarIndex="5" Expression="Laura_SumBDT" Label="Laura_SumBDT" Title="Laura_SumBDT" Unit="" Internal="Laura_SumBDT" Type="F" Min="-2.57286167e+00" Max="5.00000000e+00"/>
    <Variable VarIndex="6" Expression="min(p0_IPSig,min(p1_IPSig,p2_IPSig))" Label="min(p0_IPSig,min(p1_IPSig,p2_IPSig))" Title="min. #mu IP significance" Unit="1" Internal="min_p0_IPSig,min_p1_IPSig,p2_IPSig__" Type="F" Min="2.30495882e+00" Max="1.02738922e+02"/>
    <Variable VarIndex="7" Expression="DOCAone" Label="DOCAone" Title="DOCA (#mu 1 and 2)" Unit="mm" Internal="DOCAone" Type="F" Min="2.63570382e-06" Max="9.23672736e-01"/>
    <Variable VarIndex="8" Expression="DOCAtwo" Label="DOCAtwo" Title="DOCA (#mu 2 and 3)" Unit="mm" Internal="DOCAtwo" Type="F" Min="2.43484504e-08" Max="7.44905770e-01"/>
    <Variable VarIndex="9" Expression="DOCAthree" Label="DOCAthree" Title="DOCA (#mu 1 and 3)" Unit="mm" Internal="DOCAthree" Type="F" Min="6.10736777e-07" Max="1.05343544e+00"/>
    <Variable VarIndex="10" Expression="iso" Label="iso" Title="track isolation" Unit="1" Internal="iso" Type="F" Min="0.00000000e+00" Max="1.70000000e+01"/>
    <Variable VarIndex="11" Expression="CDF3" Label="CDF3" Title="cone isolation" Unit="1" Internal="CDF3" Type="F" Min="3.00450996e-03" Max="1.00000000e+00"/>
    <Variable VarIndex="12" Expression="p0_track_MatchChi2" Label="p0_track_MatchChi2" Title="track match #chi^{2} (#mu 1)" Unit="1" Internal="p0_track_MatchChi2" Type="F" Min="4.38715070e-02" Max="8.45542831e+01"/>
    <Variable VarIndex="13" Expression="p1_track_MatchChi2" Label="p1_track_MatchChi2" Title="track match #chi^{2} (#mu 2)" Unit="1" Internal="p1_track_MatchChi2" Type="F" Min="1.31226135e-02" Max="7.59046707e+01"/>
    <Variable VarIndex="14" Expression="p2_track_MatchChi2" Label="p2_track_MatchChi2" Title="track match #chi^{2} (#mu 3)" Unit="1" Internal="p2_track_MatchChi2" Type="F" Min="1.51327997e-02" Max="7.93785172e+01"/>
  </Variables>
  <Spectators NSpec="0"/>
  <Classes NClass="2">
    <Class Name="Signal" Index="0"/>
    <Class Name="Background" Index="1"/>
  </Classes>
  <Transformations NTransformations="1">
    <Transform Name="Normalize">
      <Selection>
        <Input NInputs="15">
          <Input Type="Variable" Label="TMath::Exp(-1000*LifeTime)" Expression="TMath::Exp(-1000*LifeTime)"/>
          <Input Type="Variable" Label="IPSig" Expression="IPSig"/>
          <Input Type="Variable" Label="VertexChi2" Expression="VertexChi2"/>
          <Input Type="Variable" Label="acos(dira)" Expression="acos(dira)"/>
          <Input Type="Variable" Label="pt" Expression="pt"/>
          <Input Type="Variable" Label="Laura_SumBDT" Expression="Laura_SumBDT"/>
          <Input Type="Variable" Label="min(p0_IPSig,min(p1_IPSig,p2_IPSig))" Expression="min(p0_IPSig,min(p1_IPSig,p2_IPSig))"/>
          <Input Type="Variable" Label="DOCAone" Expression="DOCAone"/>
          <Input Type="Variable" Label="DOCAtwo" Expression="DOCAtwo"/>
          <Input Type="Variable" Label="DOCAthree" Expression="DOCAthree"/>
          <Input Type="Variable" Label="iso" Expression="iso"/>
          <Input Type="Variable" Label="CDF3" Expression="CDF3"/>
          <Input Type="Variable" Label="p0_track_MatchChi2" Expression="p0_track_MatchChi2"/>
          <Input Type="Variable" Label="p1_track_MatchChi2" Expression="p1_track_MatchChi2"/>
          <Input Type="Variable" Label="p2_track_MatchChi2" Expression="p2_track_MatchChi2"/>
        </Input>
        <Output NOutputs="15">
          <Output Type="Variable" Label="TMath::Exp(-1000*LifeTime)" Expression="TMath::Exp(-1000*LifeTime)"/>
          <Output Type="Variable" Label="IPSig" Expression="IPSig"/>
          <Output Type="Variable" Label="VertexChi2" Expression="VertexChi2"/>
          <Output Type="Variable" Label="acos(dira)" Expression="acos(dira)"/>
          <Output Type="Variable" Label="pt" Expression="pt"/>
          <Output Type="Variable" Label="Laura_SumBDT" Expression="Laura_SumBDT"/>
          <Output Type="Variable" Label="min(p0_IPSig,min(p1_IPSig,p2_IPSig))" Expression="min(p0_IPSig,min(p1_IPSig,p2_IPSig))"/>
          <Output Type="Variable" Label="DOCAone" Expression="DOCAone"/>
          <Output Type="Variable" Label="DOCAtwo" Expression="DOCAtwo"/>
          <Output Type="Variable" Label="DOCAthree" Expression="DOCAthree"/>
          <Output Type="Variable" Label="iso" Expression="iso"/>
          <Output Type="Variable" Label="CDF3" Expression="CDF3"/>
          <Output Type="Variable" Label="p0_track_MatchChi2" Expression="p0_track_MatchChi2"/>
          <Output Type="Variable" Label="p1_track_MatchChi2" Expression="p1_track_MatchChi2"/>
          <Output Type="Variable" Label="p2_track_MatchChi2" Expression="p2_track_MatchChi2"/>
        </Output>
      </Selection>
      <Class ClassIndex="0">
        <Ranges>
          <Range Index="0" Min="1.9398722211905195e-11" Max="7.3125672340393066e-01"/>
          <Range Index="1" Min="1.1149591766297817e-02" Max="2.1987730026245117e+01"/>
          <Range Index="2" Min="8.0223334953188896e-04" Max="1.4998396873474121e+01"/>
          <Range Index="3" Min="0.0000000000000000e+00" Max="1.3410498201847076e-01"/>
          <Range Index="4" Min="6.2147693634033203e+01" Max="5.5240347656250000e+04"/>
          <Range Index="5" Min="-2.5728616714477539e+00" Max="5.0000000000000000e+00"/>
          <Range Index="6" Min="2.3049588203430176e+00" Max="1.0273892211914062e+02"/>
          <Range Index="7" Min="2.6357038223068230e-06" Max="8.1560057401657104e-01"/>
          <Range Index="8" Min="2.4348450367028818e-08" Max="6.9920772314071655e-01"/>
          <Range Index="9" Min="6.1073677670719917e-07" Max="1.0170480012893677e+00"/>
          <Range Index="10" Min="0.0000000000000000e+00" Max="1.3000000000000000e+01"/>
          <Range Index="11" Min="3.0045099556446075e-03" Max="1.0000000000000000e+00"/>
          <Range Index="12" Min="4.3871507048606873e-02" Max="7.7615455627441406e+01"/>
          <Range Index="13" Min="1.3122613541781902e-02" Max="7.5904670715332031e+01"/>
          <Range Index="14" Min="1.5132799744606018e-02" Max="7.9378517150878906e+01"/>
        </Ranges>
      </Class>
      <Class ClassIndex="1">
        <Ranges>
          <Range Index="0" Min="2.1115165509399958e-05" Max="7.2934836149215698e-01"/>
          <Range Index="1" Min="1.3430085778236389e-01" Max="2.4977943420410156e+01"/>
          <Range Index="2" Min="2.2036740556359291e-02" Max="1.4991107940673828e+01"/>
          <Range Index="3" Min="0.0000000000000000e+00" Max="1.3771665096282959e-01"/>
          <Range Index="4" Min="4.1293342590332031e+01" Max="2.1269572265625000e+04"/>
          <Range Index="5" Min="-2.2138717174530029e+00" Max="-5.2525274455547333e-02"/>
          <Range Index="6" Min="2.7823791503906250e+00" Max="4.9517536163330078e+01"/>
          <Range Index="7" Min="3.9169070078060031e-05" Max="9.2367273569107056e-01"/>
          <Range Index="8" Min="5.9152989706490189e-05" Max="7.4490576982498169e-01"/>
          <Range Index="9" Min="3.1205789127852768e-05" Max="1.0534354448318481e+00"/>
          <Range Index="10" Min="0.0000000000000000e+00" Max="1.7000000000000000e+01"/>
          <Range Index="11" Min="3.8299348670989275e-03" Max="1.0000000000000000e+00"/>
          <Range Index="12" Min="1.4428974688053131e-01" Max="8.4554283142089844e+01"/>
          <Range Index="13" Min="1.4624765515327454e-01" Max="6.7723579406738281e+01"/>
          <Range Index="14" Min="4.5327022671699524e-02" Max="6.8506652832031250e+01"/>
        </Ranges>
      </Class>
      <Class ClassIndex="2">
        <Ranges>
          <Range Index="0" Min="1.9398722211905195e-11" Max="7.3125672340393066e-01"/>
          <Range Index="1" Min="1.1149591766297817e-02" Max="2.4977943420410156e+01"/>
          <Range Index="2" Min="8.0223334953188896e-04" Max="1.4998396873474121e+01"/>
          <Range Index="3" Min="0.0000000000000000e+00" Max="1.3771665096282959e-01"/>
          <Range Index="4" Min="4.1293342590332031e+01" Max="5.5240347656250000e+04"/>
          <Range Index="5" Min="-2.5728616714477539e+00" Max="5.0000000000000000e+00"/>
          <Range Index="6" Min="2.3049588203430176e+00" Max="1.0273892211914062e+02"/>
          <Range Index="7" Min="2.6357038223068230e-06" Max="9.2367273569107056e-01"/>
          <Range Index="8" Min="2.4348450367028818e-08" Max="7.4490576982498169e-01"/>
          <Range Index="9" Min="6.1073677670719917e-07" Max="1.0534354448318481e+00"/>
          <Range Index="10" Min="0.0000000000000000e+00" Max="1.7000000000000000e+01"/>
          <Range Index="11" Min="3.0045099556446075e-03" Max="1.0000000000000000e+00"/>
          <Range Index="12" Min="4.3871507048606873e-02" Max="8.4554283142089844e+01"/>
          <Range Index="13" Min="1.3122613541781902e-02" Max="7.5904670715332031e+01"/>
          <Range Index="14" Min="1.5132799744606018e-02" Max="7.9378517150878906e+01"/>
        </Ranges>
      </Class>
    </Transform>
  </Transformations>
  <MVAPdfs/>
  <Weights>
    <Layout NLayers="3">
      <Layer Index="0" NNeurons="16">
        <Neuron NSynapses="20">
          1.6640386438840461e-02 1.8435510654787937e+00 6.8461229578735960e-01 1.3923699700725594e+00 -8.4839091386801646e-01 -1.3843371528993957e+00 4.5087194357770916e-01 1.9035947932511932e+00 -6.0645698290274930e-01 -1.6804675341029210e-02 -1.3696093248828740e+00 -5.8640553923104854e-01 -1.1171129848725065e+00 -2.2079201865917225e-01 -1.3352119453498029e-01 1.7925534449176220e-01 -3.1602205196027489e-01 1.7071233893972948e+00 1.8837040843296277e-01 1.3853132562964683e+00 
        </Neuron>
        <Neuron NSynapses="20">
          -2.1337978785119049e-01 -4.4363850101459562e-01 1.3161099561997129e+00 1.0298130721806090e-01 8.5117195377002131e-01 -8.0458332444673564e-01 -1.3094514587566365e-02 -7.9666487942598230e-01 -1.3587204206978953e+00 -2.7506230116693664e-01 6.2611956217694142e-01 1.8593686289726208e+00 -9.9725100217589763e-02 2.3232931802196075e-01 -2.9548705840201228e-01 -1.7220729158351950e-01 -7.0782050700478727e-01 2.0122188396765250e+00 -5.2601502532546651e-01 1.1182033474722546e+00 
        </Neuron>
        <Neuron NSynapses="20">
          -9.8983712479241148e-01 7.6594267823401030e-01 1.4522863704394140e+00 4.4835201512096173e-01 -8.7422093018187252e-01 -1.0016448115933447e+00 -3.4108518079339550e-01 -1.2586577788981493e-01 1.1984670871972625e+00 1.3852857874105096e-01 1.5034842509267128e+00 1.3629155773022250e+00 -1.5542422648875180e+00 9.7374441964891589e-01 -3.8155658269901022e-01 1.5709663896107839e-02 -5.6244854399127464e-01 9.2326389552059462e-02 1.1290447293919144e+00 6.8677551300401563e-01 
        </Neuron>
        <Neuron NSynapses="20">
          -2.1699092151037491e-01 5.0244474154971119e-01 -9.3295931411220584e-02 1.2087241605615072e-01 1.4915472529499820e+00 -7.4442160891565579e-01 2.6702982010608145e-01 -9.3452632164181548e-01 1.2205535125187437e+00 -5.9900197711115233e-01 -8.6623259422899102e-01 -1.1109752480920492e+00 9.7133556043266422e-01 1.4870659888172737e+00 9.9079731246933977e-01 -3.0139288004335274e-01 -1.2750024609904389e+00 -1.3963763074375819e+00 2.1313832942193787e+00 4.9909839330978706e-01 
        </Neuron>
        <Neuron NSynapses="20">
          1.2282706203016316e+00 7.1063745395789979e-01 1.2517135450786703e+00 -1.1738900435468167e+00 1.0147512392666110e-01 -9.3647780682913151e-01 9.2382078162502390e-01 -8.0281580239655825e-01 -1.3224658934045483e+00 -1.6886096808637356e+00 -3.6125003779354975e-01 -9.3829505377602040e-02 1.8615795547024956e+00 -7.9041913309543521e-01 -1.2266868781209119e+00 1.5276013096104775e+00 -7.7456177930978609e-01 -8.3946932610848535e-01 -8.7729775850009606e-01 1.0201953676195896e-01 
        </Neuron>
        <Neuron NSynapses="20">
          -2.5356085395193824e+00 -1.4738473495698818e+00 8.2150715731292023e-01 1.5013299617916025e+00 -6.9241890978684573e-01 1.0533267180744659e+00 -1.6038347517223264e+00 -8.0506118052773479e-01 -4.2697972633984518e-02 2.0205641060107904e-01 -1.7964368223904454e+00 4.7924439387367124e-01 4.8812747886185542e-01 9.2643074564165728e-01 -1.5784457239335488e+00 1.5161310330720874e+00 -4.5198323345973462e-01 -1.0696837141780244e+00 1.7478960876394141e+00 -1.0729321043168520e+00 
        </Neuron>
        <Neuron NSynapses="20">
          -6.8467636128435316e-01 2.7526149625109064e-01 2.1152650266734438e-01 1.4553606552093392e+00 2.9043497238440885e-01 -8.1478125994368056e-01 -9.7701337054694332e-02 6.6197235218496153e-01 -1.4272290456483283e+00 8.3348096106272185e-01 -9.3436726246559215e-02 -1.6374380164557745e+00 8.4875583580228031e-01 -6.7174600756623337e-01 -3.5908622591986107e-02 8.9447947905501834e-01 4.2606880497064292e+00 -2.4199804403111149e+00 -1.8230217059632975e-01 1.5349464180901917e+00 
        </Neuron>
        <Neuron NSynapses="20">
          1.2863460755430720e+00 4.4257979178203688e-01 -1.4664963582470958e+00 -1.0688758025367822e+00 -1.1229207074276355e+00 7.7852201130339771e-01 8.8385518646737971e-01 2.2471372832176453e-01 -2.8113030182778509e-01 -1.5597888639505320e-01 -1.5217463792155974e+00 4.6084164791164872e-01 1.7996817548891331e+00 1.9747737706752791e-01 -9.2191999056508100e-01 4.5342735905881049e-01 -1.3617872132454936e+00 6.8539388774178289e-01 8.8463052733161518e-01 -1.4932892508116204e+00 
        </Neuron>
        <Neuron NSynapses="20">
          1.2963430150491779e+00 1.0722674521363833e+00 1.0685667311216231e+00 2.2405934543610861e-01 2.8070063828990738e-01 -1.3161905709281421e+00 -9.0085669691092662e-01 8.8681030539478245e-01 -5.2169605929476548e-01 -5.6666190399030991e-01 1.3880425270752743e+00 1.1359280995224281e+00 -2.4672824647013838e-02 2.1357483181814314e+00 1.6214254833521444e+00 -1.6109184141061708e+00 -1.4096233839578648e-01 6.0028803864362845e-01 5.1210139467192856e-02 -1.6965943204703984e+00 
        </Neuron>
        <Neuron NSynapses="20">
          -8.2882688213108557e-01 1.4328124400822435e+00 1.9942087448040398e+00 -2.5373927828921681e+00 -3.5742495488179071e-01 -1.3293061590217556e+00 1.4209182404049939e-01 1.3864146287215577e+00 -2.1971325810294418e-01 -5.3505290077082268e-01 -1.2817702543472551e+00 1.1149154994970385e+00 1.7290814302430828e+00 1.5862789731226317e+00 2.9290157127542710e-01 -6.3360100526367424e-01 4.3098841060626170e-01 1.5280621490053139e+00 -4.6114312084999132e-01 -1.3967582163761318e+00 
        </Neuron>
        <Neuron NSynapses="20">
          -1.4955657545386736e+00 5.9773212692134858e-01 7.0972977202937559e-01 -2.0316202548437512e+00 1.2742649366758227e+00 8.4137281141702366e-02 -8.2934061709116691e-01 3.6948544133828148e-01 1.8539372953366857e+00 5.2660249644331902e-01 3.5357059363221038e-01 6.6162688828525648e-02 -1.6531284194422917e+00 -2.6391620680830657e-01 7.8939106398063352e-01 7.0316798951955017e-01 -3.7774736050256236e-01 -4.2096641136954166e-01 1.1319700286955721e+00 -1.7087386382326688e+00 
        </Neuron>
        <Neuron NSynapses="20">
          -2.9383267484178904e-01 -5.4687140143692303e-01 -1.2349220848171880e+00 1.1431079220186444e+00 8.3865589565129073e-02 -7.2627477188181189e-01 1.0042477633885719e-01 -2.0160876362715205e-01 -8.9007803941525387e-01 -7.2828142586288166e-03 7.5127891481611198e-01 -1.3355241348940330e-01 8.1095872621309373e-01 -8.1697535330393267e-01 2.2936806593685449e-01 -9.4319031156210806e-02 2.6666497022750602e-01 -1.1780265890255594e-01 -3.9312630344193938e-01 -1.3150458343583302e+00 
        </Neuron>
        <Neuron NSynapses="20">
          -1.2666002976547859e+00 -2.1499868307349596e-01 -1.4017679119346649e+00 -1.5973523438518760e+00 -1.4711085555947958e+00 -5.9156096668249547e-01 -1.0765610175177578e+00 -8.1110721181209344e-01 1.4904505389895015e+00 -7.0572189650772321e-01 -2.2584183254796533e-01 -8.0456171976154534e-01 4.7259504962152737e-01 2.1610178822371302e+00 6.6227096359671345e-01 -6.0684107587393321e-01 -1.5282325937370855e+00 4.3491922679843048e-01 -1.0818640462165132e+00 -1.6366685952554330e+00 
        </Neuron>
        <Neuron NSynapses="20">
          -1.5026759876572846e-01 4.8932593894388460e-01 2.4343949787001673e+00 -4.9033087867134473e-01 -5.6282688853105634e-01 -1.1363706782172152e+00 -1.3749502749284750e+00 4.9777720064887715e-01 1.6075137147783722e+00 -6.7019992414380480e-01 -1.0364781887221390e+00 1.0688484531463600e+00 1.3294780771470018e+00 1.4129682790913598e+00 -5.1409384960158999e-01 -1.4267694888999519e-01 6.6472615420430858e-01 8.5355982350389059e-01 1.5940077474253285e+00 -2.8419405316860585e-01 
        </Neuron>
        <Neuron NSynapses="20">
          -5.0700381385324522e-01 -1.3817042848182129e-01 -1.1431183066218515e+00 -8.0711871314484374e-01 -7.6274013804563867e-01 -1.8632322295404229e+00 -1.0907376941520039e+00 5.7377061799698381e-01 -1.5812233105861737e+00 1.4012916684610217e+00 -1.9006340356325675e+00 1.3666800132752281e+00 -8.4643537483977804e-01 9.6994250266686144e-01 3.5442502119907654e-01 -1.5033743561661379e+00 2.3816252695713880e-01 8.2623105348101311e-01 -7.4792456392108120e-01 -1.4806706984472544e+00 
        </Neuron>
        <Neuron NSynapses="20">
          -1.8473807965876285e+00 -9.9372167345967533e-01 1.4732126887551718e+00 -9.9448533282462434e-02 8.0245916589798916e-01 1.3630029128281133e-03 -1.1617392621691833e+00 -2.2783123439238135e+00 -1.3029187882015199e+00 -1.3918958714089411e+00 1.2070290994243456e+00 -1.5118877257144328e+00 -1.4978578967538196e+00 8.7724414827371200e-01 5.9716098410411411e-01 -5.3037368765791404e-01 8.2711871681557814e-01 -1.3183259215787926e+00 1.1552828977919625e+00 9.6056040785265362e-01 
        </Neuron>
      </Layer>
      <Layer Index="1" NNeurons="21">
        <Neuron NSynapses="1">
          1.2592292318440759e-01 
        </Neuron>
        <Neuron NSynapses="1">
          -6.0788202042055417e-01 
        </Neuron>
        <Neuron NSynapses="1">
          1.4939712772495992e-01 
        </Neuron>
        <Neuron NSynapses="1">
          -6.9576566666250883e-01 
        </Neuron>
        <Neuron NSynapses="1">
          -1.9238484329086541e-01 
        </Neuron>
        <Neuron NSynapses="1">
          1.1004363214411252e+00 
        </Neuron>
        <Neuron NSynapses="1">
          4.4343199060119559e-01 
        </Neuron>
        <Neuron NSynapses="1">
          6.7468374560993871e-01 
        </Neuron>
        <Neuron NSynapses="1">
          6.3018001226081158e-02 
        </Neuron>
        <Neuron NSynapses="1">
          2.0871547770416637e-02 
        </Neuron>
        <Neuron NSynapses="1">
          -1.7959221287473652e+00 
        </Neuron>
        <Neuron NSynapses="1">
          3.5406512240151394e-01 
        </Neuron>
        <Neuron NSynapses="1">
          -1.5682611278319749e+00 
        </Neuron>
        <Neuron NSynapses="1">
          -1.1094794375498089e+00 
        </Neuron>
        <Neuron NSynapses="1">
          1.2585337106164777e-02 
        </Neuron>
        <Neuron NSynapses="1">
          7.0116972193456605e-03 
        </Neuron>
        <Neuron NSynapses="1">
          2.6331721834684974e-01 
        </Neuron>
        <Neuron NSynapses="1">
          -3.1035834989756206e-01 
        </Neuron>
        <Neuron NSynapses="1">
          -1.9425109188572753e-01 
        </Neuron>
        <Neuron NSynapses="1">
          -1.2710508453217698e-01 
        </Neuron>
        <Neuron NSynapses="1">
          -6.7819003265905120e-01 
        </Neuron>
      </Layer>
      <Layer Index="2" NNeurons="1">
        <Neuron NSynapses="0"/>
      </Layer>
    </Layout>
  </Weights>
</MethodSetup>
