<?xml version="1.0"?>
<MethodSetup Method="MLP::MLPBFGS">
  <GeneralInfo>
    <Info name="TMVA Release" value="4.1.4 [262404]"/>
    <Info name="ROOT Release" value="5.34/07 [336391]"/>
    <Info name="Creator" value="pseyfert"/>
    <Info name="Date" value="Thu Dec 12 16:53:02 2013"/>
    <Info name="Host" value="Linux lxbuild175.cern.ch 2.6.18-308.4.1.el5 #1 SMP Wed Apr 18 16:26:27 CEST 2012 x86_64 x86_64 x86_64 GNU/Linux"/>
    <Info name="Dir" value="/auto/sigma0/pseyfert/zoontuple/Bender_v22r7/Phys/Tau23Mu/scripts/TMVA_training"/>
    <Info name="Training events" value="52358"/>
    <Info name="TrainingTime" value="5.15464153e+03"/>
    <Info name="AnalysisType" value="Classification"/>
  </GeneralInfo>
  <Options>
    <Option name="NCycles" modified="Yes">600</Option>
    <Option name="HiddenLayers" modified="Yes">N+5</Option>
    <Option name="NeuronType" modified="Yes">tanh</Option>
    <Option name="RandomSeed" modified="No">1</Option>
    <Option name="EstimatorType" modified="Yes">CE</Option>
    <Option name="NeuronInputType" modified="No">sum</Option>
    <Option name="V" modified="Yes">False</Option>
    <Option name="VerbosityLevel" modified="No">Default</Option>
    <Option name="VarTransform" modified="Yes">N</Option>
    <Option name="H" modified="Yes">True</Option>
    <Option name="CreateMVAPdfs" modified="No">False</Option>
    <Option name="IgnoreNegWeightsInTraining" modified="No">False</Option>
    <Option name="TrainingMethod" modified="Yes">BFGS</Option>
    <Option name="LearningRate" modified="No">2.000000e-02</Option>
    <Option name="DecayRate" modified="No">1.000000e-02</Option>
    <Option name="TestRate" modified="Yes">5</Option>
    <Option name="EpochMonitoring" modified="No">False</Option>
    <Option name="Sampling" modified="No">1.000000e+00</Option>
    <Option name="SamplingEpoch" modified="No">1.000000e+00</Option>
    <Option name="SamplingImportance" modified="No">1.000000e+00</Option>
    <Option name="SamplingTraining" modified="No">True</Option>
    <Option name="SamplingTesting" modified="No">False</Option>
    <Option name="ResetStep" modified="No">50</Option>
    <Option name="Tau" modified="No">3.000000e+00</Option>
    <Option name="BPMode" modified="No">sequential</Option>
    <Option name="BatchSize" modified="No">-1</Option>
    <Option name="ConvergenceImprove" modified="No">1.000000e-30</Option>
    <Option name="ConvergenceTests" modified="No">-1</Option>
    <Option name="UseRegulator" modified="Yes">False</Option>
    <Option name="UpdateLimit" modified="No">10000</Option>
    <Option name="CalculateErrors" modified="No">False</Option>
    <Option name="WeightRange" modified="No">1.000000e+00</Option>
  </Options>
  <Variables NVar="16">
    <Variable VarIndex="0" Expression="TMath::Exp(-1000*LifeTime)" Label="TMath::Exp(-1000*LifeTime)" Title="transformed decay time" Unit="1" Internal="TMath_Exp__M_1000_T_LifeTime_" Type="F" Min="1.93987222e-11" Max="7.31256723e-01"/>
    <Variable VarIndex="1" Expression="IPSig" Label="IPSig" Title="IP significance" Unit="1" Internal="IPSig" Type="F" Min="1.11495918e-02" Max="2.49779434e+01"/>
    <Variable VarIndex="2" Expression="VertexChi2" Label="VertexChi2" Title="vertex #chi^{2}" Unit="1" Internal="VertexChi2" Type="F" Min="8.02233350e-04" Max="1.49983969e+01"/>
    <Variable VarIndex="3" Expression="acos(dira)" Label="acos(dira)" Title="pointing angle" Unit="1" Internal="acos_dira_" Type="F" Min="0.00000000e+00" Max="1.37716651e-01"/>
    <Variable VarIndex="4" Expression="pt" Label="pt" Title="p_{T}" Unit="[MeV/c]" Internal="pt" Type="F" Min="4.12933426e+01" Max="5.52403477e+04"/>
    <Variable VarIndex="5" Expression="min(p0_IPSig,min(p1_IPSig,p2_IPSig))" Label="min(p0_IPSig,min(p1_IPSig,p2_IPSig))" Title="min. #mu IP significance" Unit="1" Internal="min_p0_IPSig,min_p1_IPSig,p2_IPSig__" Type="F" Min="2.30495882e+00" Max="1.02738922e+02"/>
    <Variable VarIndex="6" Expression="DOCAone" Label="DOCAone" Title="DOCA (#mu 1 and 2)" Unit="mm" Internal="DOCAone" Type="F" Min="2.63570382e-06" Max="9.23672736e-01"/>
    <Variable VarIndex="7" Expression="DOCAtwo" Label="DOCAtwo" Title="DOCA (#mu 2 and 3)" Unit="mm" Internal="DOCAtwo" Type="F" Min="2.43484504e-08" Max="7.44905770e-01"/>
    <Variable VarIndex="8" Expression="DOCAthree" Label="DOCAthree" Title="DOCA (#mu 1 and 3)" Unit="mm" Internal="DOCAthree" Type="F" Min="6.10736777e-07" Max="1.05343544e+00"/>
    <Variable VarIndex="9" Expression="isolationd" Label="isolationd" Title="isolationd" Unit="" Internal="isolationd" Type="F" Min="0.00000000e+00" Max="7.00000000e+00"/>
    <Variable VarIndex="10" Expression="isolatione" Label="isolatione" Title="isolatione" Unit="" Internal="isolatione" Type="F" Min="0.00000000e+00" Max="8.00000000e+00"/>
    <Variable VarIndex="11" Expression="isolationf" Label="isolationf" Title="isolationf" Unit="" Internal="isolationf" Type="F" Min="0.00000000e+00" Max="8.00000000e+00"/>
    <Variable VarIndex="12" Expression="CDF3" Label="CDF3" Title="cone isolation" Unit="1" Internal="CDF3" Type="F" Min="3.00450996e-03" Max="1.00000000e+00"/>
    <Variable VarIndex="13" Expression="p0_track_MatchChi2" Label="p0_track_MatchChi2" Title="track match #chi^{2} (#mu 1)" Unit="1" Internal="p0_track_MatchChi2" Type="F" Min="4.38715070e-02" Max="8.45542831e+01"/>
    <Variable VarIndex="14" Expression="p1_track_MatchChi2" Label="p1_track_MatchChi2" Title="track match #chi^{2} (#mu 2)" Unit="1" Internal="p1_track_MatchChi2" Type="F" Min="1.31226135e-02" Max="7.59046707e+01"/>
    <Variable VarIndex="15" Expression="p2_track_MatchChi2" Label="p2_track_MatchChi2" Title="track match #chi^{2} (#mu 3)" Unit="1" Internal="p2_track_MatchChi2" Type="F" Min="1.51327997e-02" Max="7.93785172e+01"/>
  </Variables>
  <Spectators NSpec="0"/>
  <Classes NClass="2">
    <Class Name="Signal" Index="0"/>
    <Class Name="Background" Index="1"/>
  </Classes>
  <Transformations NTransformations="1">
    <Transform Name="Normalize">
      <Selection>
        <Input NInputs="16">
          <Input Type="Variable" Label="TMath::Exp(-1000*LifeTime)" Expression="TMath::Exp(-1000*LifeTime)"/>
          <Input Type="Variable" Label="IPSig" Expression="IPSig"/>
          <Input Type="Variable" Label="VertexChi2" Expression="VertexChi2"/>
          <Input Type="Variable" Label="acos(dira)" Expression="acos(dira)"/>
          <Input Type="Variable" Label="pt" Expression="pt"/>
          <Input Type="Variable" Label="min(p0_IPSig,min(p1_IPSig,p2_IPSig))" Expression="min(p0_IPSig,min(p1_IPSig,p2_IPSig))"/>
          <Input Type="Variable" Label="DOCAone" Expression="DOCAone"/>
          <Input Type="Variable" Label="DOCAtwo" Expression="DOCAtwo"/>
          <Input Type="Variable" Label="DOCAthree" Expression="DOCAthree"/>
          <Input Type="Variable" Label="isolationd" Expression="isolationd"/>
          <Input Type="Variable" Label="isolatione" Expression="isolatione"/>
          <Input Type="Variable" Label="isolationf" Expression="isolationf"/>
          <Input Type="Variable" Label="CDF3" Expression="CDF3"/>
          <Input Type="Variable" Label="p0_track_MatchChi2" Expression="p0_track_MatchChi2"/>
          <Input Type="Variable" Label="p1_track_MatchChi2" Expression="p1_track_MatchChi2"/>
          <Input Type="Variable" Label="p2_track_MatchChi2" Expression="p2_track_MatchChi2"/>
        </Input>
        <Output NOutputs="16">
          <Output Type="Variable" Label="TMath::Exp(-1000*LifeTime)" Expression="TMath::Exp(-1000*LifeTime)"/>
          <Output Type="Variable" Label="IPSig" Expression="IPSig"/>
          <Output Type="Variable" Label="VertexChi2" Expression="VertexChi2"/>
          <Output Type="Variable" Label="acos(dira)" Expression="acos(dira)"/>
          <Output Type="Variable" Label="pt" Expression="pt"/>
          <Output Type="Variable" Label="min(p0_IPSig,min(p1_IPSig,p2_IPSig))" Expression="min(p0_IPSig,min(p1_IPSig,p2_IPSig))"/>
          <Output Type="Variable" Label="DOCAone" Expression="DOCAone"/>
          <Output Type="Variable" Label="DOCAtwo" Expression="DOCAtwo"/>
          <Output Type="Variable" Label="DOCAthree" Expression="DOCAthree"/>
          <Output Type="Variable" Label="isolationd" Expression="isolationd"/>
          <Output Type="Variable" Label="isolatione" Expression="isolatione"/>
          <Output Type="Variable" Label="isolationf" Expression="isolationf"/>
          <Output Type="Variable" Label="CDF3" Expression="CDF3"/>
          <Output Type="Variable" Label="p0_track_MatchChi2" Expression="p0_track_MatchChi2"/>
          <Output Type="Variable" Label="p1_track_MatchChi2" Expression="p1_track_MatchChi2"/>
          <Output Type="Variable" Label="p2_track_MatchChi2" Expression="p2_track_MatchChi2"/>
        </Output>
      </Selection>
      <Class ClassIndex="0">
        <Ranges>
          <Range Index="0" Min="1.9398722211905195e-11" Max="7.3125672340393066e-01"/>
          <Range Index="1" Min="1.1149591766297817e-02" Max="2.1987730026245117e+01"/>
          <Range Index="2" Min="8.0223334953188896e-04" Max="1.4998396873474121e+01"/>
          <Range Index="3" Min="0.0000000000000000e+00" Max="1.3410498201847076e-01"/>
          <Range Index="4" Min="6.2147693634033203e+01" Max="5.5240347656250000e+04"/>
          <Range Index="5" Min="2.3049588203430176e+00" Max="1.0273892211914062e+02"/>
          <Range Index="6" Min="2.6357038223068230e-06" Max="8.1560057401657104e-01"/>
          <Range Index="7" Min="2.4348450367028818e-08" Max="6.9920772314071655e-01"/>
          <Range Index="8" Min="6.1073677670719917e-07" Max="1.0170480012893677e+00"/>
          <Range Index="9" Min="0.0000000000000000e+00" Max="6.0000000000000000e+00"/>
          <Range Index="10" Min="0.0000000000000000e+00" Max="6.0000000000000000e+00"/>
          <Range Index="11" Min="0.0000000000000000e+00" Max="7.0000000000000000e+00"/>
          <Range Index="12" Min="3.0045099556446075e-03" Max="1.0000000000000000e+00"/>
          <Range Index="13" Min="4.3871507048606873e-02" Max="7.7615455627441406e+01"/>
          <Range Index="14" Min="1.3122613541781902e-02" Max="7.5904670715332031e+01"/>
          <Range Index="15" Min="1.5132799744606018e-02" Max="7.9378517150878906e+01"/>
        </Ranges>
      </Class>
      <Class ClassIndex="1">
        <Ranges>
          <Range Index="0" Min="2.1115165509399958e-05" Max="7.2934836149215698e-01"/>
          <Range Index="1" Min="1.3430085778236389e-01" Max="2.4977943420410156e+01"/>
          <Range Index="2" Min="2.2036740556359291e-02" Max="1.4991107940673828e+01"/>
          <Range Index="3" Min="0.0000000000000000e+00" Max="1.3771665096282959e-01"/>
          <Range Index="4" Min="4.1293342590332031e+01" Max="2.1269572265625000e+04"/>
          <Range Index="5" Min="2.7823791503906250e+00" Max="5.1121429443359375e+01"/>
          <Range Index="6" Min="3.9169070078060031e-05" Max="9.2367273569107056e-01"/>
          <Range Index="7" Min="4.2437626689206809e-05" Max="7.4490576982498169e-01"/>
          <Range Index="8" Min="3.1205789127852768e-05" Max="1.0534354448318481e+00"/>
          <Range Index="9" Min="0.0000000000000000e+00" Max="7.0000000000000000e+00"/>
          <Range Index="10" Min="0.0000000000000000e+00" Max="8.0000000000000000e+00"/>
          <Range Index="11" Min="0.0000000000000000e+00" Max="8.0000000000000000e+00"/>
          <Range Index="12" Min="3.8299348670989275e-03" Max="1.0000000000000000e+00"/>
          <Range Index="13" Min="1.4428974688053131e-01" Max="8.4554283142089844e+01"/>
          <Range Index="14" Min="1.4624765515327454e-01" Max="6.7723579406738281e+01"/>
          <Range Index="15" Min="4.5327022671699524e-02" Max="6.8506652832031250e+01"/>
        </Ranges>
      </Class>
      <Class ClassIndex="2">
        <Ranges>
          <Range Index="0" Min="1.9398722211905195e-11" Max="7.3125672340393066e-01"/>
          <Range Index="1" Min="1.1149591766297817e-02" Max="2.4977943420410156e+01"/>
          <Range Index="2" Min="8.0223334953188896e-04" Max="1.4998396873474121e+01"/>
          <Range Index="3" Min="0.0000000000000000e+00" Max="1.3771665096282959e-01"/>
          <Range Index="4" Min="4.1293342590332031e+01" Max="5.5240347656250000e+04"/>
          <Range Index="5" Min="2.3049588203430176e+00" Max="1.0273892211914062e+02"/>
          <Range Index="6" Min="2.6357038223068230e-06" Max="9.2367273569107056e-01"/>
          <Range Index="7" Min="2.4348450367028818e-08" Max="7.4490576982498169e-01"/>
          <Range Index="8" Min="6.1073677670719917e-07" Max="1.0534354448318481e+00"/>
          <Range Index="9" Min="0.0000000000000000e+00" Max="7.0000000000000000e+00"/>
          <Range Index="10" Min="0.0000000000000000e+00" Max="8.0000000000000000e+00"/>
          <Range Index="11" Min="0.0000000000000000e+00" Max="8.0000000000000000e+00"/>
          <Range Index="12" Min="3.0045099556446075e-03" Max="1.0000000000000000e+00"/>
          <Range Index="13" Min="4.3871507048606873e-02" Max="8.4554283142089844e+01"/>
          <Range Index="14" Min="1.3122613541781902e-02" Max="7.5904670715332031e+01"/>
          <Range Index="15" Min="1.5132799744606018e-02" Max="7.9378517150878906e+01"/>
        </Ranges>
      </Class>
    </Transform>
  </Transformations>
  <MVAPdfs/>
  <Weights>
    <Layout NLayers="3">
      <Layer Index="0" NNeurons="17">
        <Neuron NSynapses="21">
          -9.3042248325252125e-02 9.8114742178752901e-01 8.5651797207292957e-01 5.4007978499109532e-01 -1.1154033172767617e+00 -9.8311882137538026e-02 1.4169260243583472e+00 1.8403835248444793e+00 -1.7445873034900014e-01 -8.6717972240409225e-01 -1.2514046028912793e+00 1.8797535753274377e+00 -1.1379209487161783e+00 4.1792681344488887e-02 4.2157544226296279e-01 7.3896747951270336e-01 -5.7649918332681782e-01 3.9777230132964494e+00 2.4168688018391771e-02 1.3792278540032772e+00 -2.8850896535348336e+00 
        </Neuron>
        <Neuron NSynapses="21">
          -7.0802778122770316e-01 7.2629442779067444e-01 -8.5756270704297574e-02 -3.6289659078739236e+00 1.8638510769772573e-01 1.9064909711286282e+00 1.6027221229635506e-02 -1.6201496093182615e+00 -2.7400047488348250e-01 7.7564541689086541e-01 1.6696293339570314e+00 3.4683462374843338e-01 -2.6007722767825486e-01 1.4158410427776011e-01 -8.9157197922619535e-01 -1.4181296145431428e+00 2.1474575962963129e+00 -3.4904247252819198e+00 2.1884999519651980e+00 1.1966904342787421e+00 2.4268522844313840e+00 
        </Neuron>
        <Neuron NSynapses="21">
          1.3013919525659983e+00 -2.1822273727710084e-01 -7.0527509909208952e-01 -4.1232487782238841e-01 1.2981710825367523e+00 -1.6915205962636662e-01 2.3014566450719394e+00 9.4192543643824977e-01 4.4264564459728101e-01 1.0928524533230133e+00 -1.3038288102334545e+00 1.3238698778769489e-01 -1.7215988422236701e+00 -3.6228359228827173e-01 -2.0366820216787387e+00 -1.7778365038858652e+00 2.3627441758738112e+00 1.1842704770764294e+00 4.7480922549474364e-02 3.7959247568559829e-01 -2.4538740683759402e-01 
        </Neuron>
        <Neuron NSynapses="21">
          6.0473113923234589e-01 -3.0955014960189348e-01 -5.1165453252691651e-01 2.0667311193545745e+00 -2.7453983764217366e-01 1.4051660535719164e+00 -2.4116432601607363e+00 -7.6977404900191659e-01 1.6142270622920598e+00 5.0373706183971700e-01 1.4715605963752070e+00 1.6642951973057185e+00 -4.3228857624744699e-01 -2.4358985307553610e-01 -1.7221485666858607e+00 1.0575872920482989e+00 9.8298907273594149e-01 2.4991494728672223e-01 -3.1489321983016083e+00 9.8478608241426868e-01 -1.9034427217799010e+00 
        </Neuron>
        <Neuron NSynapses="21">
          -9.7770492975113044e-01 3.3777587270334603e-01 7.0277045686167539e-01 -3.9431265178907462e+00 -1.0152130298141089e+00 -8.3336422393904597e-01 -2.2777655037512709e-01 -1.6989072807742070e-01 1.5776935997538780e-01 -2.2399211438581466e+00 -4.0402740429208511e-01 1.0367330450897412e+00 -1.0076369182528584e+00 3.2180575412346302e-01 7.2288609951555716e-01 1.4517672406456653e-01 -1.5562186135323250e+00 -1.2040577698372719e+00 2.1076734865574807e+00 1.6531943372859996e+00 -3.2050723530907397e+00 
        </Neuron>
        <Neuron NSynapses="21">
          1.4374801646896989e+00 -3.4414841134523853e+00 -1.2367440265608258e+00 -1.8625955779748362e+00 7.7257582740448227e-01 -6.4583152749709583e-01 -8.0248849089654495e-01 3.6133799500035163e-01 7.4017574811363718e-01 -2.0561735155801717e+00 2.1897177888919486e+00 -4.3854373349627113e-01 -1.1268209941640246e+00 -1.1220161184752030e-01 -2.8262444798035196e+00 -1.5445684132374069e+00 8.5814040343942088e-01 3.7926348329284747e+00 6.9889902285358705e+00 7.6175320648830314e-01 -3.2999877221674825e+00 
        </Neuron>
        <Neuron NSynapses="21">
          -1.4697330308934142e+00 1.1700898844158882e+00 -2.1575202962719420e+00 1.3030374099517663e+00 9.2019371526838123e-01 3.1075090327807220e-01 1.9410987738639476e-01 -2.3378838444092316e+00 -1.3897418973308420e+00 6.0017854605870935e-01 2.2585561523142883e+00 -4.1278839009760189e+00 2.0065382167685952e-01 1.2593665107010743e-01 -9.5174627129513023e-01 1.7403464776191233e-01 -1.1785253418350641e+00 4.1891193445321490e-01 -1.6787375452842250e+00 1.5790930862459636e+00 1.2955971584445503e+00 
        </Neuron>
        <Neuron NSynapses="21">
          -1.2627645259977498e+00 4.4593299968349553e-01 -1.1159023616634196e-01 1.8305711621318790e+00 1.1648713694207051e+00 3.7275484397960407e-01 -5.9971060098632822e-01 -6.6594330956247183e-01 -4.8815291848300091e-01 4.1715746191647940e-01 1.0008675629083990e+00 5.3869210667352962e-01 -1.6260102629020747e+00 8.5103201355504643e-02 1.9350075212857636e+00 5.4429116057995797e-01 9.9728081381347344e-01 1.3030483840750131e+00 -1.0957073565266555e+00 -6.1807964152565420e-01 -3.5465761607403673e-01 
        </Neuron>
        <Neuron NSynapses="21">
          -1.7264382500981790e+00 1.4910620994699535e+00 1.1426960862435174e+00 6.0408270760830574e-01 1.4964850745666861e-01 7.8368765534666229e-01 1.8820012865372902e+00 -2.7614930618088169e+00 3.1213942344284153e+00 -5.8202583232045668e-01 9.4266088522722236e-01 -3.5923084306803004e+00 -1.6601825673477808e+00 7.6089471760798810e-01 3.9126745571323551e-01 -1.7372403793359992e+00 1.0328148571242698e-01 2.1529357036396476e-01 1.6706833024078459e-02 1.7776990635740624e+00 5.3114768339313478e-01 
        </Neuron>
        <Neuron NSynapses="21">
          -5.3312776736247047e-01 -1.8984284328872791e-01 6.7010910723956729e-01 6.4348364992466389e-01 2.0354422784961983e+00 1.1072074009042636e+00 -1.1598425776896515e+00 -1.8632202699057667e+00 2.1900041539746868e+00 1.5097353108412551e-01 -9.0561869350233515e-01 -1.1246344729164486e+00 1.9880899866873691e-01 1.3317357673821686e-02 -9.0113089615141506e-01 1.6163830122969514e+00 1.3229826930868052e+00 -1.3522232475754170e+00 -1.1078248044559984e+00 1.6200686329900287e+00 -9.7384953725949255e-02 
        </Neuron>
        <Neuron NSynapses="21">
          3.2587875955332585e-01 -4.3323440921057110e-01 -2.1397044956203524e+00 -4.7667893131809976e-02 2.4303918616628519e+00 1.0628690468312620e+00 1.5502205328125502e+00 3.6510429517781673e-01 2.6174504646524310e+00 -1.7392693759956326e+00 -8.3135921295034876e-01 6.2025465724663842e-01 -1.4725693609919028e+00 -2.2807785847580758e-01 -1.8654635164733476e-02 -1.1462129218923964e+00 1.5540582507723979e+00 -2.1726398695717206e+00 -4.3875563078590163e-01 -1.0936612202532630e+00 3.5488026290360879e+00 
        </Neuron>
        <Neuron NSynapses="21">
          -9.9411245841690019e-02 -3.2935595652576244e-01 -1.4185888596713012e+00 9.3175777167560991e-01 -1.0923571041971192e+00 1.4589794808430552e+00 1.1629893012920196e+00 -1.1531119197013189e+00 -2.8408023256519557e+00 -2.1592651383449639e+00 4.7502949522956257e-02 -4.4781433106570157e-01 -1.5592307302240311e+00 -2.1277387411815579e-01 -2.3730368134709590e+00 -9.2260885113451274e-01 -1.1314254843933347e+00 -2.0564720799508347e+00 -7.0232433434498187e-01 1.4094187242428913e-01 2.4048275370841443e+00 
        </Neuron>
        <Neuron NSynapses="21">
          -6.3102310248169910e-02 -1.2585190658613052e-01 1.0863036856046557e+00 4.3823606651198099e-01 -1.0872000788999108e+00 7.4487430262056092e-02 -8.0155349457614866e-01 -1.8340046240892502e+00 1.8379281949880932e+00 -7.4932615508252504e-02 1.6179174013899769e+00 -8.7476480818104652e-01 1.4369327806772070e-01 -1.7452903405213291e-01 -4.2290146638602782e-01 1.2692022782734460e+00 1.0069131952766166e+00 -3.0140323953669430e+00 2.1551726720919903e-01 8.7819222384054485e-01 3.3019547312976316e+00 
        </Neuron>
        <Neuron NSynapses="21">
          4.2941371508917220e-02 1.6771876941561512e-01 -6.5488975903020341e-01 2.7845077250082506e-02 1.4950570712473923e+00 -7.6868144823143331e-02 -6.9630594164652815e-01 1.3200388663152771e-01 5.8833773532428435e-01 -1.7395034152884015e+00 -1.2155125115435675e-01 -8.9781029336327278e-01 -1.5166013049098834e+00 -1.9536706456047107e-01 5.9301163414315168e+00 -1.8545904590680526e+00 2.5829059463791593e+00 -3.6537606528899436e+00 3.1255866670051496e-01 -1.1103197168230794e+00 1.6672746510537817e+00 
        </Neuron>
        <Neuron NSynapses="21">
          3.5462284609463296e-01 -3.3192200458715204e-01 -4.7156098309138396e-02 1.2389506214323702e+00 -1.3863608441840520e+00 3.4495261905800084e-01 -9.9965136806451438e-01 -8.0165451307780311e-01 2.3306066916946757e+00 -9.9105702571324994e-01 7.2076742436420804e-01 -6.6352622877440676e-02 -1.3049781045398021e+00 -3.7584791699839311e-02 3.2149421897068211e+00 -1.3441305935310142e+00 1.7038115994392504e+00 -1.6078407885562012e+00 -1.5645370594103509e+00 1.7443263823405022e+00 1.6383317392264035e-01 
        </Neuron>
        <Neuron NSynapses="21">
          -5.3870926980028855e-01 -1.1238680857322012e+00 -1.9473787062636554e+00 6.4235787498098174e-01 1.6127764064145940e+00 -2.5480142213474921e-01 -1.2058784735326082e+00 -9.9225191802926965e-02 -3.6208796493476809e+00 -1.1814228912953885e-01 2.2694169969408264e+00 -2.0977545150450330e-01 1.4097481305263686e+00 -3.4015211408496498e-01 2.3218127519384724e+00 -1.9173613032316696e+00 7.1892793484692197e-01 -1.5930771365168832e+00 -1.4047968747061477e+00 -6.9314923432675715e-02 1.8908214927578759e+00 
        </Neuron>
        <Neuron NSynapses="21">
          7.6009592399341308e-01 -2.9093368878513433e+00 7.3122782798395103e-01 -5.2675294845821585e-01 -1.3980082524276740e+00 6.7950088365030075e+00 2.5261143165539184e+00 -1.5545281608070902e+00 -5.2808208010521274e-01 -7.3815664116122193e-01 -9.6394749472566388e-01 7.9132456556606889e-01 3.8025994632980620e-01 3.0358329476712348e-01 1.6043967550581888e+00 1.6114114617985440e+00 2.4268547544652633e-01 4.4888667001043964e-02 2.2806980536409398e+00 -1.4546835933040498e+00 -2.8975770798394236e+00 
        </Neuron>
      </Layer>
      <Layer Index="1" NNeurons="22">
        <Neuron NSynapses="1">
          8.9215814741669752e-01 
        </Neuron>
        <Neuron NSynapses="1">
          -2.6607274375975196e+00 
        </Neuron>
        <Neuron NSynapses="1">
          -1.1612724025031936e-01 
        </Neuron>
        <Neuron NSynapses="1">
          1.9862892997690385e+00 
        </Neuron>
        <Neuron NSynapses="1">
          5.0703359683873561e-01 
        </Neuron>
        <Neuron NSynapses="1">
          -4.6798717932066927e+00 
        </Neuron>
        <Neuron NSynapses="1">
          -3.0130316216742772e+00 
        </Neuron>
        <Neuron NSynapses="1">
          3.1945350008270097e+00 
        </Neuron>
        <Neuron NSynapses="1">
          -2.1230191514798684e+00 
        </Neuron>
        <Neuron NSynapses="1">
          2.1820557808155505e-01 
        </Neuron>
        <Neuron NSynapses="1">
          -3.1311413317295686e-02 
        </Neuron>
        <Neuron NSynapses="1">
          -2.2392144273307926e+00 
        </Neuron>
        <Neuron NSynapses="1">
          -1.0643269849801635e+00 
        </Neuron>
        <Neuron NSynapses="1">
          4.3961509379587618e+00 
        </Neuron>
        <Neuron NSynapses="1">
          -6.7247650958038363e-01 
        </Neuron>
        <Neuron NSynapses="1">
          -7.8196573863876162e-01 
        </Neuron>
        <Neuron NSynapses="1">
          -1.9927720939775906e+00 
        </Neuron>
        <Neuron NSynapses="1">
          2.0560431815141365e+00 
        </Neuron>
        <Neuron NSynapses="1">
          2.2452492858830571e+00 
        </Neuron>
        <Neuron NSynapses="1">
          -4.0119939385562697e-01 
        </Neuron>
        <Neuron NSynapses="1">
          3.8274599575281512e+00 
        </Neuron>
        <Neuron NSynapses="1">
          2.1779508704020509e+00 
        </Neuron>
      </Layer>
      <Layer Index="2" NNeurons="1">
        <Neuron NSynapses="0"/>
      </Layer>
    </Layout>
  </Weights>
</MethodSetup>
