<?xml version="1.0"?>
<MethodSetup Method="MLP::MLPCJ">
  <GeneralInfo>
    <Info name="TMVA Release" value="4.1.4 [262404]"/>
    <Info name="ROOT Release" value="5.34/07 [336391]"/>
    <Info name="Creator" value="pseyfert"/>
    <Info name="Date" value="Sat Dec 21 19:39:19 2013"/>
    <Info name="Host" value="Linux lxbuild175.cern.ch 2.6.18-308.4.1.el5 #1 SMP Wed Apr 18 16:26:27 CEST 2012 x86_64 x86_64 x86_64 GNU/Linux"/>
    <Info name="Dir" value="/auto/sigma0/pseyfert/zoontuple/Bender_v22r7/Phys/Tau23Mu/scripts/TMVA_training_v3"/>
    <Info name="Training events" value="41107"/>
    <Info name="TrainingTime" value="6.71895185e+02"/>
    <Info name="AnalysisType" value="Classification"/>
  </GeneralInfo>
  <Options>
    <Option name="NCycles" modified="Yes">600</Option>
    <Option name="HiddenLayers" modified="Yes">N+5</Option>
    <Option name="NeuronType" modified="Yes">tanh</Option>
    <Option name="RandomSeed" modified="No">1</Option>
    <Option name="EstimatorType" modified="Yes">CE</Option>
    <Option name="NeuronInputType" modified="No">sum</Option>
    <Option name="V" modified="Yes">False</Option>
    <Option name="VerbosityLevel" modified="No">Default</Option>
    <Option name="VarTransform" modified="Yes">N</Option>
    <Option name="H" modified="Yes">False</Option>
    <Option name="CreateMVAPdfs" modified="No">False</Option>
    <Option name="IgnoreNegWeightsInTraining" modified="No">False</Option>
    <Option name="TrainingMethod" modified="No">BP</Option>
    <Option name="LearningRate" modified="No">2.000000e-02</Option>
    <Option name="DecayRate" modified="No">1.000000e-02</Option>
    <Option name="TestRate" modified="Yes">5</Option>
    <Option name="EpochMonitoring" modified="No">False</Option>
    <Option name="Sampling" modified="No">1.000000e+00</Option>
    <Option name="SamplingEpoch" modified="No">1.000000e+00</Option>
    <Option name="SamplingImportance" modified="No">1.000000e+00</Option>
    <Option name="SamplingTraining" modified="No">True</Option>
    <Option name="SamplingTesting" modified="No">False</Option>
    <Option name="ResetStep" modified="No">50</Option>
    <Option name="Tau" modified="No">3.000000e+00</Option>
    <Option name="BPMode" modified="No">sequential</Option>
    <Option name="BatchSize" modified="No">-1</Option>
    <Option name="ConvergenceImprove" modified="No">1.000000e-30</Option>
    <Option name="ConvergenceTests" modified="No">-1</Option>
    <Option name="UseRegulator" modified="Yes">False</Option>
    <Option name="UpdateLimit" modified="No">10000</Option>
    <Option name="CalculateErrors" modified="No">False</Option>
    <Option name="WeightRange" modified="No">1.000000e+00</Option>
  </Options>
  <Variables NVar="13">
    <Variable VarIndex="0" Expression="TMath::Exp(-1000*LifeTime)" Label="TMath::Exp(-1000*LifeTime)" Title="transformed decay time" Unit="1" Internal="TMath_Exp__M_1000_T_LifeTime_" Type="F" Min="1.93987222e-11" Max="7.31256723e-01"/>
    <Variable VarIndex="1" Expression="IPSig" Label="IPSig" Title="IP significance" Unit="1" Internal="IPSig" Type="F" Min="1.11495918e-02" Max="2.49779434e+01"/>
    <Variable VarIndex="2" Expression="VertexChi2" Label="VertexChi2" Title="vertex #chi^{2}" Unit="1" Internal="VertexChi2" Type="F" Min="1.89490011e-03" Max="1.49983969e+01"/>
    <Variable VarIndex="3" Expression="acos(dira)" Label="acos(dira)" Title="pointing angle" Unit="1" Internal="acos_dira_" Type="F" Min="0.00000000e+00" Max="1.37716651e-01"/>
    <Variable VarIndex="4" Expression="pt" Label="pt" Title="p_{T}" Unit="[MeV/c]" Internal="pt" Type="F" Min="4.12933426e+01" Max="3.79619180e+04"/>
    <Variable VarIndex="5" Expression="min(p0_IPSig,min(p1_IPSig,p2_IPSig))" Label="min(p0_IPSig,min(p1_IPSig,p2_IPSig))" Title="min. #mu IP significance" Unit="1" Internal="min_p0_IPSig,min_p1_IPSig,p2_IPSig__" Type="F" Min="2.30495882e+00" Max="1.02738922e+02"/>
    <Variable VarIndex="6" Expression="DOCAone" Label="DOCAone" Title="DOCA (#mu 1 and 2)" Unit="mm" Internal="DOCAone" Type="F" Min="2.63570382e-06" Max="9.23672736e-01"/>
    <Variable VarIndex="7" Expression="DOCAtwo" Label="DOCAtwo" Title="DOCA (#mu 2 and 3)" Unit="mm" Internal="DOCAtwo" Type="F" Min="2.43484504e-08" Max="7.44905770e-01"/>
    <Variable VarIndex="8" Expression="DOCAthree" Label="DOCAthree" Title="DOCA (#mu 1 and 3)" Unit="mm" Internal="DOCAthree" Type="F" Min="6.10736777e-07" Max="1.05343544e+00"/>
    <Variable VarIndex="9" Expression="CDF3" Label="CDF3" Title="cone isolation" Unit="1" Internal="CDF3" Type="F" Min="3.00450996e-03" Max="1.00000000e+00"/>
    <Variable VarIndex="10" Expression="p0_track_MatchChi2" Label="p0_track_MatchChi2" Title="track match #chi^{2} (#mu 1)" Unit="1" Internal="p0_track_MatchChi2" Type="F" Min="5.59116006e-02" Max="8.45542831e+01"/>
    <Variable VarIndex="11" Expression="p1_track_MatchChi2" Label="p1_track_MatchChi2" Title="track match #chi^{2} (#mu 2)" Unit="1" Internal="p1_track_MatchChi2" Type="F" Min="1.31226135e-02" Max="7.59046707e+01"/>
    <Variable VarIndex="12" Expression="p2_track_MatchChi2" Label="p2_track_MatchChi2" Title="track match #chi^{2} (#mu 3)" Unit="1" Internal="p2_track_MatchChi2" Type="F" Min="1.51327997e-02" Max="7.93785172e+01"/>
  </Variables>
  <Spectators NSpec="0"/>
  <Classes NClass="2">
    <Class Name="Signal" Index="0"/>
    <Class Name="Background" Index="1"/>
  </Classes>
  <Transformations NTransformations="1">
    <Transform Name="Normalize">
      <Selection>
        <Input NInputs="13">
          <Input Type="Variable" Label="TMath::Exp(-1000*LifeTime)" Expression="TMath::Exp(-1000*LifeTime)"/>
          <Input Type="Variable" Label="IPSig" Expression="IPSig"/>
          <Input Type="Variable" Label="VertexChi2" Expression="VertexChi2"/>
          <Input Type="Variable" Label="acos(dira)" Expression="acos(dira)"/>
          <Input Type="Variable" Label="pt" Expression="pt"/>
          <Input Type="Variable" Label="min(p0_IPSig,min(p1_IPSig,p2_IPSig))" Expression="min(p0_IPSig,min(p1_IPSig,p2_IPSig))"/>
          <Input Type="Variable" Label="DOCAone" Expression="DOCAone"/>
          <Input Type="Variable" Label="DOCAtwo" Expression="DOCAtwo"/>
          <Input Type="Variable" Label="DOCAthree" Expression="DOCAthree"/>
          <Input Type="Variable" Label="CDF3" Expression="CDF3"/>
          <Input Type="Variable" Label="p0_track_MatchChi2" Expression="p0_track_MatchChi2"/>
          <Input Type="Variable" Label="p1_track_MatchChi2" Expression="p1_track_MatchChi2"/>
          <Input Type="Variable" Label="p2_track_MatchChi2" Expression="p2_track_MatchChi2"/>
        </Input>
        <Output NOutputs="13">
          <Output Type="Variable" Label="TMath::Exp(-1000*LifeTime)" Expression="TMath::Exp(-1000*LifeTime)"/>
          <Output Type="Variable" Label="IPSig" Expression="IPSig"/>
          <Output Type="Variable" Label="VertexChi2" Expression="VertexChi2"/>
          <Output Type="Variable" Label="acos(dira)" Expression="acos(dira)"/>
          <Output Type="Variable" Label="pt" Expression="pt"/>
          <Output Type="Variable" Label="min(p0_IPSig,min(p1_IPSig,p2_IPSig))" Expression="min(p0_IPSig,min(p1_IPSig,p2_IPSig))"/>
          <Output Type="Variable" Label="DOCAone" Expression="DOCAone"/>
          <Output Type="Variable" Label="DOCAtwo" Expression="DOCAtwo"/>
          <Output Type="Variable" Label="DOCAthree" Expression="DOCAthree"/>
          <Output Type="Variable" Label="CDF3" Expression="CDF3"/>
          <Output Type="Variable" Label="p0_track_MatchChi2" Expression="p0_track_MatchChi2"/>
          <Output Type="Variable" Label="p1_track_MatchChi2" Expression="p1_track_MatchChi2"/>
          <Output Type="Variable" Label="p2_track_MatchChi2" Expression="p2_track_MatchChi2"/>
        </Output>
      </Selection>
      <Class ClassIndex="0">
        <Ranges>
          <Range Index="0" Min="1.9398722211905195e-11" Max="7.3125672340393066e-01"/>
          <Range Index="1" Min="1.1149591766297817e-02" Max="2.1987730026245117e+01"/>
          <Range Index="2" Min="1.8949001096189022e-03" Max="1.4998396873474121e+01"/>
          <Range Index="3" Min="0.0000000000000000e+00" Max="1.3410498201847076e-01"/>
          <Range Index="4" Min="6.2147693634033203e+01" Max="3.7961917968750000e+04"/>
          <Range Index="5" Min="2.3049588203430176e+00" Max="1.0273892211914062e+02"/>
          <Range Index="6" Min="2.6357038223068230e-06" Max="7.3856800794601440e-01"/>
          <Range Index="7" Min="2.4348450367028818e-08" Max="6.9920772314071655e-01"/>
          <Range Index="8" Min="6.1073677670719917e-07" Max="1.0170480012893677e+00"/>
          <Range Index="9" Min="3.0045099556446075e-03" Max="1.0000000000000000e+00"/>
          <Range Index="10" Min="5.5911600589752197e-02" Max="7.2067237854003906e+01"/>
          <Range Index="11" Min="1.3122613541781902e-02" Max="7.5904670715332031e+01"/>
          <Range Index="12" Min="1.5132799744606018e-02" Max="7.9378517150878906e+01"/>
        </Ranges>
      </Class>
      <Class ClassIndex="1">
        <Ranges>
          <Range Index="0" Min="2.1115165509399958e-05" Max="7.2934836149215698e-01"/>
          <Range Index="1" Min="1.3430085778236389e-01" Max="2.4977943420410156e+01"/>
          <Range Index="2" Min="2.2036740556359291e-02" Max="1.4991107940673828e+01"/>
          <Range Index="3" Min="0.0000000000000000e+00" Max="1.3771665096282959e-01"/>
          <Range Index="4" Min="4.1293342590332031e+01" Max="2.1269572265625000e+04"/>
          <Range Index="5" Min="2.7823791503906250e+00" Max="4.9517536163330078e+01"/>
          <Range Index="6" Min="3.9169070078060031e-05" Max="9.2367273569107056e-01"/>
          <Range Index="7" Min="5.9152989706490189e-05" Max="7.4490576982498169e-01"/>
          <Range Index="8" Min="3.1205789127852768e-05" Max="1.0534354448318481e+00"/>
          <Range Index="9" Min="3.8299348670989275e-03" Max="1.0000000000000000e+00"/>
          <Range Index="10" Min="1.4428974688053131e-01" Max="8.4554283142089844e+01"/>
          <Range Index="11" Min="1.4624765515327454e-01" Max="6.7723579406738281e+01"/>
          <Range Index="12" Min="4.5327022671699524e-02" Max="6.8506652832031250e+01"/>
        </Ranges>
      </Class>
      <Class ClassIndex="2">
        <Ranges>
          <Range Index="0" Min="1.9398722211905195e-11" Max="7.3125672340393066e-01"/>
          <Range Index="1" Min="1.1149591766297817e-02" Max="2.4977943420410156e+01"/>
          <Range Index="2" Min="1.8949001096189022e-03" Max="1.4998396873474121e+01"/>
          <Range Index="3" Min="0.0000000000000000e+00" Max="1.3771665096282959e-01"/>
          <Range Index="4" Min="4.1293342590332031e+01" Max="3.7961917968750000e+04"/>
          <Range Index="5" Min="2.3049588203430176e+00" Max="1.0273892211914062e+02"/>
          <Range Index="6" Min="2.6357038223068230e-06" Max="9.2367273569107056e-01"/>
          <Range Index="7" Min="2.4348450367028818e-08" Max="7.4490576982498169e-01"/>
          <Range Index="8" Min="6.1073677670719917e-07" Max="1.0534354448318481e+00"/>
          <Range Index="9" Min="3.0045099556446075e-03" Max="1.0000000000000000e+00"/>
          <Range Index="10" Min="5.5911600589752197e-02" Max="8.4554283142089844e+01"/>
          <Range Index="11" Min="1.3122613541781902e-02" Max="7.5904670715332031e+01"/>
          <Range Index="12" Min="1.5132799744606018e-02" Max="7.9378517150878906e+01"/>
        </Ranges>
      </Class>
    </Transform>
  </Transformations>
  <MVAPdfs/>
  <Weights>
    <Layout NLayers="3">
      <Layer Index="0" NNeurons="14">
        <Neuron NSynapses="18">
          -2.5470047805367386e+00 1.1170485272277666e+00 -1.0403143151534369e+00 2.2802586467374955e+00 -9.9952925570911988e-01 -2.3308998140119433e-01 -1.0667470276005424e+00 6.5635613953657057e-01 -1.6718451753345493e+00 -2.3049915376193650e-01 -1.4697767676878648e+00 4.6337813875931763e-02 -7.2737753058302168e-01 -1.1784830721079771e-01 1.5817243939164212e+00 2.7781306183658722e-01 1.0582939912373940e-02 1.8604459810915497e+00 
        </Neuron>
        <Neuron NSynapses="18">
          -3.4070195094664457e-01 1.7000296451004526e-01 1.2379911214645485e-01 -7.9976869695145925e-01 -8.7451463278192787e-01 1.9617970812124272e+00 -2.0710344613949978e+00 7.9764624764583214e-01 1.6843100595420952e+00 -9.8601984910176144e-01 -1.5678711751767282e+00 1.7649671987408261e-01 7.9091992488763707e-01 1.6166010031441369e+00 1.7491957547615085e+00 -8.5431495726841344e+00 -4.5166300056523556e-01 -1.7742475551201702e+00 
        </Neuron>
        <Neuron NSynapses="18">
          -1.5026687501480886e+00 2.2565596167982247e+00 -1.6738204412525557e+00 1.1394105077593171e+00 1.0391043549248469e+00 -8.1727295741291606e-01 9.0149363768381174e-01 -9.2424207786533852e-01 -1.2466019988440675e+00 -1.4445786495039512e+00 6.1550496224449769e-01 -6.6371800447009210e-01 -3.0489632938873962e-01 1.2505270333356238e+00 1.9325391603656666e-01 2.2030197935716245e-02 -3.6072147453630271e-01 9.7433670321196264e-01 
        </Neuron>
        <Neuron NSynapses="18">
          -3.9121436014382022e-01 -1.2065737861400230e+00 -2.3283134973340607e+00 -1.0652103917932398e+00 2.0520905937775358e+00 6.9100380671890149e-01 -1.2269642863389361e+00 -2.9470235895127878e-01 -3.0546745621252253e-01 8.8000287178547265e-01 2.2002237736905674e+00 2.4998788815970088e-01 -1.4614992213115052e+00 -9.2173514484299712e-01 1.3839809784017673e-01 -2.7204120160874790e+00 -1.3571400579075699e+00 -1.9000728525841999e+00 
        </Neuron>
        <Neuron NSynapses="18">
          7.2748449774127755e-01 1.0708168118202048e+00 -5.8889728513990014e-01 -4.5956556272864041e-01 -9.8748724377756114e-01 -1.4670576020735293e+00 6.7992967903722348e-02 1.2970555082611676e-01 1.5677860908458621e+00 1.7329670639215436e-01 1.4074276415895208e+00 -3.4337349569485104e-01 7.6964724593722400e-01 1.3372504009875205e-01 1.0525871817038734e+00 -1.2406897747097827e-01 -3.4688105295067978e-01 -1.4235947759070686e+00 
        </Neuron>
        <Neuron NSynapses="18">
          6.6081131339314259e-01 -1.3261911225784873e-01 5.6283996011964001e+00 -1.7282082802758838e+00 6.1987274045676610e-01 1.3897660965318326e+00 2.0089126673376607e+00 -5.3250504940064873e+00 -1.0848018328179718e+00 2.4683988347562051e+00 -1.4843512814917559e+00 -9.9532525760321855e-01 5.0615787866502193e-01 1.9705518076917647e+00 -1.1812086104294734e+00 5.0847012450822380e+00 1.0861561152932775e+00 -7.0865307132051025e-01 
        </Neuron>
        <Neuron NSynapses="18">
          1.0118782831299714e-01 -3.3070457032952361e-01 -9.8576297295655912e-01 4.5154448362713534e-01 -1.2918902290484315e+00 8.8771273291065700e-01 -3.7712686586977457e+00 1.1623301367054164e+00 1.8188547312998786e+00 -2.1654894920384420e+00 7.8248623177534626e-01 -2.5779133625890766e-01 -1.7148066211600417e+00 4.7720757404038405e-01 2.0179294650528727e+00 1.0014551976379125e+00 -9.0893592530404710e-01 -1.2753049739986073e+00 
        </Neuron>
        <Neuron NSynapses="18">
          -7.9073660460305173e-02 8.0458519681166252e-01 -1.2211848745912712e+00 1.1618928281428371e+00 -6.5898822040264848e-01 -1.3044215333086566e+00 -2.9788514587032439e-01 1.0763226499410026e+00 -5.5252718441222304e-01 2.3052549137562326e+00 1.7678338754311020e+00 -1.8525132603000882e+00 -9.7522168970546563e-01 1.7374690695220707e+00 1.9561443274566905e+00 2.2186988057002874e-01 -1.3899279884920364e+00 -2.8744763011808006e-01 
        </Neuron>
        <Neuron NSynapses="18">
          -9.2621573231028642e-01 1.8566185203347567e+00 8.4018562731922086e-01 -3.4302844911115676e-01 -3.1411388716542774e+00 2.1936672946005303e-01 -1.7248234934334108e+00 9.0744793457811113e-01 1.1675065760925940e+00 4.8271656514510047e-01 -1.6322404669325927e-01 6.5898722821451239e-01 2.2189934213886171e+00 7.6891609863830079e-01 1.9003001331153169e-02 -1.1128302190099846e+00 2.0523052665680912e+00 -4.7530006051193968e-01 
        </Neuron>
        <Neuron NSynapses="18">
          3.7946551309000420e-01 9.5184021450799050e-01 -9.7094133344832658e-03 -7.9756347232344149e-01 -1.5587169958004657e-01 -3.0974626975389419e-01 -5.4835736302327887e-01 -5.9651122748698870e-01 1.3888588567304900e+00 -5.7778998686165639e-01 -1.4793290420867050e-01 1.0269021596784005e+00 1.5905627073268360e+00 -1.6970713424519765e+00 1.0359606190372470e+00 4.1829060707314236e-01 8.3392966882154296e-01 -5.9585067162861313e-02 
        </Neuron>
        <Neuron NSynapses="18">
          -2.6293945752077583e+00 1.4819580686171905e+00 1.1286429877168138e+00 -2.0349130560429276e+00 1.7070212586237954e-01 -1.7246832508161256e-01 1.3732155680168137e+00 2.6435962059669103e+00 -1.0600791428231435e+00 -2.6944552585126433e+00 -6.6605229189794213e-01 1.1195662988839354e+00 1.1288151676383456e+00 1.3516284987629521e+00 3.2398428548241526e-01 1.9476074460192513e-01 -3.5858853393036920e+00 1.7061862065362883e+00 
        </Neuron>
        <Neuron NSynapses="18">
          -9.4347979995760489e-01 -1.5313143953105495e+00 -2.6340996780666557e+00 2.2108750063608418e-01 5.4457554553670684e-01 -2.3571571681148096e+00 3.3423958422071083e+00 1.2534548750856174e+00 -1.5210388190178703e+00 -1.1155745155521979e+00 1.8518817779543546e+00 1.3450235280241116e+00 2.4059463739191118e+00 2.0085520027925460e-01 -1.8046864523602211e+00 6.1292033758410391e-01 2.9058226897890891e+00 2.3054821186451302e+00 
        </Neuron>
        <Neuron NSynapses="18">
          1.4728109378179433e+00 3.2726330525424813e-01 1.3092823535695859e+00 -1.2816122954518214e+00 1.3187739697784897e+00 -1.0365060145752720e+00 -2.0779121902088034e+00 6.3556700129556587e-01 7.8842390938355056e-01 -1.8383387308754864e+00 1.0219720236596734e+00 3.6286928763902820e-01 -3.1303830033342788e+00 -7.7680741063535508e-01 1.4843639447594101e+00 -3.5712070382246319e-01 4.9349525104478992e-01 5.4040778216245045e-01 
        </Neuron>
        <Neuron NSynapses="18">
          1.5151235578739275e+00 -1.7360807615461340e+00 1.9752702828252431e+00 4.8974285985357455e-02 -3.1785526108718849e+00 -1.6527556606039036e+00 -2.4458169137521639e+00 5.4545834683582506e-01 -1.3626706343747403e+00 -2.6454783819187244e+00 -2.3386200632152403e+00 -3.5914649284893685e-01 -1.1950906440663365e+00 -1.9754338541089429e+00 9.2432105140652443e-01 -3.6816249618742636e+00 2.1368744251461821e-01 -8.1260075977196244e-01 
        </Neuron>
      </Layer>
      <Layer Index="1" NNeurons="19">
        <Neuron NSynapses="1">
          1.5452381234636756e+00 
        </Neuron>
        <Neuron NSynapses="1">
          1.6999535051530477e+00 
        </Neuron>
        <Neuron NSynapses="1">
          8.1783306910919518e-01 
        </Neuron>
        <Neuron NSynapses="1">
          3.7768633808665192e-01 
        </Neuron>
        <Neuron NSynapses="1">
          -1.0842030618584400e+00 
        </Neuron>
        <Neuron NSynapses="1">
          -6.2149475955740352e-01 
        </Neuron>
        <Neuron NSynapses="1">
          5.5075748733262397e-01 
        </Neuron>
        <Neuron NSynapses="1">
          -8.5444130635886750e-01 
        </Neuron>
        <Neuron NSynapses="1">
          6.6067889604862695e-01 
        </Neuron>
        <Neuron NSynapses="1">
          4.7463078111919099e-01 
        </Neuron>
        <Neuron NSynapses="1">
          1.2502109447528922e+00 
        </Neuron>
        <Neuron NSynapses="1">
          5.7126158817344996e-01 
        </Neuron>
        <Neuron NSynapses="1">
          -8.0203929712402178e-01 
        </Neuron>
        <Neuron NSynapses="1">
          -5.9708992608202871e-01 
        </Neuron>
        <Neuron NSynapses="1">
          -2.4591437631789668e+00 
        </Neuron>
        <Neuron NSynapses="1">
          1.2181922334540221e+00 
        </Neuron>
        <Neuron NSynapses="1">
          2.4286722189116111e-01 
        </Neuron>
        <Neuron NSynapses="1">
          -4.6837983098769825e-01 
        </Neuron>
        <Neuron NSynapses="1">
          -6.7795954826134708e-01 
        </Neuron>
      </Layer>
      <Layer Index="2" NNeurons="1">
        <Neuron NSynapses="0"/>
      </Layer>
    </Layout>
  </Weights>
</MethodSetup>
