<?xml version="1.0"?>
<MethodSetup Method="MLP::MLPCJ">
  <GeneralInfo>
    <Info name="TMVA Release" value="4.1.4 [262404]"/>
    <Info name="ROOT Release" value="5.34/07 [336391]"/>
    <Info name="Creator" value="pseyfert"/>
    <Info name="Date" value="Fri Dec 20 21:29:09 2013"/>
    <Info name="Host" value="Linux lxbuild175.cern.ch 2.6.18-308.4.1.el5 #1 SMP Wed Apr 18 16:26:27 CEST 2012 x86_64 x86_64 x86_64 GNU/Linux"/>
    <Info name="Dir" value="/auto/sigma0/pseyfert/zoontuple/Bender_v22r7/Phys/Tau23Mu/scripts/TMVA_training_v3"/>
    <Info name="Training events" value="41107"/>
    <Info name="TrainingTime" value="6.72056716e+02"/>
    <Info name="AnalysisType" value="Classification"/>
  </GeneralInfo>
  <Options>
    <Option name="NCycles" modified="Yes">600</Option>
    <Option name="HiddenLayers" modified="Yes">N+5</Option>
    <Option name="NeuronType" modified="Yes">tanh</Option>
    <Option name="RandomSeed" modified="No">1</Option>
    <Option name="EstimatorType" modified="Yes">CE</Option>
    <Option name="NeuronInputType" modified="No">sum</Option>
    <Option name="V" modified="Yes">False</Option>
    <Option name="VerbosityLevel" modified="No">Default</Option>
    <Option name="VarTransform" modified="Yes">N</Option>
    <Option name="H" modified="Yes">False</Option>
    <Option name="CreateMVAPdfs" modified="No">False</Option>
    <Option name="IgnoreNegWeightsInTraining" modified="No">False</Option>
    <Option name="TrainingMethod" modified="No">BP</Option>
    <Option name="LearningRate" modified="No">2.000000e-02</Option>
    <Option name="DecayRate" modified="No">1.000000e-02</Option>
    <Option name="TestRate" modified="Yes">5</Option>
    <Option name="EpochMonitoring" modified="No">False</Option>
    <Option name="Sampling" modified="No">1.000000e+00</Option>
    <Option name="SamplingEpoch" modified="No">1.000000e+00</Option>
    <Option name="SamplingImportance" modified="No">1.000000e+00</Option>
    <Option name="SamplingTraining" modified="No">True</Option>
    <Option name="SamplingTesting" modified="No">False</Option>
    <Option name="ResetStep" modified="No">50</Option>
    <Option name="Tau" modified="No">3.000000e+00</Option>
    <Option name="BPMode" modified="No">sequential</Option>
    <Option name="BatchSize" modified="No">-1</Option>
    <Option name="ConvergenceImprove" modified="No">1.000000e-30</Option>
    <Option name="ConvergenceTests" modified="No">-1</Option>
    <Option name="UseRegulator" modified="Yes">False</Option>
    <Option name="UpdateLimit" modified="No">10000</Option>
    <Option name="CalculateErrors" modified="No">False</Option>
    <Option name="WeightRange" modified="No">1.000000e+00</Option>
  </Options>
  <Variables NVar="13">
    <Variable VarIndex="0" Expression="TMath::Exp(-1000*LifeTime)" Label="TMath::Exp(-1000*LifeTime)" Title="transformed decay time" Unit="1" Internal="TMath_Exp__M_1000_T_LifeTime_" Type="F" Min="1.93987222e-11" Max="7.31256723e-01"/>
    <Variable VarIndex="1" Expression="IPSig" Label="IPSig" Title="IP significance" Unit="1" Internal="IPSig" Type="F" Min="1.11495918e-02" Max="2.49779434e+01"/>
    <Variable VarIndex="2" Expression="VertexChi2" Label="VertexChi2" Title="vertex #chi^{2}" Unit="1" Internal="VertexChi2" Type="F" Min="1.89490011e-03" Max="1.49983969e+01"/>
    <Variable VarIndex="3" Expression="acos(dira)" Label="acos(dira)" Title="pointing angle" Unit="1" Internal="acos_dira_" Type="F" Min="0.00000000e+00" Max="1.37716651e-01"/>
    <Variable VarIndex="4" Expression="pt" Label="pt" Title="p_{T}" Unit="[MeV/c]" Internal="pt" Type="F" Min="4.12933426e+01" Max="3.79619180e+04"/>
    <Variable VarIndex="5" Expression="min(p0_IPSig,min(p1_IPSig,p2_IPSig))" Label="min(p0_IPSig,min(p1_IPSig,p2_IPSig))" Title="min. #mu IP significance" Unit="1" Internal="min_p0_IPSig,min_p1_IPSig,p2_IPSig__" Type="F" Min="2.30495882e+00" Max="1.02738922e+02"/>
    <Variable VarIndex="6" Expression="DOCAone" Label="DOCAone" Title="DOCA (#mu 1 and 2)" Unit="mm" Internal="DOCAone" Type="F" Min="2.63570382e-06" Max="9.23672736e-01"/>
    <Variable VarIndex="7" Expression="DOCAtwo" Label="DOCAtwo" Title="DOCA (#mu 2 and 3)" Unit="mm" Internal="DOCAtwo" Type="F" Min="2.43484504e-08" Max="7.44905770e-01"/>
    <Variable VarIndex="8" Expression="DOCAthree" Label="DOCAthree" Title="DOCA (#mu 1 and 3)" Unit="mm" Internal="DOCAthree" Type="F" Min="6.10736777e-07" Max="1.05343544e+00"/>
    <Variable VarIndex="9" Expression="CDF3" Label="CDF3" Title="cone isolation" Unit="1" Internal="CDF3" Type="F" Min="3.00450996e-03" Max="1.00000000e+00"/>
    <Variable VarIndex="10" Expression="p0_track_MatchChi2" Label="p0_track_MatchChi2" Title="track match #chi^{2} (#mu 1)" Unit="1" Internal="p0_track_MatchChi2" Type="F" Min="5.59116006e-02" Max="8.45542831e+01"/>
    <Variable VarIndex="11" Expression="p1_track_MatchChi2" Label="p1_track_MatchChi2" Title="track match #chi^{2} (#mu 2)" Unit="1" Internal="p1_track_MatchChi2" Type="F" Min="1.31226135e-02" Max="7.59046707e+01"/>
    <Variable VarIndex="12" Expression="p2_track_MatchChi2" Label="p2_track_MatchChi2" Title="track match #chi^{2} (#mu 3)" Unit="1" Internal="p2_track_MatchChi2" Type="F" Min="1.51327997e-02" Max="7.93785172e+01"/>
  </Variables>
  <Spectators NSpec="0"/>
  <Classes NClass="2">
    <Class Name="Signal" Index="0"/>
    <Class Name="Background" Index="1"/>
  </Classes>
  <Transformations NTransformations="1">
    <Transform Name="Normalize">
      <Selection>
        <Input NInputs="13">
          <Input Type="Variable" Label="TMath::Exp(-1000*LifeTime)" Expression="TMath::Exp(-1000*LifeTime)"/>
          <Input Type="Variable" Label="IPSig" Expression="IPSig"/>
          <Input Type="Variable" Label="VertexChi2" Expression="VertexChi2"/>
          <Input Type="Variable" Label="acos(dira)" Expression="acos(dira)"/>
          <Input Type="Variable" Label="pt" Expression="pt"/>
          <Input Type="Variable" Label="min(p0_IPSig,min(p1_IPSig,p2_IPSig))" Expression="min(p0_IPSig,min(p1_IPSig,p2_IPSig))"/>
          <Input Type="Variable" Label="DOCAone" Expression="DOCAone"/>
          <Input Type="Variable" Label="DOCAtwo" Expression="DOCAtwo"/>
          <Input Type="Variable" Label="DOCAthree" Expression="DOCAthree"/>
          <Input Type="Variable" Label="CDF3" Expression="CDF3"/>
          <Input Type="Variable" Label="p0_track_MatchChi2" Expression="p0_track_MatchChi2"/>
          <Input Type="Variable" Label="p1_track_MatchChi2" Expression="p1_track_MatchChi2"/>
          <Input Type="Variable" Label="p2_track_MatchChi2" Expression="p2_track_MatchChi2"/>
        </Input>
        <Output NOutputs="13">
          <Output Type="Variable" Label="TMath::Exp(-1000*LifeTime)" Expression="TMath::Exp(-1000*LifeTime)"/>
          <Output Type="Variable" Label="IPSig" Expression="IPSig"/>
          <Output Type="Variable" Label="VertexChi2" Expression="VertexChi2"/>
          <Output Type="Variable" Label="acos(dira)" Expression="acos(dira)"/>
          <Output Type="Variable" Label="pt" Expression="pt"/>
          <Output Type="Variable" Label="min(p0_IPSig,min(p1_IPSig,p2_IPSig))" Expression="min(p0_IPSig,min(p1_IPSig,p2_IPSig))"/>
          <Output Type="Variable" Label="DOCAone" Expression="DOCAone"/>
          <Output Type="Variable" Label="DOCAtwo" Expression="DOCAtwo"/>
          <Output Type="Variable" Label="DOCAthree" Expression="DOCAthree"/>
          <Output Type="Variable" Label="CDF3" Expression="CDF3"/>
          <Output Type="Variable" Label="p0_track_MatchChi2" Expression="p0_track_MatchChi2"/>
          <Output Type="Variable" Label="p1_track_MatchChi2" Expression="p1_track_MatchChi2"/>
          <Output Type="Variable" Label="p2_track_MatchChi2" Expression="p2_track_MatchChi2"/>
        </Output>
      </Selection>
      <Class ClassIndex="0">
        <Ranges>
          <Range Index="0" Min="1.9398722211905195e-11" Max="7.3125672340393066e-01"/>
          <Range Index="1" Min="1.1149591766297817e-02" Max="2.1987730026245117e+01"/>
          <Range Index="2" Min="1.8949001096189022e-03" Max="1.4998396873474121e+01"/>
          <Range Index="3" Min="0.0000000000000000e+00" Max="1.3410498201847076e-01"/>
          <Range Index="4" Min="6.2147693634033203e+01" Max="3.7961917968750000e+04"/>
          <Range Index="5" Min="2.3049588203430176e+00" Max="1.0273892211914062e+02"/>
          <Range Index="6" Min="2.6357038223068230e-06" Max="7.3856800794601440e-01"/>
          <Range Index="7" Min="2.4348450367028818e-08" Max="6.9920772314071655e-01"/>
          <Range Index="8" Min="6.1073677670719917e-07" Max="1.0170480012893677e+00"/>
          <Range Index="9" Min="3.0045099556446075e-03" Max="1.0000000000000000e+00"/>
          <Range Index="10" Min="5.5911600589752197e-02" Max="7.2067237854003906e+01"/>
          <Range Index="11" Min="1.3122613541781902e-02" Max="7.5904670715332031e+01"/>
          <Range Index="12" Min="1.5132799744606018e-02" Max="7.9378517150878906e+01"/>
        </Ranges>
      </Class>
      <Class ClassIndex="1">
        <Ranges>
          <Range Index="0" Min="2.1115165509399958e-05" Max="7.2934836149215698e-01"/>
          <Range Index="1" Min="1.3430085778236389e-01" Max="2.4977943420410156e+01"/>
          <Range Index="2" Min="2.2036740556359291e-02" Max="1.4991107940673828e+01"/>
          <Range Index="3" Min="0.0000000000000000e+00" Max="1.3771665096282959e-01"/>
          <Range Index="4" Min="4.1293342590332031e+01" Max="2.1269572265625000e+04"/>
          <Range Index="5" Min="2.7823791503906250e+00" Max="4.9517536163330078e+01"/>
          <Range Index="6" Min="3.9169070078060031e-05" Max="9.2367273569107056e-01"/>
          <Range Index="7" Min="5.9152989706490189e-05" Max="7.4490576982498169e-01"/>
          <Range Index="8" Min="3.1205789127852768e-05" Max="1.0534354448318481e+00"/>
          <Range Index="9" Min="3.8299348670989275e-03" Max="1.0000000000000000e+00"/>
          <Range Index="10" Min="1.4428974688053131e-01" Max="8.4554283142089844e+01"/>
          <Range Index="11" Min="1.4624765515327454e-01" Max="6.7723579406738281e+01"/>
          <Range Index="12" Min="4.5327022671699524e-02" Max="6.8506652832031250e+01"/>
        </Ranges>
      </Class>
      <Class ClassIndex="2">
        <Ranges>
          <Range Index="0" Min="1.9398722211905195e-11" Max="7.3125672340393066e-01"/>
          <Range Index="1" Min="1.1149591766297817e-02" Max="2.4977943420410156e+01"/>
          <Range Index="2" Min="1.8949001096189022e-03" Max="1.4998396873474121e+01"/>
          <Range Index="3" Min="0.0000000000000000e+00" Max="1.3771665096282959e-01"/>
          <Range Index="4" Min="4.1293342590332031e+01" Max="3.7961917968750000e+04"/>
          <Range Index="5" Min="2.3049588203430176e+00" Max="1.0273892211914062e+02"/>
          <Range Index="6" Min="2.6357038223068230e-06" Max="9.2367273569107056e-01"/>
          <Range Index="7" Min="2.4348450367028818e-08" Max="7.4490576982498169e-01"/>
          <Range Index="8" Min="6.1073677670719917e-07" Max="1.0534354448318481e+00"/>
          <Range Index="9" Min="3.0045099556446075e-03" Max="1.0000000000000000e+00"/>
          <Range Index="10" Min="5.5911600589752197e-02" Max="8.4554283142089844e+01"/>
          <Range Index="11" Min="1.3122613541781902e-02" Max="7.5904670715332031e+01"/>
          <Range Index="12" Min="1.5132799744606018e-02" Max="7.9378517150878906e+01"/>
        </Ranges>
      </Class>
    </Transform>
  </Transformations>
  <MVAPdfs/>
  <Weights>
    <Layout NLayers="3">
      <Layer Index="0" NNeurons="14">
        <Neuron NSynapses="18">
          -2.8817074938292810e+00 9.3389223759581674e-01 -8.0677937000403155e-01 2.1286670929011913e+00 -8.7928610716482669e-01 4.8716317996278158e-01 -4.6782523604240969e-02 7.5328973336732830e-01 -1.6251615529957530e+00 -8.0844926773636738e-01 -1.4826208685573361e+00 7.5624215573683443e-02 -7.8301479582592437e-01 -9.7247199379894927e-02 1.5483899997627180e+00 2.8878120932652224e-01 -6.1868392057548005e-01 2.4852982454357373e+00 
        </Neuron>
        <Neuron NSynapses="18">
          -5.8009881631111271e-01 1.4416361319000673e-01 1.3423869407930603e-01 -6.9736495955484079e-01 -1.1716562886777069e+00 5.1333716417872099e-01 -3.0724470149923051e+00 8.0182199992163161e-01 1.5691629265043965e+00 -1.3154403472750902e+00 -1.5589328225404713e+00 3.3193979115538993e-02 7.1728224236103599e-01 1.6027329989931125e+00 1.8516580630282107e+00 -8.8690115223493873e+00 -1.4259440280806759e+00 -2.5859654444961122e+00 
        </Neuron>
        <Neuron NSynapses="18">
          -1.4951113010498644e+00 2.2346754547092553e+00 -1.5168254486160315e+00 1.4333178844698009e+00 8.4683071355510098e-01 7.0454448143841375e-01 1.2875157574302309e+00 -6.1827335249188520e-01 -1.0980317289107715e+00 -1.1255038847994689e+00 6.1387825101777416e-01 1.0229601588198797e-01 -2.1087182267104324e-01 1.2401144325759135e+00 4.6381903199162727e-01 1.5727254980301780e-02 -1.0854994596172278e+00 1.0320250741355383e+00 
        </Neuron>
        <Neuron NSynapses="18">
          -1.1265606238480728e+00 -1.2176107472683551e+00 -2.3548092937689677e+00 -1.1912059380524813e+00 1.4112484945979702e+00 1.1161541308340337e+00 -1.9404267264312600e-01 2.7737661299500038e-01 -4.2324557506134131e-01 1.0559927680012959e+00 2.2132645055532536e+00 1.4842692994098880e-01 -1.2172761875346696e+00 -9.1602262143832214e-01 -7.4648955179509124e-01 -3.1509042539911443e+00 -1.7400184641452618e+00 -1.8879055230124542e+00 
        </Neuron>
        <Neuron NSynapses="18">
          9.0806232337019910e-01 1.1831956278384261e+00 -7.4769799526214942e-01 -4.4675042910368729e-01 -1.1486439303416238e+00 -1.7014466061266411e+00 1.1330962163773528e+00 1.1654577556109656e-01 2.1172333330545157e+00 -2.1264063273604680e-01 1.4245196633905284e+00 -4.5134809329157605e-01 1.2568111848472692e+00 1.4290561349494435e-01 1.1157198934917321e+00 -2.3105704215892386e-01 -5.2885653089266549e-01 -1.6878202802921001e+00 
        </Neuron>
        <Neuron NSynapses="18">
          9.5103562437449063e-01 -8.6738170381491120e-02 5.3689271544103594e+00 -1.5943639078314085e+00 1.3493742696587108e+00 1.2892205545294944e+00 -9.5356006182523867e-01 -6.5289614636585496e+00 -7.3157479285665339e-01 2.4961709605894686e+00 -1.4604173464545853e+00 -1.2128656335134016e+00 -1.2054831173420066e+00 1.9703250086917137e+00 -9.7352796276011277e-01 5.1692005109516703e+00 6.6551213703084777e-01 -8.1317736516919237e-01 
        </Neuron>
        <Neuron NSynapses="18">
          2.3698240648388263e-01 -5.6508530465147477e-01 -4.4178499223745665e-01 4.0116358592701634e-01 -1.4266306176978292e+00 7.5519778707235063e-01 -3.8074680300171839e+00 2.1197129323815549e+00 1.5047766106107350e+00 -1.8748913864733170e+00 7.6346740740684116e-01 -4.2973030820375724e-01 -1.8649000447651156e+00 5.1303231677474881e-01 1.6041053161894421e+00 1.7422994813251189e+00 -7.8255945249701711e-02 -1.1791184591765822e+00 
        </Neuron>
        <Neuron NSynapses="18">
          -1.9505092054777592e-01 9.8262400281959783e-01 -1.6183659339973846e+00 1.0940108753949438e+00 -2.2228740388495696e-01 -1.8879586331334033e+00 1.1012223272097613e-01 1.0387305491156691e+00 -5.5614111521571274e-01 2.5758892108404008e+00 1.7360427464651425e+00 -1.4171278446781388e+00 -9.8781922957923995e-01 1.7738423852537053e+00 2.0225316789880012e+00 3.6692371483070452e-01 -1.6836324386527290e+00 1.0728863146082873e-01 
        </Neuron>
        <Neuron NSynapses="18">
          -7.6916590112155536e-01 1.6966749764262408e+00 7.1166322653899894e-01 -4.4224170036076688e-01 -3.0612841329496434e+00 4.7892290610850180e-01 -1.4286904663028697e+00 2.4285663291487924e-01 1.1792201874821451e+00 5.8179162203480883e-01 -1.4644645487420452e-01 7.9587004219976232e-01 2.8699282590327435e+00 7.7104070872097286e-01 1.8153671275118538e-01 -1.5794756019893037e+00 2.0333528482811842e+00 -2.6807673528635773e-01 
        </Neuron>
        <Neuron NSynapses="18">
          3.5865061254371750e-01 1.1540681570265536e+00 7.7859375737393891e-02 -3.8337373036869232e-01 -1.7087140385977811e-01 2.4683201823986137e-01 -4.9304588454768200e-03 -1.1445642325058984e+00 1.9772730417838880e+00 -4.3103414831758791e-01 -1.4620754236830905e-01 3.1258673175836110e-01 1.4287625073143391e+00 -1.6889144925976625e+00 1.3680116853234152e+00 5.1982117873607958e-01 4.9886709093196752e-01 -4.3488406551958675e-01 
        </Neuron>
        <Neuron NSynapses="18">
          -3.1179857628817671e+00 1.5624308378106566e+00 1.5775699154992937e+00 -2.0386410133261017e+00 4.2215992915826223e-01 -6.5479717473160459e-01 6.8086890035023551e-01 3.5711273535374115e+00 -1.2133555127582236e+00 -2.4126413971839900e+00 -6.4456546428078798e-01 1.1912491094290065e+00 1.0592542044662703e+00 1.3555477557060025e+00 3.5588576454312720e-01 2.1883357308604157e-01 -2.2359243620117559e+00 2.2003222899199906e+00 
        </Neuron>
        <Neuron NSynapses="18">
          -9.1880642222627140e-01 -1.5914423936316684e+00 -2.4766793617346243e+00 1.5459015928532732e-01 5.3361084075757081e-01 -1.7361349729737030e+00 2.9420389142341916e+00 5.5187301451199822e-01 -1.2611494985506484e+00 -1.1534183136296494e+00 1.8719395018912215e+00 1.2841271266441321e+00 2.6916892289230625e+00 2.0768299506793744e-01 -1.9212575753110970e+00 9.0384816796859213e-01 3.1771388279476649e+00 1.7684334514620761e+00 
        </Neuron>
        <Neuron NSynapses="18">
          1.1416101617017318e+00 3.4121678362007352e-01 1.1361344128840345e+00 -1.5023018132839741e+00 8.2073057045441578e-01 4.7040142204232832e-02 3.1274993524425732e-01 1.1676900126159704e+00 5.4274048990819934e-01 -2.4535550006773756e+00 1.0424951987233655e+00 1.1121586438475779e-01 -2.5229648271004685e+00 -7.6888891455383535e-01 1.5325876283600208e+00 -1.5218149878700332e-01 6.5886288445300878e-01 4.3949071110355553e-01 
        </Neuron>
        <Neuron NSynapses="18">
          1.1030383345169090e+00 -1.6624128631711106e+00 2.0429554811285477e+00 1.4578537207137049e-01 -3.4213869753405968e+00 -1.5197133486786765e+00 -2.7161228147388510e+00 7.5868058432421570e-01 -1.4755193966211178e+00 -2.6575547661650551e+00 -2.3620820915180412e+00 -4.2537649180685694e-01 -1.2925901604008718e+00 -1.9859205147430821e+00 4.5551657710492405e-01 -3.5152690739409449e+00 3.1054644501811174e-01 -8.1198617090214720e-01 
        </Neuron>
      </Layer>
      <Layer Index="1" NNeurons="19">
        <Neuron NSynapses="1">
          1.5074120193153471e+00 
        </Neuron>
        <Neuron NSynapses="1">
          1.7676053611270994e+00 
        </Neuron>
        <Neuron NSynapses="1">
          8.2929076618973341e-01 
        </Neuron>
        <Neuron NSynapses="1">
          1.5732038892784864e-01 
        </Neuron>
        <Neuron NSynapses="1">
          -1.7579143489137288e+00 
        </Neuron>
        <Neuron NSynapses="1">
          -3.1242919223345045e-01 
        </Neuron>
        <Neuron NSynapses="1">
          7.0392000798548704e-01 
        </Neuron>
        <Neuron NSynapses="1">
          -8.0906366596108503e-01 
        </Neuron>
        <Neuron NSynapses="1">
          7.0527764472347154e-01 
        </Neuron>
        <Neuron NSynapses="1">
          5.3314576128206370e-01 
        </Neuron>
        <Neuron NSynapses="1">
          1.1635532756286950e+00 
        </Neuron>
        <Neuron NSynapses="1">
          3.1739551582510755e-01 
        </Neuron>
        <Neuron NSynapses="1">
          -8.9964874426033070e-01 
        </Neuron>
        <Neuron NSynapses="1">
          -6.8005949440973024e-01 
        </Neuron>
        <Neuron NSynapses="1">
          -1.8919367100890858e+00 
        </Neuron>
        <Neuron NSynapses="1">
          1.1850382923288676e+00 
        </Neuron>
        <Neuron NSynapses="1">
          2.1180314059446206e-01 
        </Neuron>
        <Neuron NSynapses="1">
          -3.7975802355767596e-01 
        </Neuron>
        <Neuron NSynapses="1">
          -6.0325881990656449e-01 
        </Neuron>
      </Layer>
      <Layer Index="2" NNeurons="1">
        <Neuron NSynapses="0"/>
      </Layer>
    </Layout>
  </Weights>
</MethodSetup>
