<?xml version="1.0"?>
<MethodSetup Method="MLP::MLPCJ">
  <GeneralInfo>
    <Info name="TMVA Release" value="4.1.4 [262404]"/>
    <Info name="ROOT Release" value="5.34/07 [336391]"/>
    <Info name="Creator" value="pseyfert"/>
    <Info name="Date" value="Wed Jan  1 13:05:28 2014"/>
    <Info name="Host" value="Linux lxbuild175.cern.ch 2.6.18-308.4.1.el5 #1 SMP Wed Apr 18 16:26:27 CEST 2012 x86_64 x86_64 x86_64 GNU/Linux"/>
    <Info name="Dir" value="/auto/sigma0/pseyfert/zoontuple/Bender_v22r7/Phys/Tau23Mu/scripts/TMVA_training_v3"/>
    <Info name="Training events" value="38856"/>
    <Info name="TrainingTime" value="6.35818948e+02"/>
    <Info name="AnalysisType" value="Classification"/>
  </GeneralInfo>
  <Options>
    <Option name="NCycles" modified="Yes">600</Option>
    <Option name="HiddenLayers" modified="Yes">N+5</Option>
    <Option name="NeuronType" modified="Yes">tanh</Option>
    <Option name="RandomSeed" modified="No">1</Option>
    <Option name="EstimatorType" modified="Yes">CE</Option>
    <Option name="NeuronInputType" modified="No">sum</Option>
    <Option name="V" modified="Yes">False</Option>
    <Option name="VerbosityLevel" modified="No">Default</Option>
    <Option name="VarTransform" modified="Yes">N</Option>
    <Option name="H" modified="Yes">False</Option>
    <Option name="CreateMVAPdfs" modified="No">False</Option>
    <Option name="IgnoreNegWeightsInTraining" modified="No">False</Option>
    <Option name="TrainingMethod" modified="No">BP</Option>
    <Option name="LearningRate" modified="No">2.000000e-02</Option>
    <Option name="DecayRate" modified="No">1.000000e-02</Option>
    <Option name="TestRate" modified="Yes">5</Option>
    <Option name="EpochMonitoring" modified="No">False</Option>
    <Option name="Sampling" modified="No">1.000000e+00</Option>
    <Option name="SamplingEpoch" modified="No">1.000000e+00</Option>
    <Option name="SamplingImportance" modified="No">1.000000e+00</Option>
    <Option name="SamplingTraining" modified="No">True</Option>
    <Option name="SamplingTesting" modified="No">False</Option>
    <Option name="ResetStep" modified="No">50</Option>
    <Option name="Tau" modified="No">3.000000e+00</Option>
    <Option name="BPMode" modified="No">sequential</Option>
    <Option name="BatchSize" modified="No">-1</Option>
    <Option name="ConvergenceImprove" modified="No">1.000000e-30</Option>
    <Option name="ConvergenceTests" modified="No">-1</Option>
    <Option name="UseRegulator" modified="Yes">False</Option>
    <Option name="UpdateLimit" modified="No">10000</Option>
    <Option name="CalculateErrors" modified="No">False</Option>
    <Option name="WeightRange" modified="No">1.000000e+00</Option>
  </Options>
  <Variables NVar="13">
    <Variable VarIndex="0" Expression="TMath::Exp(-1000*LifeTime)" Label="TMath::Exp(-1000*LifeTime)" Title="transformed decay time" Unit="1" Internal="TMath_Exp__M_1000_T_LifeTime_" Type="F" Min="1.93987222e-11" Max="7.31256723e-01"/>
    <Variable VarIndex="1" Expression="IPSig" Label="IPSig" Title="IP significance" Unit="1" Internal="IPSig" Type="F" Min="1.11495918e-02" Max="2.17485733e+01"/>
    <Variable VarIndex="2" Expression="VertexChi2" Label="VertexChi2" Title="vertex #chi^{2}" Unit="1" Internal="VertexChi2" Type="F" Min="1.89490011e-03" Max="1.49983969e+01"/>
    <Variable VarIndex="3" Expression="acos(dira)" Label="acos(dira)" Title="pointing angle" Unit="1" Internal="acos_dira_" Type="F" Min="0.00000000e+00" Max="1.37716651e-01"/>
    <Variable VarIndex="4" Expression="pt" Label="pt" Title="p_{T}" Unit="[MeV/c]" Internal="pt" Type="F" Min="4.12933426e+01" Max="3.79619180e+04"/>
    <Variable VarIndex="5" Expression="min(p0_IPSig,min(p1_IPSig,p2_IPSig))" Label="min(p0_IPSig,min(p1_IPSig,p2_IPSig))" Title="min. #mu IP significance" Unit="1" Internal="min_p0_IPSig,min_p1_IPSig,p2_IPSig__" Type="F" Min="2.30495882e+00" Max="1.02738922e+02"/>
    <Variable VarIndex="6" Expression="DOCAone" Label="DOCAone" Title="DOCA (#mu 1 and 2)" Unit="mm" Internal="DOCAone" Type="F" Min="2.63570382e-06" Max="7.38568008e-01"/>
    <Variable VarIndex="7" Expression="DOCAtwo" Label="DOCAtwo" Title="DOCA (#mu 2 and 3)" Unit="mm" Internal="DOCAtwo" Type="F" Min="2.43484504e-08" Max="6.22791827e-01"/>
    <Variable VarIndex="8" Expression="DOCAthree" Label="DOCAthree" Title="DOCA (#mu 1 and 3)" Unit="mm" Internal="DOCAthree" Type="F" Min="6.10736777e-07" Max="1.01704800e+00"/>
    <Variable VarIndex="9" Expression="CDF3" Label="CDF3" Title="cone isolation" Unit="1" Internal="CDF3" Type="F" Min="3.00450996e-03" Max="1.00000000e+00"/>
    <Variable VarIndex="10" Expression="p0_track_MatchChi2" Label="p0_track_MatchChi2" Title="track match #chi^{2} (#mu 1)" Unit="1" Internal="p0_track_MatchChi2" Type="F" Min="5.59116006e-02" Max="7.63943100e+01"/>
    <Variable VarIndex="11" Expression="p1_track_MatchChi2" Label="p1_track_MatchChi2" Title="track match #chi^{2} (#mu 2)" Unit="1" Internal="p1_track_MatchChi2" Type="F" Min="1.31226135e-02" Max="7.59046707e+01"/>
    <Variable VarIndex="12" Expression="p2_track_MatchChi2" Label="p2_track_MatchChi2" Title="track match #chi^{2} (#mu 3)" Unit="1" Internal="p2_track_MatchChi2" Type="F" Min="1.51327997e-02" Max="7.93785172e+01"/>
  </Variables>
  <Spectators NSpec="0"/>
  <Classes NClass="2">
    <Class Name="Signal" Index="0"/>
    <Class Name="Background" Index="1"/>
  </Classes>
  <Transformations NTransformations="1">
    <Transform Name="Normalize">
      <Selection>
        <Input NInputs="13">
          <Input Type="Variable" Label="TMath::Exp(-1000*LifeTime)" Expression="TMath::Exp(-1000*LifeTime)"/>
          <Input Type="Variable" Label="IPSig" Expression="IPSig"/>
          <Input Type="Variable" Label="VertexChi2" Expression="VertexChi2"/>
          <Input Type="Variable" Label="acos(dira)" Expression="acos(dira)"/>
          <Input Type="Variable" Label="pt" Expression="pt"/>
          <Input Type="Variable" Label="min(p0_IPSig,min(p1_IPSig,p2_IPSig))" Expression="min(p0_IPSig,min(p1_IPSig,p2_IPSig))"/>
          <Input Type="Variable" Label="DOCAone" Expression="DOCAone"/>
          <Input Type="Variable" Label="DOCAtwo" Expression="DOCAtwo"/>
          <Input Type="Variable" Label="DOCAthree" Expression="DOCAthree"/>
          <Input Type="Variable" Label="CDF3" Expression="CDF3"/>
          <Input Type="Variable" Label="p0_track_MatchChi2" Expression="p0_track_MatchChi2"/>
          <Input Type="Variable" Label="p1_track_MatchChi2" Expression="p1_track_MatchChi2"/>
          <Input Type="Variable" Label="p2_track_MatchChi2" Expression="p2_track_MatchChi2"/>
        </Input>
        <Output NOutputs="13">
          <Output Type="Variable" Label="TMath::Exp(-1000*LifeTime)" Expression="TMath::Exp(-1000*LifeTime)"/>
          <Output Type="Variable" Label="IPSig" Expression="IPSig"/>
          <Output Type="Variable" Label="VertexChi2" Expression="VertexChi2"/>
          <Output Type="Variable" Label="acos(dira)" Expression="acos(dira)"/>
          <Output Type="Variable" Label="pt" Expression="pt"/>
          <Output Type="Variable" Label="min(p0_IPSig,min(p1_IPSig,p2_IPSig))" Expression="min(p0_IPSig,min(p1_IPSig,p2_IPSig))"/>
          <Output Type="Variable" Label="DOCAone" Expression="DOCAone"/>
          <Output Type="Variable" Label="DOCAtwo" Expression="DOCAtwo"/>
          <Output Type="Variable" Label="DOCAthree" Expression="DOCAthree"/>
          <Output Type="Variable" Label="CDF3" Expression="CDF3"/>
          <Output Type="Variable" Label="p0_track_MatchChi2" Expression="p0_track_MatchChi2"/>
          <Output Type="Variable" Label="p1_track_MatchChi2" Expression="p1_track_MatchChi2"/>
          <Output Type="Variable" Label="p2_track_MatchChi2" Expression="p2_track_MatchChi2"/>
        </Output>
      </Selection>
      <Class ClassIndex="0">
        <Ranges>
          <Range Index="0" Min="1.9398722211905195e-11" Max="7.3125672340393066e-01"/>
          <Range Index="1" Min="1.1149591766297817e-02" Max="2.1748573303222656e+01"/>
          <Range Index="2" Min="1.8949001096189022e-03" Max="1.4998396873474121e+01"/>
          <Range Index="3" Min="0.0000000000000000e+00" Max="1.3410498201847076e-01"/>
          <Range Index="4" Min="6.2147693634033203e+01" Max="3.7961917968750000e+04"/>
          <Range Index="5" Min="2.3049588203430176e+00" Max="1.0273892211914062e+02"/>
          <Range Index="6" Min="2.6357038223068230e-06" Max="7.3856800794601440e-01"/>
          <Range Index="7" Min="2.4348450367028818e-08" Max="6.2279182672500610e-01"/>
          <Range Index="8" Min="6.1073677670719917e-07" Max="1.0170480012893677e+00"/>
          <Range Index="9" Min="3.0045099556446075e-03" Max="1.0000000000000000e+00"/>
          <Range Index="10" Min="5.5911600589752197e-02" Max="7.2067237854003906e+01"/>
          <Range Index="11" Min="1.3122613541781902e-02" Max="7.5904670715332031e+01"/>
          <Range Index="12" Min="1.5132799744606018e-02" Max="7.9378517150878906e+01"/>
        </Ranges>
      </Class>
      <Class ClassIndex="1">
        <Ranges>
          <Range Index="0" Min="2.1115165509399958e-05" Max="7.2635984420776367e-01"/>
          <Range Index="1" Min="1.3430085778236389e-01" Max="2.0998762130737305e+01"/>
          <Range Index="2" Min="2.2036740556359291e-02" Max="1.4987717628479004e+01"/>
          <Range Index="3" Min="0.0000000000000000e+00" Max="1.3771665096282959e-01"/>
          <Range Index="4" Min="4.1293342590332031e+01" Max="2.1269572265625000e+04"/>
          <Range Index="5" Min="2.7823791503906250e+00" Max="4.9517536163330078e+01"/>
          <Range Index="6" Min="3.9169070078060031e-05" Max="7.3149055242538452e-01"/>
          <Range Index="7" Min="7.3474417149554938e-05" Max="3.6525428295135498e-01"/>
          <Range Index="8" Min="3.1205789127852768e-05" Max="6.7212939262390137e-01"/>
          <Range Index="9" Min="3.8299348670989275e-03" Max="1.0000000000000000e+00"/>
          <Range Index="10" Min="1.5180341899394989e-01" Max="7.6394309997558594e+01"/>
          <Range Index="11" Min="1.4624765515327454e-01" Max="6.7723579406738281e+01"/>
          <Range Index="12" Min="4.5327022671699524e-02" Max="6.8506652832031250e+01"/>
        </Ranges>
      </Class>
      <Class ClassIndex="2">
        <Ranges>
          <Range Index="0" Min="1.9398722211905195e-11" Max="7.3125672340393066e-01"/>
          <Range Index="1" Min="1.1149591766297817e-02" Max="2.1748573303222656e+01"/>
          <Range Index="2" Min="1.8949001096189022e-03" Max="1.4998396873474121e+01"/>
          <Range Index="3" Min="0.0000000000000000e+00" Max="1.3771665096282959e-01"/>
          <Range Index="4" Min="4.1293342590332031e+01" Max="3.7961917968750000e+04"/>
          <Range Index="5" Min="2.3049588203430176e+00" Max="1.0273892211914062e+02"/>
          <Range Index="6" Min="2.6357038223068230e-06" Max="7.3856800794601440e-01"/>
          <Range Index="7" Min="2.4348450367028818e-08" Max="6.2279182672500610e-01"/>
          <Range Index="8" Min="6.1073677670719917e-07" Max="1.0170480012893677e+00"/>
          <Range Index="9" Min="3.0045099556446075e-03" Max="1.0000000000000000e+00"/>
          <Range Index="10" Min="5.5911600589752197e-02" Max="7.6394309997558594e+01"/>
          <Range Index="11" Min="1.3122613541781902e-02" Max="7.5904670715332031e+01"/>
          <Range Index="12" Min="1.5132799744606018e-02" Max="7.9378517150878906e+01"/>
        </Ranges>
      </Class>
    </Transform>
  </Transformations>
  <MVAPdfs/>
  <Weights>
    <Layout NLayers="3">
      <Layer Index="0" NNeurons="14">
        <Neuron NSynapses="18">
          -2.8438615636003446e+00 2.0359097145824561e+00 3.0172381309390511e-02 2.3907270511495846e+00 -2.7354504729125140e-01 -3.4907892268489804e-01 -4.6866595515817694e-01 2.1703859149335378e+00 -2.0050210242210191e+00 -1.7506654517603157e+00 -1.3678487583736598e+00 1.1545878998119501e-01 -4.5315061701996051e-01 -1.1607759742274308e-01 1.4889271185181727e+00 4.9907600113962358e-01 6.2671763365816657e-01 3.2915963920217797e+00 
        </Neuron>
        <Neuron NSynapses="18">
          -4.6544091688536721e-01 1.0112663090703466e-01 -3.6668288433551846e+00 -7.5106811715078492e-01 2.4151556980440958e-01 1.9237489861925314e+00 -2.4162554516953620e+00 1.0444171870594701e+00 1.6291839228966254e+00 -1.9318068428616086e+00 -1.6150929352306926e+00 3.6851407256861668e-01 5.3926392329410178e-01 1.6063975458501882e+00 1.6171725550462650e+00 -8.6229386523669564e+00 7.9685299073200877e-01 -1.6835693027463319e+00 
        </Neuron>
        <Neuron NSynapses="18">
          -1.2260510414356407e+00 2.1051678052416309e+00 -1.2386929398944233e+00 2.6911993146201607e-01 1.4197728343038774e+00 3.4521844667608875e-01 1.4387203398019961e+00 1.7246223190039023e-01 -1.2008872783329219e+00 -1.4146819350859479e+00 7.6120793421228616e-01 -6.8900315872147205e-02 4.0620667885138612e-01 1.2045000190455311e+00 7.8119176223340903e-01 8.0981816357839978e-02 1.7941475715052002e-01 1.0365981152485122e+00 
        </Neuron>
        <Neuron NSynapses="18">
          -7.1208963111684431e-01 -1.9464888890692009e+00 4.7415777895000073e-02 -7.6974275883709187e-01 1.6966654983760008e+00 1.9470357148360371e+00 -9.7714817059575843e-01 7.7163616046525818e-01 -4.0058282036371845e-01 3.7669208752473704e-01 2.1109025340213377e+00 -2.5255935948528008e-01 2.8903560377893311e-01 -8.5397212066307626e-01 -5.1252578337210519e-01 -3.1406331985697631e+00 -2.1045499557279217e+00 -4.2727571297004541e-01 
        </Neuron>
        <Neuron NSynapses="18">
          1.3540345262557515e-01 2.6720886887070709e+00 2.3977789427163532e+00 -1.8367987582247947e-01 -4.6155019028092653e-01 -2.5661929803870032e+00 9.5511556995227387e-01 -5.3570460717909885e-01 2.1167576254122449e+00 2.1067828322077894e-01 1.3982027978069196e+00 -5.7237372544406395e-01 -1.7742959221666772e+00 1.8946320728445942e-01 2.7147431108422664e+00 -5.5659826936178758e-01 -1.1072050241890805e+00 -1.0925888875888383e+00 
        </Neuron>
        <Neuron NSynapses="18">
          3.4000789824932454e-01 2.5684324280658960e-01 2.6903538996224508e+00 -1.8481556287850909e+00 -9.7075578352269676e-01 5.5809085585116580e-01 -1.1041944243485111e+00 -5.0684885286715771e+00 -1.0205811584339415e+00 2.8994712208634974e+00 -1.5318735658534843e+00 -8.1709202667340508e-01 1.1327290791230171e-01 2.0246863083312259e+00 -1.5551778886218190e+00 4.0638007945641448e+00 3.5493514306443308e-01 -1.7510521908143701e+00 
        </Neuron>
        <Neuron NSynapses="18">
          -5.3820625600423211e-01 -1.1294346152678249e-01 -1.5140926203368579e+00 7.1538662871719461e-01 -7.9250023815771370e-02 7.2307740901229645e-01 -3.6283227233616353e+00 2.3103066392125564e+00 -3.8400587627544711e-02 -2.1774031195193353e+00 7.5283894881635460e-01 -8.5214945881911575e-01 -1.0814939120611835e+00 4.6874863412048645e-01 1.3718379165512613e+00 2.5441303396552768e+00 -6.4913108693140842e-01 -1.8618430611774344e+00 
        </Neuron>
        <Neuron NSynapses="18">
          1.0153822403673586e-01 6.2728739027787017e-01 -2.0523870486735056e+00 1.1375735202515307e+00 -3.3448708543469741e-01 -1.0700372498263606e+00 1.0606177753172803e+00 1.7641070113142068e+00 2.6134307585934835e-01 2.9407634259920252e+00 1.9453947178331867e+00 -2.1999459909088710e+00 -4.7710829796651427e-01 1.7112475066046391e+00 2.1373556857717335e+00 5.9392400440709914e-01 -9.5541892170258813e-01 -8.0041377639512223e-01 
        </Neuron>
        <Neuron NSynapses="18">
          -1.0926151325102686e+00 1.6293625155534335e+00 3.2814149597308057e-01 -2.7567022921501605e-01 -2.4405013313856401e+00 6.6289780857958847e-01 -6.9865570865863602e-01 -1.8445505886144456e-01 1.0405081455911886e+00 4.1556830178056930e-01 -1.3000203062624799e-01 8.5997984206254074e-01 2.8061806904411117e+00 8.1230710111245608e-01 -1.7336693224827598e-01 -9.0885674001961381e-01 2.8787993154394509e+00 -9.0018223250253226e-01 
        </Neuron>
        <Neuron NSynapses="18">
          1.2689865767934833e-01 1.8273780382147471e+00 -9.3850979925154798e-01 -1.0539660977307090e+00 5.0287543347128309e-02 1.1739106446927670e+00 1.2817934172205517e-01 -1.2820787942557352e+00 2.2718309093384272e+00 6.0107257290128691e-01 -3.3609638887532195e-01 6.7217609137891743e-01 1.4992121947783392e+00 -1.6680493305814692e+00 2.2113074474644709e+00 6.3253314027264951e-01 6.8196729444012139e-01 -7.4093973833878424e-01 
        </Neuron>
        <Neuron NSynapses="18">
          -2.6566026830639267e+00 1.0953549382131536e+00 7.8016942907699771e-01 -2.2499207295341086e+00 -2.0992397675802343e+00 1.5674757086811880e-01 1.2881939988898536e+00 2.5274202410257768e-01 -3.9960779719708006e-01 -2.3885483187029726e+00 -7.4827304066546318e-01 1.5075126877729879e+00 2.0197809847586083e+00 1.4166608933166476e+00 3.0382188138666849e-01 5.0502206219601653e-01 -3.4733873919468521e+00 8.3768706927032122e-01 
        </Neuron>
        <Neuron NSynapses="18">
          -3.2193874110497367e-01 -1.2018495329017673e+00 -8.3078193878662365e-01 1.7035106864623928e-01 3.0865180925901559e+00 -1.4980773347993470e+00 3.2187989582161229e+00 8.8287078607367575e-01 -7.3156687181675895e-01 -1.2665073528977928e+00 1.7020712157881746e+00 2.4340965937597390e+00 -7.1135145000585021e-01 2.5653190280398369e-01 -1.9552298576633729e+00 9.4849908123905008e-02 2.9205437609280795e+00 2.6476844297026143e+00 
        </Neuron>
        <Neuron NSynapses="18">
          1.7032564242136565e+00 3.0722223714786229e-01 7.0378232251091122e-01 -1.3428250929363681e+00 -2.9421882058938637e-01 -7.0607186311540793e-01 -1.6712075109172386e+00 2.2202006016710261e+00 1.4694529467115953e+00 -2.4024979089504339e+00 1.0072447558324753e+00 -4.0637219559920623e-01 -3.0596844758011539e+00 -6.8099892607161761e-01 1.4104819895321485e+00 -2.7270037888536242e-01 -2.2013090337061852e-01 8.5513332861468461e-01 
        </Neuron>
        <Neuron NSynapses="18">
          1.3810444046554669e+00 -1.7245045425511538e+00 -7.8256591951771426e-01 6.6193272135478459e-02 -2.5158319132152092e+00 -8.7094908638205526e-01 -2.3005462513162582e+00 3.1072104746262991e-01 -1.6598756601765865e+00 -2.5019906429025722e+00 -2.2877787411961545e+00 -7.3886710517865745e-02 -1.0348368739744505e+00 -2.0533139338371100e+00 3.6049535855594278e-01 -3.2754898040533464e+00 1.5253461191720644e-01 -9.4504698520058295e-01 
        </Neuron>
      </Layer>
      <Layer Index="1" NNeurons="19">
        <Neuron NSynapses="1">
          2.1117001310715011e+00 
        </Neuron>
        <Neuron NSynapses="1">
          2.0871745558340029e+00 
        </Neuron>
        <Neuron NSynapses="1">
          4.5233739625203129e-01 
        </Neuron>
        <Neuron NSynapses="1">
          9.3329336429804066e-01 
        </Neuron>
        <Neuron NSynapses="1">
          -8.4680762974566270e-01 
        </Neuron>
        <Neuron NSynapses="1">
          5.0975454814925825e-01 
        </Neuron>
        <Neuron NSynapses="1">
          5.6512829518215868e-01 
        </Neuron>
        <Neuron NSynapses="1">
          -9.2994406666658380e-01 
        </Neuron>
        <Neuron NSynapses="1">
          4.7452243269966116e-01 
        </Neuron>
        <Neuron NSynapses="1">
          5.3239048002388623e-01 
        </Neuron>
        <Neuron NSynapses="1">
          7.1639831788449304e-01 
        </Neuron>
        <Neuron NSynapses="1">
          3.6499328838472356e-01 
        </Neuron>
        <Neuron NSynapses="1">
          -9.0018970250749708e-01 
        </Neuron>
        <Neuron NSynapses="1">
          -1.1052359751430827e+00 
        </Neuron>
        <Neuron NSynapses="1">
          -1.2923303102012296e+00 
        </Neuron>
        <Neuron NSynapses="1">
          1.0368755315121252e+00 
        </Neuron>
        <Neuron NSynapses="1">
          5.8744182261612998e-01 
        </Neuron>
        <Neuron NSynapses="1">
          -4.7268883213739460e-01 
        </Neuron>
        <Neuron NSynapses="1">
          -1.5538421190650512e-01 
        </Neuron>
      </Layer>
      <Layer Index="2" NNeurons="1">
        <Neuron NSynapses="0"/>
      </Layer>
    </Layout>
  </Weights>
</MethodSetup>
