<?xml version="1.0"?>
<MethodSetup Method="MLP::MLPBNN">
  <GeneralInfo>
    <Info name="TMVA Release" value="4.1.4 [262404]"/>
    <Info name="ROOT Release" value="5.34/07 [336391]"/>
    <Info name="Creator" value="pseyfert"/>
    <Info name="Date" value="Thu Dec 12 20:33:55 2013"/>
    <Info name="Host" value="Linux lxbuild175.cern.ch 2.6.18-308.4.1.el5 #1 SMP Wed Apr 18 16:26:27 CEST 2012 x86_64 x86_64 x86_64 GNU/Linux"/>
    <Info name="Dir" value="/auto/sigma0/pseyfert/zoontuple/Bender_v22r7/Phys/Tau23Mu/scripts/TMVA_training"/>
    <Info name="Training events" value="52358"/>
    <Info name="TrainingTime" value="8.51205171e+03"/>
    <Info name="AnalysisType" value="Classification"/>
  </GeneralInfo>
  <Options>
    <Option name="NCycles" modified="Yes">600</Option>
    <Option name="HiddenLayers" modified="Yes">N+5</Option>
    <Option name="NeuronType" modified="Yes">tanh</Option>
    <Option name="RandomSeed" modified="No">1</Option>
    <Option name="EstimatorType" modified="No">MSE</Option>
    <Option name="NeuronInputType" modified="No">sum</Option>
    <Option name="V" modified="Yes">False</Option>
    <Option name="VerbosityLevel" modified="No">Default</Option>
    <Option name="VarTransform" modified="Yes">N</Option>
    <Option name="H" modified="Yes">True</Option>
    <Option name="CreateMVAPdfs" modified="No">False</Option>
    <Option name="IgnoreNegWeightsInTraining" modified="No">False</Option>
    <Option name="TrainingMethod" modified="Yes">BFGS</Option>
    <Option name="LearningRate" modified="No">2.000000e-02</Option>
    <Option name="DecayRate" modified="No">1.000000e-02</Option>
    <Option name="TestRate" modified="Yes">5</Option>
    <Option name="EpochMonitoring" modified="No">False</Option>
    <Option name="Sampling" modified="No">1.000000e+00</Option>
    <Option name="SamplingEpoch" modified="No">1.000000e+00</Option>
    <Option name="SamplingImportance" modified="No">1.000000e+00</Option>
    <Option name="SamplingTraining" modified="No">True</Option>
    <Option name="SamplingTesting" modified="No">False</Option>
    <Option name="ResetStep" modified="No">50</Option>
    <Option name="Tau" modified="No">3.000000e+00</Option>
    <Option name="BPMode" modified="No">sequential</Option>
    <Option name="BatchSize" modified="No">-1</Option>
    <Option name="ConvergenceImprove" modified="No">1.000000e-30</Option>
    <Option name="ConvergenceTests" modified="No">-1</Option>
    <Option name="UseRegulator" modified="Yes">True</Option>
    <Option name="UpdateLimit" modified="No">10000</Option>
    <Option name="CalculateErrors" modified="No">False</Option>
    <Option name="WeightRange" modified="No">1.000000e+00</Option>
  </Options>
  <Variables NVar="14">
    <Variable VarIndex="0" Expression="TMath::Exp(-1000*LifeTime)" Label="TMath::Exp(-1000*LifeTime)" Title="transformed decay time" Unit="1" Internal="TMath_Exp__M_1000_T_LifeTime_" Type="F" Min="1.93987222e-11" Max="7.31256723e-01"/>
    <Variable VarIndex="1" Expression="IPSig" Label="IPSig" Title="IP significance" Unit="1" Internal="IPSig" Type="F" Min="1.11495918e-02" Max="2.49779434e+01"/>
    <Variable VarIndex="2" Expression="VertexChi2" Label="VertexChi2" Title="vertex #chi^{2}" Unit="1" Internal="VertexChi2" Type="F" Min="8.02233350e-04" Max="1.49983969e+01"/>
    <Variable VarIndex="3" Expression="acos(dira)" Label="acos(dira)" Title="pointing angle" Unit="1" Internal="acos_dira_" Type="F" Min="0.00000000e+00" Max="1.37716651e-01"/>
    <Variable VarIndex="4" Expression="pt" Label="pt" Title="p_{T}" Unit="[MeV/c]" Internal="pt" Type="F" Min="4.12933426e+01" Max="5.52403477e+04"/>
    <Variable VarIndex="5" Expression="min(p0_IPSig,min(p1_IPSig,p2_IPSig))" Label="min(p0_IPSig,min(p1_IPSig,p2_IPSig))" Title="min. #mu IP significance" Unit="1" Internal="min_p0_IPSig,min_p1_IPSig,p2_IPSig__" Type="F" Min="2.30495882e+00" Max="1.02738922e+02"/>
    <Variable VarIndex="6" Expression="DOCAone" Label="DOCAone" Title="DOCA (#mu 1 and 2)" Unit="mm" Internal="DOCAone" Type="F" Min="2.63570382e-06" Max="9.23672736e-01"/>
    <Variable VarIndex="7" Expression="DOCAtwo" Label="DOCAtwo" Title="DOCA (#mu 2 and 3)" Unit="mm" Internal="DOCAtwo" Type="F" Min="2.43484504e-08" Max="7.44905770e-01"/>
    <Variable VarIndex="8" Expression="DOCAthree" Label="DOCAthree" Title="DOCA (#mu 1 and 3)" Unit="mm" Internal="DOCAthree" Type="F" Min="6.10736777e-07" Max="1.05343544e+00"/>
    <Variable VarIndex="9" Expression="iso" Label="iso" Title="track isolation" Unit="1" Internal="iso" Type="F" Min="0.00000000e+00" Max="1.70000000e+01"/>
    <Variable VarIndex="10" Expression="CDF3" Label="CDF3" Title="cone isolation" Unit="1" Internal="CDF3" Type="F" Min="3.00450996e-03" Max="1.00000000e+00"/>
    <Variable VarIndex="11" Expression="p0_track_MatchChi2" Label="p0_track_MatchChi2" Title="track match #chi^{2} (#mu 1)" Unit="1" Internal="p0_track_MatchChi2" Type="F" Min="4.38715070e-02" Max="8.45542831e+01"/>
    <Variable VarIndex="12" Expression="p1_track_MatchChi2" Label="p1_track_MatchChi2" Title="track match #chi^{2} (#mu 2)" Unit="1" Internal="p1_track_MatchChi2" Type="F" Min="1.31226135e-02" Max="7.59046707e+01"/>
    <Variable VarIndex="13" Expression="p2_track_MatchChi2" Label="p2_track_MatchChi2" Title="track match #chi^{2} (#mu 3)" Unit="1" Internal="p2_track_MatchChi2" Type="F" Min="1.51327997e-02" Max="7.93785172e+01"/>
  </Variables>
  <Spectators NSpec="0"/>
  <Classes NClass="2">
    <Class Name="Signal" Index="0"/>
    <Class Name="Background" Index="1"/>
  </Classes>
  <Transformations NTransformations="1">
    <Transform Name="Normalize">
      <Selection>
        <Input NInputs="14">
          <Input Type="Variable" Label="TMath::Exp(-1000*LifeTime)" Expression="TMath::Exp(-1000*LifeTime)"/>
          <Input Type="Variable" Label="IPSig" Expression="IPSig"/>
          <Input Type="Variable" Label="VertexChi2" Expression="VertexChi2"/>
          <Input Type="Variable" Label="acos(dira)" Expression="acos(dira)"/>
          <Input Type="Variable" Label="pt" Expression="pt"/>
          <Input Type="Variable" Label="min(p0_IPSig,min(p1_IPSig,p2_IPSig))" Expression="min(p0_IPSig,min(p1_IPSig,p2_IPSig))"/>
          <Input Type="Variable" Label="DOCAone" Expression="DOCAone"/>
          <Input Type="Variable" Label="DOCAtwo" Expression="DOCAtwo"/>
          <Input Type="Variable" Label="DOCAthree" Expression="DOCAthree"/>
          <Input Type="Variable" Label="iso" Expression="iso"/>
          <Input Type="Variable" Label="CDF3" Expression="CDF3"/>
          <Input Type="Variable" Label="p0_track_MatchChi2" Expression="p0_track_MatchChi2"/>
          <Input Type="Variable" Label="p1_track_MatchChi2" Expression="p1_track_MatchChi2"/>
          <Input Type="Variable" Label="p2_track_MatchChi2" Expression="p2_track_MatchChi2"/>
        </Input>
        <Output NOutputs="14">
          <Output Type="Variable" Label="TMath::Exp(-1000*LifeTime)" Expression="TMath::Exp(-1000*LifeTime)"/>
          <Output Type="Variable" Label="IPSig" Expression="IPSig"/>
          <Output Type="Variable" Label="VertexChi2" Expression="VertexChi2"/>
          <Output Type="Variable" Label="acos(dira)" Expression="acos(dira)"/>
          <Output Type="Variable" Label="pt" Expression="pt"/>
          <Output Type="Variable" Label="min(p0_IPSig,min(p1_IPSig,p2_IPSig))" Expression="min(p0_IPSig,min(p1_IPSig,p2_IPSig))"/>
          <Output Type="Variable" Label="DOCAone" Expression="DOCAone"/>
          <Output Type="Variable" Label="DOCAtwo" Expression="DOCAtwo"/>
          <Output Type="Variable" Label="DOCAthree" Expression="DOCAthree"/>
          <Output Type="Variable" Label="iso" Expression="iso"/>
          <Output Type="Variable" Label="CDF3" Expression="CDF3"/>
          <Output Type="Variable" Label="p0_track_MatchChi2" Expression="p0_track_MatchChi2"/>
          <Output Type="Variable" Label="p1_track_MatchChi2" Expression="p1_track_MatchChi2"/>
          <Output Type="Variable" Label="p2_track_MatchChi2" Expression="p2_track_MatchChi2"/>
        </Output>
      </Selection>
      <Class ClassIndex="0">
        <Ranges>
          <Range Index="0" Min="1.9398722211905195e-11" Max="7.3125672340393066e-01"/>
          <Range Index="1" Min="1.1149591766297817e-02" Max="2.1987730026245117e+01"/>
          <Range Index="2" Min="8.0223334953188896e-04" Max="1.4998396873474121e+01"/>
          <Range Index="3" Min="0.0000000000000000e+00" Max="1.3410498201847076e-01"/>
          <Range Index="4" Min="6.2147693634033203e+01" Max="5.5240347656250000e+04"/>
          <Range Index="5" Min="2.3049588203430176e+00" Max="1.0273892211914062e+02"/>
          <Range Index="6" Min="2.6357038223068230e-06" Max="8.1560057401657104e-01"/>
          <Range Index="7" Min="2.4348450367028818e-08" Max="6.9920772314071655e-01"/>
          <Range Index="8" Min="6.1073677670719917e-07" Max="1.0170480012893677e+00"/>
          <Range Index="9" Min="0.0000000000000000e+00" Max="1.3000000000000000e+01"/>
          <Range Index="10" Min="3.0045099556446075e-03" Max="1.0000000000000000e+00"/>
          <Range Index="11" Min="4.3871507048606873e-02" Max="7.7615455627441406e+01"/>
          <Range Index="12" Min="1.3122613541781902e-02" Max="7.5904670715332031e+01"/>
          <Range Index="13" Min="1.5132799744606018e-02" Max="7.9378517150878906e+01"/>
        </Ranges>
      </Class>
      <Class ClassIndex="1">
        <Ranges>
          <Range Index="0" Min="2.1115165509399958e-05" Max="7.2934836149215698e-01"/>
          <Range Index="1" Min="1.3430085778236389e-01" Max="2.4977943420410156e+01"/>
          <Range Index="2" Min="2.2036740556359291e-02" Max="1.4991107940673828e+01"/>
          <Range Index="3" Min="0.0000000000000000e+00" Max="1.3771665096282959e-01"/>
          <Range Index="4" Min="4.1293342590332031e+01" Max="2.1269572265625000e+04"/>
          <Range Index="5" Min="2.7823791503906250e+00" Max="5.1121429443359375e+01"/>
          <Range Index="6" Min="3.9169070078060031e-05" Max="9.2367273569107056e-01"/>
          <Range Index="7" Min="4.2437626689206809e-05" Max="7.4490576982498169e-01"/>
          <Range Index="8" Min="3.1205789127852768e-05" Max="1.0534354448318481e+00"/>
          <Range Index="9" Min="0.0000000000000000e+00" Max="1.7000000000000000e+01"/>
          <Range Index="10" Min="3.8299348670989275e-03" Max="1.0000000000000000e+00"/>
          <Range Index="11" Min="1.4428974688053131e-01" Max="8.4554283142089844e+01"/>
          <Range Index="12" Min="1.4624765515327454e-01" Max="6.7723579406738281e+01"/>
          <Range Index="13" Min="4.5327022671699524e-02" Max="6.8506652832031250e+01"/>
        </Ranges>
      </Class>
      <Class ClassIndex="2">
        <Ranges>
          <Range Index="0" Min="1.9398722211905195e-11" Max="7.3125672340393066e-01"/>
          <Range Index="1" Min="1.1149591766297817e-02" Max="2.4977943420410156e+01"/>
          <Range Index="2" Min="8.0223334953188896e-04" Max="1.4998396873474121e+01"/>
          <Range Index="3" Min="0.0000000000000000e+00" Max="1.3771665096282959e-01"/>
          <Range Index="4" Min="4.1293342590332031e+01" Max="5.5240347656250000e+04"/>
          <Range Index="5" Min="2.3049588203430176e+00" Max="1.0273892211914062e+02"/>
          <Range Index="6" Min="2.6357038223068230e-06" Max="9.2367273569107056e-01"/>
          <Range Index="7" Min="2.4348450367028818e-08" Max="7.4490576982498169e-01"/>
          <Range Index="8" Min="6.1073677670719917e-07" Max="1.0534354448318481e+00"/>
          <Range Index="9" Min="0.0000000000000000e+00" Max="1.7000000000000000e+01"/>
          <Range Index="10" Min="3.0045099556446075e-03" Max="1.0000000000000000e+00"/>
          <Range Index="11" Min="4.3871507048606873e-02" Max="8.4554283142089844e+01"/>
          <Range Index="12" Min="1.3122613541781902e-02" Max="7.5904670715332031e+01"/>
          <Range Index="13" Min="1.5132799744606018e-02" Max="7.9378517150878906e+01"/>
        </Ranges>
      </Class>
    </Transform>
  </Transformations>
  <MVAPdfs/>
  <Weights>
    <Layout NLayers="3">
      <Layer Index="0" NNeurons="15">
        <Neuron NSynapses="19">
          -3.8475848872895546e-01 1.5223870340949233e+00 8.7715524584081506e-01 -9.6996237602541571e-02 -1.5045615280069027e+00 -1.2998034863656278e+00 -3.5330326519026994e-01 1.8213974291816268e+00 2.2172390496313765e-01 -1.1928451928273824e+00 -1.1047405141739728e+00 -2.4590905108091068e-01 -4.5741139488124477e-01 -3.7886682644541436e-01 -1.2441528591170566e-01 7.6362676732018986e-01 -2.7877552614000256e-01 1.0579192103920652e+00 2.5225319056145179e-01 
        </Neuron>
        <Neuron NSynapses="19">
          8.7924992318493000e-01 -2.0259552298281585e+00 -7.7299349143108109e-01 4.3189133782050000e+00 7.0016063863906686e-01 -1.5609465610764715e+00 1.2906883722736320e-01 1.7373424573680740e+00 -1.4392929007063160e+00 -1.4951891551484375e+00 -5.8488656627841129e-01 2.9487368193757818e-01 1.7937581654785431e+00 -4.6081553284636451e-01 -4.6225489865532493e-01 7.3127228445968684e-01 -6.2703561736767707e-02 -1.5588629702292314e+00 1.8213072569383419e+00 
        </Neuron>
        <Neuron NSynapses="19">
          -1.0401446122752389e+00 7.1245209519277586e-01 4.0814887299585190e-01 1.3240111988782341e-01 1.3316593344974470e+00 8.4936479661979392e-01 -3.8354600160509927e-01 -8.4585701143759795e-01 1.7556956021684307e+00 5.6455881249691420e-02 1.6153681513112021e+00 1.1638764671814665e+00 1.4605785284495070e+00 8.7619874784283303e-01 -1.1429998530507086e+00 5.2902882144184782e-01 -1.3255311314636780e+00 -5.1674527232901246e-01 -1.2032428244164073e+00 
        </Neuron>
        <Neuron NSynapses="19">
          -2.1445969883834723e+00 4.3445372630407691e-01 4.6046046094064097e-01 2.2152005838202313e-01 7.5564561141025299e-01 -7.2985251958677755e-01 1.2061418338308443e+00 1.8745230542145646e+00 -4.7598646594933125e-01 1.7455598896575178e-01 -5.3963065284376932e-01 4.2323896273572070e-01 -2.0761976765401369e-01 -1.1881866594957677e+00 -1.4165831155779396e+00 7.6034108838275660e-01 1.4529021220429885e+00 5.4291846279468514e-01 -1.6182857016677829e-01 
        </Neuron>
        <Neuron NSynapses="19">
          -2.4294440162648407e+00 -9.9377893556868491e-01 1.6041538371913699e+00 -9.3773291367810152e-01 2.1270205367240780e+00 1.6650709786973528e-01 1.6270655600585489e+00 -1.0467044835573081e+00 -1.7724647428018211e-01 -6.0540054144891420e-01 8.5486760907036352e-01 -1.3307366728220180e+00 -1.6809342826891605e+00 -1.9969284308856194e+00 -8.7577106453214237e-01 -3.4492456690292855e-01 1.9489214017892509e+00 -2.4275462376046186e+00 -6.4491065935534064e-01 
        </Neuron>
        <Neuron NSynapses="19">
          9.8591047551142730e-01 -8.9038311826693828e-01 -7.2508005985041457e-01 -2.2883331767474377e+00 2.0363763475337734e-01 -2.3275063008618835e+00 -9.8665134934720333e-01 4.6566006372363422e-01 1.4515183897515243e+00 -1.5453634389734443e+00 1.4175140062686311e+00 -1.2003154621981238e+00 -8.0758130052249877e-01 -5.8136422102083196e-01 -3.6109016777083858e-01 -2.0974608565803403e+00 5.4985250577218781e-01 -5.6553527685719751e-01 5.8163645595245816e-01 
        </Neuron>
        <Neuron NSynapses="19">
          -1.8016387703054797e+00 1.5048360807485395e+00 1.2624445742366093e+00 -9.0838539495924908e-01 1.5520442893237791e+00 -1.6031667269375296e+00 -9.0053191740926708e-01 9.0185496286322969e-02 3.2988677448892989e-01 1.3969149373580403e+00 7.2290951670231718e-01 -3.2317725751551662e-01 -2.9473828943571012e-01 -4.3493261277448725e-01 -2.3740501422811957e+00 9.0757745488374553e-01 5.4133745316562654e-01 -1.6961507690302116e+00 6.5961117551391479e-01 
        </Neuron>
        <Neuron NSynapses="19">
          -1.8891061248254868e+00 3.1635532054762416e-01 2.2013043183809136e+00 6.3025330720114306e-02 -1.4847426332253899e+00 -2.1852303716868063e-01 2.0543849614617122e+00 1.5070549581700261e+00 9.2327298981278594e-01 -1.7325129493518714e+00 -2.7546061741431310e-01 -1.7094439567688504e+00 1.3717930479981584e+00 6.2668438514366231e-01 -1.0668560656913977e+00 2.7453206935439983e-01 5.8398629414218617e-01 -1.8823291828160307e+00 7.5105644559326934e-01 
        </Neuron>
        <Neuron NSynapses="19">
          1.0249798911198131e+00 -5.2422335110043550e-01 4.6065282502975130e-01 -8.7087330437102983e-01 1.6854899118533357e+00 -3.4206156831782686e-02 1.5279592514988667e+00 -1.5810805208414416e+00 1.6481851638147083e+00 2.9055002928019286e-01 3.3638769935632007e-01 2.7394538771269439e-01 1.0421471315621880e+00 -1.1538798190762118e+00 -1.2606926367340641e+00 9.2552444561649641e-02 -4.8424846359232115e-01 -4.1385842005147772e-01 1.5402296455237887e+00 
        </Neuron>
        <Neuron NSynapses="19">
          3.7679722805623755e-01 2.0194783132514771e-01 1.6766609899269191e+00 2.6440464019652641e+00 -1.6020543661099007e+00 1.6300261513527710e-02 5.2374322488530833e-01 1.4900446269949269e-01 -1.8308089984655964e+00 -1.1327045028489369e+00 2.3860102729966615e+00 1.4237223998368858e+00 -1.7026823263227575e+00 -7.6946104040676733e-01 -7.9383247872601892e-01 3.3969251084858376e-01 1.8180165649342510e+00 -1.2537364212399653e+00 -3.0709086631630311e-01 
        </Neuron>
        <Neuron NSynapses="19">
          -9.0533666401938617e-01 1.1177669278628219e-02 1.8514970231241459e+00 2.0525109881980463e-01 -2.3513625733666187e-02 -6.2503929025983185e-01 -1.4810954634982727e+00 7.0396538131433350e-01 1.5361416650379645e-01 -1.5938970379943949e+00 4.1259090990597397e-01 3.7767858876640276e-01 3.3163464417594957e-01 -1.4113169252100974e+00 9.8696424815830219e-01 -3.4058895836215415e-02 -5.2303611339454137e-01 8.1132250235072478e-02 1.3606683123143510e+00 
        </Neuron>
        <Neuron NSynapses="19">
          4.4994142136526916e-01 1.7873100463012761e+00 3.4508741839547769e-01 -7.9368879470845727e-02 -5.9493340257847538e-01 1.1525333111054445e+00 1.7135424981822831e+00 1.0315345063644505e+00 3.7305677557136718e-01 1.5833016791445913e+00 -6.8258515906193029e-01 -1.5881476395551870e+00 -1.4792083227256550e-01 -1.5107933880524156e+00 3.2935153777554982e-01 1.1310127045307223e+00 -7.7200477127477785e-01 -7.4137141528364356e-02 1.0138429457636464e-01 
        </Neuron>
        <Neuron NSynapses="19">
          -1.7788386946665617e+00 1.1772776291658922e+00 6.4155563139316052e-01 6.2230248990449410e-01 4.3526133299632902e-01 -1.0899317514551332e+00 1.8126893009363805e+00 -1.7744611378637518e+00 6.0823012330217877e-02 -3.2915134254352657e-01 6.0471501313157421e-02 -1.5993041990731554e+00 -2.1966087046698108e+00 -6.7183818234521409e-01 -1.9116728139627732e+00 4.5377028382913964e-01 -1.4014862364266176e+00 -8.7224350961015673e-01 -7.6433045309420244e-01 
        </Neuron>
        <Neuron NSynapses="19">
          -2.2629507065009062e+00 7.6433035569748187e-01 2.1673644431466649e-01 -5.9934130181138390e-01 -5.8551231824401573e-01 -3.5930165166342853e-01 2.1272204759643580e+00 8.2703381623303740e-01 -4.0054065987676829e-01 -2.1583811903427650e+00 -6.6224199221539426e-01 -1.0825450623471928e+00 -1.8132094490888195e+00 -2.4963826787021753e-01 -3.4080784061649205e-01 3.1303043769130456e-01 4.1461470330530853e-02 -5.6966017515685874e-01 -3.8340025259300509e-01 
        </Neuron>
        <Neuron NSynapses="19">
          -1.2311665250762160e+00 4.0813357405564660e-01 3.2999943795370129e-01 4.8409944936139765e-01 -1.3121263616055416e+00 1.4410360286313739e+00 5.0373060973115491e-01 6.7999344428702235e-01 -8.2211805123643300e-01 1.9485241178478818e-01 1.0191427736126959e+00 1.2910039938597615e+00 9.3102875363393811e-01 3.2901551879773139e-01 9.3843645682286614e-01 8.2592099754827342e-01 -1.8447646110351521e+00 4.1251188325789023e-01 -1.9023178201216784e+00 
        </Neuron>
      </Layer>
      <Layer Index="1" NNeurons="20">
        <Neuron NSynapses="1">
          -9.9207668735263224e-02 
        </Neuron>
        <Neuron NSynapses="1">
          1.4709370704351191e-01 
        </Neuron>
        <Neuron NSynapses="1">
          -5.7143716324072569e-01 
        </Neuron>
        <Neuron NSynapses="1">
          -4.5676016449568750e-02 
        </Neuron>
        <Neuron NSynapses="1">
          1.5868658587299278e-01 
        </Neuron>
        <Neuron NSynapses="1">
          -7.7924729285066774e-01 
        </Neuron>
        <Neuron NSynapses="1">
          -1.2627520349692992e-01 
        </Neuron>
        <Neuron NSynapses="1">
          2.2416151737131556e-03 
        </Neuron>
        <Neuron NSynapses="1">
          8.3584725264522916e-02 
        </Neuron>
        <Neuron NSynapses="1">
          4.2447721187002413e-01 
        </Neuron>
        <Neuron NSynapses="1">
          -1.1495408784809967e-01 
        </Neuron>
        <Neuron NSynapses="1">
          6.9631846962243032e-02 
        </Neuron>
        <Neuron NSynapses="1">
          6.0042004616134026e-01 
        </Neuron>
        <Neuron NSynapses="1">
          -1.1517106753028858e+00 
        </Neuron>
        <Neuron NSynapses="1">
          -5.5274967510535022e-01 
        </Neuron>
        <Neuron NSynapses="1">
          -5.6567288400792204e-01 
        </Neuron>
        <Neuron NSynapses="1">
          2.0466750767258340e-01 
        </Neuron>
        <Neuron NSynapses="1">
          1.1747810714212521e+00 
        </Neuron>
        <Neuron NSynapses="1">
          3.1886931976227689e-02 
        </Neuron>
        <Neuron NSynapses="1">
          5.3518939230796359e-01 
        </Neuron>
      </Layer>
      <Layer Index="2" NNeurons="1">
        <Neuron NSynapses="0"/>
      </Layer>
    </Layout>
    <InverseHessian NElements="93025" NRows="305" NCols="305">
      <Row Index="0">
        1.0736478310645787e+04 -4.1528988859967715e+00 -5.8973232117505574e+02 -1.5505185670773227e+00 9.4229330803036415e+00 1.9434630259127326e+02 -1.5359528401600292e+04 2.1346283572237347e+01 8.4818721319490076e-01 1.9997528396763492e+01 -1.6400984176287048e-01 3.4249542102438403e+02 -4.5278023523105997e+00 3.7129273302836390e+02 -2.8164811927610335e+03 2.8010661410622784e-01 3.8060926084126223e+01 3.8850221057592717e+02 3.3171876725574585e+01 1.6652097162577163e+03 1.3733152314058325e+01 4.5992647444887450e+02 -4.9035837503283100e+00 1.3332129969670415e+01 3.0322548900042366e+03 4.8891130102850593e+02 -1.5324757452418680e+01 6.0965425384589489e+00 -1.3184479793691898e+01 4.3987149261396450e+00 -1.7606408095389270e+02 -7.8093123182826911e+00 -1.3163530115876226e+03 -9.8207398957797159e+02 -1.5022366491951504e+00 5.9605374857298727e+00 -3.9918400724582261e+02 -7.0985715114742277e+01 -1.4844461819060125e+03 -1.0633553623651901e+00 7.2543959973508186e+02 1.8066695267078832e+00 -5.8513429918291848e-01 -3.5296969635836299e+03 -7.3501077786438145e+02 -6.4872612818331064e+01 -1.3444407391724977e+00 3.3773121703812272e+00 1.1401524057394408e+00 -2.5743222685216790e+02 1.2844331356796213e+00 1.1913322903113194e+03 1.9293291432307788e+03 1.7026497231433133e-01 -7.1907369024628309e+01 -5.1620680606776659e+02 5.2661896894936234e+01 1.9549327554176546e+03 -2.1194714912353905e+00 -1.6910002867380299e+03 9.1775500347499879e+00 -7.0269930519922269e+01 -6.6474340121844193e+02 -3.9619226571259778e+03 3.3475582002969111e+02 -2.0527857067892494e+01 -6.9529316880183558e+01 -1.5158074922799059e+01 2.3210540653854932e+02 -1.9327073701536989e+01 2.0443317016565534e+03 -3.8605118665247246e+03 1.0872462753637731e+00 -2.5550543550976474e+00 -2.7174551664613182e+02 2.2876646740820271e+02 2.7405730914050696e+03 -2.6085354151440185e+00 -2.0644420689980802e+02 -4.1665781521337824e+00 -3.1478915658372571e+01 -5.1430493716849537e+02 8.8356545156490188e+02 -1.2201121529795635e+01 -6.2316676503894897e+00 -2.1758068651237892e+01 1.4584987217921515e+00 2.5138562093383214e+02 3.8208926244794235e+01 1.6288940013606484e+03 7.8833291122374067e+02 1.8046140143860292e+00 -7.9803514471004746e+01 3.5866842426380072e+02 3.0545523538205396e+02 8.0006453269153644e+03 3.7047338263233391e+00 -8.5307828225873368e+02 2.5349378360253034e+00 -6.3894608206002523e+00 6.5840378521168930e+02 7.1596539602562916e+02 -9.7285830613755707e+01 7.2439098759609291e+00 -3.7011608800935143e+00 3.2191973925860804e+00 -5.9744672434794984e+02 5.5490486072754877e+00 -1.4889884287691370e+03 1.2455047981347270e+03 1.0232091862190740e+00 4.0111326922179444e+01 1.5161114003701186e+02 8.5597995053319764e+01 1.2559440821225500e+04 -7.3113199978367645e+00 1.7543583033409907e+03 -7.3385661456585165e+00 6.1424292206105413e-01 -1.6252429567531135e+02 -2.0615917818509643e+03 -8.4043284875746053e+01 1.1299114792376329e+01 6.1892362703134793e+01 1.1113025036859185e+01 -1.1089343354340770e+02 3.6383809410990011e+01 -2.2421373397423167e+03 -8.3149828079988220e+02 6.0251753205818359e-01 1.0997981271652054e+02 1.1834569278229574e+03 -2.5172261893108384e+02 -2.1538330630279142e+03 -5.0286473684647586e+00 1.6011958602703935e+03 -5.9773475565059364e+00 6.0941668730095913e+00 4.4164898711209753e+03 2.4098847673525197e+03 3.3741735709092211e+01 -4.9166248583010130e-01 2.0196025987030868e+01 2.7151658270148737e+00 6.2884890482745959e+01 -3.1197141847206545e+01 -1.8597400301378348e+03 2.1989306444425592e+03 -6.4351830627683748e-01 -5.9418105719717843e+01 2.1169679733752128e+02 2.8482239361071976e+02 2.8523420695641817e+03 -7.1464428787263223e-02 -2.3574998920595785e+03 -6.2121490940051256e+00 -7.4730494736602431e+00 -4.1109478174938922e+03 -3.7952093258051391e+03 -5.5388237506428226e+01 4.1528477019505745e+00 -2.7604990135557796e+02 2.9350428343487582e+00 -4.1422124971797984e+01 1.5597146524591352e+01 4.9785025323942118e+03 5.8281380030110813e+02 -1.1636764263014554e+00 -8.6710494115404146e+01 1.2279839560859973e+03 -3.0336212408441759e+02 1.7517531555631754e+03 -1.1888327818927884e+00 1.1860604345970307e+03 4.0719091231464102e+00 2.4527806592294162e+01 8.1816231255133971e+02 2.1215668091102270e+02 -3.4014466976162907e+01 1.1764811783433435e+00 8.2949474426311127e+00 -7.0113771961748839e-01 -6.4577772274800054e+02 4.6054276493823920e-01 -8.6065091036107924e+02 3.1217377182093369e+03 -6.3548144153994435e-01 4.4776266332248980e+01 -2.7666615283014835e+02 9.7915406384801827e+01 2.1605981181677544e+03 -2.3580161976794245e+00 -6.4849478096504333e+02 2.8572400829971034e-01 8.6396153912693188e-02 8.2181448288155775e+02 1.9918430104706858e+03 -6.1809671582214847e+01 -1.5343153487687049e+00 -4.2633531195464201e+01 1.9048549838160156e-01 6.6764061916353239e+02 -3.8875981346854473e+00 1.0837233509225057e+03 -1.3228459737117737e+03 -4.9656752524813075e-01 -4.2266078702566503e+01 -1.8715525781355518e+02 3.7459866624822489e+00 -8.6719236889746808e+03 -4.5261664468581051e+00 1.5282532932717002e+03 -1.0622420475529784e+00 7.5670170044949003e+00 -1.3495000220435941e+02 -1.5817236376322398e+03 6.9251302606706020e+01 -5.2829069508794380e-01 2.2149498986064083e+02 -5.9523057535177415e-01 -7.5969374681514455e+02 3.8254114075130374e-01 -1.3754135752941747e+03 2.6423842261566824e+02 1.2235488694504648e-01 1.1489112225493284e+02 3.0428584721087827e+02 -2.8198253333725245e+02 2.0175401260796657e+03 -4.5867125256049670e+00 8.4033693344419657e+02 4.9831853715340984e+00 2.2796919724587326e+01 2.2310145138155667e+02 4.2310911863141173e+03 -1.5258139148923021e+01 -9.0373135175076342e+00 2.8598002663608025e+01 7.1067500031461037e+00 -1.3329133657738566e+02 -1.2622779426877742e+00 -1.7927697136729603e+02 -9.8047257881483893e+02 2.1038145076081873e+00 -1.7612257308339821e+01 -5.2936871028214227e+01 1.6545556557486154e+02 8.3603698946210789e+03 -2.8028634265573324e+00 1.9517825973888603e+02 2.5902324338944460e-01 -3.7200109472777577e+01 -2.8996877945239839e+02 -5.6979711409275042e+03 3.1171273471547960e+02 6.8575241020472610e+00 -2.6599723807108973e+00 6.1420435304557053e-01 9.3804436907284617e+02 -1.1790929770346757e+01 7.1485656749322516e+02 3.8179965332805295e+02 2.8726633318473547e+00 1.7988289490138385e+02 -2.4040936654261282e+02 2.5407012312518179e+02 3.1846916772600463e+04 -1.2056731076536188e+01 4.0161431387254152e+03 -6.8329231787096125e+00 -6.2364567527008639e+01 -3.0219365549973409e+03 -9.9825789633346722e+02 3.1792337964506487e+02 -9.3827555644088889e-01 -3.9341620955998906e+01 1.2931594868942282e+01 2.4110699784153672e+02 2.1766981985331590e+01 7.1166114806863936e+02 -1.0861752810095786e+03 5.2637092683102065e+00 1.2656728060411399e+02 -2.3795243354828563e+02 4.1364462526307000e+02 -3.1827860126922424e+03 1.0313287349270381e+00 2.1013691536382776e+03 5.2912059770478942e-03 1.5776231895190307e-01 9.0353615688579339e+01 2.2490988751219443e+03 -2.2166386551890865e-01 -1.0885448204555814e-01 -2.3972233490390295e+01 8.0807111087807471e-02 2.0117663289709833e+02 -4.6750047119296312e+00 2.2900131426170806e+03 9.6345124398689495e+02 -5.8718956823693702e-01 -2.1666292474699219e+01 2.0545347011815875e+03 1.0226809690058875e+01 1.9512533484459448e+03 
      </Row>
      <Row Index="1">
        -4.1529004572890926e+00 9.3063710556888712e-01 1.1362794418374658e+00 -6.3981300724398379e-02 -1.1137451107631535e-01 5.5021060600968941e-01 -2.8366084711213322e+00 -4.7865055816665301e+00 -8.1502488725813185e-02 5.0011362385946057e-04 -3.7672273276764451e-02 3.3628552056628251e+01 -1.0753636079991849e-01 -5.4688808774778490e+00 -1.0464780196351306e+01 4.5423085443161863e-02 -4.9480061935743047e-01 -7.4074301438370185e+00 8.0162293995781564e-01 1.8153835236814224e+00 -1.0320991127079353e+00 8.0175723013476841e-01 -1.8805402194414952e-01 2.3286081442220663e-01 -3.4987702399913552e+00 5.2654890261683818e+00 -2.7420119573339949e+00 -1.9015982604787318e-01 3.1498868751967106e-02 -3.3045281974553573e-02 -1.2840922528411511e+01 -6.3412102293718492e-02 5.4438406300749875e+00 1.4780872401748070e+01 1.5190387631032320e-01 -9.3532512447289662e-03 1.8448499521145578e+00 3.4268247344449421e-01 2.6272552865325682e+00 1.4150802144319477e-01 -6.9387086240290330e-01 -3.1262831823239440e-02 -3.4737570872073027e-02 8.8638029675850554e+00 4.9347042970866823e+00 9.1547484103935295e-01 -2.0405356345282660e-01 3.6788117836230150e-02 -9.2868394598726783e-02 1.4997826976530035e+01 2.1745152227428019e-01 -6.4227747378026834e-01 7.9320492358328920e-01 1.6288130406514938e-02 -2.5924913034399095e+00 -4.2386804880840145e-01 1.1645567666674048e+00 1.0755236059406421e+00 -1.4567080759346845e-02 -4.3523520715316621e-01 4.3506901721700075e-02 -1.9878967593765906e-01 3.3060055576649212e+00 -7.5961333818245365e+00 8.3796163123151857e-01 4.9789790872039053e-01 2.4276527558795280e-03 2.4453210439936174e-01 -2.0795896694206739e+00 1.5397004523340341e-01 -1.3208608449672710e-01 1.6257642586452675e+01 4.3790906158267959e-02 1.1912219550978231e+00 -4.9149660347677315e+00 5.5179678528372367e-01 4.1034721954123796e+00 -8.7241337399682917e-01 1.0635831875117514e+00 2.6048866619342526e-01 -9.3289474007437478e-03 1.8212045180618190e+00 -7.4021751601236474e-02 8.3929215145005145e+00 3.1030958207971487e-01 1.0267374791341677e-01 1.5025964657744681e-01 -2.6559695565085448e+00 2.0330775197678896e-02 -1.1645241487532907e+00 3.9158369032156770e-01 -3.8516238526934282e-02 1.7116395789781009e+00 -2.5007766380953740e+00 -1.8887537699590178e+00 -7.6355178885546309e+00 6.6051502499196990e-01 2.2586854077355262e+01 -1.5078583881303151e-01 1.8017022793711684e-01 1.3756389809621723e+00 -1.0802252210026140e+00 -2.3516840613478518e+00 -7.0830528830768824e-01 1.2053618640308517e-01 -2.7071939715275517e-01 -7.4397690396273504e+00 -4.5777257391124415e-01 -1.0744566563061767e+01 1.3966196805358777e-01 -7.3211594122112436e-02 1.1895438469934074e+00 -1.0762853723297781e+00 -4.5238252557222935e-01 -6.9633409381282263e+00 7.5749774087405619e-01 -1.2272717724783320e+00 1.1982263104076629e-02 -2.3447661275422013e-02 2.5578378414807901e+00 -4.0710984324118726e+00 -2.1355535165884802e+00 8.0683550800030104e-02 3.8936525054616400e-01 -1.0853047281138672e-01 3.3261116187425728e+00 -2.2087632509695965e-01 -1.2038432175307506e+01 2.6861668812400694e+00 4.1377565756249783e-02 9.0464406684494492e-01 -7.7018829483954505e+00 -1.3473540001810900e+00 1.1731844424207516e+01 1.9008337059622829e-01 1.6713184607674698e+00 -2.9269423942862721e-03 3.7657722946791150e-02 9.3290301048985071e+00 -1.2783194742179376e+00 6.2006840492541526e-01 -2.1043578133705326e-01 8.2868360303696154e-03 4.9274039601781700e-02 -7.6562851497502904e-01 2.0832145789075285e-01 9.4363337397175240e+00 5.4045956274117088e+00 4.0559150950736839e-02 2.0784202255151527e+00 -1.9907978130022457e+00 -2.0836381329697673e-01 -5.5698404930165282e+00 -3.1057152684853384e-01 2.0495936523146101e+00 2.0564229699274295e-01 1.4220698914643060e-01 1.7852434593653044e+00 5.5319766494063174e+00 6.9501812356944459e-01 -4.9294239336580059e-01 2.4052749041527388e-01 3.1925261304248914e-02 -4.4206989080244341e-01 3.2508856665680064e-01 8.8556495708703551e+00 2.4970887765089174e+00 4.0138396214355360e-02 -9.8101125476540929e-02 -4.6618201312680867e+00 -9.1675027932928455e-01 1.7431337713054518e-01 4.9917651346929409e-02 5.4422248287116304e-01 -3.9916692715610175e-01 -1.8387150825996645e-01 -5.5256324358044537e+00 -5.2467970012639853e+00 -3.9564560888058331e-01 5.8028122018317285e-01 -4.0227471997215436e-02 -2.2665820252141458e-01 -3.3655181370876619e-01 -1.3333499338814675e-01 6.2740676957815822e-02 1.0428064124510001e+00 8.9823880423200927e-03 1.8072385521418370e+00 -1.2531479257336287e+00 1.6836962336939618e+00 2.5695449345439556e+00 2.2016284204464234e-02 2.8758031264252768e+00 -4.1779142473852948e-02 -7.0467639808118321e-03 8.4750370112899986e-02 8.4898572132824484e+00 -1.2629437202084404e-01 -2.2353339238525116e-02 5.6167002752481210e-02 -3.7378879192327741e-02 3.0682326961268700e+00 9.2635856348382006e-03 -6.6233680930127292e+00 3.2286776276669116e+00 2.1083691299814411e-03 -3.8473881201112170e-01 -6.7825145559527300e-01 -1.7793571812996083e+00 -4.2007675673630729e-02 7.0660825666584293e-01 -1.2920494692330706e+00 -2.3784502651724854e-02 -1.5493966572686846e-01 5.9929922190668776e+00 -6.0527785641834271e+00 -1.5040930951317009e+00 2.9394587970321012e-01 3.8900404361026472e-02 1.3686593135160957e-01 7.6309043308692708e+00 3.2114911056854600e-02 -7.9313836519366347e+00 -1.4837755124062824e+00 2.6929813118592171e-02 -2.9164633563302136e+00 -3.8430719616389979e+00 -5.5114932415716122e-01 -4.0596256372530348e-01 5.1593096727899901e-01 -7.9057264578186803e-01 -1.8948023120403429e-01 -1.9452968089454425e-01 -8.0842010855930369e-01 -6.1552643392292339e-01 -2.0934536160927113e+00 2.5181958891411460e-01 3.8241347152981553e-02 -7.3880882227587152e-03 -1.6027676500639245e+00 -1.4694588907757011e-01 -3.4637499771718225e+00 -1.5089348569810454e+01 -9.1143592803318296e-03 -1.9090015556789410e+00 -3.6153249215185497e+00 1.2570097338836668e+00 2.0056951429957017e+00 3.5547079048110203e-01 -1.5517493447014914e+00 6.7637043331808089e-02 -3.0938042145733313e-02 -1.7483713405910919e+00 3.1577231979645148e+00 -1.4994091534070231e+00 2.5055538351757722e-01 2.4786044927576134e-02 8.4121347177302352e-02 -1.1167658740276636e+01 -1.1431201652813561e-01 2.2677172100863174e+00 -1.2269449210425591e+00 -6.7358455752433433e-03 -1.0084507975139321e+00 -2.2925210519746315e+00 -4.3696946074144061e-01 1.2880027240033598e+01 6.5789477272005792e-01 1.7410244997421103e+00 -2.3319235136637162e-01 -3.4698101252070207e-01 1.7861173077083578e+01 2.2204525544740363e+00 2.8224370133425936e-02 7.4919529923382944e-01 8.7702812387949769e-01 1.1391868228928095e-01 -3.0839994316789154e-01 -4.7627957382604391e-02 3.7241636883605871e+00 1.8757357272534136e-03 1.1695626554354893e-01 3.4358646602272180e-01 2.8967517337241588e+00 1.1286041546558767e-02 -3.4055764097988801e+00 -9.4561212773359410e-02 -1.8828673938003146e+01 -4.8437206400952122e-03 -8.0987742758319489e-03 5.3650146706095860e+00 -2.9245608617377199e+00 -2.8999101806038909e-04 2.1580523295386789e-02 3.2095509279351564e-02 -8.3145084238351059e-03 -2.8128108933643690e+00 -8.9125415981053280e-02 -3.2003344491471166e+00 -5.7766920622219242e+00 6.8308312480808625e-02 -9.8719591673688278e-01 -7.0248757286094134e+00 5.7670943473513966e-02 -5.7930045735934224e+00 
      </Row>
      <Row Index="2">
        -5.8973166438277985e+02 1.1362803376481836e+00 3.7932060421897495e+03 -4.0647449362526000e-01 -7.8603986828462014e-01 -2.0155692430474363e+02 9.5195802694726160e+02 2.3380159640814259e+01 -6.4995565980706556e-03 3.0751690626297520e+01 2.7717950887272682e+00 -7.0592336613498242e+02 -1.5560808735417695e+00 -6.0459571896895875e+02 -2.9143377635397492e+03 -6.1050909989717184e-02 9.8548499314598264e+00 6.2064949972730756e+02 -2.6341662549978506e-01 4.2984496318310016e+02 -6.8509898990963292e-01 -1.5018169051230659e+03 -1.2928374746154772e-01 -6.9647353457595251e+00 3.8467219237070572e+02 1.4451830866500327e+02 1.5008583222186004e+01 -1.1292096162868719e+00 3.9529409691805505e+01 -1.8164602975631050e+00 5.9357756714366360e+01 4.2207359957876989e-01 5.7582654586462138e+02 1.3267200545848614e+03 -1.0434732983708450e-02 2.0899070860879608e+01 3.7240668733959365e+02 1.1325899571464709e+02 -4.7124948665803197e+02 -1.1144326458688318e+00 -3.2150555082143853e+02 3.4985338808311006e-01 -1.9053321069634170e+00 8.0959540710340275e+02 -2.1022403706866680e+02 5.6183986873777293e+01 4.0602478455570772e+00 -4.9541290651874759e-01 -1.5339932382238994e+00 -1.8732437136538113e+02 1.8550065926659203e+00 4.2917340328027205e+02 1.6927111969257885e+03 -1.1497279999376442e-01 6.3780863095561358e+01 -1.6513398237649744e+02 -4.1797442119364661e+01 -5.3212346219060373e+02 -3.6074052963257994e+00 -1.1327891564037288e+03 9.8361959236524132e-01 9.2985670733206582e+00 -3.2956013843624987e+00 8.3456178292041091e+02 -4.0425545270453426e+01 2.2341268992740630e+00 -5.5518488188952240e+01 1.2648704108656306e+01 -1.6728264196079567e+02 3.0982860505491061e-01 -4.1127527367735536e+02 2.5696475315220546e+03 -4.2435220954154251e-01 -5.4582036109932481e+00 5.6215204041968263e+02 3.2789713708981118e+01 -6.1191107455018437e+02 7.0184342070339421e+00 1.4169339793717784e+03 5.2459772841171448e+00 -2.2536272859144120e+00 -1.0548426697470109e+02 2.0674310694434826e+02 2.2412309929264602e+01 -5.8144120233152279e+00 4.0505488752066007e+01 1.6607576742665087e+00 -3.3717314202091302e+02 2.3428128316799359e+00 -1.2150338740431155e+03 -2.5498691444010910e+02 7.5831965292664494e-01 -7.2561631020871289e+01 6.5864064913754464e+02 -9.0044171399382662e+01 -5.2298031269431121e+03 2.1137791137140640e+00 5.3289960455995342e+03 4.2517411697005514e-02 2.5146612883386372e+00 -1.3156046430630704e+02 2.5938014599766757e+02 4.4856241173440523e+01 4.4630560961203898e+00 2.8713937802782446e+01 -2.8722035173703584e+00 5.2197339146999980e+01 -8.4743298149435802e+00 -6.5464261942699591e+02 -5.2914702949625280e+02 -1.2249063141250507e+00 -9.0617458256697745e+00 5.7201289000520092e+02 4.0808802779233957e+01 -1.1967819620638295e+02 1.6102680344883238e+00 2.3533778562492907e+03 4.6765530172856229e+00 -5.8836790229590097e-01 1.0658320883744000e+02 2.4617328489939428e+02 1.7854449117357092e+01 -7.9076406186639243e+00 -3.2443075041017920e+01 -2.9813979298178621e+00 -1.2560148885155590e+02 -7.0694597401063533e+00 -4.0737483680742571e+01 6.8723319265450846e+02 -1.6272760141577711e-01 7.4145218685409759e+01 -2.0691911777016776e+02 -1.6120484979393655e+02 7.4265523860741962e+02 -5.6184625823099787e-01 2.8607318171107800e+03 3.4386790830788048e+00 2.8326969070399006e+01 4.1691172139849419e+02 8.9889465807007582e+01 7.4993085576555529e-01 3.4025444722183491e+00 1.0110767228448300e+02 1.6446709163022508e+01 -1.8732154220729808e+02 5.2882944681046400e+00 -3.2380169529575460e+02 -3.4182838247155803e+02 -9.7275885795380934e-02 1.0866178020381682e+01 -2.3911681124648749e+02 -4.4003344192446946e+02 -5.6489169119102280e+02 2.2040774790970419e-01 4.3355358017301984e+02 4.0956421974043531e+00 -1.0388657005608934e+01 -1.8352198640134084e+03 4.2598238562773622e+02 -4.5206002092834282e+01 -2.2544460735356511e+00 -7.5648052252758760e+01 -1.5076903240385340e+00 -1.3671652932885172e+02 -2.3224051284336635e+01 8.5273831159789643e+02 2.0160639857332371e+03 -3.2800515441404515e-01 -5.7105251247095644e+01 -4.7136869095829752e+01 3.3882718556813654e+02 2.5330261913138202e+02 -4.6887961617744001e-01 1.3246119019564551e+03 2.6010097875637022e+00 1.2234847349254281e+01 1.0736697107560281e+02 -1.3586167708990615e+02 4.9559844250884524e+01 3.6289361196473315e+00 1.8942660438124726e+01 -1.9901099275607370e+00 -1.5413267441858125e+02 6.1343428993787903e+00 -1.5851882455036832e+02 1.0153577206006385e+03 -2.7714440122125983e-02 -3.3287811212944121e+00 1.0269225199257053e+03 6.0163789652335780e+01 2.3706667285189781e+02 -2.6185489862974771e+00 8.8910435808639613e+02 3.5770696308119448e-01 5.1517283297007186e+00 -2.4207827845163658e+02 4.8297280095050155e+01 6.3236520327850315e+01 -1.0875953934042926e-01 2.8128341190157101e+01 4.3209535504867116e+00 2.8238773629161733e+02 -2.2446422488179527e-01 -6.9300964343241935e+02 1.6724931743337365e+03 1.2129152909944840e-01 2.3772290502595371e+01 -9.8234805610339754e+02 1.1948706559114266e+01 5.7702946399132486e+01 1.5235376041496356e+00 1.0193281818319947e+03 -1.3026889471046021e+00 2.8967948792990228e+00 1.2600130516314237e+03 -2.4085701502141092e+01 -5.1232196218589309e+01 -2.5619809413310648e+00 -1.7625265547506849e+01 1.8697164505587036e+00 2.8144184431818576e+02 -7.0586204832916692e+00 -4.8625348518636667e+02 8.4691522884558071e+02 3.9019063862499100e-02 7.6852173998583993e+01 5.4906644149904605e+02 1.2122531984004465e+02 -5.2330871523398741e+01 7.2898721064108538e-02 1.6379290020111989e+02 -1.7438290280536739e-01 8.6562447617264038e-01 -2.6011330811172354e+02 -4.2494500420703764e+02 -1.6042990379864086e+01 -7.5620203958899523e-01 5.2223743967590908e-01 2.3596457950127068e+00 -8.5027950666022662e+01 4.9546365710356284e+00 -2.6246885318951399e+02 1.4801354191432110e+03 -3.6712957172633831e-01 -5.7852208223795287e-01 6.4253666203262401e+02 1.1578634018544115e+01 -6.3409297774567881e+02 8.0969661992407982e-01 2.1109992076046465e+03 -6.7148235578223137e-01 3.8526991864593825e+00 -6.3398169128212862e+02 3.6082058955424139e+02 7.3555263451168770e+01 -2.8266275433119086e+00 4.5357176556202113e+01 -1.6375750892930483e+00 -7.3058449168072912e+01 3.3615423777422251e+00 -1.9997694944298626e+03 -1.1231749434459052e+03 -5.2620590407723222e-01 3.0857274861718970e+01 6.4802903866896122e+02 -9.8067597141286882e+00 1.6912542666483459e+03 5.1312153246382666e+00 1.3816441704826851e+04 1.7091269718396738e+01 3.8887553987890840e+01 -9.6296817865359219e+02 -2.4007746845639485e+02 7.1208460361849632e+01 -7.4687886397964771e+00 3.9959834018479725e+01 2.0885847860474943e+01 1.5502408243814432e+02 -2.4264532465160123e+01 -2.3040567778856303e+03 1.1648608813730243e+02 -1.9877304582503978e+00 7.5473715890962467e+01 -5.9061125335883116e+02 -5.0194170800523182e+01 -1.1989123173251767e+03 1.2701343979631358e-01 5.2445526649382191e+03 1.4076803258373918e-02 1.1555249174928583e+00 7.5462055001208694e+02 -4.5073636358347630e+02 7.4833987780692265e-02 -6.5101336890862171e-02 3.0793468169580933e+01 -4.3169860178812769e-01 2.7458865898194585e+02 3.6846307434397545e+00 3.6518806722815015e+02 1.5221507066168938e+03 1.7168490877580211e-02 1.2537023900758413e+01 1.6499118591617455e+03 -5.3878088954369083e+00 1.3998552279753658e+03 
      </Row>
      <Row Index="3">
        -1.5505178596883837e+00 -6.3981304400464803e-02 -4.0647360630962509e-01 1.2290376124320916e+00 1.3630340722487305e-01 2.5847030037363443e+00 4.6228019896311379e+00 -2.5265353779523210e+00 -5.3781093261350277e-02 -7.8722845641097217e-02 -2.2796573432252783e-02 1.2755458243752607e+00 4.6030772979032616e-02 -6.9541200313248206e+00 -5.7679969669234294e+00 -6.4487470538336922e-03 -1.1743600191883159e+00 -3.1783010161669267e+00 -4.3200329660816905e-01 -5.4220605052674955e+00 4.1591374923147550e-01 1.6891157963679859e-01 2.1176843079864793e-01 9.8344390637479989e-02 9.9403785598462413e+00 -1.6197194132879531e+00 -2.0679336700358384e+00 -1.3041415060876049e-01 -6.1673588544754132e-02 -1.4039820286239560e-01 1.0295046115723608e+01 4.9657383840137292e-02 -4.6558522707584871e-03 7.0719197255634754e+00 9.9760461075168727e-03 7.4359495601911085e-01 3.1219411912043129e+00 -2.3764636924288851e-01 1.6702392448647987e+00 -3.1638412690888178e-03 7.0688511941598708e-01 -1.0289437267313212e-01 -6.8138704932794586e-02 8.0471876404884970e+00 1.8681941286083656e+00 1.0702235631557375e+00 -4.5541717577740073e-02 -2.9045612561014525e-02 -3.9918902821312330e-02 -2.9099996580445264e-01 7.4876500809979429e-02 1.3037395778951719e+00 -2.2964511923601094e+00 1.7629528084613436e-02 -3.1572307000104516e-01 -3.4175628155143727e+00 1.8231598890253053e-02 5.4961939656075618e+00 -1.7018092439311008e-01 -7.0469877790708146e-01 -1.4764372912623935e+00 -8.1433604798820447e-02 -4.9008254127288069e+00 -1.1041631265083733e+00 -1.2490095102024938e+01 1.7298636784563631e-01 8.5664260939763232e-02 8.3917189839597589e-02 7.9693595974418940e-02 3.0535182884765533e-03 -5.1861391966995996e+00 -4.5090976441952080e-01 4.4103843274679443e-02 1.1119163134232979e+00 -8.9497025804337227e-01 3.9282160769605357e-01 3.2993221911823056e+00 -8.9814978075155621e-02 1.3015992047735292e-01 -2.0997478824891687e+00 -2.3709434470279867e-01 -1.4928674218040726e+01 3.7520965792970173e-01 -6.7770169489992860e+00 2.5216068831269611e-01 1.3947021570984264e-01 1.9178371008241041e-01 1.4072307648843889e+00 -8.4210375069090571e-02 -9.2691965857297873e+00 -8.0457509179541375e-01 4.6342164457973241e-02 1.5851306356773733e+00 -4.1897255930999791e+00 -4.3709418676638911e-02 -2.1686406497962452e+00 1.8124270771659290e-02 -6.6757247414368024e+00 1.6047500839889905e+00 -3.7666248684086606e-04 -1.2738936476908833e+00 7.7220162103367329e-01 8.8359960821306380e+00 3.4343631864008739e-02 -1.4474942604078134e-01 -2.7232767358313054e-01 8.0020045658338859e+00 1.9497192905738525e-01 -5.2872546919793990e+00 -9.8446793520542997e-01 -7.1811862070500984e-02 -5.3207172537730685e-01 -4.1608511586255190e+00 -2.5905055992530279e-01 1.1381444394481832e+00 -8.3293105966757874e-02 -7.3262696526124316e-01 4.8414550618594476e-01 -2.9684150113378771e-02 -4.1117099669040726e+00 1.6592888565883186e+00 4.9523324013673786e-01 4.8339511806302068e-02 -3.4321910390055255e-01 -5.0662481154136629e-02 -3.5324442812282086e-01 -7.4746118809044582e-02 -8.3808080409685601e+00 -2.9211736853067123e+00 2.8850947125150836e-02 2.6289268176606146e+00 -4.4350680516131433e+00 4.8962602444596826e-02 7.7839962807288998e-02 -6.4407525321693609e-02 -7.1549541646112402e-01 3.2498963966463390e-01 6.9728967969702182e-02 8.6223516458689460e+00 3.2653145963936367e+00 -2.4886165255875570e+00 -5.0427790685646956e-02 -7.8980436553183875e-02 -4.1294078783266491e-03 -2.4803643362552066e+00 2.9068464195035948e-02 6.6805809511846661e+00 -3.6112432500967202e+00 -3.7209280611161730e-03 -6.7409358799024233e-01 -1.4029140660324629e+01 -1.2494158543259815e+00 2.3073536673518902e-01 -2.7629171237597311e-02 2.7204314615460135e-02 2.3936893210341292e-01 -1.0444292373196529e-01 -6.4664033642750951e-01 3.3572280125565612e+00 6.7546337406937447e+00 -9.9563067812510231e-02 9.5548688563401596e-02 -4.2638559952308197e-02 -1.1642286100004640e-01 -2.0302881254809613e-02 5.1888575332818334e+00 -4.1179387529155065e+00 -3.2132430215263824e-03 1.2838636154758909e+00 -5.5467307990966219e+00 -2.3533008862778004e-01 -5.2927262454580699e+00 1.5822626058605355e-01 1.5924255198319486e+00 -7.8022901897672448e-01 1.3261194667819787e-01 2.1378635677095872e+00 -6.2480117802260793e+00 -1.3589360144375711e+00 2.8286284593702821e-01 -2.1943001703815135e-02 -7.7702556113852572e-02 -2.5080520828118438e+00 -6.3684934969983509e-02 3.5828770988056533e+00 2.2332317386099021e-01 2.0277602213698908e-02 9.8284535541894513e-01 2.3707709913433064e+00 2.8813195885253151e-01 1.2192907942614255e+00 4.3890718463731881e-03 -2.4915902655131852e+00 -1.9816374913662230e-02 -1.9210215651538798e-02 -2.6766459074083286e+00 -2.0937710277030419e+00 -2.9514879745375744e+00 1.3409777068184026e-03 7.4230387257721020e-03 -2.4643065523900276e-02 -1.8261329410222515e-01 7.8682690088740515e-03 -1.0067855981905552e+01 -5.5071541375809829e+00 -2.3136053867172934e-03 1.3054675744536759e-01 -2.8112558616048773e+00 -2.2403541145120665e-01 6.1448035921398514e-01 -9.9808647292591285e-02 9.4644134484046027e-01 1.8901515788231416e-01 7.4351586566254846e-02 -1.1807437709667283e+00 -7.5424026998007321e-02 -4.2685733083548429e+00 1.4396067906771448e-02 -1.2031012337481917e-01 7.2171543172395713e-02 -5.6714124510285728e+00 9.1326328529746092e-02 -1.0969558693261437e+01 -1.2471810061470023e+00 3.0457401785228863e-02 -2.1814073073326412e+00 -3.7803710049342953e+00 6.8363411440103050e-01 4.4440359871561981e+00 2.5177398469281909e-02 -1.7535015262161266e+00 -4.4178176080166165e-02 6.6632522883858236e-03 -4.6629875669519834e+00 -4.5112069810397770e+00 7.4548065612715115e+00 3.2777595132561226e-02 -1.0940582172393276e-01 7.0528321632021607e-02 -2.6077321402967755e+00 -1.0475048832246703e-01 9.2847888730955219e-01 -3.5177356593385412e+00 1.3335703467065183e-02 -1.2327139642622029e+00 -4.5581200187989452e+00 9.4287158431517115e-01 1.1353066734354371e+00 -7.2708723822286742e-02 1.5209987109190592e+00 2.5914705767276563e-01 -6.1325285849122779e-02 1.2435121296904299e+00 6.7626777016539563e-01 -4.6965240970521061e+00 -4.2342349271324298e-03 -4.8265827263333561e-02 -9.0337643551519908e-03 -6.3949732687678988e+00 -7.3679566165585186e-02 -9.4811982136264561e+00 2.8967113404942211e+00 5.2907488866418932e-03 -7.5434733878079641e-01 -4.3675304368593970e+00 -2.5755500313559798e-01 -1.0791919840521587e+00 -1.3950247976345920e-03 -3.6602281922508624e+00 -6.7820145368410056e-01 1.5720043977560438e-02 -5.1951932909670049e+00 -3.7528470049801399e-01 -2.0462480177283098e+00 5.4057928708216729e-01 -5.4536006210628130e-01 -6.4533185383172598e-02 6.1237358651298590e-01 1.0044697048146667e-01 -2.0335195458481969e+00 1.4261658523300866e+00 6.4141741338295921e-02 1.7465683828785248e+00 5.0805772637431801e+00 2.3812919230206786e-01 -1.1377679377003153e-01 2.5109930025325380e-03 8.7750373027062900e-03 -4.8385194423105071e-03 5.4228926914180030e-03 -1.9326099777279335e+00 -4.7781622234514792e-02 4.8684795549596791e-03 6.1743437733462270e-03 -2.9489320128214924e-02 -6.2297343494328496e-03 -2.7408641789458317e+00 -2.0968804366903626e-02 8.0220323029998608e-01 2.7755656807988576e+00 4.2700994700227094e-03 -3.8175820168817753e-01 -6.5365672046546330e-01 3.2192968784805782e-03 1.5054374076164876e+00 
      </Row>
      <Row Index="4">
        9.4229325786311051e+00 -1.1137450360050233e-01 -7.8604106789939354e-01 1.3630340571700117e-01 1.6960023667016497e+01 -9.7687153058660989e+00 -2.4657096246970582e+01 -3.9476662263788298e+00 -5.3356209585163961e-02 -6.8325957274119289e-02 2.9902211278079194e-01 -3.7011030949872463e+01 -4.4972128217270334e-02 6.0741480602217095e+00 -7.6170765886237632e+01 -1.9035152880313433e-02 -2.7971711739095184e-01 -5.0074076933937789e+01 2.1668803833391861e+00 1.2374244637064834e+01 5.6042979358960865e-01 6.7764605602835104e-01 -5.8152937593197451e-01 -1.5898822891821460e+00 -7.0854061179590335e+00 -1.0263823471348701e+01 7.9846986682316814e+00 -1.9389775620637817e+00 -6.5560261014446536e-02 7.2475461888150261e-01 1.1560751387830720e+01 2.3387060352468234e-01 -1.4131997338169043e+01 2.5354517731377626e+01 7.2544941715657077e-02 1.7675694472489167e+00 -4.6346788857130150e-01 -3.9973401009850562e-01 -2.8890664460206681e+00 1.1375208596692250e-01 2.3990598419894624e+00 -1.0270587384758771e-01 -5.2217571071085418e+00 2.5003064066907871e+01 4.4103823193916014e+00 -7.2329823237750066e+00 6.6238279914532106e-01 1.0247914236342148e-01 6.5335252275054045e-02 -1.0959051666555325e+01 -2.9496239226361465e-02 -3.1548974257607743e+00 8.0789546639524815e+01 -3.5249267348863474e-03 -1.4352553562882733e+00 1.5319370400145431e+01 -4.4977573146739438e+00 -5.4215307920112732e+00 -1.4014707888154410e-01 -8.8590356517229196e+00 -1.0001868487101084e-01 -9.6967339498399490e+00 -2.8898694351665313e+00 -3.2603035056951654e+01 -6.3457776580012819e+00 -3.3991780583405085e-01 5.9613011062417343e-02 -4.1451297647070851e-01 -1.5426472244513434e-01 -2.1775431067736051e-02 -8.5482839980259229e+00 -1.2456438629096556e+02 1.9706360307436659e-02 4.4890736556802624e+00 -2.7433021190205636e+01 2.4433447454416131e+00 3.9807055499935018e-02 -1.0579365148759526e-01 -3.0000631584142781e+00 -2.3831993779155325e-01 -1.9142275208984064e+01 -3.8297462499496220e+00 -1.8209246222043021e+00 1.1973247519218091e+01 6.9298198734651717e-01 -1.2990808281197586e-01 4.6812928980594481e-01 -3.7394421312748136e+00 -2.1430950883295452e-01 -1.4903814756736011e+01 -3.9507601747318404e+00 1.4377850496910355e-01 7.3208846327144421e+00 -2.0419003676670172e+01 -4.0310970338298908e+00 2.0714749183201093e+01 6.5295196632742047e-01 1.8053395521702313e+00 4.5304874698807845e-01 2.6819459729736685e+00 -1.0418955609203948e+01 4.3651669327064155e+00 -2.4780174552902459e+00 6.7476793789456257e-01 -3.8168753339819173e-02 -1.8294268710437001e-01 3.8923619194730463e+00 -3.4881158115664324e-01 -3.0712458337432054e+00 7.5499907412267930e-01 5.4677734725277288e-02 6.3717054513340514e+00 -2.3993586601769039e+01 2.9158209155245096e-01 1.1226517382518637e+01 -2.6657553038372589e-01 1.5979937531345371e+01 -3.6310255383391132e-01 -6.3282774291082298e+00 9.7228931698837187e+00 1.0373401565711447e+01 1.1436612059829898e+01 3.2130918669762237e-01 1.9336358789805974e+00 1.1490351170828179e+00 -1.6575367674539621e-01 4.1942261109642942e-01 -8.6653338920261831e+00 -2.6330891408870229e+01 1.8073124796213710e-01 5.1171292294080502e+00 -3.3645091428360502e+01 5.9305428065330048e+00 -1.7834974355098694e+01 -2.5995156404188158e-01 -8.6438362764180212e+00 4.9103599595821334e-01 8.6553112205363991e+00 -3.5550401321181710e+01 2.4549876500013852e+00 -1.3734449092025685e+01 4.3640744724954378e-01 -1.8196209551942015e+00 -9.8157183048340957e-01 7.6981371953517055e+00 4.7485052016956786e-01 2.8475132186148585e+01 -6.0226998211074829e+01 -1.6460957012050409e-01 -6.5612599520330077e+00 -1.1872248107265477e+01 9.4919946802243444e+00 4.1247152475917574e+01 1.4918627312514077e-01 7.9025961616146958e+00 -4.3695968791522621e-01 -9.9720308337025880e+00 1.7324274446231925e+01 -7.7900036098637315e+00 3.5953775716999772e+01 1.0988871348524363e+00 2.3801346868610711e+00 5.5471105966804202e-01 2.6710004464522399e+00 -2.4049430721587761e-01 -1.9250339213233495e+01 -1.2783147342520442e+02 2.5346135292984928e-01 4.5939350404084287e+00 -1.6917768762997184e+01 -1.1886582792450044e+01 -3.0674793996709013e+00 -4.8196965028748101e-01 8.3111076303233560e+00 -2.7312897507197742e-01 6.2765327423057746e+00 -9.3276625886472715e+00 3.0669844434669358e-01 -7.7396806153894460e-01 4.0153390099741637e-01 -6.0808364094327416e-01 -1.2533606486078817e+00 5.3783278999671040e+00 -2.0415297856734504e-01 1.6249772751845640e+01 2.8326425104656209e+01 -1.2005514288246198e-01 1.8813970155687159e+00 -1.3595692939478795e+01 2.1601737111404944e+00 4.3823937799017472e+00 6.2690212982609017e-03 1.3352264274504686e+00 -3.7902162894884572e-02 -2.7396044184763602e-01 8.2695975291460471e+00 -8.1015029148475151e+00 -1.1842329703570902e+00 1.2133753305433137e-01 -2.7956782080741860e-01 -2.5060941756460597e-01 2.3821726409411212e+00 7.4337522306909598e-02 5.2295924257505106e+00 -1.8390980503387618e+02 -1.5422473880992826e-02 -2.3870988446683152e+00 7.2091539684770396e+00 8.2363346050537345e-01 -9.8765443026913999e+00 -2.1970174452569835e-01 -1.5390077225234315e+01 4.4277601024082819e-02 4.2614229236506169e+00 2.5812064131485727e+01 1.5525582290763850e+01 -2.3662277645343153e+00 8.7412915714797312e-02 4.0052076035551210e-01 1.4548280948352976e-02 1.1170979424796315e+01 -1.2415302967238340e-01 -9.3403041200353378e+00 -6.8026915819081069e+00 -2.0224119982929188e-03 -3.1773051098818410e+00 -2.1427588843103877e+01 7.4990962828245245e-01 -8.3404754199130764e+00 -1.4339211340155084e-01 8.3082630286428696e+00 5.6734990862075979e-02 -2.0615597707653324e+00 -2.3063323706186765e+00 1.7811624053045534e+01 -9.2955309500079508e-01 -2.2477292920051672e-01 2.1906318629695631e-01 2.2016529814892971e-01 -2.1046780843789747e-02 -3.2503129460431524e-01 -1.5577000213163103e+01 -2.6202520378708641e+01 -3.1667682067997444e-03 -2.5618754515589757e+00 -1.7835347155007184e+01 1.8061957369026622e+00 2.9299801444684022e+00 -1.0275913160691484e-01 -4.5625966110956995e-01 2.1936866223295581e-01 4.2219926032920743e+00 -2.0588206005831466e-01 8.9001481273826357e+00 -3.7934788510086470e+00 -2.8158181059706139e-01 -3.2677482616408016e-01 2.5275456756527981e-02 2.5131139860729945e-01 -2.6962084564747890e-01 1.6514939998224349e+00 3.1962545355032489e+01 2.0154826693846856e-03 -1.5980124404467522e+00 -2.8346813523602691e+01 1.5536551666997784e+00 4.4762262392925550e+01 -2.7343120630242723e-01 1.4161466067055727e+01 -5.7225342841274263e-01 8.4362944844167087e-01 7.5701142511848332e+00 -2.2803721253221738e+00 2.8664784565828995e+01 8.6672669086349474e-01 2.3536096164873013e+00 4.1956512106001065e-01 3.5929664262536209e-01 -2.1041378433350544e-01 -1.7508186966652257e+01 4.6417891055334621e+00 3.3251300130959688e-01 8.9866893022800429e+00 3.5024432950041955e+01 4.6756486692224719e-01 -1.4172452539846758e+00 1.7201717368633344e-02 9.8824609197854212e+00 -8.4586854167164882e-03 6.7229022308094188e-01 1.0350348089544845e+01 3.3136955638023817e+00 1.9495346175661551e-03 -5.5946840305801937e-02 -1.6637986726673182e-01 -3.9212500709163017e-02 2.3936027530122974e+00 -1.4246782807042940e-01 -3.4860360217701301e+00 9.3591415890709087e+00 -4.7349591924674070e-03 -1.0689695033823829e+00 -9.4409098020179307e+00 2.0519724481571811e-01 5.4660727833258038e+00 
      </Row>
      <Row Index="5">
        1.9434594807887697e+02 5.5021096972006367e-01 -2.0155703184869375e+02 2.5847030339391495e+00 -9.7687155434900603e+00 4.3637090612172753e+04 1.0493760306810602e+03 -1.4200701884503985e+02 6.7817539997666136e+00 5.9574711364266662e+01 -3.5555992480193954e-01 3.4073844637119496e+03 -4.3920882860294537e+00 -6.8311591343008131e+03 -2.4895520337017924e+03 -2.6033965845260809e+00 -2.2119845450703744e+02 1.4627058785976271e+02 -2.1334979769289413e+02 3.4655683044550360e+03 1.5903773496225602e+01 6.8552041613258871e+02 -4.9168459406897007e+00 8.8573736710045488e+00 2.1953805643032258e+04 8.1142526474423539e+02 9.2551179651424150e+01 1.4916321241962140e+00 8.6006938631534695e+01 -1.0971882606016408e+00 -7.5569475980727675e+03 -5.7546653717398264e+01 1.4719031678665517e+03 -4.5364534306242604e+02 -1.9959020339945814e+00 -3.3198403296518597e+02 -5.1677798904313818e+02 1.4282564903068771e+02 -1.6590668591068229e+03 -3.6246226020978045e+00 -2.3042663575774782e+02 4.9252254083551010e+00 3.1429018693852413e+00 -1.6128827301987680e+04 2.4700113673851047e+03 1.4945097772299164e+01 -2.6942915037955517e+00 3.2954323605944190e+01 7.5296497199658177e+00 1.7163874576433423e+03 2.5646536556434228e+01 2.0971433515607155e+03 3.7939408060394599e+03 -5.4503528369367626e-01 -6.3311449705210214e+02 1.7685511601519725e+03 -1.8990525028927979e+02 -3.0777751176111374e+03 1.6296878000117516e+00 1.0597808430675002e+02 -3.1320538533739800e+01 -1.9809151684574669e+01 -4.3836278120627876e+03 1.3996014941829144e+03 7.7737843609855952e+02 1.3180823884071808e+01 -5.8395087250465934e+01 -1.6022233251080131e+01 1.1061381323141377e+03 7.9864022202561387e+01 2.7789085208905258e+03 -4.0346229639196463e+02 3.3603034422226004e+00 -6.3336983800555203e+01 5.0075550233857211e+02 -1.3937662405356036e+03 -2.6367306406354123e+03 7.2491459420176669e+00 7.1630093090840091e+01 -2.7336807793033074e+01 8.4565849407252642e+00 -1.6147618191641699e+04 -1.7860984262239526e+01 1.7638773531190620e+02 -6.5297540932614062e+00 7.3717253756243821e+01 -1.1113465240432742e+01 -1.4301465200467283e+03 1.2675511345938872e+01 -2.9941231071596894e+03 -3.8650565709358489e+00 5.5032153243206174e+00 1.7431814308949909e+03 4.9435971832372525e+02 -5.1933158241123465e+02 9.9321950637836562e+02 6.8771014716985128e+00 2.2582437873872636e+03 2.3573298068542456e+01 -2.6708984870366262e+01 3.9292707329320387e+04 -2.2276004776751506e+02 -1.8991397609219239e+03 3.8644666565930393e+01 -9.4315502722533282e+01 4.8745252926626542e+01 -9.6225602119456616e+03 -6.9093041800205086e+01 -3.1888477246523071e+03 1.0759986288147047e+02 4.2308831677166481e+00 -1.6378581946332522e+03 1.0664240710357262e+01 -2.1278485339740478e+03 -1.7899342559722772e+03 -7.7267061777403168e-02 -5.8075964131000546e+02 -3.6667538862001061e+00 -8.5959450533081849e-01 2.7796789574948518e+04 5.9372468057059450e+02 -1.0411183350181491e+03 7.3829916113299738e+00 -3.1994032171024355e+02 4.4778501262728891e+00 4.8811235667528945e+02 4.5906710117575699e+01 5.3379275387658008e+03 -4.0382422328554094e+02 2.9595277616020454e-01 -3.4116096338889884e+02 1.2018890804356488e+02 -8.5330490882870231e+02 -1.6498622053632334e+03 1.7538449997220606e-01 1.1676779356474944e+02 -3.9583482727903312e+00 9.2596443168551446e+00 9.0477324163039157e+02 -5.2306802481641353e+02 7.3454464182873517e+02 5.4407280364368802e+00 1.9786650656002212e+02 1.4082459555789000e+00 3.4800031598435089e+02 -1.3398954185524292e+02 -6.4898904026962482e+03 1.3080998533033403e+03 -3.9411171139702716e-01 1.3640861441494521e+03 9.3913794326738571e+02 -2.7019377479561444e+02 -2.1427358073755731e+03 -8.4095775533034800e+00 -1.2016674420822073e+02 4.2602076055680334e+00 3.5831564569462842e+00 1.8820175882238778e+04 8.9795831277729667e+02 -2.8722040030741664e+02 3.4934858723507514e+00 -9.0587371411129283e+01 5.0958520167358099e+00 2.5177940102297725e+01 1.6213632376569103e+02 -3.7516239962173713e+03 -2.9506456261560015e+02 -1.3881082736639394e+00 1.0200232295373094e+03 7.2177998410438886e+02 8.9761808119981833e+02 2.0572652102707912e+03 5.7994067077713196e-01 -1.5654150163091163e+02 -9.9127579189866566e-01 -2.1487256561511138e+01 -1.5524320071073476e+04 -5.7898059408180416e+01 5.9085429040598387e+02 -3.7915468751168753e+00 9.9486104100455151e+01 5.6434744977233944e+00 6.6413669058725191e+01 -3.4400726606624914e+01 -4.2316730019529314e+03 4.1318696816161391e+03 2.0180599657193223e+00 2.8124905272077672e+02 1.2163366450528265e+03 -3.4524772772631547e+02 -5.9283912205662841e+02 2.7523275813110697e+00 1.8934270888516232e+02 -2.1487737061999592e+00 -1.4298663818633208e+00 -7.4646264702999815e+01 3.4907514226945932e+02 3.3955915959555426e+02 -1.1564887657021661e-01 1.3560196588509316e+02 -7.3871063111925750e-01 1.2509054933527441e+03 -1.8348689591132965e+00 -3.0127699249188963e+03 -1.2157744836536831e+03 1.6220264424497914e+00 -7.2425936824150995e+02 -9.4478730251896195e+01 7.7880234675453471e+02 -5.9161819419550375e+02 -3.2590684583899208e+00 6.1475211486879630e+02 -9.8545412985736114e-01 7.0677540138255921e+00 -2.4503841321663815e+04 2.0635891043930460e+03 4.7546131110798029e+02 -3.8514304190847128e+00 7.7862314017281911e+00 -1.2954028628737163e+01 5.1559668032675208e+03 -5.6452290454099057e+00 -4.4137595984054960e+03 6.1767321610235376e+02 -3.0520696852025413e+00 1.7574115333810369e+01 1.0155576996532036e+03 2.0248541907931181e+03 -2.4939285969238390e+03 4.9766437455401915e+00 -5.5329900412836469e+02 -1.1571410964486628e+01 -5.6787367444117649e+00 2.5384298347839900e+04 -1.3140743032270038e+03 -2.0264620118362827e+03 1.5018988160893191e+01 8.6280480076397239e+01 8.2330141550920857e+00 4.3895493201666686e+03 -1.7158733691362094e+01 7.3781565571953251e+01 -4.0582754569061217e+02 3.2783051422846015e+00 -8.7764141754926686e+02 -6.2957427534073940e+02 -2.6015283440288995e+03 -2.4839372243842445e+03 -5.2328981429051158e-01 -1.6737092667618708e+02 -8.2792887256173842e+00 -2.1693540620139053e+01 -2.9134325560256684e+03 1.3142793036546209e+01 7.7676357534138378e+02 2.2987779713795646e+00 1.4992090382518461e+02 -1.7646762378270537e+01 4.6093580432860472e+02 -6.2095257762634901e+00 4.6279013243774261e+03 -2.6561217301117722e+02 6.0203653451760020e-01 -1.0267934149512101e+02 9.4552108125517407e+02 -1.0163810015183128e+03 -5.3458758723572810e+03 2.2719272749424356e+01 1.0095835413886521e+03 -5.1810649773741048e+01 -6.5532595342695885e+01 2.5851083102251678e+03 1.1238906663234229e+02 -1.5650559070754196e+03 6.4564584586187550e+01 -9.6781443561835914e+01 5.9427810487577375e+00 -2.6231974496235421e+02 -2.7994282680388892e+01 4.2742796536246533e+02 -2.4462529084761627e+02 1.2425738883230656e+01 2.8021270509676623e+02 -7.5880506477644667e+02 -6.4547606888089267e+03 1.8289742833647585e+02 1.1605919630745820e-01 -1.3232132770281239e+03 -7.1501400791199043e-03 -3.9728632796432617e-01 -1.9136435623486791e+03 -1.2349256738312152e+02 -1.0391477297838190e+00 1.1028204875291436e-01 5.8365688539745506e+01 7.7224709468319652e-01 1.5776934082550833e+03 -5.4759529349458376e+01 -4.1896609525162069e+02 -5.7991599800870836e+02 -9.5114450350494284e-01 -1.0359977192534127e+02 -4.1149140605900214e+01 -2.6175180406366545e+00 -3.6477693848415566e+02 
      </Row>
      <Row Index="6">
        -1.5359530323956744e+04 -2.8366082643712973e+00 9.5195595320121151e+02 4.6228054751700256e+00 -2.4657101164800785e+01 1.0493764421279775e+03 4.2073605873897707e+05 1.1998749273062720e+02 -4.4644187471913854e+00 2.5383763608703251e+01 2.4660294993689176e+00 1.5997599645753153e+03 1.7455947079647999e+01 -7.9873584276071369e+02 1.2133758661458745e+04 1.5733547459640249e+00 -1.6059123065867443e+01 1.6878863330620989e+03 -1.0451394132674135e+02 2.0496421017577186e+03 2.7688820342451283e+01 9.2878860621928061e+02 5.9172006610894989e+00 8.1010229177932445e+00 -2.4124535981855684e+03 8.3794695097996184e+04 4.0917977969361544e+02 1.1694044880457670e+00 7.5919382805711408e+01 -8.5320666862948058e-01 -5.2611199864792034e+03 1.3893628599063105e+01 4.7371985418718418e+02 3.9100701018609739e+03 2.2980320611148137e+00 2.7002597763521442e+02 3.3782145923602748e+03 -4.3466703538314505e+01 3.6167423771485642e+03 5.3861299029365761e-01 -1.1510205848236915e+03 -2.2641244367039794e+00 1.4884452113765292e+01 -3.8339602048921040e+02 -1.8883196250347191e+05 -1.5968081824708776e+01 1.3435400872035403e+01 -3.6368630096957659e+00 -7.1468391843715340e-01 -3.1130397241738119e+03 -1.1813194550042363e+02 -3.3674066287354726e+03 -1.8033847777753981e+03 5.6199045175241102e-01 1.4154733078482641e+02 -1.0167534224345245e+03 -2.1966420166535090e+02 3.5137240390147426e+03 -3.2015733880052345e+01 1.7163042094452476e+03 -5.1072535127932255e+01 1.1063771674983036e+01 1.9591272513677632e+03 -1.7522145877492137e+05 -6.5459582487461307e+02 -4.5919819599157243e+01 1.3954187372488001e+00 7.4497324302515224e+00 -3.4071253271765163e+03 2.2396939951024513e+02 -1.2805759519024368e+03 3.2977572460931042e+04 -4.1872743604374447e+00 -1.1318414517477947e+01 4.1610158238175190e+03 -2.5299928767648325e+02 4.5459899718486658e+03 -4.6626617318867378e+00 9.1093212392747614e+02 -5.7169672505772837e+00 5.0912224080377030e+01 3.3929510232109028e+03 -5.7769378941528876e+03 -3.9175336448683356e+02 -7.3677545661439048e+00 -2.1986772447250416e+01 -6.9732368804492051e+00 -2.3727913013064135e+03 9.5889404956018012e+01 -6.8388813336375051e+02 -7.5289110256858985e+03 -6.2439148495980614e+00 -1.7210779702997297e+02 3.1023945915870308e+03 -3.2267624697021654e+02 -2.2109621365071427e+04 -9.6700833619112867e+00 4.0872025636176877e+03 -2.9827975113118637e+00 2.0335316079096470e+00 1.4220133090736210e+03 -2.0982062840825820e+03 -6.4717345816892839e+02 5.7016383073999517e+00 -7.6296212844004785e+00 -2.0182880371162710e+00 -6.6401739240323514e+02 1.4966020210243241e+02 2.2397496496784406e+03 -8.4459226436799581e+03 -7.2098679251358648e+00 7.7312222045927285e+01 3.6319331110351341e+03 -3.5223271344289060e+00 -9.5635451217780210e+03 -1.2219744205313791e+01 -2.8162164552564504e+03 2.7975711118821067e+01 1.4338300148049505e+01 1.7585829355963015e+03 -9.7041514553377492e+04 7.9304759007526584e+01 -2.6512840058164720e+01 -1.1821394495105650e+02 -2.1010211797510244e+01 -1.1037698595512848e+02 8.7406558766102052e+01 1.0671106340605525e+04 -1.4742275180877768e+04 -1.7081388328268630e+00 -5.3930975797670271e+02 -5.3972985663811551e+02 3.8465870849184103e+02 1.0738932995433217e+04 -9.9995876341008127e-01 -2.6863685898691606e+03 2.2488620845153832e+01 3.9874708403828549e+00 -4.7618623171475301e+03 3.2838224805054917e+04 1.2617616206534129e+02 1.5978932030031334e+01 1.5462501241143650e+02 5.8942184306777676e+00 1.3405922442803328e+03 7.3393238950964644e+02 2.4290564403870376e+03 -1.2503832502239511e+03 5.9368379883297084e-01 5.4536707856110320e+02 -1.7499690033153311e+03 -5.0101108197349288e+02 -3.8171801984398480e+04 7.8328656320268184e+00 4.0149099570773569e+03 2.3394697475480815e+00 2.1332286660870885e+01 1.5742151125927205e+04 -8.5967245653537102e+04 -2.0106995129920119e+02 9.6449463889187257e+00 2.2115174114121783e+02 -4.0722243375528873e+00 7.8502745843009711e+02 -2.8539573471434488e+02 -1.0026045793622485e+04 -1.0285952787618489e+04 -3.3423172771783971e-02 9.6860369135106680e+02 -2.2549716111794987e+03 5.1964565887969002e+02 -9.1434974985737008e+03 2.4356523118313955e+00 -1.7494378369194351e+03 -6.8155936829049573e+00 -6.1813490973175647e+00 5.2829363467226722e+02 -6.0654818356710370e+04 8.5799975896732008e+01 -3.1846906026223511e+01 -5.4033503389818790e+01 -1.5798066263367616e-01 5.4605753465423404e+03 -8.2719850597680988e+00 -1.3342011261783848e+03 -1.9300307422814803e+04 1.4567076111457018e+00 -1.8790331195564693e+02 4.1010484316864149e+03 -1.7748241249036982e+02 6.8433173866688421e+01 2.9606913969936048e+00 -2.9014071383907321e+02 -1.5124704497488795e+00 4.4318660682002360e+00 -7.5677556386585729e+02 5.2554654137624311e+03 1.4700624158673401e+02 2.5242226817456448e-01 1.7218099733837107e+01 -5.6306395386964248e-01 -3.7217170764295734e+03 -6.4714833599063084e+00 -1.4063627213141444e+03 7.9157323732012592e+03 9.2560575375665088e-01 2.6044338209602628e+01 1.6630410993924197e+03 1.9772484141537447e+01 -3.9733403567067744e+03 -6.0074301695626140e+00 -3.4927734462006847e+03 -1.0330336100322874e+00 -2.0853408362940435e+01 -4.7649890156026195e+03 1.3631387766950423e+05 1.9657743849572910e+02 -1.3957937694449182e+01 -6.3202285650217959e+02 -2.7872053641063133e-01 1.7231780927328393e+04 1.4921723043509729e+02 3.7985014591493491e+03 -7.9259308461573673e+03 1.5281561461880431e+00 -3.9120997149053301e+02 3.3143917317083105e+03 5.5330636514426533e+02 5.2174383925352913e+02 5.4277797695914689e+00 2.1707325402173692e+03 -4.7572504359094641e+00 -5.4681090407934619e+01 9.6363519470770188e+02 2.1267387619931549e+04 -1.4800254588640308e+02 9.8127905843291963e+00 8.6519461077449122e-02 -1.6327026237707791e+01 -3.0143139419046056e+03 -3.2910410819591807e+00 -1.0535051310242125e+02 3.0456445205510390e+03 2.7608692816220217e+00 5.6360173504108730e+01 3.1072521379434038e+03 -3.0022872034517815e+02 -3.6048987001405981e+03 1.6000557474167064e+01 2.1261532039787080e+03 -1.7460793670065069e+01 -4.4919516493495735e+01 1.9192061459386696e+02 -1.8639802015961270e+05 5.2032841290431077e+02 -3.5945685300625967e+00 2.7347419214245917e+01 -1.1752372593259890e+01 7.0674911960013560e+01 -1.1608588220927629e-01 -5.4412395575308310e+03 -1.7337774185187300e+03 1.3049150614986953e+01 -6.4802924688041003e+01 2.5949208907586435e+03 -3.4786426671172762e+01 -4.5902323920794261e+04 -6.7406396089715930e+00 -1.4891547661025725e+04 -2.5946484466064696e+01 -5.7920123312326496e+01 1.1393023955526307e+04 -2.3763773617895786e+03 -7.5386216674318302e+02 -8.4127258333042661e+01 -2.2659036722948395e+02 -4.1477388695043089e+01 -7.0068777741016220e+02 1.0231724043484624e+03 -1.5633026985800875e+03 8.1970320983858546e+03 1.5555089369441344e+00 3.6372634413182129e+02 -3.6383144814551342e+03 -1.9763024413037670e+02 -2.3459114925008344e+03 8.9190285803286873e-01 -2.3172432587060721e+04 -2.5271482249474786e-02 5.8423654401114078e-03 3.3523066648673184e+03 1.4878369549842531e+04 -1.0899190174466980e-01 -8.8788049727816087e-01 1.0940362124312020e+02 5.2182170433695774e-02 2.6667555569066280e+01 5.7894253304631093e+01 -5.0811004382462097e+03 3.0092772126905220e+03 9.5619454822036687e-01 1.0771254133264813e+02 -2.8794489125333539e+03 -1.2084189629553430e+01 -4.4466115795920105e+03 
      </Row>
      <Row Index="7">
        2.1346324572887170e+01 -4.7865056011464997e+00 2.3380182941937612e+01 -2.5265354220146037e+00 -3.9476660899653382e+00 -1.4200702187174466e+02 1.1998753997945823e+02 2.9637476782046951e+03 2.6785845645194670e+00 -1.9732453197787972e+01 8.2850635777435837e+00 7.5199141937653985e+02 -7.5718078591577065e-01 2.7240830730147596e+01 1.1398970238779973e+03 8.3220350511345487e-01 6.4085627414037745e+01 5.9376577634699061e+01 -6.5343686079391944e+01 -1.1680796151055165e+02 -2.5011545330055389e+00 -2.1737157246637071e+02 8.8819299404263834e+00 -9.9348008614853320e+00 5.6036972928622254e+02 -1.2332649918863467e+02 2.2282482848410696e+03 -1.2767636908212499e-01 -2.1709305990039361e+01 4.2928297892986764e+00 -4.1275009562587002e+01 -1.4219321005774432e-01 6.7552505158035547e+02 -2.9929439153347630e+00 2.8072875865864744e-01 5.0015586657667541e+01 -4.0820354510065499e+01 -4.5215855673453643e+02 -1.0410884695790654e+02 1.1851242553973966e+00 6.8248865398356770e+01 1.1072344608291234e+00 4.5838065943078163e+00 -2.4828094808575173e+01 2.5223914852493908e+02 -1.4887253385604120e+03 6.6446876290485282e+00 -2.2761857511041121e+00 -9.4876064129738733e+00 -8.7986601776045973e+01 1.9681173898607085e-01 8.1462713258594704e+01 3.9012663346546469e+02 3.2412765816377140e+00 1.7636549233017371e+02 -3.1812181835846786e+01 2.9654890407326809e+02 1.4498279603475441e+02 8.4759714961205290e-01 -4.4826517163159224e+01 -1.5901996454620228e+01 8.0101458695467613e+00 6.0671929244579906e+02 -1.1833119069096068e+02 1.6928637219698935e+03 -2.1396000225524570e+01 1.3651476201040126e+01 3.1389313258273450e+00 1.3936562664379881e+02 -5.8712730392303136e+00 6.4655188484871587e+02 -1.4532933117358043e+03 -2.8483396512326777e+00 -1.7998921853850493e+02 1.2577614431303664e+02 2.2403114826916803e+02 8.3859817531629233e+00 7.6047921594223924e+00 6.4650303402043278e+01 -7.3480172856308670e+00 8.9615628991467648e+00 7.9061586898249288e+02 -1.2709019945076307e+01 -2.5042217663235751e+03 -1.1362630028137682e+01 -2.6510619224582825e+00 -6.7006731361903498e+00 -4.5886468095650343e+00 -4.9724222730618450e+00 4.9972103171758863e+02 -1.5126869701568648e+02 -1.7964190645624765e+00 -4.5452307405402280e+02 9.6312374559915042e+01 2.5662416711768947e+02 1.2037136368585925e+02 -4.4116260654477149e+00 -3.7517481248352806e+02 -9.0853034081336723e+00 3.0010685600380227e+00 2.0427773230611729e+02 -1.9718558414781000e+01 2.9772783458584581e+03 1.3303098057718996e+01 -2.6229285811252758e+01 -9.7299366872996966e+00 -1.2876644858015425e+01 -4.0556365064143449e+00 6.7666414560287944e+02 -3.0968962006043876e+02 -9.4558684745303268e+00 -1.0968121041885196e+02 1.4929911150624685e+02 -3.4981499706797081e+02 1.7970904417357451e+02 -1.1821421425633414e+00 6.1890978052301307e+01 3.5052985990300574e+00 -4.8298809349259741e-01 -3.1986770679252731e+02 1.6352708474213887e+02 -3.5461900516907957e+02 -3.0613339789995075e-01 -1.4310880428045692e+01 -3.1031130772135125e+00 -1.4560694129964486e+02 2.5572489679973387e-02 3.4948407442473626e+02 -6.0006753979057612e+02 3.0988036696160366e+00 -1.9537400679268575e+02 4.2009341123454760e+01 -1.8802726062916224e+02 -1.7407580326289917e+02 -1.5015193486984657e-03 5.6794629330196301e+01 -4.8795992812011733e+00 -1.5963709697317086e-01 -2.6734354636759144e+02 -5.9557019525571377e+01 2.3281010704603264e+03 2.3765964801919210e+00 -2.5555319614838957e+01 1.3226240564810747e+00 1.1732925741646977e+02 1.1772279634145328e+01 -9.5076490514933175e+02 -8.1857434411141730e+02 -9.9719417572607694e-01 -2.0563531826697533e+02 2.0548066821260727e+02 -1.5562577102693416e+02 -5.0159907981139440e+02 3.7046488364357764e+00 -9.1923485655263903e+01 9.4082789164400502e+00 8.3699051711465486e+00 7.5453478049133264e+02 -3.9032465909756866e+01 -2.5672841518279638e+03 4.4453292644159994e+00 -3.6903044257902735e+01 -3.9711437295192780e+00 -8.2552233225149394e+01 -6.4836615504092237e+00 -8.3752357799699894e+01 -1.1148574939938171e+03 3.0391008129145876e+00 3.5412618859179247e+01 8.2383851955331920e+01 -6.6658142492494153e+02 -7.9980068146704525e+01 6.7534987591454998e-01 5.0271971092475269e+01 3.7289643097662299e+00 -4.9030089168599886e+00 2.0119453731996418e+02 -6.5843251537415199e+01 -2.1910914733907873e+02 8.1596351428411928e-02 -1.0844139866441438e+01 -1.1568732304459164e+01 -9.5910547547892065e+01 -2.0716376966544630e+00 -2.6548526398277636e+02 3.7602774662076263e+02 6.5894658353049340e-01 -1.8216512650722836e+02 9.1836848831066163e+01 7.2242885171685487e+01 7.6944121931055633e+01 -3.4313993790198793e-01 1.4433395791837597e+01 -4.7285664348200278e+00 -2.4402392797700827e+00 -3.3975493573836502e+01 -1.6965521607670235e+02 8.2739241278281850e+02 2.5665200166514035e-01 -1.3604744896009606e+01 -1.5145635609398731e+00 3.0718963444244582e+02 -3.9804516453418159e-01 1.0154907030068771e+03 -8.5239834198879544e+02 -1.9026353730334182e+00 1.1413562528542285e+02 2.1975796164321946e+02 -3.3174048390896940e+02 -9.2769977466374257e+01 -1.6069333382790418e-01 5.0860828471122147e+01 -2.1295780871683281e+00 -7.2730781044192128e-01 -5.4051668242896994e+01 -1.4616310032337788e+02 9.7163759975133564e+02 -4.6615916972697811e+00 1.3898085684986349e+01 5.3758390598665518e+00 2.7264692883240059e+02 2.5600043274134947e+00 3.7485759810004799e+02 -5.2670135065643990e+01 2.9632921004693831e+00 8.0872770830103178e+01 8.5040872445754758e+01 4.7422114623951984e+01 3.1195441675644361e+01 2.8784340245816842e-01 2.1546267224553668e+02 1.2012153952040237e+01 3.7274143365152952e+00 -9.9124652036521979e+01 7.4567759116325760e+00 -2.9540179309559649e+03 4.2630273749897380e+00 -1.5304859255250577e+01 -4.8862990781041304e-01 6.2694523740930890e+01 2.6059676340591054e-01 4.5490443877270809e+02 9.0456944923360425e+02 5.1401444276040653e+00 2.7032448741380836e+02 -6.4647565103776287e+01 -1.1914324831939592e+02 1.1330867515568889e+02 -1.6141751791801244e+00 -1.8404819550621596e+00 -4.9656009603424849e+00 -6.0790955965348950e+00 -5.2449245981038621e+02 1.4571754618475097e+02 1.0940677803942440e+03 -5.0681706731881571e+00 -1.8601409691830341e+01 4.2516547863588778e+00 8.1326349903024675e+02 -1.0785448244641032e+00 5.0387697013266347e+01 1.9661156065546675e+02 -1.9067364232426937e-01 1.1340954908873840e+01 6.1903834510808338e+01 1.3615199060452608e+02 -5.8021354324787490e+02 3.6431544842762920e+00 -9.2964310020042831e+00 -6.5207842698540892e+00 3.4136783789351028e+00 4.4824712405604384e+02 3.8351832348489552e+00 1.9694847172095820e+02 -1.9996356342234115e+01 -1.0773061821506082e+02 -7.6628131512643023e+00 -1.6500163120215575e+01 -7.6201301664756045e+00 3.0158699760187233e+02 2.0276948949761572e+02 -1.6373953435807307e+00 -5.6712917289458187e+02 -1.0440467178187100e+02 -4.1382434502162494e+02 1.9479964463072253e+01 1.5418548773481566e-01 3.1521496935021565e+02 9.6179415674051957e-02 5.6515626511935313e-01 2.4675043952888015e+02 2.0059120365548168e+01 -3.5115776600223221e+00 -2.5231445483030868e-01 -1.4038831799399324e+01 -5.9063392610125609e-01 4.7881162640936651e+01 4.1606519027549282e-01 2.9393851561173744e+01 1.4741062723431230e+02 2.9015431561967855e+00 1.0180392306678614e+02 1.1001694742639691e+01 1.8420418085779861e+01 -3.3303294696577332e+01 
      </Row>
      <Row Index="8">
        8.4818681289848996e-01 -8.1502489903726064e-02 -6.4997164477511304e-03 -5.3781091949943516e-02 -5.3356211502085804e-02 6.7817539494426313e+00 -4.4644196726540031e+00 2.6785845888799789e+00 1.7354581473710939e+00 -4.3200689330637580e-02 -4.5500049184798441e-03 2.5532303977117689e+01 1.3926506756202450e-01 -9.0192348066673631e+00 2.1101015890278667e+00 2.0259445333675963e-02 -9.4141157426854605e-01 -1.8062462871276921e+00 -8.7093130093791160e-01 -3.7480566116522773e-01 -1.9752858696157818e-01 8.2959676962196482e-01 -6.7900547783971421e-02 -4.1129197782241589e-01 9.1830105899424233e+00 4.0757968101494271e+00 1.6630026363547028e+00 2.4695788442508596e-01 7.2819598032004274e-03 3.8196047358204854e-01 -3.6826953950397865e+00 -3.0573218616804620e-01 3.7605024326859819e+00 2.0433769426128947e+00 6.7467821492925573e-03 1.1882704136323108e+00 4.6956316266355929e+00 -1.0600821405852336e+00 1.0122784586741327e+00 -1.0334693579677064e-01 -1.0865262963444735e+00 -5.5662697617385119e-02 1.6230718096949204e-02 -1.6622019020422350e+01 7.2501802263723221e+00 2.5025107707098329e+00 1.0786084037945093e-02 -4.7215382245936466e-02 -2.4561928411548611e-02 6.6887494532179197e+00 -7.3665022136284342e-02 -3.4659384937808397e+00 7.2333067088926555e+00 1.0803015113480292e-02 -1.4685514999214693e+00 -8.7827501913301944e+00 2.8567507204262377e-01 5.1670624598718842e+00 2.6348068224996241e-01 2.9944921789335499e-02 -1.6713856657279236e-01 3.6798641324766734e-03 7.7425578656164920e+00 -5.8137347653929652e+00 -6.4021232400804209e+00 -1.3076263697561066e+00 -1.1538420152343321e-01 -2.7256138903286842e-01 1.7603484123615232e-01 2.2651097017105215e-02 5.2700221117099382e+00 3.8071754755280729e+00 -1.9813758996996118e-02 -6.5528219021340206e-01 7.4434221148646884e-01 7.9562208060428041e-01 4.7166530216936025e+00 3.0504139322971124e-01 7.0992286475441446e-01 1.6544916337487625e-01 5.3170315015148928e-01 -1.7779450593042725e+00 1.5990820874420137e+00 -7.2631320250866862e+00 -2.2516757285017190e+00 2.4384045928033338e-02 -2.0138691029293676e-01 -3.1831379965785800e-01 1.8794620322965327e-01 -5.5747507609009972e+00 2.7102155610082264e+00 -3.8096865956527698e-02 1.3115828790685278e+00 7.9161034557955645e-01 1.0345438814625858e+00 -8.5281751983075083e-02 -9.6453899400890974e-01 8.3066932302927370e+00 5.8686679489927451e-02 -3.4410163652488324e-01 9.4930326454397687e+00 -9.6139961161452447e-01 6.3218901712155926e+00 2.1757721555563418e+00 -4.1219451913088534e-01 7.8188764736364991e-01 3.4724811348521598e+00 8.2543529665426174e-01 1.9398762525330797e+00 1.9950474456081793e+00 4.3969891000687371e-02 4.3097032117363483e+00 4.1796092413369479e+00 2.5211491561018562e-01 9.2542249163682300e+00 1.5705707510251973e-01 -6.3630257817973757e-01 1.4192779284990303e-01 -1.9839192653657756e-01 1.0068509661927465e+01 -1.9926385961593951e+00 2.2732915346011637e+00 2.4908007960868811e-01 4.4051781276644775e-01 2.1820591257463517e-01 -1.8002407458877769e+00 2.0420207311865113e-02 -7.0468612053361852e+00 6.6978171164591913e+00 1.5067554608284767e-02 3.5896727251156051e+00 4.4186373663887935e-01 -1.0883179117136415e+00 2.3029117899723559e+00 -1.1765500178890348e-01 4.2203786704990165e-01 -5.4048134454251051e-02 3.0976930531361768e-01 1.1404386323639869e+01 -1.2731880891242326e+00 -9.9995895399670154e+00 6.1335634247395499e-01 -4.3454716851596853e-02 -1.6496923727407869e-01 2.3954686185233456e+00 -3.8599699848178293e-01 -7.0330971017308741e-01 2.8518386969008134e+00 -2.2271634664177919e-02 -1.6236693596300711e-01 9.6154163492542466e+00 1.4161285217686626e+00 -1.5818105380827035e+01 -3.4163956531096668e-01 -4.9393116109399671e-02 -4.7800730947130721e-02 -3.9640338633470606e-01 4.5199354289937048e+00 4.2137066255137370e+00 -2.5785426683846575e+00 5.4577142540927415e-01 -2.6820072448181254e-01 -2.1976848800738469e-02 2.2692842523795775e-01 -1.1916956204070184e-01 7.6811423513527188e-01 2.9005749614143497e+00 -4.0254492049316443e-02 2.0199442360825270e+00 -4.7335361545956403e+00 -1.0309214178589876e-01 1.0060089404120873e+00 2.2123458167813143e-01 4.4906981655117306e-03 1.9574049100461793e-01 3.2891717848757374e-01 -1.3505217767660724e+00 -4.3268369604302279e+00 4.4572192132118751e+00 -1.3271387442309750e+00 4.3204592570052380e-02 7.1690419609929623e-01 -4.2427602057792342e+00 2.5121761543390164e-01 -3.1467803222162019e+00 1.6479228569687621e+00 8.8554712748599579e-03 8.8807591452956203e-01 -6.1427319618051115e+00 7.6804027566063127e-01 2.0328357401165107e+00 -2.7542862324107263e-02 1.5102247929469854e+00 1.1201748795339556e-02 5.0621548200441069e-02 -1.8500749386946609e+00 5.8952936018049513e+00 -2.7738072885204179e-01 -7.5415118682930604e-02 -3.4688431615220061e-02 4.7251144827146208e-02 8.0578114783795627e+00 -9.0899387161350820e-02 -6.4918315355370737e+00 1.1839856375654108e+01 5.9657552217332044e-03 4.9494385005003694e-01 3.1738459754924406e+00 -4.6376448101513867e-02 -4.7661231206101320e+00 1.4192418145514896e-01 -6.0550505890478235e-01 2.4258628931056667e-02 -1.0053072707288302e-01 -2.2518260990163668e+01 -4.1010475816098051e+00 -8.3162541067490992e-01 6.0543866839373095e-01 -4.2855091087981023e-03 -3.2897232324651393e-01 2.7634963955115381e+00 -1.9129252627882565e-02 -8.2170728500093091e+00 3.4367729799305380e+00 -7.0694967125191563e-03 -3.5988741248190905e+00 -3.3782342339145544e-01 1.2136326700675983e+00 2.0141228694142796e+00 1.4033905083550494e-01 8.6368765623933541e-01 -2.4200953782630763e-02 -1.0016979792826897e-01 4.1841498856315553e+00 -1.6436910216593787e+00 3.8020658522352750e+00 1.5958946594525233e-01 -2.5170146886173461e-01 5.7301958985615631e-02 -7.0745241730910493e+00 3.3039938127523705e-01 -1.5481699975288876e+00 -8.3621064124263285e+00 -7.4161551286614918e-03 9.2664229707068557e-01 -1.4164094630868931e+00 -6.3230716727257885e-02 3.9769886036237665e+00 1.3910983392630827e-01 -5.1906501632708313e-01 7.7766033652432176e-03 5.8113265189631141e-02 5.2789999148583693e+00 7.2530244377344388e+00 -9.5809444756744799e-01 2.0918954170692350e-01 -3.0031466892078029e-02 -8.9241253611008708e-02 1.5716407048394501e+01 2.5661794794235782e-01 3.1461263084358961e+00 5.0949847308747849e+00 -3.6487800420632877e-04 -1.1737880390363600e+00 2.6307855415302583e-01 2.3577333846566217e-01 3.9083792378523867e+00 -2.6391151895983028e-01 1.1652942587989301e+00 2.0317874318513596e-01 2.2975684135239560e-01 2.7769297375068902e-01 5.5107734733792313e-01 -6.8322916170897230e+00 -1.0327134124496401e-01 -5.0599681995410939e-01 4.9369124324439190e-01 -6.3525924392751065e-03 6.1596127609980678e-01 1.4490448624102683e+00 -2.6737118464934611e+00 -4.1215347635113211e-02 5.5969356865191706e+00 -2.4501347269579128e+00 3.1025611513009741e+00 -1.4623009717319564e+00 -2.4325122916282221e-02 -7.3363778922763698e+00 -1.6345454487538321e-03 1.9054122328062688e-02 -2.0931740400882148e-01 -1.1487851439236136e+00 2.9337753724430161e-03 -2.5919106559218058e-02 -2.3792757801761738e-02 2.4003055212122378e-02 -1.5527478313691081e+00 2.1076916164507489e-01 -3.4258276107578389e-01 -3.5241151690924717e+00 -2.3025705477448394e-03 3.4349114439572981e-01 -8.1398332694933101e-02 3.8659347029397689e-02 -1.1243687903729265e+00 
      </Row>
      <Row Index="9">
        1.9997526469008790e+01 5.0017239889393536e-04 3.0751679650319918e+01 -7.8722858503169846e-02 -6.8325965458076676e-02 5.9574713636953447e+01 2.5383825456872728e+01 -1.9732454101833504e+01 -4.3200669086843391e-02 2.1921284079831466e+01 -2.5750122632549760e-01 4.6556864073385348e+01 -6.9152728321016199e-01 4.7055284081383263e+01 -9.5739563864753308e-01 2.0951914377199898e-02 1.0324198326237488e+00 2.1559516588536468e+01 1.9328278192883772e+00 -3.3513047110158247e+01 1.1267854065451774e-01 2.8631681381865832e+01 1.3582450019656850e-01 -2.2291885480607454e-02 1.2671979570144680e+02 1.2991081335542191e+01 -1.3534061270147307e+01 1.6260155937922888e-01 2.3713407125197175e+01 -3.7287322882730589e-01 1.2373566633210476e+01 1.1031276768575529e+00 -1.9030673696344934e+01 -2.0353919350649562e+01 -2.2330505967325560e-03 4.9778005287785847e+00 5.6765619039311019e+00 -9.3416663420202397e+00 3.7810089438650145e+01 4.8808714209540686e-03 2.0615669132250972e+01 -2.8703128656494478e-02 1.6744264934163766e-01 -6.9114943341370477e+01 8.9193133331875174e-01 2.8224296236206531e+01 -5.8354239880400852e-02 2.4569572519485772e-02 1.7065116107303352e-01 6.4681305715305797e+00 8.1075771637845073e-01 -2.0540442439091940e+01 3.6416276388344670e+01 -6.7351511883243734e-03 -8.0016817786979484e+00 -3.9831654798650789e+00 1.0530115056798323e+01 5.5450160137098457e+01 -4.4357487240523463e-02 -1.7789495897392801e+01 -1.9717185996542780e-01 1.9693081255107803e-01 -4.6620273159985189e+01 6.0014401105913521e+01 -3.2278063151424710e+01 -1.8405015044283979e-01 -9.5776162066855370e+00 1.1290742212669737e-01 4.1707122486069181e-01 -2.9333115563431728e-01 4.1567012131062825e+01 -5.7437086375120771e+01 2.9252971865274813e-03 2.4421101649039123e+00 1.4295555350257134e+01 5.0152552223099978e+00 6.6062805452087346e+01 -1.2839975767188366e-01 3.7210216279830156e+01 -5.2190021345286697e-01 -7.7807411389340109e-02 -2.1810619017833505e+02 3.3950053991839013e-01 4.4012145214715368e+01 -1.0243816373943060e-01 -7.5109848647508670e-01 -2.2302234656535633e-01 1.8765685427496365e+01 2.3227139689504739e-02 6.9436181044327299e+01 2.7799537914656867e+01 4.3058581324375761e-02 2.4287952517811284e+00 2.9528854296542590e+01 1.9340801660778435e+01 -1.8289715845263228e+02 1.1419880312528013e-01 -1.5345599337750193e+02 -9.1515719221699071e-02 1.7294328622484023e-01 2.4746197933717092e+01 -1.1047221112917214e+00 7.7798361645464134e+00 -4.3420324835642532e-01 2.2686148654841617e+01 -9.3386076012686420e-02 -2.4003750951990725e+01 -1.4021782612250213e+00 -4.4036163883270028e+01 2.8892893458258982e+01 1.7252176323099175e-01 2.1191939945793159e+00 2.0263938555695177e+01 8.7389246002933199e+00 8.0064790547118662e+01 -1.8473309581753233e-01 3.0097917040498551e+01 4.2473022529872506e-02 1.0785423720647286e-01 -1.7520434444084572e+00 5.8630822911006817e+00 -2.3818008434762270e+01 -7.5443605215642084e-02 -2.7796761031761925e+01 2.0971992925184058e-01 2.4731132947566863e+00 5.1796083465182585e-01 7.7262287875116513e+01 2.6784032249834127e+00 -5.9472518991607978e-02 1.2709387272378246e+01 2.6693786019565550e+01 -1.3016560385578430e+01 5.9483426864907962e+01 6.2456699525514497e-03 6.1102835400519410e+01 -1.2347186521246239e-01 2.6566406847149104e-01 1.6080736645131594e+02 3.2664529746339213e+01 -2.8674183090206611e+01 -4.4297309535134854e-01 2.8629807456717085e+01 -1.3669409042346503e-01 -1.3172806673829086e+01 1.2616135672970170e+00 4.6064306351143799e+01 4.4134970766887704e+00 5.2318465082903907e-03 2.2511980196369962e+01 -4.1992132588889945e+01 6.5858634252676254e+00 1.6194583784456810e+01 1.0211432135946504e-01 3.7752686642526044e+01 -6.7265850625280121e-02 2.4345405955559563e-02 7.8282090393091806e+01 3.1022765857372860e+00 1.0317217420378299e+01 -1.9674759428054261e-01 7.2863842480208252e+00 -1.3833107495968000e-02 -2.5079898701762460e+00 -2.4213369258890545e+00 7.5037668747564794e+00 -4.8595791997303195e+01 -1.2454247703851099e-02 -6.1347769990559087e+00 2.3808483995807364e+01 -7.4773293382459647e+00 -7.4451015151995662e+01 -1.9814210388894654e-01 3.4185328331138777e+01 1.1222741209695279e-01 -6.2475669050513427e-01 -2.9287697925125222e+01 -4.8478156911314727e+00 1.9443104408593541e+01 3.0567024883127250e-04 6.8900155036137107e+00 8.6751473314639338e-02 1.6726364993653192e+01 -1.7969447545733153e-01 -8.2017032734779548e+01 1.3477789393712760e+02 -4.3510653806103528e-02 5.9251044706679679e+00 2.5991649562698399e+01 2.4233899088351421e+01 -9.1458576178003881e-01 -1.0090799451479737e-01 4.6651776145081527e+01 5.6039199882037732e-02 -1.1807080193637598e-01 -1.1508353279245128e+01 1.4899976089431220e+01 1.1109543385286212e+01 -1.4552045640832759e-01 1.4189556667569612e+01 -1.8238837294561594e-01 -4.5214775210550442e+01 4.6639481604645933e-01 -7.2345329735100663e+01 -1.2395370030462800e+02 9.4442281908456265e-03 -2.8503573379905696e+00 7.2782214760536590e+00 2.2683102225327669e+00 -3.5325000582036296e+01 -2.1838950018127107e-02 7.9708197591133157e+01 8.4947531652704522e-02 3.6094701184914713e-01 7.9044977850748040e+01 -4.3180672751016118e+00 -3.1072902688382470e+01 5.6030493455471508e-02 -1.7341053411986259e+01 3.4851997333595763e-01 4.2462247962905622e+01 -1.3202301163644421e+00 4.8942204242472201e+01 2.0686211287610604e+01 -5.3669787674877595e-02 -4.1497442954994188e+00 1.1943250993246693e+01 -3.0217326315090205e+01 7.9422404405900693e+01 -8.2217199045343858e-02 1.3633388579653518e+01 1.1524079161642714e-01 6.8389105200138189e-02 -1.4648406214632679e+01 -7.0551902861793650e+01 5.1523447900574318e+01 4.6886584026917394e-02 1.5732530602126684e+00 4.2314908890240366e-02 -7.3373442027670194e+01 -8.5574041221758446e-01 4.3190027028861152e+01 -6.9951446573131761e+00 -6.7819649259001788e-02 -1.3351656524309686e+01 2.0697179985683761e+01 1.5932267733638202e+01 2.5929665853615639e+01 2.7526086288667300e-02 1.8340947355598615e+01 -4.7329072402120270e-01 -3.9177342547524807e-01 7.6959270106217900e+01 1.4103043197492070e+01 7.4630824597558245e+01 1.2951573031509292e-01 2.2833957606954613e+01 -1.0479067544247731e+00 -1.4667358728581803e+01 -6.4802864917227065e-01 -9.5817712218917876e+01 -7.2668741198231146e-01 1.5772167086411212e-01 3.0681841302585213e+00 2.5149769153370187e+01 3.8034524059950769e+01 1.2678868690480769e+01 -2.7938558340191572e-01 9.7838704852724646e+01 -9.3777701358907695e-01 -1.5709309972425789e-01 6.3961962616927174e+01 -2.0950778950973472e+00 8.9776594174859426e+01 -8.6291586535834797e-01 2.6353692174712904e+01 -1.0042871203153769e+00 6.7566669629818676e-01 -2.7295631745972155e+00 2.1138851136128352e+01 -3.1234491306458494e+01 1.3999325930806694e-01 2.0788699278668734e+01 -2.3020639067070078e+01 6.7820459772177330e+01 -1.8072470362914519e+01 4.0098846437299461e-03 8.3488453087721339e+01 1.1016062721875661e-03 -1.8881295386535629e-02 3.9189790615662957e+01 -3.0230673224872575e+00 4.9956691101121678e-02 3.0018277104963964e-03 1.6233321268254141e+01 1.2358794824647523e-02 9.0974619638263299e+00 -6.8819213376971078e-01 1.6167576940998224e+01 -1.7211616084018985e+01 -3.6031262772670214e-02 -3.9963786173635634e+00 2.0890747745985159e+01 2.7461361181381883e-01 1.1151983021857040e+01 
      </Row>
      <Row Index="10">
