<?xml version="1.0"?>
<MethodSetup Method="MLP::MLPCJ">
  <GeneralInfo>
    <Info name="TMVA Release" value="4.1.4 [262404]"/>
    <Info name="ROOT Release" value="5.34/07 [336391]"/>
    <Info name="Creator" value="pseyfert"/>
    <Info name="Date" value="Sat Dec 21 19:40:34 2013"/>
    <Info name="Host" value="Linux lxbuild175.cern.ch 2.6.18-308.4.1.el5 #1 SMP Wed Apr 18 16:26:27 CEST 2012 x86_64 x86_64 x86_64 GNU/Linux"/>
    <Info name="Dir" value="/auto/sigma0/pseyfert/zoontuple/Bender_v22r7/Phys/Tau23Mu/scripts/TMVA_training_v3"/>
    <Info name="Training events" value="41107"/>
    <Info name="TrainingTime" value="7.28948145e+02"/>
    <Info name="AnalysisType" value="Classification"/>
  </GeneralInfo>
  <Options>
    <Option name="NCycles" modified="Yes">600</Option>
    <Option name="HiddenLayers" modified="Yes">N+5</Option>
    <Option name="NeuronType" modified="Yes">tanh</Option>
    <Option name="RandomSeed" modified="No">1</Option>
    <Option name="EstimatorType" modified="Yes">CE</Option>
    <Option name="NeuronInputType" modified="No">sum</Option>
    <Option name="V" modified="Yes">False</Option>
    <Option name="VerbosityLevel" modified="No">Default</Option>
    <Option name="VarTransform" modified="Yes">N</Option>
    <Option name="H" modified="Yes">False</Option>
    <Option name="CreateMVAPdfs" modified="No">False</Option>
    <Option name="IgnoreNegWeightsInTraining" modified="No">False</Option>
    <Option name="TrainingMethod" modified="No">BP</Option>
    <Option name="LearningRate" modified="No">2.000000e-02</Option>
    <Option name="DecayRate" modified="No">1.000000e-02</Option>
    <Option name="TestRate" modified="Yes">5</Option>
    <Option name="EpochMonitoring" modified="No">False</Option>
    <Option name="Sampling" modified="No">1.000000e+00</Option>
    <Option name="SamplingEpoch" modified="No">1.000000e+00</Option>
    <Option name="SamplingImportance" modified="No">1.000000e+00</Option>
    <Option name="SamplingTraining" modified="No">True</Option>
    <Option name="SamplingTesting" modified="No">False</Option>
    <Option name="ResetStep" modified="No">50</Option>
    <Option name="Tau" modified="No">3.000000e+00</Option>
    <Option name="BPMode" modified="No">sequential</Option>
    <Option name="BatchSize" modified="No">-1</Option>
    <Option name="ConvergenceImprove" modified="No">1.000000e-30</Option>
    <Option name="ConvergenceTests" modified="No">-1</Option>
    <Option name="UseRegulator" modified="Yes">False</Option>
    <Option name="UpdateLimit" modified="No">10000</Option>
    <Option name="CalculateErrors" modified="No">False</Option>
    <Option name="WeightRange" modified="No">1.000000e+00</Option>
  </Options>
  <Variables NVar="15">
    <Variable VarIndex="0" Expression="TMath::Exp(-1000*LifeTime)" Label="TMath::Exp(-1000*LifeTime)" Title="transformed decay time" Unit="1" Internal="TMath_Exp__M_1000_T_LifeTime_" Type="F" Min="1.93987222e-11" Max="7.31256723e-01"/>
    <Variable VarIndex="1" Expression="IPSig" Label="IPSig" Title="IP significance" Unit="1" Internal="IPSig" Type="F" Min="1.11495918e-02" Max="2.49779434e+01"/>
    <Variable VarIndex="2" Expression="VertexChi2" Label="VertexChi2" Title="vertex #chi^{2}" Unit="1" Internal="VertexChi2" Type="F" Min="1.89490011e-03" Max="1.49983969e+01"/>
    <Variable VarIndex="3" Expression="acos(dira)" Label="acos(dira)" Title="pointing angle" Unit="1" Internal="acos_dira_" Type="F" Min="0.00000000e+00" Max="1.37716651e-01"/>
    <Variable VarIndex="4" Expression="pt" Label="pt" Title="p_{T}" Unit="[MeV/c]" Internal="pt" Type="F" Min="4.12933426e+01" Max="3.79619180e+04"/>
    <Variable VarIndex="5" Expression="Laura_SumBDT" Label="Laura_SumBDT" Title="Laura_SumBDT" Unit="" Internal="Laura_SumBDT" Type="F" Min="-2.57286167e+00" Max="5.00000000e+00"/>
    <Variable VarIndex="6" Expression="min(p0_IPSig,min(p1_IPSig,p2_IPSig))" Label="min(p0_IPSig,min(p1_IPSig,p2_IPSig))" Title="min. #mu IP significance" Unit="1" Internal="min_p0_IPSig,min_p1_IPSig,p2_IPSig__" Type="F" Min="2.30495882e+00" Max="1.02738922e+02"/>
    <Variable VarIndex="7" Expression="DOCAone" Label="DOCAone" Title="DOCA (#mu 1 and 2)" Unit="mm" Internal="DOCAone" Type="F" Min="2.63570382e-06" Max="9.23672736e-01"/>
    <Variable VarIndex="8" Expression="DOCAtwo" Label="DOCAtwo" Title="DOCA (#mu 2 and 3)" Unit="mm" Internal="DOCAtwo" Type="F" Min="2.43484504e-08" Max="7.44905770e-01"/>
    <Variable VarIndex="9" Expression="DOCAthree" Label="DOCAthree" Title="DOCA (#mu 1 and 3)" Unit="mm" Internal="DOCAthree" Type="F" Min="6.10736777e-07" Max="1.05343544e+00"/>
    <Variable VarIndex="10" Expression="iso" Label="iso" Title="track isolation" Unit="1" Internal="iso" Type="F" Min="0.00000000e+00" Max="1.70000000e+01"/>
    <Variable VarIndex="11" Expression="CDF3" Label="CDF3" Title="cone isolation" Unit="1" Internal="CDF3" Type="F" Min="3.00450996e-03" Max="1.00000000e+00"/>
    <Variable VarIndex="12" Expression="p0_track_MatchChi2" Label="p0_track_MatchChi2" Title="track match #chi^{2} (#mu 1)" Unit="1" Internal="p0_track_MatchChi2" Type="F" Min="5.59116006e-02" Max="8.45542831e+01"/>
    <Variable VarIndex="13" Expression="p1_track_MatchChi2" Label="p1_track_MatchChi2" Title="track match #chi^{2} (#mu 2)" Unit="1" Internal="p1_track_MatchChi2" Type="F" Min="1.31226135e-02" Max="7.59046707e+01"/>
    <Variable VarIndex="14" Expression="p2_track_MatchChi2" Label="p2_track_MatchChi2" Title="track match #chi^{2} (#mu 3)" Unit="1" Internal="p2_track_MatchChi2" Type="F" Min="1.51327997e-02" Max="7.93785172e+01"/>
  </Variables>
  <Spectators NSpec="0"/>
  <Classes NClass="2">
    <Class Name="Signal" Index="0"/>
    <Class Name="Background" Index="1"/>
  </Classes>
  <Transformations NTransformations="1">
    <Transform Name="Normalize">
      <Selection>
        <Input NInputs="15">
          <Input Type="Variable" Label="TMath::Exp(-1000*LifeTime)" Expression="TMath::Exp(-1000*LifeTime)"/>
          <Input Type="Variable" Label="IPSig" Expression="IPSig"/>
          <Input Type="Variable" Label="VertexChi2" Expression="VertexChi2"/>
          <Input Type="Variable" Label="acos(dira)" Expression="acos(dira)"/>
          <Input Type="Variable" Label="pt" Expression="pt"/>
          <Input Type="Variable" Label="Laura_SumBDT" Expression="Laura_SumBDT"/>
          <Input Type="Variable" Label="min(p0_IPSig,min(p1_IPSig,p2_IPSig))" Expression="min(p0_IPSig,min(p1_IPSig,p2_IPSig))"/>
          <Input Type="Variable" Label="DOCAone" Expression="DOCAone"/>
          <Input Type="Variable" Label="DOCAtwo" Expression="DOCAtwo"/>
          <Input Type="Variable" Label="DOCAthree" Expression="DOCAthree"/>
          <Input Type="Variable" Label="iso" Expression="iso"/>
          <Input Type="Variable" Label="CDF3" Expression="CDF3"/>
          <Input Type="Variable" Label="p0_track_MatchChi2" Expression="p0_track_MatchChi2"/>
          <Input Type="Variable" Label="p1_track_MatchChi2" Expression="p1_track_MatchChi2"/>
          <Input Type="Variable" Label="p2_track_MatchChi2" Expression="p2_track_MatchChi2"/>
        </Input>
        <Output NOutputs="15">
          <Output Type="Variable" Label="TMath::Exp(-1000*LifeTime)" Expression="TMath::Exp(-1000*LifeTime)"/>
          <Output Type="Variable" Label="IPSig" Expression="IPSig"/>
          <Output Type="Variable" Label="VertexChi2" Expression="VertexChi2"/>
          <Output Type="Variable" Label="acos(dira)" Expression="acos(dira)"/>
          <Output Type="Variable" Label="pt" Expression="pt"/>
          <Output Type="Variable" Label="Laura_SumBDT" Expression="Laura_SumBDT"/>
          <Output Type="Variable" Label="min(p0_IPSig,min(p1_IPSig,p2_IPSig))" Expression="min(p0_IPSig,min(p1_IPSig,p2_IPSig))"/>
          <Output Type="Variable" Label="DOCAone" Expression="DOCAone"/>
          <Output Type="Variable" Label="DOCAtwo" Expression="DOCAtwo"/>
          <Output Type="Variable" Label="DOCAthree" Expression="DOCAthree"/>
          <Output Type="Variable" Label="iso" Expression="iso"/>
          <Output Type="Variable" Label="CDF3" Expression="CDF3"/>
          <Output Type="Variable" Label="p0_track_MatchChi2" Expression="p0_track_MatchChi2"/>
          <Output Type="Variable" Label="p1_track_MatchChi2" Expression="p1_track_MatchChi2"/>
          <Output Type="Variable" Label="p2_track_MatchChi2" Expression="p2_track_MatchChi2"/>
        </Output>
      </Selection>
      <Class ClassIndex="0">
        <Ranges>
          <Range Index="0" Min="1.9398722211905195e-11" Max="7.3125672340393066e-01"/>
          <Range Index="1" Min="1.1149591766297817e-02" Max="2.1987730026245117e+01"/>
          <Range Index="2" Min="1.8949001096189022e-03" Max="1.4998396873474121e+01"/>
          <Range Index="3" Min="0.0000000000000000e+00" Max="1.3410498201847076e-01"/>
          <Range Index="4" Min="6.2147693634033203e+01" Max="3.7961917968750000e+04"/>
          <Range Index="5" Min="-2.5728616714477539e+00" Max="5.0000000000000000e+00"/>
          <Range Index="6" Min="2.3049588203430176e+00" Max="1.0273892211914062e+02"/>
          <Range Index="7" Min="2.6357038223068230e-06" Max="7.3856800794601440e-01"/>
          <Range Index="8" Min="2.4348450367028818e-08" Max="6.9920772314071655e-01"/>
          <Range Index="9" Min="6.1073677670719917e-07" Max="1.0170480012893677e+00"/>
          <Range Index="10" Min="0.0000000000000000e+00" Max="1.3000000000000000e+01"/>
          <Range Index="11" Min="3.0045099556446075e-03" Max="1.0000000000000000e+00"/>
          <Range Index="12" Min="5.5911600589752197e-02" Max="7.2067237854003906e+01"/>
          <Range Index="13" Min="1.3122613541781902e-02" Max="7.5904670715332031e+01"/>
          <Range Index="14" Min="1.5132799744606018e-02" Max="7.9378517150878906e+01"/>
        </Ranges>
      </Class>
      <Class ClassIndex="1">
        <Ranges>
          <Range Index="0" Min="2.1115165509399958e-05" Max="7.2934836149215698e-01"/>
          <Range Index="1" Min="1.3430085778236389e-01" Max="2.4977943420410156e+01"/>
          <Range Index="2" Min="2.2036740556359291e-02" Max="1.4991107940673828e+01"/>
          <Range Index="3" Min="0.0000000000000000e+00" Max="1.3771665096282959e-01"/>
          <Range Index="4" Min="4.1293342590332031e+01" Max="2.1269572265625000e+04"/>
          <Range Index="5" Min="-2.2138717174530029e+00" Max="-5.2525274455547333e-02"/>
          <Range Index="6" Min="2.7823791503906250e+00" Max="4.9517536163330078e+01"/>
          <Range Index="7" Min="3.9169070078060031e-05" Max="9.2367273569107056e-01"/>
          <Range Index="8" Min="5.9152989706490189e-05" Max="7.4490576982498169e-01"/>
          <Range Index="9" Min="3.1205789127852768e-05" Max="1.0534354448318481e+00"/>
          <Range Index="10" Min="0.0000000000000000e+00" Max="1.7000000000000000e+01"/>
          <Range Index="11" Min="3.8299348670989275e-03" Max="1.0000000000000000e+00"/>
          <Range Index="12" Min="1.4428974688053131e-01" Max="8.4554283142089844e+01"/>
          <Range Index="13" Min="1.4624765515327454e-01" Max="6.7723579406738281e+01"/>
          <Range Index="14" Min="4.5327022671699524e-02" Max="6.8506652832031250e+01"/>
        </Ranges>
      </Class>
      <Class ClassIndex="2">
        <Ranges>
          <Range Index="0" Min="1.9398722211905195e-11" Max="7.3125672340393066e-01"/>
          <Range Index="1" Min="1.1149591766297817e-02" Max="2.4977943420410156e+01"/>
          <Range Index="2" Min="1.8949001096189022e-03" Max="1.4998396873474121e+01"/>
          <Range Index="3" Min="0.0000000000000000e+00" Max="1.3771665096282959e-01"/>
          <Range Index="4" Min="4.1293342590332031e+01" Max="3.7961917968750000e+04"/>
          <Range Index="5" Min="-2.5728616714477539e+00" Max="5.0000000000000000e+00"/>
          <Range Index="6" Min="2.3049588203430176e+00" Max="1.0273892211914062e+02"/>
          <Range Index="7" Min="2.6357038223068230e-06" Max="9.2367273569107056e-01"/>
          <Range Index="8" Min="2.4348450367028818e-08" Max="7.4490576982498169e-01"/>
          <Range Index="9" Min="6.1073677670719917e-07" Max="1.0534354448318481e+00"/>
          <Range Index="10" Min="0.0000000000000000e+00" Max="1.7000000000000000e+01"/>
          <Range Index="11" Min="3.0045099556446075e-03" Max="1.0000000000000000e+00"/>
          <Range Index="12" Min="5.5911600589752197e-02" Max="8.4554283142089844e+01"/>
          <Range Index="13" Min="1.3122613541781902e-02" Max="7.5904670715332031e+01"/>
          <Range Index="14" Min="1.5132799744606018e-02" Max="7.9378517150878906e+01"/>
        </Ranges>
      </Class>
    </Transform>
  </Transformations>
  <MVAPdfs/>
  <Weights>
    <Layout NLayers="3">
      <Layer Index="0" NNeurons="16">
        <Neuron NSynapses="20">
          -6.1208626066685845e-01 3.4366641862883149e+00 7.4795502390194690e-01 7.7566172284186508e-01 -2.2788820083414771e+00 -1.9161366138926337e+00 1.1654422027875584e+00 4.2386984937339311e-01 -4.3762773734233856e-01 -7.5858228517989912e-01 -1.8135761070617507e+00 -5.8000748383901224e-01 -1.1323950627912294e+00 -3.2929345873833304e-01 -1.6146150078288213e+00 -4.0541442236587794e-01 8.3692067595016462e-02 1.1678904445549874e+00 4.9161648112375894e-01 1.3813670181230746e+00 
        </Neuron>
        <Neuron NSynapses="20">
          -4.9485255963938096e-01 7.5776825427326622e-01 1.9012779432905205e+00 1.2232905176923408e+00 -5.2579363017087810e-01 2.7204048775263556e-02 -3.2693972789734471e-01 -5.0505253335311844e+00 2.0831023525261666e-01 -9.5210256451223463e-01 1.1165886247659156e+00 1.4553061833202292e+00 -2.0051055296769968e-01 -4.6802068023553073e-01 2.4773169260195673e+00 6.5614000623192903e-01 -1.5641825499615760e+00 1.4062680010434108e+00 -1.0261980537585447e+00 1.1090759258809064e+00 
        </Neuron>
        <Neuron NSynapses="20">
          -5.6938502206194974e-01 1.4371855368386266e+00 1.1139211252859478e+00 1.1420804219401250e+00 3.3371440466611385e-01 -1.0604366578034323e+00 -1.4740347306023684e+00 -3.7941217483006502e-02 -2.4458375184899497e-01 6.6196665223442896e-01 1.4169051817897733e+00 1.0171127532010555e+00 -1.4082046753004400e+00 -4.4356015014389671e-01 -4.4618786008374239e-01 -3.3611458629719404e-01 -4.8919817578662755e-01 2.6865726279582579e-02 9.4313596536061006e-01 6.8626784305183097e-01 
        </Neuron>
        <Neuron NSynapses="20">
          -1.0777575922245657e+00 1.6968433535563539e+00 -1.7112961540804850e+00 1.4373691725089921e-01 6.3917582068288525e-01 -2.0572278570331792e+00 -5.3631085883586360e-01 -2.0356147769028730e+00 -1.7659384669962965e+00 4.1345358808703508e-01 -8.5651464930819843e-01 -2.9680854804945028e-01 8.8326567765488684e-01 2.0919131184997078e-01 8.5843276869755536e-01 1.2381469744506604e+00 -1.2005468451039085e+00 -8.6434896709079945e-01 2.4635038541198009e+00 4.9048551643774885e-01 
        </Neuron>
        <Neuron NSynapses="20">
          1.8041740515452078e+00 -2.3033539107981843e-01 2.4562963034173513e+00 -1.6001412942496214e+00 6.1796314533544516e-01 -5.6407871669046261e-01 9.4303741942786856e-01 7.6639012736505296e-01 -1.7510821323109782e+00 -2.7824735070983055e+00 5.0002636786748850e-02 -1.6988186861856049e+00 1.7409414564086096e+00 -8.1074104620532561e-01 -1.6690656858263802e+00 2.8205753931042072e+00 -7.0659764989182550e-01 -1.2600813110001285e+00 2.8562811868125704e-01 9.2813079484165631e-02 
        </Neuron>
        <Neuron NSynapses="20">
          -1.7663721427102543e+00 -1.2354410107970439e+00 3.2029750680435254e-01 1.4875326524046555e+00 -1.4707354584354244e+00 3.5092468322867267e+00 -2.3006917511698721e+00 -6.4257638073701182e+00 1.5714126545201909e-01 4.3513247231611478e+00 -1.8305243989553450e+00 5.4415593998045009e-01 4.2912828956450527e-01 1.3686935849166293e+00 -9.2839610150652216e-02 2.0357109541989766e+00 2.9661437777058519e+00 -5.8506979418400462e+00 3.0694975845439485e+00 -1.0795405256019837e+00 
        </Neuron>
        <Neuron NSynapses="20">
          -1.4756020301340418e+00 -6.3637883841148279e-01 -3.7133301365494292e-01 8.7477111654158846e-01 3.3352515804917502e+00 8.5702412219291813e-01 -8.7447372290133518e-01 3.3294841695715109e+00 -1.0677648987855588e+00 2.9377409087259507e+00 -1.8507233079730658e-02 -1.4666606040767596e+00 7.7175091886656622e-01 -2.9018562350567270e+00 -7.0787071405297197e-01 1.5430384566511219e+00 3.5409782546485031e+00 -1.9313536800289457e+00 -1.6701543017191858e+00 1.5248037947584947e+00 
        </Neuron>
        <Neuron NSynapses="20">
          1.4949914375401241e+00 5.4992701945744704e-01 -1.3138674234018706e+00 -5.6220567171311109e-01 -4.5290241724139806e+00 3.2089016033965112e-01 1.5568636892663419e+00 -3.1736606796780065e-01 4.2700801027122523e-02 -1.6073810854491890e+00 -1.1179126265588897e+00 -4.4162170340412937e-01 2.0217317773737564e+00 3.5959643518502549e-01 -1.1109586310353978e+00 -1.1525965482554228e+00 -8.8587545170926119e-01 1.2859992020857873e+00 1.2999244773504863e+00 -1.4891253594685603e+00 
        </Neuron>
        <Neuron NSynapses="20">
          1.8560723573962512e+00 6.2282362223783838e-01 1.1154742485024138e+00 5.1094298084774659e-01 -1.1379720810216991e+00 -7.3269594957534490e-01 1.7955268337393565e-01 8.6517483464663048e-01 -2.1695549336522966e+00 -2.4213733806871600e+00 1.8611852542893916e+00 2.4136928860386289e+00 -5.5480965826434740e-02 2.0790237274956271e+00 9.5829064622650606e-01 -9.5128634618386276e-01 1.8676258836306722e-01 4.9602615452389504e-01 -1.8275793354067335e-01 -1.7077218168920421e+00 
        </Neuron>
        <Neuron NSynapses="20">
          -1.4761215447962697e+00 2.8231621340316548e-01 8.3160375345371473e-01 -1.7613523613948829e+00 2.1432665356002483e+00 -2.4341515476171224e-01 2.0828697410021100e+00 -4.2117661395466904e-01 -1.8351957763883731e+00 -3.0231338504436076e+00 -8.5548016055144449e-01 2.2805851824969952e+00 1.9682446523239068e+00 1.1677222243772607e+00 1.4689668323757159e-02 -6.7816814107315626e-01 -2.6501349016375780e-01 1.3638230442322623e+00 -8.0461966833551435e-01 -1.3875813276846016e+00 
        </Neuron>
        <Neuron NSynapses="20">
          -2.3023900447449053e-01 -2.7619619238419433e-03 -9.2845179973785885e-03 -1.5840406199991366e+00 2.7168927147577078e+00 -3.4611989209303068e-01 -3.6589611002065409e-01 -1.2642507870340278e+00 7.6613458259324814e+00 4.4610999267573165e-01 6.8070678123639083e-01 -1.1099649099939160e-01 -1.7244211004564414e+00 1.7012496012978575e+00 7.9510953259740524e-01 1.0626968284649130e+00 -2.1199669904399809e-01 -1.4038598270895057e+00 9.1767817380429856e-02 -1.7245816992945466e+00 
        </Neuron>
        <Neuron NSynapses="20">
          -1.0301732162744828e+00 -7.7875529335935989e-01 -1.7247162133897538e+00 2.6840443076170484e+00 1.6443367219535241e+00 -1.0943042887970372e-01 -8.2264530889801768e-01 -2.0938052084011979e-01 1.6496978454357304e-02 -6.1789682372022470e-01 7.1966708378525868e-01 2.2447798305113248e-01 8.1609383580488171e-01 -1.0128099677066613e+00 1.1266745170521490e+00 -4.9131330796808897e-01 3.1809873312036868e-01 -2.1267547229327330e-01 -2.3729712072446044e-01 -1.3081174777985394e+00 
        </Neuron>
        <Neuron NSynapses="20">
          -1.6705644370670196e+00 1.5958083881693430e+00 -1.0867571192653258e+00 -1.9631003863355860e+00 -3.6793407566352330e+00 1.9189987939986892e+00 -4.2570918352757481e-01 1.1656199442823059e-01 3.8446669263873780e-02 -6.4863058512253458e-01 -2.4459674678787691e-01 -7.7307473973706031e-01 4.7461838731363071e-01 1.0672884908900044e+00 1.8752701642860414e+00 -1.4116758697701686e+00 -2.6582940435817393e+00 -7.0156756644716767e-01 -3.1584912820909423e+00 -1.6403439508211086e+00 
        </Neuron>
        <Neuron NSynapses="20">
          6.6548377084075516e-01 1.3489679537217110e+00 2.1103368193515744e+00 -5.9755211198572855e-01 1.6304381758032316e+00 -1.6554882908594735e+00 -8.1153059674680772e-01 5.3411615819306785e-02 1.2252305735685107e+00 -5.2782204243884845e-01 -1.5631132318368259e+00 1.1543862092562149e+00 1.3941160381472035e+00 1.7766817143142908e+00 -2.6010056205609757e+00 -1.0286472537829345e+00 2.7373992920899770e+00 1.0833481930886062e+00 2.7779650271279648e+00 -2.9478352923044410e-01 
        </Neuron>
        <Neuron NSynapses="20">
          5.4427345777308578e-01 4.3252685909531165e-02 -1.3218730664854141e+00 -9.9977112738537377e-02 -2.7226610012257924e+00 -4.5792999509247478e-01 -3.6293415392853841e+00 3.8607154703416192e-03 -3.8712821789172308e-01 2.3102367728088384e+00 -2.3932098428081541e+00 4.8304905525929664e-01 -8.9760066482852796e-01 1.5936100612310387e+00 -6.1506860604824902e-02 -1.9924267453551880e+00 4.6746698508895862e-01 5.7996987459520211e-01 -9.7276749664582618e-01 -1.4870557399444777e+00 
        </Neuron>
        <Neuron NSynapses="20">
          -1.7216632915982628e+00 -4.2327109437008942e-01 2.4146181690217445e+00 1.3815672535685214e-01 -3.8127313716289668e-01 -9.3093871445147403e-01 -1.1020701118290428e+00 -6.7768420405082876e+00 3.4938712986296944e-01 -1.0169542895290227e+00 1.0820180277027092e+00 -8.6906087750271466e-01 -1.4360792232429898e+00 1.8836022499651568e+00 8.3187147924091276e-01 -1.2402125943349558e+00 2.8570212880891592e+00 -1.3943468834335730e+00 -2.0326707510050368e-01 9.7151462771452979e-01 
        </Neuron>
      </Layer>
      <Layer Index="1" NNeurons="21">
        <Neuron NSynapses="1">
          4.1805844527434721e-01 
        </Neuron>
        <Neuron NSynapses="1">
          -1.5801243103552947e+00 
        </Neuron>
        <Neuron NSynapses="1">
          -5.3123924664203093e-01 
        </Neuron>
        <Neuron NSynapses="1">
          -1.2862795226570347e+00 
        </Neuron>
        <Neuron NSynapses="1">
          6.9438763535053261e-01 
        </Neuron>
        <Neuron NSynapses="1">
          5.5102249425936412e-01 
        </Neuron>
        <Neuron NSynapses="1">
          6.4776556155430387e-01 
        </Neuron>
        <Neuron NSynapses="1">
          1.6723401877705943e+00 
        </Neuron>
        <Neuron NSynapses="1">
          -6.3194152390579061e-01 
        </Neuron>
        <Neuron NSynapses="1">
          1.0082632154330706e+00 
        </Neuron>
        <Neuron NSynapses="1">
          -1.9347266216826555e+00 
        </Neuron>
        <Neuron NSynapses="1">
          1.7579178543675003e+00 
        </Neuron>
        <Neuron NSynapses="1">
          -2.2286792112714400e+00 
        </Neuron>
        <Neuron NSynapses="1">
          -2.8294145059586380e+00 
        </Neuron>
        <Neuron NSynapses="1">
          -9.9082484958110006e-01 
        </Neuron>
        <Neuron NSynapses="1">
          9.8591289708699525e-01 
        </Neuron>
        <Neuron NSynapses="1">
          7.1050391788219758e-01 
        </Neuron>
        <Neuron NSynapses="1">
          1.1425493099180162e+00 
        </Neuron>
        <Neuron NSynapses="1">
          -9.8880809337795705e-01 
        </Neuron>
        <Neuron NSynapses="1">
          1.2412121931292168e-01 
        </Neuron>
        <Neuron NSynapses="1">
          -4.7569374278837262e-01 
        </Neuron>
      </Layer>
      <Layer Index="2" NNeurons="1">
        <Neuron NSynapses="0"/>
      </Layer>
    </Layout>
  </Weights>
</MethodSetup>
