<?xml version="1.0"?>
<MethodSetup Method="MLP::MLPBNN">
  <GeneralInfo>
    <Info name="TMVA Release" value="4.1.4 [262404]"/>
    <Info name="ROOT Release" value="5.34/07 [336391]"/>
    <Info name="Creator" value="pseyfert"/>
    <Info name="Date" value="Thu Dec 12 20:13:38 2013"/>
    <Info name="Host" value="Linux lxbuild175.cern.ch 2.6.18-308.4.1.el5 #1 SMP Wed Apr 18 16:26:27 CEST 2012 x86_64 x86_64 x86_64 GNU/Linux"/>
    <Info name="Dir" value="/auto/sigma0/pseyfert/zoontuple/Bender_v22r7/Phys/Tau23Mu/scripts/TMVA_training"/>
    <Info name="Training events" value="52358"/>
    <Info name="TrainingTime" value="8.00103852e+03"/>
    <Info name="AnalysisType" value="Classification"/>
  </GeneralInfo>
  <Options>
    <Option name="NCycles" modified="Yes">600</Option>
    <Option name="HiddenLayers" modified="Yes">N+5</Option>
    <Option name="NeuronType" modified="Yes">tanh</Option>
    <Option name="RandomSeed" modified="No">1</Option>
    <Option name="EstimatorType" modified="No">MSE</Option>
    <Option name="NeuronInputType" modified="No">sum</Option>
    <Option name="V" modified="Yes">False</Option>
    <Option name="VerbosityLevel" modified="No">Default</Option>
    <Option name="VarTransform" modified="Yes">N</Option>
    <Option name="H" modified="Yes">True</Option>
    <Option name="CreateMVAPdfs" modified="No">False</Option>
    <Option name="IgnoreNegWeightsInTraining" modified="No">False</Option>
    <Option name="TrainingMethod" modified="Yes">BFGS</Option>
    <Option name="LearningRate" modified="No">2.000000e-02</Option>
    <Option name="DecayRate" modified="No">1.000000e-02</Option>
    <Option name="TestRate" modified="Yes">5</Option>
    <Option name="EpochMonitoring" modified="No">False</Option>
    <Option name="Sampling" modified="No">1.000000e+00</Option>
    <Option name="SamplingEpoch" modified="No">1.000000e+00</Option>
    <Option name="SamplingImportance" modified="No">1.000000e+00</Option>
    <Option name="SamplingTraining" modified="No">True</Option>
    <Option name="SamplingTesting" modified="No">False</Option>
    <Option name="ResetStep" modified="No">50</Option>
    <Option name="Tau" modified="No">3.000000e+00</Option>
    <Option name="BPMode" modified="No">sequential</Option>
    <Option name="BatchSize" modified="No">-1</Option>
    <Option name="ConvergenceImprove" modified="No">1.000000e-30</Option>
    <Option name="ConvergenceTests" modified="No">-1</Option>
    <Option name="UseRegulator" modified="Yes">True</Option>
    <Option name="UpdateLimit" modified="No">10000</Option>
    <Option name="CalculateErrors" modified="No">False</Option>
    <Option name="WeightRange" modified="No">1.000000e+00</Option>
  </Options>
  <Variables NVar="14">
    <Variable VarIndex="0" Expression="TMath::Exp(-1000*LifeTime)" Label="TMath::Exp(-1000*LifeTime)" Title="transformed decay time" Unit="1" Internal="TMath_Exp__M_1000_T_LifeTime_" Type="F" Min="1.93987222e-11" Max="7.31256723e-01"/>
    <Variable VarIndex="1" Expression="IPSig" Label="IPSig" Title="IP significance" Unit="1" Internal="IPSig" Type="F" Min="1.11495918e-02" Max="2.49779434e+01"/>
    <Variable VarIndex="2" Expression="VertexChi2" Label="VertexChi2" Title="vertex #chi^{2}" Unit="1" Internal="VertexChi2" Type="F" Min="8.02233350e-04" Max="1.49983969e+01"/>
    <Variable VarIndex="3" Expression="acos(dira)" Label="acos(dira)" Title="pointing angle" Unit="1" Internal="acos_dira_" Type="F" Min="0.00000000e+00" Max="1.37716651e-01"/>
    <Variable VarIndex="4" Expression="pt" Label="pt" Title="p_{T}" Unit="[MeV/c]" Internal="pt" Type="F" Min="4.12933426e+01" Max="5.52403477e+04"/>
    <Variable VarIndex="5" Expression="Laura_SumBDT" Label="Laura_SumBDT" Title="Laura_SumBDT" Unit="" Internal="Laura_SumBDT" Type="F" Min="-2.57286167e+00" Max="5.00000000e+00"/>
    <Variable VarIndex="6" Expression="min(p0_IPSig,min(p1_IPSig,p2_IPSig))" Label="min(p0_IPSig,min(p1_IPSig,p2_IPSig))" Title="min. #mu IP significance" Unit="1" Internal="min_p0_IPSig,min_p1_IPSig,p2_IPSig__" Type="F" Min="2.30495882e+00" Max="1.02738922e+02"/>
    <Variable VarIndex="7" Expression="DOCAone" Label="DOCAone" Title="DOCA (#mu 1 and 2)" Unit="mm" Internal="DOCAone" Type="F" Min="2.63570382e-06" Max="9.23672736e-01"/>
    <Variable VarIndex="8" Expression="DOCAtwo" Label="DOCAtwo" Title="DOCA (#mu 2 and 3)" Unit="mm" Internal="DOCAtwo" Type="F" Min="2.43484504e-08" Max="7.44905770e-01"/>
    <Variable VarIndex="9" Expression="DOCAthree" Label="DOCAthree" Title="DOCA (#mu 1 and 3)" Unit="mm" Internal="DOCAthree" Type="F" Min="6.10736777e-07" Max="1.05343544e+00"/>
    <Variable VarIndex="10" Expression="CDF3" Label="CDF3" Title="cone isolation" Unit="1" Internal="CDF3" Type="F" Min="3.00450996e-03" Max="1.00000000e+00"/>
    <Variable VarIndex="11" Expression="p0_track_MatchChi2" Label="p0_track_MatchChi2" Title="track match #chi^{2} (#mu 1)" Unit="1" Internal="p0_track_MatchChi2" Type="F" Min="4.38715070e-02" Max="8.45542831e+01"/>
    <Variable VarIndex="12" Expression="p1_track_MatchChi2" Label="p1_track_MatchChi2" Title="track match #chi^{2} (#mu 2)" Unit="1" Internal="p1_track_MatchChi2" Type="F" Min="1.31226135e-02" Max="7.59046707e+01"/>
    <Variable VarIndex="13" Expression="p2_track_MatchChi2" Label="p2_track_MatchChi2" Title="track match #chi^{2} (#mu 3)" Unit="1" Internal="p2_track_MatchChi2" Type="F" Min="1.51327997e-02" Max="7.93785172e+01"/>
  </Variables>
  <Spectators NSpec="0"/>
  <Classes NClass="2">
    <Class Name="Signal" Index="0"/>
    <Class Name="Background" Index="1"/>
  </Classes>
  <Transformations NTransformations="1">
    <Transform Name="Normalize">
      <Selection>
        <Input NInputs="14">
          <Input Type="Variable" Label="TMath::Exp(-1000*LifeTime)" Expression="TMath::Exp(-1000*LifeTime)"/>
          <Input Type="Variable" Label="IPSig" Expression="IPSig"/>
          <Input Type="Variable" Label="VertexChi2" Expression="VertexChi2"/>
          <Input Type="Variable" Label="acos(dira)" Expression="acos(dira)"/>
          <Input Type="Variable" Label="pt" Expression="pt"/>
          <Input Type="Variable" Label="Laura_SumBDT" Expression="Laura_SumBDT"/>
          <Input Type="Variable" Label="min(p0_IPSig,min(p1_IPSig,p2_IPSig))" Expression="min(p0_IPSig,min(p1_IPSig,p2_IPSig))"/>
          <Input Type="Variable" Label="DOCAone" Expression="DOCAone"/>
          <Input Type="Variable" Label="DOCAtwo" Expression="DOCAtwo"/>
          <Input Type="Variable" Label="DOCAthree" Expression="DOCAthree"/>
          <Input Type="Variable" Label="CDF3" Expression="CDF3"/>
          <Input Type="Variable" Label="p0_track_MatchChi2" Expression="p0_track_MatchChi2"/>
          <Input Type="Variable" Label="p1_track_MatchChi2" Expression="p1_track_MatchChi2"/>
          <Input Type="Variable" Label="p2_track_MatchChi2" Expression="p2_track_MatchChi2"/>
        </Input>
        <Output NOutputs="14">
          <Output Type="Variable" Label="TMath::Exp(-1000*LifeTime)" Expression="TMath::Exp(-1000*LifeTime)"/>
          <Output Type="Variable" Label="IPSig" Expression="IPSig"/>
          <Output Type="Variable" Label="VertexChi2" Expression="VertexChi2"/>
          <Output Type="Variable" Label="acos(dira)" Expression="acos(dira)"/>
          <Output Type="Variable" Label="pt" Expression="pt"/>
          <Output Type="Variable" Label="Laura_SumBDT" Expression="Laura_SumBDT"/>
          <Output Type="Variable" Label="min(p0_IPSig,min(p1_IPSig,p2_IPSig))" Expression="min(p0_IPSig,min(p1_IPSig,p2_IPSig))"/>
          <Output Type="Variable" Label="DOCAone" Expression="DOCAone"/>
          <Output Type="Variable" Label="DOCAtwo" Expression="DOCAtwo"/>
          <Output Type="Variable" Label="DOCAthree" Expression="DOCAthree"/>
          <Output Type="Variable" Label="CDF3" Expression="CDF3"/>
          <Output Type="Variable" Label="p0_track_MatchChi2" Expression="p0_track_MatchChi2"/>
          <Output Type="Variable" Label="p1_track_MatchChi2" Expression="p1_track_MatchChi2"/>
          <Output Type="Variable" Label="p2_track_MatchChi2" Expression="p2_track_MatchChi2"/>
        </Output>
      </Selection>
      <Class ClassIndex="0">
        <Ranges>
          <Range Index="0" Min="1.9398722211905195e-11" Max="7.3125672340393066e-01"/>
          <Range Index="1" Min="1.1149591766297817e-02" Max="2.1987730026245117e+01"/>
          <Range Index="2" Min="8.0223334953188896e-04" Max="1.4998396873474121e+01"/>
          <Range Index="3" Min="0.0000000000000000e+00" Max="1.3410498201847076e-01"/>
          <Range Index="4" Min="6.2147693634033203e+01" Max="5.5240347656250000e+04"/>
          <Range Index="5" Min="-2.5728616714477539e+00" Max="5.0000000000000000e+00"/>
          <Range Index="6" Min="2.3049588203430176e+00" Max="1.0273892211914062e+02"/>
          <Range Index="7" Min="2.6357038223068230e-06" Max="8.1560057401657104e-01"/>
          <Range Index="8" Min="2.4348450367028818e-08" Max="6.9920772314071655e-01"/>
          <Range Index="9" Min="6.1073677670719917e-07" Max="1.0170480012893677e+00"/>
          <Range Index="10" Min="3.0045099556446075e-03" Max="1.0000000000000000e+00"/>
          <Range Index="11" Min="4.3871507048606873e-02" Max="7.7615455627441406e+01"/>
          <Range Index="12" Min="1.3122613541781902e-02" Max="7.5904670715332031e+01"/>
          <Range Index="13" Min="1.5132799744606018e-02" Max="7.9378517150878906e+01"/>
        </Ranges>
      </Class>
      <Class ClassIndex="1">
        <Ranges>
          <Range Index="0" Min="2.1115165509399958e-05" Max="7.2934836149215698e-01"/>
          <Range Index="1" Min="1.3430085778236389e-01" Max="2.4977943420410156e+01"/>
          <Range Index="2" Min="2.2036740556359291e-02" Max="1.4991107940673828e+01"/>
          <Range Index="3" Min="0.0000000000000000e+00" Max="1.3771665096282959e-01"/>
          <Range Index="4" Min="4.1293342590332031e+01" Max="2.1269572265625000e+04"/>
          <Range Index="5" Min="-2.2138717174530029e+00" Max="-5.2525274455547333e-02"/>
          <Range Index="6" Min="2.7823791503906250e+00" Max="5.1121429443359375e+01"/>
          <Range Index="7" Min="3.9169070078060031e-05" Max="9.2367273569107056e-01"/>
          <Range Index="8" Min="4.2437626689206809e-05" Max="7.4490576982498169e-01"/>
          <Range Index="9" Min="3.1205789127852768e-05" Max="1.0534354448318481e+00"/>
          <Range Index="10" Min="3.8299348670989275e-03" Max="1.0000000000000000e+00"/>
          <Range Index="11" Min="1.4428974688053131e-01" Max="8.4554283142089844e+01"/>
          <Range Index="12" Min="1.4624765515327454e-01" Max="6.7723579406738281e+01"/>
          <Range Index="13" Min="4.5327022671699524e-02" Max="6.8506652832031250e+01"/>
        </Ranges>
      </Class>
      <Class ClassIndex="2">
        <Ranges>
          <Range Index="0" Min="1.9398722211905195e-11" Max="7.3125672340393066e-01"/>
          <Range Index="1" Min="1.1149591766297817e-02" Max="2.4977943420410156e+01"/>
          <Range Index="2" Min="8.0223334953188896e-04" Max="1.4998396873474121e+01"/>
          <Range Index="3" Min="0.0000000000000000e+00" Max="1.3771665096282959e-01"/>
          <Range Index="4" Min="4.1293342590332031e+01" Max="5.5240347656250000e+04"/>
          <Range Index="5" Min="-2.5728616714477539e+00" Max="5.0000000000000000e+00"/>
          <Range Index="6" Min="2.3049588203430176e+00" Max="1.0273892211914062e+02"/>
          <Range Index="7" Min="2.6357038223068230e-06" Max="9.2367273569107056e-01"/>
          <Range Index="8" Min="2.4348450367028818e-08" Max="7.4490576982498169e-01"/>
          <Range Index="9" Min="6.1073677670719917e-07" Max="1.0534354448318481e+00"/>
          <Range Index="10" Min="3.0045099556446075e-03" Max="1.0000000000000000e+00"/>
          <Range Index="11" Min="4.3871507048606873e-02" Max="8.4554283142089844e+01"/>
          <Range Index="12" Min="1.3122613541781902e-02" Max="7.5904670715332031e+01"/>
          <Range Index="13" Min="1.5132799744606018e-02" Max="7.9378517150878906e+01"/>
        </Ranges>
      </Class>
    </Transform>
  </Transformations>
  <MVAPdfs/>
  <Weights>
    <Layout NLayers="3">
      <Layer Index="0" NNeurons="15">
        <Neuron NSynapses="19">
          -2.3575699301151949e-02 6.6025297049882514e-01 1.4642441822418009e+00 1.4056582601249994e+00 -1.7778043618513786e+00 -8.1161773565020545e-01 -2.5689202856788279e-01 1.5989063590684989e+00 -5.6091080215514333e-01 -1.3163575471525901e+00 -1.3417814302540469e+00 -2.4295555286116455e-01 -9.8661740613033444e-01 -2.1212824311520836e-01 -1.9667223443552051e-01 7.0531343107418021e-01 2.3436908237141854e-01 -1.9970353639773051e+00 7.5744789627069042e-01 
        </Neuron>
        <Neuron NSynapses="19">
          5.9119257077500020e-01 2.3901371826938020e+00 3.6353725091412087e-01 1.5615977609298330e+00 1.9639918967713763e+00 -1.7024520681605999e+00 1.8682239109170720e-01 2.0667363969117152e+00 -1.2166049123947331e+00 -2.2805673939828885e+00 -2.9484518541404836e-01 4.0263255936670878e-02 1.3164542232090504e+00 -7.3487162470520151e-01 -4.6338337535727586e-01 7.2068363162478011e-01 3.8617698826733504e-01 -3.3147707531987003e-01 1.8052246574850208e+00 
        </Neuron>
        <Neuron NSynapses="19">
          -6.9277104181382276e-01 2.7907925270316132e+00 -8.5295254898354655e-01 9.7980960439402220e-01 -3.3693763811606520e-01 -6.9786495786471625e-01 -4.0466290904332697e-01 -1.1103988881928784e+00 -5.1071008415886698e-01 -1.4255714872170244e-01 8.2841492587835197e-01 1.0375866903337658e+00 1.3556449403064679e+00 7.8774160902171819e-01 -1.1349226225548685e+00 9.9551547319985334e-01 -1.2092372419197812e+00 -2.0300622677067373e+00 -9.0402147707209812e-01 
        </Neuron>
        <Neuron NSynapses="19">
          -2.3708111853075016e+00 4.4175138953827844e+00 1.5788933029406289e+00 -3.3734812150401716e-01 2.2314885238648836e+00 -1.8871924228310744e+00 1.3772087587534070e+00 2.6604087146924456e+00 -1.1335423374880589e+00 -7.9129383588892421e-01 -1.6626492561042729e+00 2.6489241567973976e-01 -9.5316346907867522e-01 -1.2093486910068172e+00 -1.5417650474009310e+00 1.5376887050627115e+00 2.0232779748121832e+00 -1.5710580166414059e+00 3.2476186077006219e-01 
        </Neuron>
        <Neuron NSynapses="19">
          -2.7941229175558635e+00 8.6449823811977233e-01 2.0741054666902947e+00 1.7147196374935756e+00 3.9169433362564794e+00 -1.0382671328887938e+00 2.1175121092405118e+00 1.4301209030597398e-01 1.6409641761639152e-01 -1.1892788097016112e+00 1.3205198387526343e-01 -1.3730296809449960e+00 -1.7627967370318798e+00 -2.3042834283784375e+00 -9.3574861757020056e-01 3.4813866245464919e-01 2.4884388632494105e+00 -4.2198540097462036e+00 -8.2943714766155904e-02 
        </Neuron>
        <Neuron NSynapses="19">
          9.3428086883382133e-01 1.1193428642703185e+00 -4.8742918710180477e-01 -7.2348428895057149e-01 1.3833339264549029e+00 -2.6000948649844906e+00 -1.0916046195752918e+00 1.3538890059589974e+00 -1.5062228985424908e+00 -1.7460982767544952e+00 1.0118357023131073e+00 -1.1891211820478307e+00 -9.1582096176850369e-01 -5.6743318727121872e-01 -2.9191612332080941e-02 -1.3599354390899348e+00 8.7079648252103703e-01 -1.4407942226283559e+00 9.5713262256815501e-01 
        </Neuron>
        <Neuron NSynapses="19">
          -2.5837608137735733e+00 4.3573659718199114e+00 2.0462654239373492e+00 2.0017299250613138e-01 3.6427744465622318e+00 -3.4794734192149206e+00 -4.6129877650315604e-01 1.1240302359071079e+00 1.9469679176658341e+00 8.1507155709167012e-01 -4.0445530380412986e-01 -3.3593254663102129e-01 -5.2576039945240760e-01 -7.0197177765649743e-01 -2.5606247078865256e+00 1.5015344698121595e+00 8.8296136734211172e-01 -2.3857309421367154e+00 1.1327248260835547e+00 
        </Neuron>
        <Neuron NSynapses="19">
          -2.6570999130146911e+00 2.5556177579883492e+00 3.1849625098845302e+00 2.2699772041271231e+00 5.3937481124762521e-01 -2.0411264822479969e+00 2.5849961555095446e+00 2.3615336406046512e+00 -8.5324312599369545e-01 -1.5770324027198253e+00 -1.3772863952077774e+00 -1.8086645534726493e+00 1.3893169644882524e+00 3.6323427298529343e-01 -1.0898742019771277e+00 9.6492288719840669e-02 8.5359567831474481e-01 -3.0316625912424198e+00 1.2619104032703503e+00 
        </Neuron>
        <Neuron NSynapses="19">
          5.7764574439544181e-01 2.0126274495685492e+00 1.4337259493911676e+00 9.6559130615152944e-01 3.0626284670459309e+00 -1.7183017741594631e+00 1.9662015613438069e+00 -4.3793175968957720e-01 -2.3275776741841914e-01 -1.5742565361139735e-01 -6.0596534137208480e-01 2.0206142823986192e-01 7.3236178869548185e-01 -1.4323283606357275e+00 -1.2507517577188132e+00 1.3998023661689913e+00 2.8811261114961018e-02 -3.2745655138621497e+00 2.2535832773103031e+00 
        </Neuron>
        <Neuron NSynapses="19">
          -2.7246676512879658e-01 2.2049179593507486e+00 3.3562869650893448e+00 2.4142597519760298e+00 4.6189305913189049e-01 -1.7572403025359509e+00 1.0344065215832221e+00 1.2452933728672928e+00 9.6770025488845404e-02 -1.6800731839470577e+00 -4.5634680017133812e-02 1.4110995476437131e+00 -1.9433309023373488e+00 -1.0369046808051066e+00 -1.1834287004152393e+00 7.4511437580833273e-01 2.4279921552183010e+00 -2.4158833102162505e+00 2.4321050594223986e-01 
        </Neuron>
        <Neuron NSynapses="19">
          -5.6951006978224306e-01 -2.2476858141508521e-01 6.3879731705800957e-01 6.8417739142952283e-01 4.9413201865343932e-02 -1.5214687313221418e+00 -1.1333523717087461e+00 -1.2703710405060570e-01 9.4734671598299236e-02 -6.4835702375643767e-01 -5.5921262350254886e-01 3.1083826509134943e-01 4.3408738230480903e-01 -1.1743182685867957e+00 1.1556224366030072e+00 4.6855014129026684e-01 -5.2893356473777320e-01 4.4548306059956633e-01 9.2152771191808669e-01 
        </Neuron>
        <Neuron NSynapses="19">
          -6.5772467007254046e-02 2.6873083078009570e+00 1.6625415210649153e+00 -8.0503278514718757e-01 1.2813617691866874e+00 -6.2932349472467131e-01 1.9468251879420999e+00 1.8769733103444999e+00 -1.0586120556885481e+00 1.0586144367028236e+00 -1.9185244283662111e+00 -1.8356097027072527e+00 -3.0702542408760181e-01 -1.5684894527950417e+00 2.7756965244803727e-01 2.1248376340779505e+00 -3.5502904287614628e-01 -1.9985787383227620e+00 6.0740404968366413e-01 
        </Neuron>
        <Neuron NSynapses="19">
          -1.7009597288101865e+00 2.8874677489880538e+00 3.6813987340363907e-01 1.7462154128260499e+00 2.0699670420208758e+00 -1.3322052867785028e+00 1.9483394644658407e+00 -4.9741955527918502e-01 -4.3898579488001138e-01 -1.2921691408501215e+00 -8.7929030663895624e-01 -1.9821048055896728e+00 -2.1750441424898161e+00 -8.7570706241999063e-01 -1.8857116604863000e+00 -9.8394387846916032e-01 -8.6373798050254014e-01 -3.0820141487884003e+00 -1.1082208103959248e-01 
        </Neuron>
        <Neuron NSynapses="19">
          -3.0007091727123276e+00 2.7588617904644730e+00 1.6166127888394899e+00 7.9643151516309607e-01 1.3949811218010368e+00 -2.7033871355307322e+00 2.3416746308117418e+00 1.6800358127840620e+00 -2.9233964523634243e-01 -1.8771359355618777e+00 -2.6405262285583837e+00 -1.0955219321624727e+00 -1.6569076017913331e+00 -5.0283849414932780e-01 -4.2719358462472040e-01 1.6659543391414133e+00 4.7486920261723498e-01 -2.2530017255099124e+00 7.4623548504483980e-02 
        </Neuron>
        <Neuron NSynapses="19">
          -6.4169807692008407e-01 -1.6650806211182967e+00 -8.2664719541669740e-01 -2.0098104604443354e+00 -3.6265906115111317e+00 3.2378914196237081e+00 1.5301411623690048e-02 -6.4900015051045823e-01 -1.8009352170743311e+00 7.6666960114489402e-01 2.6949833242627985e+00 1.3706936852074787e+00 1.1626543450074724e+00 6.4241609847554859e-01 1.0255793188746547e+00 -8.6396440592120716e-01 -2.4436224416017698e+00 2.6291426758837200e+00 -2.5811921093749102e+00 
        </Neuron>
      </Layer>
      <Layer Index="1" NNeurons="20">
        <Neuron NSynapses="1">
          -6.4459982943139676e-02 
        </Neuron>
        <Neuron NSynapses="1">
          5.2279902298451582e+00 
        </Neuron>
        <Neuron NSynapses="1">
          -1.0251157842568315e+00 
        </Neuron>
        <Neuron NSynapses="1">
          -1.2440851490646110e-01 
        </Neuron>
        <Neuron NSynapses="1">
          -3.5603550921934275e+00 
        </Neuron>
        <Neuron NSynapses="1">
          5.0544416211481140e+00 
        </Neuron>
        <Neuron NSynapses="1">
          -4.5130672043333359e-01 
        </Neuron>
        <Neuron NSynapses="1">
          7.8865112095680845e-01 
        </Neuron>
        <Neuron NSynapses="1">
          4.8618863817456787e-01 
        </Neuron>
        <Neuron NSynapses="1">
          -9.3745469250090452e-01 
        </Neuron>
        <Neuron NSynapses="1">
          -1.9393021938440747e-01 
        </Neuron>
        <Neuron NSynapses="1">
          2.3850045787459781e-01 
        </Neuron>
        <Neuron NSynapses="1">
          6.2770932682120839e-01 
        </Neuron>
        <Neuron NSynapses="1">
          -1.2862817827890756e+00 
        </Neuron>
        <Neuron NSynapses="1">
          -8.2520934222060915e-01 
        </Neuron>
        <Neuron NSynapses="1">
          -1.4666055890476488e+00 
        </Neuron>
        <Neuron NSynapses="1">
          -8.8596652138154583e-02 
        </Neuron>
        <Neuron NSynapses="1">
          -1.7685629870303314e+00 
        </Neuron>
        <Neuron NSynapses="1">
          1.4692019710192656e+00 
        </Neuron>
        <Neuron NSynapses="1">
          4.4175616351378205e-01 
        </Neuron>
      </Layer>
      <Layer Index="2" NNeurons="1">
        <Neuron NSynapses="0"/>
      </Layer>
    </Layout>
    <InverseHessian NElements="93025" NRows="305" NCols="305">
      <Row Index="0">
        9.9981776808286295e+05 1.7234273549347756e-05 -1.9268175803970280e+00 -1.2983067496702313e+02 -9.1590335939096788e-03 6.7070379297740068e-04 9.0720879935056473e+00 8.8104466162611629e+01 5.5880563757155204e-03 -3.8221309234660168e+02 -1.3180690830416899e+02 -1.4336282647323247e+02 -2.5113640544979791e+01 -7.9414989497186298e+01 -3.5401320995737819e+01 -1.1170970105544745e+02 2.0739130070539584e+00 -9.2013745593852914e-08 -1.6088505700428719e+01 -9.9782857987646054e+01 -3.5234871060974230e-06 1.5771391788062594e+00 -1.4815284292640037e+01 1.7249918012163506e-03 1.7365422951643995e-04 4.2010145442219926e+00 -1.8263012092031889e+02 -1.0464440452257546e-02 1.2516131993907038e+01 6.7830628792692636e+01 1.2210622166822313e+01 -1.8808319563225751e+01 1.6123850490963218e+02 -9.0022638798656800e+00 -5.3881053450406490e+01 -8.7880132552761836e-01 2.0093348398457402e-07 -1.6505606602930037e+01 -8.2970059231697704e+00 8.9495125343197325e-06 -2.5770659125810780e-01 2.3399509030928069e+01 -4.8149498373774484e-03 -2.6735696025408356e-04 -7.8278254225723076e-01 1.3466287079081866e+01 -5.1195775937052509e-03 1.9515111668469046e+01 5.6891984018075391e+01 -9.4621590933981309e+01 4.4550745219247574e+01 -1.7319871758071662e+02 -6.8179291544236520e+00 -1.8672895367485893e+02 -1.6697228829764843e+00 -1.3687212552785549e-07 5.3822612820935433e+01 -1.6695013968633276e+02 6.2355893131085428e-06 1.3458289524575857e+00 -2.2615224351267848e+01 -8.9661325878560294e-03 4.9419188006991565e-04 7.9419796384036019e+00 -6.7547576267402292e+00 -2.0237615549828239e-02 1.2182978784597373e+02 6.9865874293223555e+01 6.3198936525583832e+01 2.3566714179497481e+01 1.0605091136973044e+02 -3.1312166276956727e+01 -6.8122949188502645e+01 2.1842616051564629e+00 2.4720148100488369e-07 2.9627011575628231e+01 -1.4480030984678851e+02 -1.1758554179323221e-05 1.0541505023393474e+00 -4.2280189354972961e+00 -6.2956134519999212e-03 6.3568818358234911e-04 1.2375352880422295e+01 -1.7273658000880133e+02 -9.8027031006224577e-02 -1.0815196495497142e+02 2.2200373703686535e+02 -1.0172402322801005e+02 1.8639988871559035e+02 -1.6568280462884087e+02 -2.9977835041466932e+01 -7.9254586023242678e+02 -3.8257746771122250e+00 1.0052723795432857e-07 1.0134988570687653e+01 -1.3352982704305288e+02 -6.6075066794698916e-06 9.2101245955374633e-01 -8.7663655590429972e+00 -3.7777726395906144e-03 4.7655426917331609e-04 6.7294144864648855e+00 -5.8629076188209723e+01 -1.4040302959101372e-03 -7.7058201996760118e+00 1.3922489635667148e+02 1.2246161915249775e+01 -1.4784095138791332e+02 1.4019488095575167e+02 -2.4736619206316320e+01 2.1689588171944501e+02 -1.2354546100289525e+00 1.4745569314119295e-07 1.3262266489245190e+01 1.2186744511469709e+02 -1.3719973461739097e-05 1.1008084967168461e+00 -2.1827611138231617e+00 9.0998575409448543e-03 -4.2435835544160833e-05 1.1712496784739656e+01 -3.1377569028393737e+01 1.3921440219064576e-01 4.0625872367967872e+01 2.3518416066364034e+02 -2.3388741264335909e+01 -2.3718267745954205e+02 2.2949725369211671e+02 2.3305155362928971e+01 7.0622928901480350e+02 -2.6293221571927248e+00 2.6632010343003616e-07 -8.5212871418277700e+00 -1.7317912110564066e+02 -6.7583500876241416e-06 -6.0165474946018804e-01 3.7190312624976229e+00 -8.7653864899766530e-03 6.8718678393908596e-04 6.3882068827806506e+00 5.0060296110550780e+01 -1.9367396520133816e-02 -1.3808653190790170e+02 1.9769804815272983e+02 3.7797545652994813e+01 -3.7579976908092618e+01 2.1927251906125184e+02 -3.6781461440314160e+01 -3.0028172567125367e+01 -1.5181375469546765e+00 -8.1052161100422061e-08 4.1745996336272128e+01 -1.6992873158152153e+02 -1.3005439324804388e-05 1.1116001371830255e+00 -8.4647546124280950e+00 -8.9990578328669711e-03 7.0513216830247409e-04 1.1289165283646284e+01 6.4177260779131871e+00 1.9871204878264645e-02 -7.1984826005204127e+01 2.0090696235166979e+02 2.5894869029914830e+01 -1.0869696415459629e+01 1.5884519410712753e+02 -3.6665197679685662e+01 -1.6704645358570460e+01 -2.1993854177857841e+00 -8.9453312210487470e-08 5.6238698402798605e+01 -1.6116409127548104e+02 -1.5731075370661104e-05 -5.1817971358390835e-01 -3.6879730468945958e+01 -8.9517658540206359e-03 6.2490434184027258e-04 7.0761370211821202e+00 1.5443495148921875e+02 -2.5837934691920576e-03 1.9264442214316205e+01 2.2814130998875589e+02 5.8926211172127978e+01 -6.4043320568720048e+01 2.1075126580512330e+02 -3.2932022003998100e+01 -4.3563939683351634e+01 -1.4866793312248774e+00 2.3417522523570009e-07 3.3009029465706590e+01 1.0525943313390599e+02 -2.3245386177610152e-06 4.3978472203676233e-01 7.0671873258125174e+01 -1.2904784127242472e-03 -4.7898038728080356e-04 8.5249335850676289e+00 1.5437344922587960e+02 4.9159720912094144e-03 -2.2030297346420095e+01 -1.5360432016308141e+02 -6.1820988512212928e+01 -1.8017823659056134e+01 -2.1729701607105363e+02 6.0248598695325200e+00 8.7114280130038054e+01 -2.2588390132586937e+00 1.6980014756125700e-08 8.9852035793956020e-01 -1.7721006001616479e+02 -5.8439322825604276e-06 1.2551321305061136e+00 -9.1031399489838520e+00 -7.6034952505998291e-03 7.3049885708570416e-04 -6.9878287955798442e+00 -6.8303233908285074e+02 2.3345877184728803e-02 -9.8114343906438194e+01 4.1155540496205504e+01 2.9024070525835384e+01 1.1680012838060662e+01 9.9945028571772127e+01 -3.6903555987285586e+01 -1.2412395143881923e+02 -2.8426336717254319e+00 2.5862459033940610e-07 2.3126017814090119e+01 -1.4209581656399504e+02 -1.1931379274653559e-05 1.1942275907739539e+00 2.1067381980142805e+01 -6.8763550410231300e-03 6.5055609521433885e-04 1.2578277959441920e+01 -8.2311975737670593e+01 -9.3429075327878149e-03 8.3840204912992476e+01 2.0109700911431617e+02 2.8724482212342082e+00 1.8803646601374602e+01 2.6057162136513307e+02 -3.4608865917703952e+01 -1.0353591545069339e+02 -2.5148646897333364e+00 2.5230470036487448e-07 1.9079386194362542e+01 -3.1833575118682347e+01 -3.5515003630949993e-07 8.7747536496557821e-01 -1.9772780839093663e+01 -4.7905863290580919e-03 -5.0578546751601366e-05 2.1230599193368107e+00 8.2690954382352970e+02 2.0998999663275258e-02 1.7840167486758628e+02 -1.6500461728557639e+02 9.5381645492631833e+01 1.7838575803834011e+01 1.5308920895121923e+02 -1.4870662518973404e+01 1.6965761958700637e+02 -2.4513656103226822e+00 2.3511667673249844e-07 2.3585348799065287e+01 1.8048510286444798e+02 1.3980147638454357e-05 -1.2158842286020248e+00 1.4024196079139720e+01 9.1778736369164029e-03 -7.7645597806101781e-04 -1.3123200047535647e+01 4.7992422276226833e+01 5.4184349703630980e-02 2.0582171449653750e+01 -2.4958073221169070e+02 -2.3142154869348019e+01 -1.4580268704492244e+02 -2.3535432059143204e+02 3.9856507386720295e+01 1.3342579951644399e+02 2.8967645866214298e+00 -2.8101145829669975e-07 -2.8664071282091754e+01 1.3519944637059195e+03 4.9175186096400928e+01 4.8294691805734942e+01 -8.9341967092193357e+00 4.9074358680138630e+01 -4.9066365502011735e+01 6.4548350909131500e+01 8.0461054702567424e+01 -3.2227627785475273e-03 -3.8307982100590323e+01 -6.9863494164723272e+02 1.9849741300588164e-01 4.4181699553601867e+01 -1.4055751550287462e+02 -2.4906476644933797e+01 -7.8287240661956492e+00 3.2637847295245244e+01 -4.9062112702718757e+01 3.9332778930081318e+01 -4.9075538882667857e+01 
      </Row>
      <Row Index="1">
        1.7234201834741281e-05 9.9999999999999849e+05 -2.5938979710830672e-05 -8.4560402128177204e-04 9.8257934377764503e-09 3.2991363416757787e-11 6.0362922896916443e-06 -9.5764803503905842e-04 -2.8284847103864304e-08 2.5599143080945498e-03 6.8340284968097364e-05 -8.1964506690073379e-05 6.4522419899714232e-05 -2.1729306025004163e-04 4.3251407394042547e-03 1.4878841474139841e-04 5.0815509903938551e-06 1.3157405735609957e-12 -7.1355699152154625e-06 7.4235262012481491e-06 6.1479170248925140e-10 -8.6044158729085395e-06 2.4340352040946606e-04 -2.1523270413816106e-09 1.4824581491057323e-11 -1.5209076396597500e-05 5.3975289626810477e-04 -1.3029732507533123e-07 2.9556978497625357e-03 -6.0297622901037129e-06 2.1199253065537558e-05 8.0655037489036106e-05 2.4826252934337031e-05 -1.9364505946694367e-03 -8.7265425661636059e-04 -4.9977883765561491e-06 4.4039450549724735e-13 -5.0697022001115982e-05 5.7337959487440966e-06 -1.6189497031332721e-09 1.4630258185225451e-05 9.3228569037729584e-05 5.3874510225741075e-09 -1.8811565392515339e-10 2.0531218012138558e-05 -1.1874112511810432e-03 -1.2845975327202610e-08 5.3633056869921382e-03 4.4474949723448886e-05 1.5671251624520396e-04 -2.0132928228367992e-05 8.2685892326425517e-05 2.5079693351032859e-03 -7.4796550338930481e-04 2.6621761441962090e-05 -5.1484105868175859e-13 1.2054267238919701e-04 7.6879089656588069e-06 -1.8394080637016531e-09 -1.4399308810944398e-05 1.4797205018651229e-04 9.6107421282668623e-09 1.9425295711251284e-11 -7.9530438343769613e-06 -1.5132646648912534e-05 9.2011421020509322e-08 2.2963929775981135e-03 3.8911545306529946e-05 1.5101521295260672e-04 -7.5294661663409773e-05 -1.8753060149407903e-04 4.0437716347561138e-03 7.9737031023744765e-04 9.7161703007326527e-06 3.0534274896098809e-12 -4.8622074515870860e-06 1.8411241654706046e-05 2.2966331524762147e-09 -2.3035606412248310e-05 -8.3430724987639860e-05 6.7165188602228567e-09 -2.0619282943691756e-11 9.8586341869410393e-07 5.0300851309027957e-04 2.5650989631917102e-07 2.3880512001799031e-04 2.2270902399327994e-05 3.5639095578513673e-05 -1.0892436653952732e-05 -1.9329963339633112e-04 -4.8736252031082233e-03 2.0780047007627174e-03 -1.6454978646793678e-05 1.0304459202940612e-13 -6.0694397999527702e-05 1.3869385463922187e-05 1.0434671082433902e-09 -1.1769737626383075e-05 4.0831282080660997e-05 3.9712680035179295e-09 6.8257030646426898e-12 -1.3148296454815988e-06 2.9766963446480011e-05 -1.7848273484656921e-07 -1.8869271132716602e-04 2.6907649728644596e-05 -2.3421426897770990e-05 -3.1289198067305598e-04 -4.3046843571347467e-05 -2.1275796447581389e-03 -4.3085678189852951e-04 -6.3831250925453951e-06 2.7787298449559137e-13 -3.5867857756158873e-05 6.0259339530993443e-06 2.4221518187864402e-09 -2.6257389470953453e-05 -1.2280997752214649e-04 -9.7450592068908872e-09 1.7006647021983835e-10 3.1614736800981622e-06 3.5491339343556364e-04 2.0159760171675246e-07 6.7016365341559343e-05 3.0685813771812870e-05 3.2137189947647815e-05 2.3600754804141091e-04 -1.1313035612767035e-04 -5.0130474268353696e-03 2.2225394604150229e-03 -1.5872503383071825e-05 3.0188147594044980e-13 -1.6929023056758705e-05 2.2073225233176785e-05 1.5522768009171549e-09 2.9815552231379435e-05 4.6842671461942497e-04 9.3985713898919482e-09 -1.3952173016568345e-10 1.0250377911025232e-05 -9.6270452861335609e-04 -4.3597960541867998e-08 3.5760410792379889e-04 5.6437492916743340e-05 -9.6990749289044579e-05 7.5438171612724294e-05 -7.8204615326436192e-05 -4.0941804608423463e-03 5.0625054297042424e-04 -8.2296777604642934e-06 -2.4641862833040703e-12 1.2618430138717010e-05 2.3025043889650083e-05 1.5722324377094128e-09 -2.1975680943896707e-05 -4.0397483731557265e-05 9.6653409494066827e-09 -5.1633171101630779e-11 -6.5191599594068006e-06 -1.5434371254029861e-04 2.4048916363957979e-07 1.3658672923456678e-03 2.3560295517336891e-05 1.6801540412439355e-04 -1.1791249045156312e-04 -8.1538863567395792e-06 -2.8911455449717738e-03 1.6733291139352415e-03 3.4449674674052772e-06 -1.9280244906972234e-12 8.9732278732749041e-05 1.5939974994716444e-05 2.1152409915594831e-09 3.0835945289724574e-05 6.1795444907684297e-04 9.6271748403849049e-09 -1.0757790832295330e-10 1.3344216804296819e-05 -5.1758032607738961e-04 5.3087437427086236e-08 -2.8296276030376558e-03 7.6329669109382464e-05 -4.4927505884512177e-05 1.0240901427500970e-04 -8.1225987548017844e-05 -3.9116221968263781e-03 -1.0554888410857781e-03 -2.1231929980825015e-07 2.2055657206070019e-13 -4.6593548518600596e-05 8.0257949777173820e-06 1.6171224243776517e-09 1.9050442383945620e-05 4.7689322086240794e-04 1.5873787851972402e-09 -7.0620758605753147e-11 2.8593310787972115e-06 1.2268398136619351e-03 -9.8468172914146114e-09 1.2079415825342228e-03 -1.5730654559637652e-04 -9.2163164584867577e-05 -1.1255113840738255e-05 1.1635408831800432e-04 -4.4268406047683895e-03 -9.4748460672149874e-04 -2.2349964942325329e-05 -9.6373814874255323e-13 -3.2246706517830015e-05 2.0512091341462479e-05 2.3429457716137525e-09 -1.9602776463828309e-05 2.0239708780550873e-05 8.0069697939710648e-09 -5.2118877749600960e-11 1.0445657541935383e-05 9.3776801572869814e-04 -8.0005969019571413e-08 -3.1495757969511812e-04 -2.5891154975504760e-05 -2.1304379043603824e-04 -3.7673136418665430e-05 5.6084455480836853e-04 -4.6664008641034756e-03 -6.7057602610115312e-04 -1.6532514941404784e-05 3.1521060946917568e-13 -1.2736500812308982e-04 1.6137219963534351e-05 1.4130367092435453e-09 -2.1986312991298246e-05 -2.1746990563395940e-04 7.3632022944097425e-09 -1.1085827970288350e-10 1.1159036621847867e-06 2.2257435724087004e-04 1.5673601017281025e-07 3.9401010253627775e-03 2.0909500763272807e-05 -3.3803337192690915e-04 4.1299230331912423e-05 -2.9179639852225381e-04 -1.9835708464188487e-03 -1.9892381154110877e-03 -1.3135906612637342e-05 8.1059495448713586e-13 -2.6235294907757389e-05 -1.2091539700387344e-05 2.1244486332119439e-09 -2.5174707204318872e-05 -1.9858813415103493e-04 5.3356462485543136e-09 -1.1872532502081669e-10 -8.0818518028991093e-06 -1.3027928161034054e-03 -6.6019180159421614e-08 -3.3622388855534362e-03 -1.3285646521851713e-05 2.8844423008442970e-04 1.8943647410352865e-05 -1.5104847219696207e-04 -4.5754343200393507e-03 1.3145617342250472e-04 -1.6013241689045998e-05 2.4461738586267588e-13 -6.2051496724031732e-05 -2.1711007261004944e-05 -2.5172270697359515e-09 2.6266855044409213e-05 8.1752744982915864e-05 -9.8489058738648191e-09 4.3828278725998271e-11 -2.3872404053548735e-09 -3.0225841409540116e-04 4.6054138902786990e-07 1.6286217030615812e-04 -3.4293700243367975e-05 -6.0966198596733729e-06 -2.2160737224064306e-04 1.0188420718962657e-04 5.1760779779877197e-03 3.2353120292219007e-03 1.6225086803156596e-05 -3.0605730726192731e-13 5.7466469051317692e-05 -4.2625618300269863e-04 2.5621246880212604e-04 2.3720944266772994e-04 -2.6048713170908776e-04 2.5615827257923803e-04 -2.5627071640175260e-04 2.5737622218038929e-04 5.4664955218773983e-05 -7.7421200845555748e-08 -1.6349346540324173e-04 -3.4846778634716206e-04 -2.4323264525382337e-04 -3.2183472362933008e-04 -2.1942472600494504e-04 2.8779791302264552e-03 -8.5898249717445232e-04 1.6571332451934429e-04 -2.5635293559214109e-04 2.7849519525536230e-04 -2.5620812986192206e-04 
      </Row>
      <Row Index="2">
        -1.9268400975702775e+00 -2.5938950798692906e-05 9.9958680182601453e+05 -1.4076748414146750e+04 1.5999021730098799e-04 1.7583506650912985e-04 -6.4833868096165403e+00 -1.5821670358971505e+02 -3.4641938916462153e-02 -2.7138857991056934e+03 -1.3561232554013884e+01 2.7421407201655498e+01 -9.7564583326287746e-01 3.4020961073757775e+01 9.3524948222004696e+00 -2.9929879380346414e+01 -1.7846021758169208e+01 -1.3071448836521809e-06 -1.1970535036261330e+02 1.9136328502524336e+00 -2.0154303226382816e-06 -5.3224375304315799e+01 6.1570535777030582e+03 -3.4820110656008027e-05 2.4274140915371903e-04 -3.5932589108938231e+00 7.0332075441469414e+01 -4.9508940415951712e-02 -8.5565411469374521e+02 1.0404686979574890e+01 6.2262110074617162e+01 -5.0086274766113938e+01 -1.3524923387260586e+00 -4.7613574753380572e-01 3.0975140277061406e+01 1.7545948871110184e+00 7.7042042870359327e-07 -1.5571703419392492e+01 -2.3374865222701784e+00 -2.6718095398338328e-05 1.8468889583723887e+02 1.7049438607998673e+03 9.0643540602051818e-05 -1.3183940689021436e-04 6.7251466338605344e+00 1.1326715370266990e+02 -1.1623721471608449e-02 9.4132642223703260e+02 1.7259059621979276e+00 2.6201769192773284e+01 -4.0744832996911100e+01 1.8726032725614488e+01 -3.6373119201219311e+00 -8.6788077641893778e+01 5.7199073194380450e+00 1.3649290537859438e-07 4.4990916602340505e+01 4.8563648945727209e+00 3.4889907235806117e-06 -1.3933534213245355e+02 3.8675995552381951e+03 1.5632318918650721e-04 2.4264367303143014e-04 -3.9052579812102763e+00 1.2743130745552997e+02 4.9793848116703468e-02 1.8537686061805339e+03 1.8533533416783740e+01 6.5956145043235153e+01 2.5872054854007267e+00 7.7709845218655573e+00 -2.0930829611333337e+00 -1.8788561898586835e+01 -3.0289852038004597e+00 5.9475681399503644e-07 1.8356850011098089e+01 -3.1219415408908446e-01 1.8229577474313754e-05 -2.6803740445589176e+02 1.8151891219022218e+02 1.0899237588895790e-04 2.7328254160597379e-04 -3.5227768456667192e+00 -1.2529926953683685e+01 7.3715638821809440e-02 -7.9587573654239100e+02 1.5593184205657110e+01 -6.3440666770569578e+00 -9.4082450430869322e+00 2.0145685745324329e+01 1.3307066613756888e+01 1.1478835955643217e+02 -5.6433145633263422e+00 2.5659365335356528e-07 4.2698222441045374e+01 8.3786948449282583e-01 1.0183274545808323e-05 -1.2131545282555243e+02 2.1456485063908008e+03 6.6751480173618191e-05 1.4661690377982585e-04 -1.9806893599578554e+00 -1.4395782887466453e+01 -1.7981477054024503e-02 9.9592865467359604e+02 1.4019507235582925e+01 -4.9733930139785798e-01 1.5070505590744716e+01 2.8881872888777735e+00 7.8635209568128204e+00 -2.2817462291793214e+02 -1.4814800267346193e+00 3.9906583897106195e-07 2.2697950106824660e+01 -1.2825160075350794e+00 2.0479367496668139e-05 -3.0931092334793118e+02 -2.7649265054861917e+02 -1.5367195191054710e-04 3.2896735855667274e-04 -3.8183622710771274e+00 4.2164188762278059e+00 3.6093307567262561e-02 -9.3849790099242682e+02 1.7753448069775686e+01 -1.8805962685141147e+01 6.5794761926699678e+01 -2.2049614904065038e+00 1.3079357024239471e+01 -3.9963235647034494e+01 -6.9080544528258940e+00 2.2328194531486257e-07 5.8069321689853041e+01 -9.5147576625458896e-01 2.8362107793184505e-05 3.7740609290164059e+02 3.7412111903349278e+03 1.5341331548317152e-04 -4.8308406386575410e-04 8.4106328405223394e+00 7.4772878864400809e+01 7.5969002669975333e-02 -1.8962820677958948e+03 1.2279667131768974e+01 2.8107796652451000e+00 1.3980589034684527e+01 -4.2599021260161862e-01 -5.9457416220539017e-01 -4.3038266446711035e+01 1.3609973139435169e+01 1.9780253075891410e-07 9.9610919720532365e+01 1.5386123511542849e-01 2.5985174307658737e-05 -2.5094650951642183e+02 8.1857032128298374e+02 1.5693096158320846e-04 2.5324633460922574e-04 -2.7939317557484173e+00 -2.4535020935117927e+01 -1.4959623955823564e-02 -6.7210415780196215e+01 1.5592123739459758e+01 1.6390267857578237e+01 2.7521498074964953e+01 5.1186437598389602e+00 9.7718009126219840e+00 3.9461856888135060e+01 -4.8904863885167345e+00 1.1616196738756734e-06 4.0107391103940699e+01 7.3838699230691418e-01 2.9203877960017185e-05 3.9696235087284265e+02 4.8515469627823777e+03 1.5692996880120776e-04 -5.3673728325589164e-04 7.8242171130037548e+00 2.7543713385595879e+01 1.5166960920722006e-01 5.0261353232458232e+03 1.9271788285561456e+01 -9.8982841399657673e+00 1.4071757003205659e+02 1.3867358401365095e+00 2.5034284181970179e+00 -1.5839881459809854e+02 1.3973168914453709e+01 -4.3192766459337244e-07 8.3571568560462310e+01 -3.9082309833975160e+00 -3.6605997058869650e-05 2.6754423609768003e+02 5.7040371767035231e+03 2.3116194161531579e-05 -1.1381442418921277e-04 5.5564917424198939e+00 -1.3563831727756565e+02 -7.1574079557960302e-03 7.4489046814768358e+02 -2.1506997124812983e+01 8.3652842395083837e+00 -2.4911811399902266e+00 7.6388869715619876e+00 9.6192850208899472e+00 -1.0040270906620732e+02 1.0543929840263445e+01 1.9166202302707476e-07 5.9786130326610873e+00 -3.2463262905366719e-01 2.3589452863826375e-05 -2.1327177986295331e+02 2.1227098720612157e+03 1.2655984769866825e-04 2.3675503305075739e-04 -1.8872828929161187e+00 5.3029733187902075e+01 9.5970532766123957e-03 2.8308460665641246e+02 -1.9728231779125508e+01 -1.4924529875739609e+01 1.2799912289114417e+01 -4.5397261232270466e+01 1.0259581010771171e+01 -2.3974238948807340e+01 -3.2455020945039372e+00 4.0556808501568127e-07 7.0957401127472622e+01 -4.2417650226849446e-01 -2.5112917093753111e-05 -2.5026177365017088e+02 8.0966002222618602e+02 1.1970883843087426e-04 2.4761037770006799e-04 -4.1992035814975281e+00 -3.7496060571687963e+01 -9.7668431659887166e-03 6.0122052529362782e+02 1.5564427851920300e+01 -5.9568212923636054e+01 1.3384101898611371e+00 5.6083460710731288e+00 1.6804845143691637e+01 5.0272478328567814e+01 -4.8678713400465980e+00 1.7411929170513751e-07 5.0844786727163410e+01 1.9184411349706352e+00 1.1815798044215544e-05 -3.0229027095924590e+02 -1.0106272781718644e+03 8.9761016277733986e-05 4.0004882776265341e-04 -5.1756710076006129e+00 -2.0975761321395652e+01 -1.1929262422234563e-01 -1.4316810519915543e+03 -2.1801781402718916e+01 9.7746179224425404e+01 -1.0044410472188606e+01 -9.6715877721437380e+00 7.4413414683804149e+00 7.0894209729608832e+01 -6.4572697389085079e+00 2.7183514869639884e-08 2.7340747650919639e+01 2.7793600212316960e-01 -2.2303098896514712e-05 3.0401198467143399e+02 -4.4738531559664807e+02 -1.6056326554998094e-04 -3.1328901299686071e-04 4.2351610606710892e+00 -3.4143367526950215e+00 2.1035141683358316e-01 9.1215162215828070e+02 -1.9770204467580697e+01 6.4527190523891633e+00 7.4378951117549008e+01 -1.8408707172693539e-01 -1.4453820682904734e+01 -2.8034504740836567e+01 6.3290048938360997e+00 -3.1872764797128509e-07 -6.5193332041384565e+01 -6.8972195929364375e+01 7.2276345089674038e+01 -7.7609376216581083e+01 -7.0367977928953678e+02 7.2290058683003394e+01 -7.2318675654473253e+01 6.6803403521029480e+01 7.0313310711961535e+01 1.5052237736240676e-02 4.3004709087861033e+02 -1.2324022953733902e+02 -8.4649487720274664e+01 -1.1852293991450800e+02 -7.1622492256698294e+01 -8.0213491272963381e+01 8.0688007867750571e+01 3.5516976576336056e+01 -7.2311632219077723e+01 4.9324041526316883e+01 -7.2288738233444846e+01 
      </Row>
      <Row Index="3">
        -1.2983077744183811e+02 -8.4560542383504966e-04 -1.4076748686011706e+04 5.0882808928945038e+05 5.6847086626263792e-03 6.0161427505055973e-03 -2.4772346051194074e+02 -6.6673789833932788e+03 -1.0345590532015976e+00 -9.9060662013590772e+04 -4.3417079461651701e+02 1.0332280990220802e+03 -7.2943047846265728e+01 1.0076505680113437e+03 2.8269762537136558e+02 -8.1439423907099626e+02 -6.1076371185185815e+02 -4.6492824409768901e-05 -4.1267506212261242e+03 -1.3013772951055950e+02 -4.5690724784675559e-05 -1.3940300135645120e+03 2.0787459363371183e+05 -1.2328788775449709e-03 8.3374916666472190e-03 -1.4730732805281832e+02 4.2248949264072580e+03 -1.3283831978355192e+00 -2.6208026044914586e+04 3.3554263603985146e+02 2.1239981789780040e+03 -1.6229790504290497e+03 5.0679549126575694e+00 -1.0561287989992024e+01 8.6587931499790238e+02 7.0125927229176796e+01 2.9525078946928936e-05 -4.9725815934779257e+02 1.9061026355978726e+01 -7.9401024204939566e-04 6.0383761703329765e+03 5.7835267368945671e+04 3.2000381346985809e-03 -4.5424348981292599e-03 2.3671958981376474e+02 2.0589118014477799e+03 -1.2716686358292684e-01 3.0932107425218623e+04 3.2128850932294881e+01 7.7895380790123772e+02 -1.2682379123263104e+03 5.8674509250732081e+02 -1.5897659756254188e+02 -2.8063311679462513e+03 1.8954365731641576e+02 2.3362310824572323e-06 1.4612731624652160e+03 -3.9510774731349898e+01 1.4724823529523208e-04 -4.2912895496250403e+03 1.3020573442507154e+05 5.5552276233127168e-03 8.3672058930748215e-03 -1.6782863969344737e+02 4.8649244446540124e+03 1.5122126957092761e+00 6.1838214234495135e+04 5.8590373234084018e+02 1.9828152664400786e+03 1.2887307688385101e+02 4.1069843503365337e+02 -4.0654317860866513e+01 -4.9857462437273716e+02 -8.7438045908566153e+01 2.2912178433183607e-05 5.2881901710245802e+02 -1.5415737187910963e+02 5.2426622043544422e-04 -8.6140575416314168e+03 1.1638830643750989e+04 3.8777804105538712e-03 9.3038517058321325e-03 -1.5316157227349163e+02 -4.5788053849072821e+02 9.7350913542118422e-01 -2.6083668398784805e+04 5.2274528884754659e+02 -2.3765403870052614e+02 -2.0163452359417840e+02 5.7654248916289180e+02 4.0693537838812335e+02 3.8276630645705409e+03 -1.8979651463126788e+02 1.2241960297497364e-05 1.3912161737975080e+03 -9.4113820575994907e+01 2.9622678251784579e-04 -3.7953344908368381e+03 7.3753101226390660e+04 2.3626225740302070e-03 5.0377089604001501e-03 -9.1372812540387372e+01 -1.6853629839447240e+02 -1.3421714923137662e-01 3.3471894939290258e+04 4.6657458184585937e+02 -1.0046041265540316e+02 3.6241094857896360e+02 1.6929219459271280e+02 2.3134855065358170e+02 -7.5780064432289691e+03 -4.8782053763285717e+01 1.5604733145970320e-05 7.4774867725155877e+02 -2.0473911625733263e+02 5.9383896437196614e-04 -9.9668068031869043e+03 -3.5022605874009023e+03 -5.4824572186306930e-03 1.1203370602703114e-02 -1.6527628454215255e+02 4.2746809773105906e+02 1.2763416265225547e-01 -3.1114558288262881e+04 5.9179486396690481e+02 -6.9597065705731609e+02 1.9010764567689205e+03 4.5239973091742286e+01 3.8899284362934031e+02 -1.0917441478412375e+03 -2.3219563349912039e+02 1.1508371092743691e-05 1.9181981875521597e+03 1.0171379676926881e+02 8.6252184327990315e-04 1.2330252314049383e+04 1.1843769742225923e+05 5.4501113947253987e-03 -1.6388091829620310e-02 2.9011036019260064e+02 1.3675044540688123e+03 1.3375448283860103e+00 -6.4506235064760142e+04 4.0713649504748173e+02 -1.3672989612393252e+02 2.6018338432303187e+02 1.3778036542899645e+02 -2.0317749246489257e+01 -1.5415007534527335e+03 4.4558366189198568e+02 3.1543867448206343e-06 3.2899666998424800e+03 -1.5412009705481978e+02 7.8620859872471308e-04 -8.0348901851602077e+03 3.1396312267150905e+04 5.5775517913767003e-03 8.6476440675916123e-03 -1.3297734203444270e+02 -1.1161675781090526e+03 -6.7033831711923364e-01 -2.3785495477740542e+03 5.2336378471433432e+02 3.9257167113865717e+02 8.7332384606378218e+02 3.2123835002563828e+02 2.6730004768120125e+02 1.2212484598050614e+03 -1.6572755251088734e+02 4.1054924262714544e-05 1.3342155176437445e+03 8.9474586408585310e+01 8.8318321052695617e-04 1.3002896056707872e+04 1.5004945866884175e+05 5.5757741093376278e-03 -1.8109085984364531e-02 2.5921256414405616e+02 2.5172144929418391e+02 4.0204364783105895e+00 1.6425235615716712e+05 6.3285558384381511e+02 -6.0770650746998581e+02 4.8727688952641565e+03 2.0817045706691533e+02 2.3424520798260346e+01 -5.2274397112672505e+03 4.5509823410282843e+02 -1.6538550979697600e-05 2.7077939194843639e+03 -1.9461429423943628e+01 -1.1635133880625939e-03 8.9349745360672277e+03 2.0048138797544703e+05 8.3293235105994651e-04 -3.9855015803669323e-03 1.9459827751480043e+02 -3.0560515732823333e+03 -2.6981156681478080e-01 2.6675464571117998e+04 -6.5158093742642632e+02 2.6027516660210279e+02 -5.5115281620675916e+01 1.8003838536539479e+02 3.4126999107748270e+02 -3.2611261698421290e+03 3.4779635009542108e+02 7.9119880757145492e-06 2.6282069154665805e+02 -1.7751392329484224e+02 7.0783803030198891e-04 -6.7551518439271904e+03 7.4891801892021977e+04 4.5237509867055159e-03 8.0945076516028870e-03 -8.3443602278828621e+01 2.4813057844774776e+03 4.7004878279336298e-01 1.0831061430020796e+04 -6.3979035325994482e+02 -6.5079021520560491e+02 3.4027220845476950e+02 -1.2814940601968701e+03 2.9497320840554312e+02 -8.0075700377003784e+02 -1.0901269249675755e+02 1.7291094020582126e-05 2.3248740355932678e+03 -1.2944560660381467e+02 -8.5041156436352306e-04 -7.9981372618565129e+03 3.6365407167466408e+04 4.2529225447812610e-03 8.4379814931751992e-03 -1.6669942473366928e+02 -1.6782930773119606e+03 -2.5623050280202908e-01 2.2482951259479298e+04 5.2030878048692830e+02 -1.8415246607609888e+03 3.4698960445243962e+01 1.9202726432957570e+02 5.9101909736543894e+02 1.9998624043862892e+03 -1.5883379533970987e+02 1.0624743276912117e-05 1.6659820228094613e+03 -1.1406901056692004e+02 3.3106653383142143e-04 -9.7829312596655400e+03 -3.1052926724569363e+04 3.1713577960367258e-03 1.3618014102205672e-02 -2.0465697948448360e+02 -4.6578447242125435e+01 -3.9787083005808164e+00 -4.8397018403457580e+04 -7.5204970556439366e+02 3.0828925187046007e+03 -3.4564738159107048e+02 -2.3938800854142198e+02 2.3183596270112321e+02 2.0760700827831761e+03 -2.1932096338120755e+02 4.8407660948777357e-06 8.3418779139615435e+02 1.9451744552887976e+02 -6.4949627927106575e-04 9.7634720963717245e+03 -1.8980601451806422e+04 -5.7056528004608559e-03 -1.0689145542358811e-02 1.8485572158638388e+02 -3.8477876315528283e+02 3.1101753470463787e+00 3.0493453001412996e+04 -6.5921193126894650e+02 3.7121559917467016e+02 2.7420404504762664e+03 -1.4851922047679545e+02 -4.2540206648060121e+02 -1.0345781087569073e+03 2.1327765008714050e+02 -1.4727749145442698e-05 -2.1291313936705410e+03 -3.0247864698393180e+01 1.5618104353907966e+03 -3.2301160044432372e+03 -7.4184119115969506e+03 1.5616528688691601e+03 -1.5628315104583162e+03 1.3376310355732414e+03 1.3473554826753114e+03 5.4152048840015621e-01 1.5226448276097070e+04 -3.2735776260879134e+03 -2.3164556874235432e+03 -3.3221356082160250e+03 -1.6002192690962845e+03 -1.8035438013887626e+03 1.8837350361619272e+03 3.3598801618465006e+02 -1.5623333104473788e+03 8.1421973635222309e+02 -1.5617974212523964e+03 
      </Row>
      <Row Index="4">
        -9.1590307488890327e-03 9.8257876609888768e-09 1.5998737640643412e-04 5.6846968050969782e-03 9.9999999976727169e+05 2.7071360116554224e-06 3.7873023987347289e-04 1.6080779711685617e-02 -5.5852523855242889e-06 3.9165031055968394e-03 -1.1737083463977394e-02 7.3973192477988156e-02 -3.6509554158525351e-03 -8.2853454920214731e-02 -3.4996903979802313e-01 1.8953274793804219e-02 -1.3613862215622176e-03 -1.2308507076793137e-10 3.7007897777882781e-01 3.1184020001317051e-03 -5.4353522012106534e-09 -3.6470424042038714e-05 -5.3622910928502318e-03 5.1538936511013785e-05 -6.0170906085682056e-07 1.7206667143725707e-03 -4.7755848566212497e-02 -1.3891610281584721e-05 -4.0480097607248355e-04 6.1608298069457269e-03 -5.2050638996745682e-02 7.4558891972178977e-04 6.7987843093182121e-03 8.6089490111214001e-02 -6.9822305024776377e-02 3.4531877614836189e-04 9.7539150582128474e-10 -8.6770204200565360e-02 -5.6869128717322390e-03 6.1221666294826877e-09 -3.9181361999091500e-05 4.5188338757675317e-04 -1.2636571032232161e-04 1.4729971563549540e-06 -1.2354773700910754e-03 2.8205263426351494e-02 -1.4989894241930444e-05 2.2002319001076208e-02 5.7906747967389153e-03 -1.9683587781067075e-02 4.1556404829374231e-03 -4.4027104287698848e-03 -1.9662976752936132e-01 -7.0788436109978814e-02 -1.3936054706213837e-03 -8.8051375308186966e-10 1.6346059843459915e-01 -9.0653890666163497e-03 1.0575713904452604e-08 -8.1561767573830302e-06 -4.3943676501820442e-03 -2.2771420387752858e-04 2.6494045911839381e-06 2.2239760484458332e-03 -2.3713364356568400e-02 -1.9071358627842572e-05 -1.7444657655775013e-02 3.0911490683908360e-03 6.0165344098031065e-02 -2.8611515096728466e-03 -4.9726061218944809e-02 -3.4060379180595585e-01 8.0447934334914595e-03 -1.6641578217693970e-03 1.1814929048733982e-09 2.5766780600949363e-01 -5.8581211446640125e-03 -9.5820091700344449e-09 3.8569488988059587e-05 -2.5993916584008819e-03 -1.5921852176922313e-04 1.8494322490077751e-06 2.9190381631818904e-03 -1.5945281685876469e-02 -2.6675967312837787e-06 3.4347881133018942e-03 1.8899906981267079e-02 2.5257898160122166e-03 9.6305040860460156e-04 3.6183066069219727e-03 -1.9329671989077335e-01 -1.3037878455274388e-01 -1.0025745608325714e-03 1.2245570405473320e-09 1.3209086864510211e-01 -3.1407106886037796e-03 -4.1247738756739959e-09 2.1157837549410632e-06 -3.0292109948226315e-03 -9.2803167104920869e-05 1.0759990715339256e-06 1.6027067216025288e-03 -1.5326884923919676e-02 -3.5187825006169975e-05 2.3194501663417119e-03 1.1799126216279557e-02 7.9397877735735978e-03 -7.1188427814197321e-03 -7.6043187999201706e-03 -1.1652970695571252e-01 1.8157108622565976e-02 -6.2543109522111330e-04 6.8918053491814334e-10 7.6727967089083582e-02 9.6877628820931788e-03 -1.1492291743901516e-08 4.8585357920614503e-05 -2.8211209932921238e-03 2.3301158536407848e-04 -2.7177104371156936e-06 3.1073707055166294e-03 -7.5487451438154204e-03 1.1520996860616971e-04 -2.6380964028893672e-04 1.9758109986831585e-02 -3.5492376301880568e-01 -2.8958581330278090e-02 1.1423712724222822e-01 3.6118796336988129e-01 3.3793282928207047e-01 1.6033046050972759e-03 1.3573182977891951e-09 -4.8081922553378903e-01 -8.6848342803875767e-03 -5.6422932687444877e-09 -8.1299531236770674e-05 6.2569791269221145e-04 -2.2244878995762824e-04 2.5861768560654704e-06 -1.1245089386449081e-03 -4.0245994636415539e-02 -2.7748296472750381e-06 1.8886136024206966e-03 1.6996643520634902e-02 3.3372404696211000e-02 1.0460728638319122e-02 -2.7127603388816923e-02 -2.8887228972209478e-01 4.0701498365689814e-02 -1.3620483112504189e-03 -1.1537280885813926e-09 2.9097908232823350e-01 -8.9387271635158298e-03 -4.5165879573553845e-09 2.9327609110002886e-05 -4.7104786004523030e-03 -2.2894007797521812e-04 2.6612442356654427e-06 -1.3102968181133434e-03 3.4538442285258625e-03 9.7175066508053233e-06 -6.2890522070458421e-03 1.7894945559653208e-02 4.3848961976311052e-02 -1.1280135806957629e-03 -2.3503633048432337e-02 -3.0491741993816657e-01 -5.3568266790040474e-02 -1.8224718918706598e-03 -1.3876392747918112e-09 3.2719786584511634e-01 -8.9611191372682697e-03 -7.4125069500842160e-09 -9.0898696409810742e-05 1.9237655137970405e-03 -2.2800126382679480e-04 2.6503854475372505e-06 2.7176544340036732e-03 -2.3187456607968615e-02 -2.3513906193687630e-06 1.1474671903410505e-02 1.8108562121567751e-02 4.0142950790985454e-02 -2.2416787537666329e-03 -2.6648227759037302e-02 -2.9774802175780257e-01 -1.0196931171656055e-01 -1.6275092263242641e-03 1.2709016902371830e-09 2.2261495347538518e-01 -2.3880184006372929e-03 -1.1270332609808884e-08 -8.1426545990535230e-05 -1.0188250714178448e-04 -3.9454067120276167e-05 4.6607717522294942e-07 1.4491936887210954e-03 5.6384020950070168e-02 1.0831892031889457e-05 2.2691242117641560e-02 -8.5608991199322710e-03 4.4231846475024927e-04 -1.4862386259185570e-03 -4.8910217847666936e-02 -2.9419420164607857e-02 -2.1349031990018880e-02 -2.3256645791036590e-04 4.4960682929029372e-10 1.1709388745288685e-01 -7.2626138513101068e-03 -1.1039858650721242e-08 1.5047020142910038e-05 -3.7241574860582549e-03 -1.9127765054725298e-04 2.2257141429935442e-06 1.7673965637783340e-03 -2.5967009834078070e-03 -2.8251795760598066e-06 2.3030919235997871e-03 2.9816132192426181e-03 1.3855475675559759e-01 -5.2418742140903293e-03 -4.5811093424192428e-02 -2.4007513985358586e-01 -4.1602285903191066e-02 -1.2760995635336106e-03 1.3016414150410640e-09 1.9510741705989698e-01 -6.6899561200047392e-03 -6.9649904437083494e-09 3.1348679802363326e-05 -3.3785524914745173e-03 -1.7437115600124679e-04 2.0257699171952561e-06 2.9720829963421069e-03 -1.3079506497638605e-02 -3.1686612951024306e-06 8.0043266737319652e-03 1.8116234805164944e-02 1.0569345914346628e-01 -3.7101700372578874e-03 -1.1091588024846111e-02 -2.3260049200907851e-01 -2.8695542039743702e-02 -1.1239554068789848e-03 1.2589696374463424e-09 1.4631480631130556e-01 -5.3836542081455718e-03 -7.0026310959176848e-09 5.1484290559211101e-05 -2.3118208379290582e-03 -1.2493439924772865e-04 1.4527374530479091e-06 2.2121764681628520e-03 9.1368837328847222e-02 3.4772702264697449e-06 6.1264639744895710e-04 -6.4687508239527070e-03 1.2476042826578722e-02 -1.9143658185873675e-03 -6.4704456331243776e-04 -1.4816955574258728e-01 -1.3882099577472495e-02 -8.1716667880016303e-04 1.3738294529696502e-09 6.8898018817439066e-02 9.0450416387284349e-03 9.8964062032149518e-09 -4.1505364861636160e-05 3.4206420117534339e-03 2.3320771400093675e-04 -2.7099763511734344e-06 -3.2451904108938834e-03 1.2563447079526904e-02 6.3668403208042517e-05 -4.5223059449347736e-03 -2.1090077381789918e-02 -3.8998945864354165e-02 -2.3499773744314584e-02 2.6387990514903592e-02 2.9553179432465893e-01 1.0514309160755342e-01 1.5679624949314075e-03 -1.3975429848659368e-09 -2.2128918519139917e-01 4.7359748756494409e-02 2.2734386000956834e-02 2.2213215405611220e-02 9.7348797537883183e-03 2.2694979798224279e-02 -2.2728633124555468e-02 2.6521824471847706e-02 3.0732362266250816e-02 -1.0165124149864875e-05 -2.5319186959546637e-02 -7.7603729288533027e-02 5.8822147598959547e-02 2.6321280453863571e-03 -1.2757774909360082e-02 1.5610120340717495e-01 -1.5322431212059218e-02 1.4095482312183792e-02 -2.2731429685648927e-02 -5.2369329338364620e-02 -2.2730110254236158e-02 
      </Row>
      <Row Index="5">
        6.7070401339607228e-04 3.2990353475082135e-11 1.7583479103000510e-04 6.0161474343989607e-03 2.7071360037909925e-06 9.9999999999995786e+05 -3.2141460391653994e-04 2.0218898103132234e-03 -1.2932735493542316e-07 5.6487670386463178e-03 3.8654043253563072e-03 2.9560861623554313e-03 -3.3167238662764278e-05 -3.8931476181565186e-03 3.5126819959219015e-03 4.9946999126066691e-03 -1.0096722684010648e-04 1.4017185324517145e-12 -3.2764135900081584e-03 1.4985651347287356e-04 -9.7618046653826760e-11 2.3367361963018418e-05 -2.6880197634699390e-03 -5.9900144288224034e-07 6.1042547107462927e-09 -1.4901561762722167e-04 -1.1128452548919976e-03 -3.4834981326148323e-07 3.2430039252771391e-04 -1.8809816338943020e-03 -1.3219495247734578e-04 1.5436441237549133e-04 -3.0561281815972164e-05 -7.6870964054875836e-04 -4.1335797674224095e-03 5.2754363231658473e-05 -1.0006164776717925e-11 1.2276366317602659e-03 -3.0287473186302273e-04 1.6563453157816000e-10 -7.9137429114625355e-05 -5.7059491395161296e-04 1.4682669685233823e-06 -4.6537170700111069e-09 2.9814242077329885e-05 6.4975193468203175e-03 6.0539832563901607e-08 3.3753639381993439e-04 -1.7795576111427850e-03 1.5512180747086777e-03 -1.2896195624558409e-05 5.8524488662653896e-04 1.7857262038595066e-03 1.9457977911097775e-03 -5.8983295788780948e-06 8.9515258931276195e-12 -2.6640647281573294e-03 5.0981310424649524e-04 3.3658136923173925e-10 5.9865546168170650e-05 -1.7804643124837351e-03 2.6488142481018955e-06 -3.5459681194640914e-08 -2.7363169071586231e-04 -1.6002090871903448e-03 6.7287386218443613e-08 3.3993392720788555e-03 -2.3510632173772000e-03 -1.0665894409727849e-03 4.2938999070685766e-04 9.3070958834596011e-04 3.2048895446896422e-03 3.1743163846540438e-03 -8.5859520549516285e-05 -1.2440336927640481e-11 -2.9403438383294256e-03 6.1335112102054476e-04 -1.9233562853418235e-10 1.1512362401943808e-04 -2.4315019159453508e-04 1.8524481466488317e-06 -3.3629063355344542e-08 -4.5437213171700648e-04 5.0648000191395037e-03 5.2904299085266193e-07 -7.5131209302377973e-04 -7.0291393977171624e-03 7.4008793793147441e-04 2.0357241888469734e-04 -4.1228799296347506e-03 3.1435660694630455e-03 1.7126272052720382e-02 1.4270373176508000e-04 -1.2562400492748281e-11 -1.3991618478279306e-03 4.6217931155859550e-04 -4.6252070906920450e-11 5.2351581269844744e-05 -9.8253820066989631e-04 1.0786446624406350e-06 -2.0278123661280218e-08 -2.4422760033976105e-04 5.3276621602297300e-05 -5.5462172367394216e-07 1.4264086442813244e-03 -4.4024847346294301e-03 1.8518944891517597e-04 -1.5571583757159255e-04 -1.5032907236140630e-03 1.8249186919594806e-03 -7.6537647927677390e-03 7.8728256190419772e-05 -7.0427859759951102e-12 -8.4267436688895299e-04 -5.4921738523637845e-05 -1.5896711594671027e-10 1.3282286756734446e-04 -5.8247201173392601e-05 -2.7124238273867737e-06 2.2176277130101625e-08 -4.3435847081643155e-04 3.2338640384897590e-04 -1.3862811728607469e-06 -2.3333806983906057e-03 -7.4749907477033419e-03 4.5093559988148759e-03 2.8121731143002722e-04 -3.5625850770737216e-03 -3.3217544941397735e-03 -1.3629120835515155e-03 1.2471528220896370e-04 -1.3684343213467287e-11 5.3847759620512942e-03 6.6657718912821462e-04 1.4138696356817630e-11 -1.6167895977142180e-04 -1.6462714916925013e-03 2.5873471209368820e-06 -4.0481455545316542e-08 -2.3271631793420067e-04 -1.8576080035970506e-03 -4.4361205227880160e-07 -2.6440424262240006e-03 -6.2964584017916178e-03 -5.4277100799035691e-04 -8.1927344927627214e-04 -2.2810420843096136e-03 4.0743107787043487e-03 3.3077404686320281e-03 8.8966381273591910e-05 1.1556000456417791e-11 -3.3353032692841310e-03 6.8277394984130285e-04 6.1676150011244849e-11 1.0786944363474064e-04 -4.8702779667432819e-04 2.6629123991000110e-06 -4.2520128655700209e-08 -3.8959148090858542e-04 2.5406897839877810e-04 -1.2170207329636509e-06 4.2002117470093907e-04 -6.2326678531480556e-03 -4.0681707725739261e-04 -3.8070626034875798e-04 -6.4981714819527768e-04 4.0379124333289884e-03 -1.9987517856243533e-03 1.2369524084104936e-04 1.3133441891253829e-11 -4.2371910075886966e-03 6.0644221752059746e-04 -8.0110513997330502e-11 -1.6985327728142588e-04 -2.1175727353269802e-03 2.6519887141468883e-06 -3.9638713126221991e-08 -2.8287535197506257e-04 -5.7859870262882869e-03 -3.9008190739648426e-07 -4.7344179711822938e-03 -7.4029258839230175e-03 -1.3930876955249197e-03 -4.3073434820214659e-04 -1.9080506719500916e-03 3.9965774459208413e-03 -3.8399451536524926e-03 8.5013923012966508e-05 -1.2391085838813740e-11 -2.7517576059868584e-03 -5.5178375760434051e-04 -3.1207597950099865e-10 -1.1386318732080916e-04 -2.4700914335572168e-03 4.6017584591622167e-07 6.3395800046011402e-09 -3.0442584476243761e-04 -6.6400224264646117e-03 -4.6717368885768153e-08 -1.8004922111156808e-03 5.6388449685277828e-03 1.1745084977193099e-03 4.6301336429744241e-05 4.4251628100431869e-03 9.3233085821292638e-04 -2.7028383115667272e-03 6.6919741536608512e-05 -4.4962529380835659e-12 -1.7605222635769940e-03 7.1529073269016585e-04 -4.8090409808268874e-10 9.2039005844750943e-05 -1.0447835945006888e-03 2.2271982698120026e-06 -3.8391624198220443e-08 1.7353552922960702e-04 2.0805104445456905e-02 -7.1314152321680016e-07 1.3863542218737442e-03 -1.1263882540348200e-03 -6.0466933482211790e-04 3.2987926357560502e-04 2.7149575991533836e-03 3.7306037050524026e-03 1.9859831219479814e-03 1.5694540147993309e-04 -1.3092774224595681e-11 -2.4597719039948472e-03 6.4373067443710471e-04 -1.3972958079685688e-10 1.0748625256516379e-04 -3.8426622133354814e-04 2.0283117283869995e-06 -3.5676863704405895e-08 -4.4596771055402428e-04 2.5572840000710382e-03 -9.2134047034429039e-08 -3.0702238567820910e-03 -6.2146105885236766e-03 -4.8189443574835067e-04 -5.0000888181321014e-05 -2.8471805430421993e-03 3.6264594634158320e-03 3.5390600311060554e-03 1.4204072901116154e-04 -1.2368132422993242e-11 -1.6551163486654644e-03 8.1295483838061955e-06 -5.6996944814382540e-10 1.2979512146335656e-04 3.2357999636775799e-04 1.4516983511843809e-06 -1.0986276291001432e-08 -7.5774153743823902e-05 -2.1859058992913506e-02 -1.3529596816288794e-08 4.3785539332385770e-03 5.7683763177984806e-03 -3.4998820428251698e-03 1.7537475040874153e-04 -2.7421267556203850e-03 2.5141293901493889e-03 -7.7762761060658015e-03 1.3203849134346690e-04 -1.3500417887111690e-11 -1.0410713588589714e-03 -7.6222792337965473e-04 1.9553077911624789e-10 -1.3063090855480299e-04 3.6588468019254532e-04 -2.7126005219063500e-06 4.5019362012658276e-08 4.8272005361168005e-04 -1.8374400738843059e-04 -3.9185597561685386e-06 1.3728865085199660e-04 7.9291981630086467e-03 5.0453281044227874e-05 -3.7508120341941617e-04 2.6502895159285500e-03 -4.4154954894589787e-03 3.3643460109396344e-03 -1.6539552085192977e-04 1.4131803616456889e-11 2.5713485707397551e-03 -6.6513714027919670e-03 7.2321131746059478e-04 7.6831178461536295e-04 3.5227862178612365e-04 7.2442341844201918e-04 -7.2340879878783214e-04 1.8932323182061471e-04 5.4487165109554493e-04 -1.7146365749004965e-07 -6.6371993743040848e-04 1.9912033744005745e-02 -8.3881073063387106e-04 -4.2360800052496875e-05 3.0278294820296436e-04 -3.4081727785800543e-03 -1.0285178466953382e-04 1.6515028467062303e-03 -7.2403051000926601e-04 1.5875879964611275e-03 -7.2411201905874857e-04 
      </Row>
      <Row Index="6">
        9.0721216873824702e+00 6.0363010624051028e-06 -6.4833897634753157e+00 -2.4772344565913477e+02 3.7873376481345478e-04 -3.2141487106188355e-04 9.9991846804888768e+05 9.0103265389151375e+02 -2.5695847512614476e-02 4.0087535510737405e+02 5.0545146051326810e+00 4.1417391394816832e+02 4.2269817083283385e+00 6.7563185608243487e+01 -2.0925436764536350e+01 -6.4013797648351328e+02 2.9195489759916651e+00 -1.4729849901366706e-06 3.7795911086674380e+01 2.9025708718878738e+00 -1.8393557459054027e-05 -6.6805839091401253e-01 1.0343822565027551e+02 -8.3430647482731797e-05 -1.2808818389229462e-05 -3.9221864103909354e+00 -1.8150830603713212e+02 -5.1431600862078278e-02 -1.9340820270583876e+02 -1.7040493859097921e+01 -3.1727944018102676e+02 1.8164074635085257e+00 4.1247723609078548e+01 2.7611881030665728e+01 -3.8033743965603315e+02 -2.3348202816260297e+00 1.1543110538521940e-05 -3.7774381437034202e+02 -1.5592920012468895e+01 1.2477883391414981e-04 2.7377471981795294e+00 1.0646693985963196e+01 2.1495462649002479e-04 3.6313292319394225e-04 -2.1500703510918985e+01 7.5903453675236926e+02 6.8871228379978784e-03 -9.7382644131272173e+01 -8.8341325421602221e+01 -1.4707432063976935e+02 2.0158229387920343e+00 1.9513448322316776e+01 -3.6414629076612712e+01 -4.3793368818385329e+02 -1.0967233165467389e+00 -1.0357469987956457e-05 3.1974504122575445e+02 2.4477896602983549e+00 8.5388995347877920e-05 -2.0127200032800392e+00 6.0275530396733480e+01 3.7376472564695882e-04 -1.3005554807250731e-04 -3.2315063845977733e+01 -1.2312555569543520e+02 -9.2276325076753873e-03 1.7459347145583325e+02 -1.0811763132297119e+02 -3.0278831964693006e+02 1.6204898119614484e+00 1.7452330212060701e+01 -2.2715060872141279e+01 -1.2411512566395194e+02 1.7021759927502327e+00 1.4041349864093049e-05 -3.4681590041548122e+02 1.7352713258057356e+01 -1.5382071999598212e-04 -3.9795825596301206e+00 1.4083646091595625e+01 2.5442073928595043e-04 -3.5567985118231758e-04 -6.3771483489362566e+01 -1.6539099605491745e+02 -1.1925325517380524e-02 3.1601159033754186e+01 -1.1236957629473622e+02 1.1121616362369622e+02 -8.7398455025761059e+00 7.4582648152882939e+01 3.8692276762789163e+01 5.1804164508990789e+02 -5.5440785288401031e+00 1.4354731517836995e-05 -3.1273669993756982e+02 1.0815861089473422e+01 -7.8193198055973994e-05 -1.7823126297595593e+00 3.4608843283038311e+01 1.5517594075829940e-04 -2.2463216595707545e-04 -3.2106365103522485e+01 -1.9884238338558089e+02 -8.4555424895941339e-02 8.5316450498600688e+01 -7.5448942385355082e+01 7.6882365575551006e+01 -1.9893731337983411e+01 4.9055701087281477e+01 1.8070416483343507e+01 4.0469716662901192e+00 -2.7257259085853214e+00 8.1302737894174936e-06 -1.7503155220531229e+02 1.4665214666466156e+01 -1.6142946755346888e-04 -4.6002331230944495e+00 8.7782639020877014e+00 -3.8226927026199938e-04 -2.8662082535269072e-04 -5.6744811157193155e+01 -1.5540675396877594e+02 8.2850749727332126e-02 -1.9686919850721097e+01 -1.2794939849631965e+02 2.0584601359899631e+02 -3.9784392110406579e+01 5.0656223348356718e+01 3.9893168634404709e+01 -5.7893934400105002e+02 -5.6682712601118226e+00 1.5977693215772504e-05 -3.6055712945582854e+02 1.4547028663102537e+01 -6.0558854972610706e-05 5.6826529051949759e+00 5.8027117323228381e+01 3.6220692497598980e-04 -3.1417467299896446e-04 -7.2745237693772651e+01 -2.2436917426752666e+02 -5.8769178253499067e-02 3.9916093193856227e+01 -1.3492133772804982e+02 -9.9346031239414913e+01 5.0049175360475225e+01 4.9064068732023429e+01 5.8741901837784098e+00 1.0807350716312012e+03 -6.7198075371561572e-01 -1.3675484860574689e-05 5.7397868444648429e+02 1.6742733332723400e+01 -1.3878147543274529e-04 -3.7372567111672499e+00 3.4954550123185335e+00 3.7861453153334055e-04 -3.2997826062890862e-04 -1.0504890739769326e+02 -1.8488239761551927e+02 -1.0824805175923705e-01 1.2244095296428999e+02 -9.2444149648381000e+01 4.9014163125195751e+01 -5.1539172265080424e-02 5.6081179164003402e+01 2.8426108003095578e+01 -1.2716546665738265e+03 -4.5887239346447473e+00 -1.6348641793480407e-05 5.4723767142988618e+02 1.3877824400144164e+01 -1.1677468193782291e-04 5.9967981608800542e+00 7.0120304052316158e+01 3.7095478609678679e-04 -2.7410137826361283e-04 -3.1137783346809272e+01 -6.5451352561691692e+01 5.7622523789744098e-03 2.2643267137402222e+02 -1.8133743242099717e+02 -1.3142668758912100e+02 -5.0477405247983199e+01 4.8694184970469223e+01 3.5742325227426932e+01 4.2776773525583093e+02 -1.4757061269119731e+00 1.4913722887732880e-05 -3.2349947642675806e+02 -1.0186838595560403e+01 -6.2971420892958646e-05 4.1612921018953184e+00 1.0900878386086740e+02 5.2068630895359884e-05 3.1414435026311423e-04 -5.3062037146824878e+01 -1.5051755020435508e+02 5.6451266006351947e-03 8.7829143814929438e+01 2.7678473454651339e+02 2.1288505757193320e+02 -1.5106119830477942e+00 -4.1579010389224820e+01 1.8481288617324026e+01 -3.4397047176086380e+02 -4.4598666467936710e+00 5.2442193432951470e-06 -2.3000174806584891e+02 1.6656812467728741e+01 -1.1931003443181465e-04 -3.1371507312202862e+00 4.1465608607243006e+01 3.0534153606613830e-04 -3.5832242860377791e-04 6.7774356897687539e+01 4.5252542472639789e+01 1.8496439718252589e-02 -1.9528503335990678e+01 3.5402860086443980e+01 1.1223398944326811e+02 2.9038815000910482e+01 -1.8359717510140854e+02 2.8122577396565362e+01 -2.5880115689960525e+02 -5.0987779238623299e+00 1.5324329840787419e-05 -3.6174401788858427e+02 1.7510353164564695e+01 -1.2768487990918098e-04 -3.6855303485774411e+00 3.9095614273624108e+01 2.8031715327824988e-04 -3.4837569507778596e-04 -6.0508605269222116e+01 -1.9966888560021721e+02 -4.6544324943050892e-02 -3.4655783061734348e+02 -8.8903898374833830e+01 2.2486918602193703e+02 -5.1462189706688575e+00 1.0671702285703213e+02 2.2855412675351545e+01 -1.1933058160482460e+01 -5.1196551089516822e+00 1.4925380323884355e-05 -3.3063660671810885e+02 -5.2133504090597853e+00 -1.0699252196468833e-04 -4.5111596570700829e+00 -1.3779634269700267e+00 2.1021856230529507e-04 2.1344658546606327e-04 6.0257188978721388e+00 1.5119976250342679e+03 -2.1862139527633606e-03 -3.7983105997334405e+02 1.0352470115035612e+02 -2.6309555797699034e+02 1.0512124546776640e+00 1.2366184493286590e+02 3.6188755540872080e+01 -2.0091764819362999e+02 -4.4803605746965331e+00 1.6182422167459846e-05 -3.7920382670556137e+02 -1.9236713588965358e+01 1.6547120871873621e-04 4.5202107745989100e+00 -1.6133679554271566e+01 -3.7855965504174057e-04 3.9207167674980834e-04 6.5042523717042059e+01 2.0751580479267216e+02 -1.9376118073005349e-01 -2.3479634539579877e+01 1.3642288330696556e+02 -8.9747375390835060e+01 -1.2757919315903798e+01 -6.1435371124097401e+01 -4.0492277074075901e+01 3.6982040218869736e+02 5.8089578143117251e+00 -1.6452323593207935e-05 3.5432719265997002e+02 -1.6506457663321888e+02 1.5297118448354290e+01 1.2778578862224606e+01 4.0940092491339975e+01 1.5319866788357430e+01 -1.5297105488249802e+01 -5.6648618771015265e+01 1.5540737767499172e+02 -2.5777528034115246e-02 -2.8108347778914737e+01 3.4182465309983445e+02 1.7060919679620309e+02 2.0604498565133714e+01 -3.9371714669920820e+01 -4.0197404277075059e+01 -8.7581346267942749e+01 -1.7218663085911420e+01 -1.5325785829029940e+01 1.3603294394062399e+02 -1.5321428443089887e+01 
      </Row>
      <Row Index="7">
        8.8101081726224947e+01 -9.5766194303492647e-04 -1.5821854418725707e+02 -6.6674203957306454e+03 1.6079822504515562e-02 2.0219321668215606e-03 9.0103321006038459e+02 7.6772502797395107e+05 1.7699860890527874e-01 5.1627128328922176e+04 1.9759173724033317e+03 1.5060984789235938e+03 -1.5573602201188670e+01 4.2839874900335253e+03 7.1465268009888860e+02 1.9240662040340132e+04 1.2155552712733813e+03 1.8564787204118992e-06 -1.8669469135163190e+03 -4.1521361184122640e+01 -1.4665406030136500e-04 -3.2827082060618295e+01 2.3649808209524126e+03 -3.4572711598013879e-03 7.6646712736075113e-04 1.0096251326190941e+02 2.4850271606128520e+05 -8.8443589272648326e-01 -7.5204206341349054e+03 -6.3015586891291423e+02 6.8116858169021725e+03 -5.7885572620321909e+02 -5.7207883253439531e+03 4.2056517711959259e+02 2.9407187456473039e+03 -4.7363504253221544e+02 1.4841782781070678e-06 1.1251783681991485e+03 1.2303415813346606e+02 1.4591867934713820e-03 7.6207636821229954e+01 -4.3380611284918632e+02 9.0682642765524991e-03 -2.3430754321201361e-03 1.7590524246943536e+02 -5.2239574437295028e+04 -1.1310367234098613e+00 -1.8146675430216579e+04 3.5308597750558911e+03 1.5790390527880327e+03 4.3715898355492817e+02 6.2513234395034442e+02 -1.0450451189183641e+03 2.3837261550427665e+03 -2.8165970344379002e+02 -3.1355829086639505e-06 -2.4562800687506865e+01 -6.0876547757006222e+01 1.5476374845406866e-03 -5.5093508420561250e+01 1.5976590486287819e+03 1.5671815189000758e-02 1.3394672140313651e-03 4.7181670200502663e+02 -1.1627474597858483e+04 -4.9863475278486358e-01 -5.3797240747721980e+03 9.2718357915327069e+03 6.8463436086874344e+03 6.8512118580999822e+02 7.2719058161049215e+03 2.3211137108073854e+02 -2.0630007757535632e+03 3.6951640739036930e+02 5.3875399543941926e-06 -1.1732000800602909e+03 3.2373250363132229e+01 -1.2861862739381134e-03 -1.2567774191010335e+02 8.5126374823094727e+02 1.0937545732862831e-02 2.2953594831110063e-03 7.5127212671477901e+02 9.3122046755751333e+04 2.3702571332927524e-01 -2.9810813058697750e+03 3.5346935723565384e+03 -7.5930240872188733e+02 1.4869643250563570e+03 -7.4899390270748409e+03 5.3123236196226208e+02 -3.1838723047439387e+04 -7.7932530863053944e+02 1.1760071912174873e-06 6.6151174334683219e+02 5.7285479594902426e+00 -5.0454827808929861e-04 -5.9643422304841351e+01 7.8964245510318869e+02 6.7024024077370625e-03 1.4799284753634206e-03 3.7107227905742366e+02 5.3921266537344200e+04 -1.1712542480828880e+00 -1.0080486683928582e+04 3.4851235853655744e+03 -8.7968797864597218e+02 1.0921184949942472e+02 -2.4450353165624547e+03 1.1375413562668837e+02 -5.4449144599030005e+03 -4.1511719835954273e+02 3.6708739413590565e-07 -6.0614120787267893e+00 -2.6779614603051641e+01 -1.3958712838547417e-03 -1.4355165055083762e+02 7.1515636627209642e+02 -1.5537642745977021e-02 2.1494216800125587e-03 7.1858064173921503e+02 1.0278311247353369e+05 1.6024599819716379e+00 -4.2086804850178814e+03 4.4280524486374343e+03 -2.3452665865240269e+03 3.9448160189620717e+02 -7.1218829160845344e+03 4.6691475205252118e+02 3.3883950742926580e+04 -8.3978356689268003e+02 1.1930385878439935e-06 7.0548582197902579e+02 1.1273586668819189e+02 -2.2312205002076105e-06 1.5517005069694414e+02 2.1890129461639226e+03 1.5409217027076094e-02 9.8080429017539938e-04 5.2398783791810274e+02 1.2555480786689499e+04 8.1469742138874990e-01 3.1183780416964248e+04 6.1598798427919392e+03 1.3426621802660957e+03 -1.7125284003352403e+03 -3.4985893654241227e+03 8.5375042779621435e+02 6.6572578830787688e+03 -1.7138112211227417e+02 -2.5063205999752711e-07 -9.5817813039969224e+01 2.8557323974933752e+01 -5.5050520538657294e-04 -1.1832713747272470e+02 1.0463612495132857e+03 1.5858745028297594e-02 2.1225884847662843e-03 6.8277799747365498e+02 5.9289375378606579e+04 -7.1517323635830987e-01 -8.1923910461890955e+01 3.1482477845715766e+03 -6.2309782347541113e+02 3.3508761528108380e+02 -4.2710656774426825e+03 -1.5521540681738406e+02 1.7899086795476442e+03 -7.7064892319317141e+02 3.6657568556197617e-06 -3.6245685936138034e+02 1.0367810684442520e+02 -8.6937057752307836e-04 1.6192720484299633e+02 2.5631306973872188e+03 1.5765285015581831e-02 6.8845258116992381e-04 5.3496885396006837e+02 9.7302640092202055e+03 2.6393387117846969e+00 5.8652202336071905e+03 9.0734606541502289e+03 1.0639090248104185e+03 -2.9151938336357980e+03 -1.9857161805742326e+03 1.9280966106239430e+02 3.0397291271448103e+04 -3.4682305956631899e+02 -2.1003374885385229e-06 -3.4196094049923704e+02 1.1305476880073547e+02 -6.3873172842074822e-04 1.1538170477377776e+02 4.0092960579958581e+03 2.2729106439115798e-03 -2.9084474376366107e-03 5.3880227875709534e+02 -2.3969057468125480e+04 3.0222389320435039e-01 -2.6419490166643551e+04 -9.6113303743672259e+03 7.4437967445702498e+01 -4.0310910530554304e+02 9.5451431993315291e+03 -1.2302832593582571e+02 1.1366889003868948e+04 -5.5163372476398945e+02 -4.6276324984788255e-07 6.0178860445902683e+02 6.8828083740547299e+01 -1.5123012050714335e-03 -1.0065374669451370e+02 1.2723965387969602e+03 1.2698342751344405e-02 1.7279676679668706e-03 -4.6637571267411113e+02 8.0091473335671486e+04 -1.3439427760754841e+00 2.2335856493062529e+03 -2.1514168307478540e+03 -2.3684033187749446e+02 -5.0766144712543746e+02 6.4618621915393669e+02 5.1680917607871379e+02 8.1166833193499297e+03 -7.8533234523765486e+02 7.4082343080395310e-07 5.7467834954423597e+02 1.1248580281581710e+01 -2.1100107981597673e-03 -1.1646318086196368e+02 2.7692646526114004e+02 1.2083303037301762e-02 2.0018184399313715e-03 7.5649400552672159e+02 5.4740376472241929e+04 3.5033279443179105e-02 -4.9188121835244237e+02 2.7316389310975314e+03 -3.8304395935631383e+03 3.6850759965618465e+02 -7.1020837679979595e+03 -1.2200272548943758e+00 5.3843710896694211e+02 -7.1621762523846223e+02 -1.6832829733090006e-06 4.0215226692186843e+02 -6.7240625262260437e+01 -1.8849366775844211e-03 -1.3787696549532228e+02 -2.2023809873142142e+01 8.8475815763031235e-03 -1.3477169072129026e-03 1.6748510961234570e+02 -7.4336343622575805e+03 -1.1833955561436937e+00 -1.9460009925764491e+04 -1.1068399580172510e+04 5.9406459236176306e+02 2.4626010055753886e+02 -6.9500150689327602e+03 5.6738206614903174e+02 5.0271421202785205e+03 -6.2987466136366129e+02 1.1398301254133322e-06 1.4804000167707272e+02 -3.5435339109040797e+01 1.3789265652854655e-03 1.4241021471332459e+02 -8.3814918368558801e+02 -1.6125266732107769e-02 -2.3926516483822550e-03 -7.8288041496276855e+02 -1.0575243833995823e+05 -2.9943577137939048e-01 5.6162314226427543e+03 -5.0301299892804236e+03 6.3525071984507190e+02 -2.6931285253471328e+03 6.6597993580261100e+03 -5.1370500933971925e+02 2.7642707534765548e+04 8.5098887659376487e+02 -1.2782246513952616e-06 -3.8340380789463234e+02 -4.0237048245547044e+03 3.8004284409004385e+03 3.6402338234457002e+03 6.0675178175376950e+03 3.8033983187451054e+03 -3.8048884911158316e+03 4.6373330652673058e+03 -6.2851137624715178e+04 -7.0930677681305410e-01 -7.4103751367922405e+02 -1.7056474587140623e+04 -5.1151516528339180e+03 -4.5338886681771191e+02 -1.1916605624254146e+03 -4.0795121693276233e+03 -5.8146038171079963e+03 -1.0227981070226206e+03 -3.8029882717799192e+03 3.6683054438856648e+03 -3.8018261924959752e+03 
      </Row>
      <Row Index="8">
        5.5881941209232067e-03 -2.8285027632799902e-08 -3.4641922020227867e-02 -1.0345598790052781e+00 -5.5852496068833479e-06 -1.2933023802454995e-07 -2.5695949443582222e-02 1.7700346899470532e-01 1.2018149319741366e-02 1.6423243649142691e+00 -3.6110071021866696e-01 -2.6573133183221813e+00 -7.6486985033422487e-03 7.9818516045540333e-01 -3.6724882386829649e-01 1.5048378783640857e+00 -1.2883259815397518e-02 -2.9201508415893329e-09 -1.8190445008413891e+00 -6.5009435512986555e-05 -2.5362994957477472e-08 -8.0011747050496018e-03 5.2991031106261999e-01 1.2055682551806650e-06 -3.2584792956895275e-08 3.0196578668710616e-02 -1.0633306684558659e+00 1.3773170515246031e-02 -8.9953820173960253e-01 1.3032651278921209e-01 -6.0553651473764702e-01 -7.9336513892301941e-01 -6.6301376445763616e-01 2.4660662040307935e-01 7.1217007276146749e-01 9.4603156440274012e-03 2.2666990505044894e-08 -6.3145038830331490e-01 -1.2557564382449524e-02 -3.3170202322046522e-08 1.7661918107264012e-02 1.3656333585348912e-01 -3.0939798154220991e-06 2.4148827193725080e-07 -3.5539006286380986e-02 9.6610511729950360e-02 2.2661547407610075e-03 -8.9677900555246004e-01 1.2487374341277360e-01 2.5248338861508390e-01 4.7512915600660864e-02 1.5389710237430876e-01 -3.9460564747885341e-01 1.3569141006065091e+00 3.9798367926581313e-02 -2.0595436168298363e-08 1.8356577666086977e+00 -1.9429180192888926e-03 -7.1628723656982378e-09 -1.5448466119416332e-02 3.1608612421460036e-01 -5.4686531018753313e-06 -7.5217296389010779e-08 2.9004908094425186e-02 -8.5988438580488946e-01 -7.0173535398328560e-04 -4.1796898489193595e+00 1.7438018338250805e-01 -4.5415483554801739e-01 7.5157693814048621e-01 -1.2841556746732223e+00 -1.6205574105987131e-01 9.4519114760200118e-01 -5.9670984694484425e-02 2.7585672933666969e-08 1.1668206306730724e+00 8.8319103295666501e-03 2.4985220817554651e-08 -2.6865372745032756e-02 -2.8502831360345482e-02 -3.8319970998290374e-06 -1.6683667772239437e-07 2.8149329513373934e-02 4.8831547293758959e-01 -1.9980802751778423e-02 5.7142579491239243e-01 5.4138440446604286e-01 6.6959401808279040e-01 1.2112374902889584e+00 9.9731602138515996e-01 7.5398905746898137e-01 -3.1708504012368710e-01 7.7496295234606105e-02 2.8789801987617865e-08 8.8433891883040339e-01 -3.3006595160705032e-03 2.4505073120844940e-08 -1.3024942185918764e-02 1.7129810078639807e-01 -2.2915001030069889e-06 -1.1296817181243363e-07 1.5865190356059156e-02 3.4724355163412213e-02 8.0808082785709442e-03 1.5132652663648116e-01 3.6132573173944449e-01 -7.6877772456704463e-02 7.2022226819317492e-01 -3.0268100401832498e-01 3.5003657131716626e-01 -3.4846524446001297e+00 3.7883140617829714e-02 1.6066552594708156e-08 5.9145003673055807e-01 2.4409956717561521e-03 3.2399305127723270e-08 -3.0781740146444997e-02 -7.8549915992518926e-02 5.4501724156794715e-06 -2.4806313720918221e-07 3.4995582092661515e-02 9.2208635868837430e-02 2.7829801544800217e-03 6.8955523383544914e-01 5.8811783898411463e-01 -1.2218472868067458e+00 -6.0153960873752332e-01 1.3119267543820534e-01 8.0727109978297662e-01 3.5223315442955361e+00 8.0929735558584071e-02 3.1664714530143794e-08 7.0396712925327876e-01 -1.3411294362413173e-02 7.5943107912686654e-08 3.6066249565668951e-02 3.6415581611413472e-01 -5.3519080084329929e-06 -1.4696374814399457e-07 -5.2449680297286250e-02 -2.9573592492718106e+00 7.6927079147658048e-03 -2.5664777935163272e+00 4.8091663622088276e-01 2.7301791145679122e-01 -2.4597033326650255e+00 -2.7937096790730820e-01 5.3003509438713081e-01 -9.9541449362435031e-02 7.7830668982642237e-02 -2.6762367924464325e-08 2.8661542246987892e+00 -4.0700334642398417e-03 1.7489074281305792e-08 -2.5447269746912415e-02 1.2670399401685017e-02 -5.5055614812955355e-06 -1.0976276068422623e-07 -6.7950587230015458e-02 6.6140285195027815e-01 3.6482596864791245e-03 -7.2894864797632408e-02 4.6740667102413624e-01 2.5586210689279021e-02 -3.9050020182958178e-01 -1.5239571210649672e-01 5.9862675832846435e-01 2.1112685446939459e+00 8.1400170850822740e-02 -3.1991708486925214e-08 2.9606377548816454e+00 -9.7973814063152531e-03 1.3105893133876119e-08 3.7627546960579572e-02 4.8984053470162792e-01 -5.4770793693418706e-06 -1.4273145958936320e-07 3.8551379315091339e-02 -2.3021407356374652e+00 5.6967787452749967e-04 -7.0505169737921847e-01 6.0789415005763203e-01 1.6781696374557242e-01 1.7127346868107018e-01 -2.7122889634060243e-01 6.9220170660622671e-01 1.5620571412536925e+00 8.2538909501636226e-02 2.9584938372758762e-08 1.0951723652696046e+00 -7.4807119090110064e-03 -1.0032705332519321e-07 2.3874445334599814e-02 4.4747327271035431e-01 -8.6676638485233700e-07 2.6639096461539182e-07 5.9203963755862787e-03 -1.3528966882657016e+00 -6.4865370134780005e-04 1.0251005907896631e+00 -6.8397274334520974e-01 6.4403842549142887e-01 -2.3589948149311646e-01 5.2632286205279222e-01 5.6914823770421208e-01 9.3663680384215353e-01 3.1448892157641239e-02 1.0548015602652875e-08 -1.1632293114986396e+00 -7.2302021872019395e-03 3.2609037973701615e-08 -2.2208414294910495e-02 1.4628029375690588e-01 -4.5181409690334432e-06 -1.3428359392221498e-07 7.2278918960364535e-02 -2.9674781625124069e-01 6.9198626442127037e-03 -1.9688504499547221e-01 -6.8869967512910080e-03 -1.4134852669068039e+00 -6.6150832359703315e-02 3.8735652790009567e-02 6.6564167227952709e-01 2.5935023194318503e+00 7.3139627807769503e-02 3.0344563571005584e-08 6.6932941748450503e-01 -5.6260048146370423e-03 1.6427763541366266e-08 -2.5443794327785985e-02 -3.4490690087469300e-02 -4.1743987935535364e-06 -1.6780519429334477e-07 2.3451370660733772e-02 7.9538868260338380e-01 3.3803150201210863e-03 -1.7515173693178667e+00 4.5051250016046396e-01 -7.8701000393886034e-01 4.8671350336740848e-01 -7.3161141971718280e-01 1.7412271085504472e-01 -1.8041831633424872e+00 6.4282027982703882e-02 2.8986177840890475e-08 9.7046187483317681e-01 5.4933804640313610e-03 -1.0724143920286659e-08 -2.9731635219250707e-02 -1.4029762811140589e-01 -3.1170257552046274e-06 2.2639921174708545e-07 5.4924709922488546e-02 4.4545915543034093e-01 2.1577789565921067e-03 2.6177664794757476e+00 -4.6551798424184199e-01 -7.2573031309758873e-01 4.0243805034022273e-01 -3.1552542729023969e-02 7.0742586283449782e-01 2.0543842692489704e+00 7.4595645412045997e-02 3.1950570255862311e-08 8.6243093349804667e-01 5.2376174890014227e-03 -3.3623376669143399e-08 3.0531906911053411e-02 2.0040939345966988e-03 5.6052954253494377e-06 1.6685734674689513e-07 -3.3740717932232656e-02 3.3961433998773494e-02 1.6009393900618753e-02 -1.8059250120710146e-01 -6.2356993825090967e-01 -1.3239199239298710e-01 2.7415426277585198e-02 2.2099262012511645e-01 -8.0618326884450653e-01 1.9528168759748183e+00 -8.3273544238181785e-02 -3.2606451381782435e-08 -1.1616588875203888e+00 -2.1251531827303501e-02 6.1984985774185888e-02 4.6375331283462308e-02 -1.8100950190121790e-01 6.2072372210817441e-02 -6.1929565697023105e-02 1.0129902449175247e-01 7.0582150137646973e-02 2.5704851947967351e-03 -1.5665936447546361e-01 -1.6904070537374358e+00 2.3230622799148340e-01 2.1225219230249506e+00 2.1681055320990395e-02 -5.5077615736456320e-01 -5.8987269577735890e-01 5.3384015886040759e-01 -6.1988492119587964e-02 -3.3160731261716864e-01 -6.1965276761515066e-02 
      </Row>
      <Row Index="9">
        -3.8221176059438540e+02 2.5599109156351219e-03 -2.7138858298635460e+03 -9.9060672494701255e+04 3.9164340789490382e-03 5.6487384746664454e-03 4.0087483803654322e+02 5.1627161688848893e+04 1.6423254529155997e+00 5.3258460953898751e+05 -3.8334997113796317e+03 -1.1519290348772745e+04 1.0699199405391364e+03 1.0513581987028565e+03 -4.1077769515626460e+03 -1.2889997147114340e+04 -6.2128860449804756e+02 -1.4354105245937198e-05 7.6004503618405070e+03 6.6008279459529248e+01 -3.1390870737862476e-04 -1.7216982026920232e+02 4.4514835094095200e+04 -8.4671502042749851e-04 6.7180531359165062e-04 7.1256747637343778e+01 -4.6631892882492350e+04 -1.9383859635882428e+00 6.2203626969607823e+04 1.7106546276516847e+03 -7.9412715029977153e+03 -2.7448270153934027e+02 7.9375194564904859e+02 1.9671856774902667e+03 2.6954063953331070e+03 2.0933669922920461e+02 -6.7488531809848425e-06 1.4245170346042505e+02 1.1189281189245216e+02 3.8056065245286111e-04 1.1008355585007016e+03 7.8660153795651386e+03 2.0574978243492830e-03 -2.7121460798165391e-03 2.3467077632228148e+02 3.9751158023183212e+04 -1.1763158410499743e+00 -4.3275760075044673e+04 3.3211701661536845e+03 -4.1275532795830222e+03 -7.1583024970649296e+02 -1.3130620108993330e+03 -7.5630402165314695e+02 -5.2863022185105383e+03 -7.2534650448973025e+01 1.3747426447893730e-05 -3.1976711835110282e+03 3.1206580150687842e+02 -1.1281694641086105e-03 -7.3147378046433550e+02 2.7372436005936132e+04 3.8192107981091534e-03 1.0872108101686005e-03 2.8082832489348345e+02 -3.1041782778715628e+04 -3.1553208894371112e+00 -4.7252908679835426e+04 3.9930623631719154e+03 6.1657392361076327e+03 -1.5955427302814130e+03 1.1719670821777327e+03 1.0162917133243764e+02 -2.9627486580414998e+03 -8.4271831119689352e+01 -1.8962280935043402e-05 1.7638330199986215e+03 -9.3196378110622663e+02 1.0236735585226718e-03 -1.5413571664071490e+03 6.1537464000223699e+03 2.6401898631174866e-03 7.4730617338937162e-03 3.4598874995256574e+02 -1.6556215706345247e+03 -2.8652799477864002e+00 -3.2476454926434970e+04 4.1310535872049713e+03 -4.7327990395377383e+03 8.2747500261887546e+02 -3.5996849746030057e+02 1.4316601871878374e+03 -2.4686182728252575e+03 1.7772717894993369e+02 -1.5287777335549070e-05 -7.1793351266612922e+02 -4.5256526218123508e+02 3.7900690027296022e-04 -6.5585381728383754e+02 1.5810026555441073e+04 1.4777964767239138e-03 4.1715780779996540e-03 1.7827558576151057e+02 -1.2525515417700602e+04 -6.5955054256853884e-01 -2.0997782199636531e+04 2.7148476027640104e+03 -3.9680263983148689e+02 -1.9117326157060661e+03 9.8959433499956867e+02 6.5031421398822204e+02 2.3413646608091447e+04 1.4530737972166992e+02 -6.7679935389821901e-06 -5.1120332724293638e+02 -9.3651790420878251e+02 9.9502078159568411e-04 -1.7898306119770650e+03 3.4804579615403072e+03 -3.9995662050392976e-03 7.8698936879263402e-03 3.0750176147170743e+02 -1.0476274250242370e+04 4.4007155074014754e+00 -3.1398961292654509e+04 4.5398031470477108e+03 -1.0588098897800610e+03 -5.9473454410656814e+02 1.2890988601914191e+03 1.5820349883751132e+03 -1.5372296724104512e+04 2.1250899842679979e+02 -1.7010263060548444e-05 -1.1160756692774048e+03 -7.8394274866953492e+02 -2.4716527084575526e-04 2.2625148338990753e+03 1.8581645526685257e+04 3.6711679223759772e-03 -3.0195424630702697e-04 3.1877358549833298e+02 3.2204095411422641e+04 -1.0839889620109495e+00 2.1595601012390462e+05 4.2151091823720963e+03 4.3136697289693857e+03 7.7694673401289583e+03 1.5137023219531475e+03 4.4245412029302679e+02 -1.1442725960629905e+03 -7.3879264372575562e+01 2.0335507060364631e-05 -5.3605197034422454e+03 -8.0699324225958208e+02 6.0978785060630746e-05 -1.4297714379229446e+03 9.5479887007956258e+03 3.7469493464660324e-03 7.4194980931231594e-03 3.9730867660860531e+02 6.2722018080777198e+03 2.5296261124932151e-01 -2.8028511825895868e+04 3.8541866373516423e+03 1.8881751302866396e+03 1.1809148778762301e+03 -3.7863743659431861e+02 2.1491355076876935e+03 -5.7472112530707000e+02 2.2887374483237852e+02 4.3031685294232618e-05 -1.7567000242018985e+03 -7.3274911424145103e+02 -2.3641931099203234e-04 2.3996094535517609e+03 2.4936143813508359e+04 3.7654832100149083e-03 2.9896762317494028e-04 2.6101313660402548e+02 1.8869788859644625e+04 9.7584380611376909e-01 9.7625957095390448e+04 5.1940862961298844e+03 1.4803020030075459e+03 -6.5531960482529284e+03 1.0844375024038891e+03 1.1213281047659184e+03 -7.8614159722961886e+03 7.6660787194152363e+01 -2.9465578020753010e-05 -2.0308753975484724e+03 -2.9685339200496674e+02 2.3408796862026261e-03 1.6919829779641245e+03 4.1452874529588109e+04 7.8828610040878114e-04 -1.7485951177933570e-03 4.1173529787547886e+02 -5.9497091172993911e+04 -6.4464657643466894e-01 -5.0330804713623911e+03 -5.1226045163417657e+03 -1.8886793979323973e+03 -4.8389694801627536e+02 -7.5623121088112384e+02 1.4082327311271802e+03 -4.2644702162412686e+03 2.3737926014396362e+02 -1.5096219312606303e-06 -1.7978850110785861e+03 -9.5941875284508569e+02 7.2159519435868735e-04 -1.1854210982995264e+03 1.7980590736604881e+04 3.1285853345506820e-03 7.5732909720432045e-03 -6.3646071788575500e+02 -2.2454535440099469e+04 -6.2997435927803647e-01 -2.7653300262642133e+04 -6.3082167862972710e+01 3.9836723672738990e+03 3.0864181646186635e+03 -3.8127015277957835e+03 1.4823977861492349e+03 -5.8881264212935612e+03 1.9353685868472166e+02 -1.5239154202653041e-05 -9.3350218035966100e+02 -7.5810704566307527e+02 3.1943492373808086e-03 -1.4215371960185794e+03 1.2078981683707319e+04 2.9804163455640076e-03 7.6203334907109718e-03 4.2895837760197810e+02 7.3282871267475430e+03 -5.7067618000269480e+00 -6.1873664105895114e+04 3.9106774390838182e+03 -4.2514988057351438e+03 8.1871484400971553e+02 5.8736781516739284e+03 -8.9522673166403547e+02 -1.1078433892331472e+04 1.3352142051943042e+02 -1.3805865712225411e-05 -1.4899748023351713e+03 5.5164274407923222e+02 -2.4889573273278315e-04 -1.7658779748568800e+03 -1.5304588362282136e+03 2.0309233146660263e-03 3.0032448046673696e-04 1.5449108121637255e+02 -1.3768993885359354e+04 2.1426211131717667e+00 1.8716905117371207e+05 -3.0492122594383545e+03 3.6958074532018654e+03 9.8789998746233846e+02 6.8612891112740817e+02 1.7845984810446389e+03 6.2469048983680350e+03 2.2307195028010756e+02 -1.6854149752793673e-05 1.6935243030861511e+03 9.7746138063818216e+02 -9.6680145217442962e-04 1.7455099736811612e+03 -7.6396274602266294e+03 -3.8409430583086213e-03 -8.3301666675438448e-03 -3.4600384976994246e+02 1.0567595123359411e+04 -7.6010417691139534e+00 2.8312564431766365e+04 -4.8746831901686382e+03 -9.7893419912603179e+02 1.9192289503492793e+03 -1.2549762021668721e+03 -1.6001907169702463e+03 -1.1280896784070133e+04 -2.1705783269205131e+02 1.7063739072217484e-05 1.0427209605575772e+03 8.4888541580655838e+03 -9.1603401114513713e+02 -1.7395753876620302e+03 1.3871218163575088e+04 -9.1746610161406579e+02 9.1619195106376583e+02 -5.2343512819792477e+02 5.5437617454715937e+03 -1.4321745889816773e+00 1.6346315169006193e+04 -1.1802424144463805e+04 2.9563900130021357e+03 -6.9433526994402325e+02 4.2740404971014141e+02 -6.6995952038614206e+01 3.3204928227257697e+03 3.2567051469726511e+02 9.1722459602507661e+02 -5.6024372825447733e+02 9.1717453507492598e+02 
      </Row>
      <Row Index="10">
