<?xml version="1.0"?>
<MethodSetup Method="MLP::MLPBFGS">
  <GeneralInfo>
    <Info name="TMVA Release" value="4.1.4 [262404]"/>
    <Info name="ROOT Release" value="5.34/07 [336391]"/>
    <Info name="Creator" value="pseyfert"/>
    <Info name="Date" value="Thu Dec 12 16:08:34 2013"/>
    <Info name="Host" value="Linux lxbuild175.cern.ch 2.6.18-308.4.1.el5 #1 SMP Wed Apr 18 16:26:27 CEST 2012 x86_64 x86_64 x86_64 GNU/Linux"/>
    <Info name="Dir" value="/auto/sigma0/pseyfert/zoontuple/Bender_v22r7/Phys/Tau23Mu/scripts/TMVA_training_v3"/>
    <Info name="Training events" value="52072"/>
    <Info name="TrainingTime" value="3.25567050e+03"/>
    <Info name="AnalysisType" value="Classification"/>
  </GeneralInfo>
  <Options>
    <Option name="NCycles" modified="Yes">600</Option>
    <Option name="HiddenLayers" modified="Yes">N+5</Option>
    <Option name="NeuronType" modified="Yes">tanh</Option>
    <Option name="RandomSeed" modified="No">1</Option>
    <Option name="EstimatorType" modified="Yes">CE</Option>
    <Option name="NeuronInputType" modified="No">sum</Option>
    <Option name="V" modified="Yes">False</Option>
    <Option name="VerbosityLevel" modified="No">Default</Option>
    <Option name="VarTransform" modified="Yes">N</Option>
    <Option name="H" modified="Yes">True</Option>
    <Option name="CreateMVAPdfs" modified="No">False</Option>
    <Option name="IgnoreNegWeightsInTraining" modified="No">False</Option>
    <Option name="TrainingMethod" modified="Yes">BFGS</Option>
    <Option name="LearningRate" modified="No">2.000000e-02</Option>
    <Option name="DecayRate" modified="No">1.000000e-02</Option>
    <Option name="TestRate" modified="Yes">5</Option>
    <Option name="EpochMonitoring" modified="No">False</Option>
    <Option name="Sampling" modified="No">1.000000e+00</Option>
    <Option name="SamplingEpoch" modified="No">1.000000e+00</Option>
    <Option name="SamplingImportance" modified="No">1.000000e+00</Option>
    <Option name="SamplingTraining" modified="No">True</Option>
    <Option name="SamplingTesting" modified="No">False</Option>
    <Option name="ResetStep" modified="No">50</Option>
    <Option name="Tau" modified="No">3.000000e+00</Option>
    <Option name="BPMode" modified="No">sequential</Option>
    <Option name="BatchSize" modified="No">-1</Option>
    <Option name="ConvergenceImprove" modified="No">1.000000e-30</Option>
    <Option name="ConvergenceTests" modified="No">-1</Option>
    <Option name="UseRegulator" modified="Yes">False</Option>
    <Option name="UpdateLimit" modified="No">10000</Option>
    <Option name="CalculateErrors" modified="No">False</Option>
    <Option name="WeightRange" modified="No">1.000000e+00</Option>
  </Options>
  <Variables NVar="13">
    <Variable VarIndex="0" Expression="TMath::Exp(-1000*LifeTime)" Label="TMath::Exp(-1000*LifeTime)" Title="transformed decay time" Unit="1" Internal="TMath_Exp__M_1000_T_LifeTime_" Type="F" Min="1.93987222e-11" Max="7.31256723e-01"/>
    <Variable VarIndex="1" Expression="IPSig" Label="IPSig" Title="IP significance" Unit="1" Internal="IPSig" Type="F" Min="1.11495918e-02" Max="2.49779434e+01"/>
    <Variable VarIndex="2" Expression="VertexChi2" Label="VertexChi2" Title="vertex #chi^{2}" Unit="1" Internal="VertexChi2" Type="F" Min="8.02233350e-04" Max="1.49983969e+01"/>
    <Variable VarIndex="3" Expression="acos(dira)" Label="acos(dira)" Title="pointing angle" Unit="1" Internal="acos_dira_" Type="F" Min="0.00000000e+00" Max="1.37716651e-01"/>
    <Variable VarIndex="4" Expression="pt" Label="pt" Title="p_{T}" Unit="[MeV/c]" Internal="pt" Type="F" Min="4.12933426e+01" Max="5.52403477e+04"/>
    <Variable VarIndex="5" Expression="min(p0_IPSig,min(p1_IPSig,p2_IPSig))" Label="min(p0_IPSig,min(p1_IPSig,p2_IPSig))" Title="min. #mu IP significance" Unit="1" Internal="min_p0_IPSig,min_p1_IPSig,p2_IPSig__" Type="F" Min="2.30495882e+00" Max="1.02738922e+02"/>
    <Variable VarIndex="6" Expression="DOCAone" Label="DOCAone" Title="DOCA (#mu 1 and 2)" Unit="mm" Internal="DOCAone" Type="F" Min="2.63570382e-06" Max="9.23672736e-01"/>
    <Variable VarIndex="7" Expression="DOCAtwo" Label="DOCAtwo" Title="DOCA (#mu 2 and 3)" Unit="mm" Internal="DOCAtwo" Type="F" Min="2.43484504e-08" Max="7.44905770e-01"/>
    <Variable VarIndex="8" Expression="DOCAthree" Label="DOCAthree" Title="DOCA (#mu 1 and 3)" Unit="mm" Internal="DOCAthree" Type="F" Min="6.10736777e-07" Max="1.05343544e+00"/>
    <Variable VarIndex="9" Expression="CDF3" Label="CDF3" Title="cone isolation" Unit="1" Internal="CDF3" Type="F" Min="3.00450996e-03" Max="1.00000000e+00"/>
    <Variable VarIndex="10" Expression="p0_track_MatchChi2" Label="p0_track_MatchChi2" Title="track match #chi^{2} (#mu 1)" Unit="1" Internal="p0_track_MatchChi2" Type="F" Min="4.38715070e-02" Max="8.45542831e+01"/>
    <Variable VarIndex="11" Expression="p1_track_MatchChi2" Label="p1_track_MatchChi2" Title="track match #chi^{2} (#mu 2)" Unit="1" Internal="p1_track_MatchChi2" Type="F" Min="1.31226135e-02" Max="7.59046707e+01"/>
    <Variable VarIndex="12" Expression="p2_track_MatchChi2" Label="p2_track_MatchChi2" Title="track match #chi^{2} (#mu 3)" Unit="1" Internal="p2_track_MatchChi2" Type="F" Min="1.51327997e-02" Max="7.93785172e+01"/>
  </Variables>
  <Spectators NSpec="0"/>
  <Classes NClass="2">
    <Class Name="Signal" Index="0"/>
    <Class Name="Background" Index="1"/>
  </Classes>
  <Transformations NTransformations="1">
    <Transform Name="Normalize">
      <Selection>
        <Input NInputs="13">
          <Input Type="Variable" Label="TMath::Exp(-1000*LifeTime)" Expression="TMath::Exp(-1000*LifeTime)"/>
          <Input Type="Variable" Label="IPSig" Expression="IPSig"/>
          <Input Type="Variable" Label="VertexChi2" Expression="VertexChi2"/>
          <Input Type="Variable" Label="acos(dira)" Expression="acos(dira)"/>
          <Input Type="Variable" Label="pt" Expression="pt"/>
          <Input Type="Variable" Label="min(p0_IPSig,min(p1_IPSig,p2_IPSig))" Expression="min(p0_IPSig,min(p1_IPSig,p2_IPSig))"/>
          <Input Type="Variable" Label="DOCAone" Expression="DOCAone"/>
          <Input Type="Variable" Label="DOCAtwo" Expression="DOCAtwo"/>
          <Input Type="Variable" Label="DOCAthree" Expression="DOCAthree"/>
          <Input Type="Variable" Label="CDF3" Expression="CDF3"/>
          <Input Type="Variable" Label="p0_track_MatchChi2" Expression="p0_track_MatchChi2"/>
          <Input Type="Variable" Label="p1_track_MatchChi2" Expression="p1_track_MatchChi2"/>
          <Input Type="Variable" Label="p2_track_MatchChi2" Expression="p2_track_MatchChi2"/>
        </Input>
        <Output NOutputs="13">
          <Output Type="Variable" Label="TMath::Exp(-1000*LifeTime)" Expression="TMath::Exp(-1000*LifeTime)"/>
          <Output Type="Variable" Label="IPSig" Expression="IPSig"/>
          <Output Type="Variable" Label="VertexChi2" Expression="VertexChi2"/>
          <Output Type="Variable" Label="acos(dira)" Expression="acos(dira)"/>
          <Output Type="Variable" Label="pt" Expression="pt"/>
          <Output Type="Variable" Label="min(p0_IPSig,min(p1_IPSig,p2_IPSig))" Expression="min(p0_IPSig,min(p1_IPSig,p2_IPSig))"/>
          <Output Type="Variable" Label="DOCAone" Expression="DOCAone"/>
          <Output Type="Variable" Label="DOCAtwo" Expression="DOCAtwo"/>
          <Output Type="Variable" Label="DOCAthree" Expression="DOCAthree"/>
          <Output Type="Variable" Label="CDF3" Expression="CDF3"/>
          <Output Type="Variable" Label="p0_track_MatchChi2" Expression="p0_track_MatchChi2"/>
          <Output Type="Variable" Label="p1_track_MatchChi2" Expression="p1_track_MatchChi2"/>
          <Output Type="Variable" Label="p2_track_MatchChi2" Expression="p2_track_MatchChi2"/>
        </Output>
      </Selection>
      <Class ClassIndex="0">
        <Ranges>
          <Range Index="0" Min="1.9398722211905195e-11" Max="7.3125672340393066e-01"/>
          <Range Index="1" Min="1.1149591766297817e-02" Max="2.1987730026245117e+01"/>
          <Range Index="2" Min="8.0223334953188896e-04" Max="1.4998396873474121e+01"/>
          <Range Index="3" Min="0.0000000000000000e+00" Max="1.3410498201847076e-01"/>
          <Range Index="4" Min="6.2147693634033203e+01" Max="5.5240347656250000e+04"/>
          <Range Index="5" Min="2.3049588203430176e+00" Max="1.0273892211914062e+02"/>
          <Range Index="6" Min="2.6357038223068230e-06" Max="8.1560057401657104e-01"/>
          <Range Index="7" Min="2.4348450367028818e-08" Max="6.9920772314071655e-01"/>
          <Range Index="8" Min="6.1073677670719917e-07" Max="1.0170480012893677e+00"/>
          <Range Index="9" Min="3.0045099556446075e-03" Max="1.0000000000000000e+00"/>
          <Range Index="10" Min="4.3871507048606873e-02" Max="7.7615455627441406e+01"/>
          <Range Index="11" Min="1.3122613541781902e-02" Max="7.5904670715332031e+01"/>
          <Range Index="12" Min="1.5132799744606018e-02" Max="7.9378517150878906e+01"/>
        </Ranges>
      </Class>
      <Class ClassIndex="1">
        <Ranges>
          <Range Index="0" Min="2.1115165509399958e-05" Max="7.2934836149215698e-01"/>
          <Range Index="1" Min="1.3430085778236389e-01" Max="2.4977943420410156e+01"/>
          <Range Index="2" Min="2.2036740556359291e-02" Max="1.4991107940673828e+01"/>
          <Range Index="3" Min="0.0000000000000000e+00" Max="1.3771665096282959e-01"/>
          <Range Index="4" Min="4.1293342590332031e+01" Max="2.1269572265625000e+04"/>
          <Range Index="5" Min="2.7823791503906250e+00" Max="4.9517536163330078e+01"/>
          <Range Index="6" Min="3.9169070078060031e-05" Max="9.2367273569107056e-01"/>
          <Range Index="7" Min="5.9152989706490189e-05" Max="7.4490576982498169e-01"/>
          <Range Index="8" Min="3.1205789127852768e-05" Max="1.0534354448318481e+00"/>
          <Range Index="9" Min="3.8299348670989275e-03" Max="1.0000000000000000e+00"/>
          <Range Index="10" Min="1.4428974688053131e-01" Max="8.4554283142089844e+01"/>
          <Range Index="11" Min="1.4624765515327454e-01" Max="6.7723579406738281e+01"/>
          <Range Index="12" Min="4.5327022671699524e-02" Max="6.8506652832031250e+01"/>
        </Ranges>
      </Class>
      <Class ClassIndex="2">
        <Ranges>
          <Range Index="0" Min="1.9398722211905195e-11" Max="7.3125672340393066e-01"/>
          <Range Index="1" Min="1.1149591766297817e-02" Max="2.4977943420410156e+01"/>
          <Range Index="2" Min="8.0223334953188896e-04" Max="1.4998396873474121e+01"/>
          <Range Index="3" Min="0.0000000000000000e+00" Max="1.3771665096282959e-01"/>
          <Range Index="4" Min="4.1293342590332031e+01" Max="5.5240347656250000e+04"/>
          <Range Index="5" Min="2.3049588203430176e+00" Max="1.0273892211914062e+02"/>
          <Range Index="6" Min="2.6357038223068230e-06" Max="9.2367273569107056e-01"/>
          <Range Index="7" Min="2.4348450367028818e-08" Max="7.4490576982498169e-01"/>
          <Range Index="8" Min="6.1073677670719917e-07" Max="1.0534354448318481e+00"/>
          <Range Index="9" Min="3.0045099556446075e-03" Max="1.0000000000000000e+00"/>
          <Range Index="10" Min="4.3871507048606873e-02" Max="8.4554283142089844e+01"/>
          <Range Index="11" Min="1.3122613541781902e-02" Max="7.5904670715332031e+01"/>
          <Range Index="12" Min="1.5132799744606018e-02" Max="7.9378517150878906e+01"/>
        </Ranges>
      </Class>
    </Transform>
  </Transformations>
  <MVAPdfs/>
  <Weights>
    <Layout NLayers="3">
      <Layer Index="0" NNeurons="14">
        <Neuron NSynapses="18">
          -3.9440798791899567e-01 2.8854549366340692e+00 1.9031134410425863e+00 2.0196065142569961e+00 -2.4758096984254494e+00 9.1183388927209774e-01 2.4306775316724649e-01 4.2501192578487696e+00 -2.3723802907245233e+00 -2.0678943258686069e-01 -1.3942425628452821e+00 -8.6421270454597288e-01 -1.4306862653181940e-01 -6.1230785295815653e-02 8.0222498046125990e-01 -3.3111025982245801e-01 -2.3118569830380258e+00 7.9224005266002914e-02 
        </Neuron>
        <Neuron NSynapses="18">
          2.0031677108468504e-01 -3.2283944882353306e+00 -5.2613222279281517e+00 -3.7122824021137890e-01 -2.4317261155978449e+00 2.0425475093271244e+00 -9.9140767542638120e+00 1.4987619180382348e+00 3.8396712403636102e-01 -7.0741945613441076e-02 -1.4960390210872254e+00 -5.6420186460720878e-01 1.3173563812281259e+00 1.6220736617423515e+00 1.0897908230934519e+00 -4.1005596301260655e-01 -4.7008155296704790e-01 -1.6060563653468698e+00 
        </Neuron>
        <Neuron NSynapses="18">
          -1.2732722390809110e+00 1.6856784549229464e+00 6.1832399252814141e-01 1.4119815203003097e+00 2.4189436031941964e+00 1.1314669488672415e+00 1.6852787726896865e-01 1.6523843531050375e+00 -1.9301196001112636e-01 -4.9577205946818542e-01 5.7877506232059828e-01 1.0825152364688773e-02 -4.2848228051170506e-01 1.2108533109884270e+00 1.7779655811990676e+00 8.0095611008409895e-01 -4.1447494225877932e+00 8.8303568787626041e-01 
        </Neuron>
        <Neuron NSynapses="18">
          -1.6463427544315505e+00 -1.6565348169853729e+00 -3.1318610002911196e-02 -1.2893127399305220e+00 3.3371246777625441e+00 -2.2779516800417790e-01 -2.7296006990617134e+00 -6.0762683833739517e-01 -1.5775215541930632e+00 -1.8290113221948963e-02 2.2804604885481465e+00 -1.4857935665632893e-01 -1.1182438132928341e+00 -8.6347890267724192e-01 4.8247381107374382e-01 4.4224488247026533e-01 -6.2436902522124047e+00 2.8936739257254231e+00 
        </Neuron>
        <Neuron NSynapses="18">
          5.8606774333924194e-01 2.6660782983654512e+00 -2.2641987079061696e+00 -5.0778764277270683e-01 -1.3209645244334873e+00 -2.4279924529466306e+00 -5.8752123766105635e-01 5.0350528649671544e-01 -2.5015748525816357e+00 1.4463565578904145e+00 1.5575435196386025e+00 1.1742691803932237e+00 4.0277861012333871e-01 1.9666366348295522e-01 2.4131484053012233e+00 -4.1323054475572594e+00 -2.4375669825546858e-01 -6.1991303704308909e-01 
        </Neuron>
        <Neuron NSynapses="18">
          -3.5777364078305324e-01 -3.7523021311322506e-02 -1.8768670717260079e+00 -7.7729298259591895e-01 1.2223765076482664e+00 2.4498348657232971e+00 5.8240629494506999e+00 -1.5226653414576925e+00 -2.4262037999376034e+00 1.8813088625099839e-01 -1.3491764731533458e+00 3.0335830466561320e+00 4.1602488458702016e+00 1.9966992143032891e+00 -1.1766250505358822e+00 5.4626099753682782e+00 1.7540823727044956e+00 -6.9604401785305390e+00 
        </Neuron>
        <Neuron NSynapses="18">
          -8.9838894301575559e-02 -3.4609897963475394e-01 -1.3084823032936315e+00 -2.3500413443948286e-02 -5.2459769012982642e+00 -6.8872698798792464e-01 2.1789645587034889e+00 1.5541966518259360e+00 9.7142539941497064e-01 -9.4548726688606766e-01 8.6899916177155734e-01 -7.6427148339150397e-01 -3.5950158674554618e+00 5.1612411546990955e-01 2.3583960228934737e+00 4.5954032387181137e-01 1.5537953412835501e+00 1.1629737474810513e+00 
        </Neuron>
        <Neuron NSynapses="18">
          -3.4861540563901394e-01 2.3674426908189861e+00 4.3123500752261741e+00 9.7770144074027732e-01 -9.1866009734016529e-01 -5.1184427115821443e+00 -2.9703424187459804e-01 -2.5845109324490084e-01 3.8991171320567547e-01 7.7783651847202362e-01 1.8619411012098952e+00 -1.1586062119947782e+00 9.4599786816558973e-01 1.7854381720586372e+00 3.1378607458994154e+00 -1.2361124544192017e+00 -4.3198282724262516e+00 -5.3446754218613579e-01 
        </Neuron>
        <Neuron NSynapses="18">
          -1.4628595759471137e+00 2.1300776786543052e+00 7.8603089525854264e-01 -9.2198618089431794e-01 -3.7086655134042674e+00 -1.7512961023377224e-01 -1.9832043401086414e+00 2.7169174236961591e+00 5.2400547926462915e+00 4.9524706833823784e-01 4.6409611745593929e-03 1.9867330790464146e+00 -1.6060234267554568e-01 7.9994968742123262e-01 -7.6752479686047881e-01 -5.4675592081261923e+00 3.2466378289830047e+00 -2.5188707222818552e-01 
        </Neuron>
        <Neuron NSynapses="18">
          3.5600555711562198e-01 2.8146409112916211e+00 -2.6067061654615503e-01 -1.9950312437465628e-01 -5.4243514617229815e-01 3.4518194658009405e+00 5.7245714276979442e-01 7.4798315826592621e-01 2.6398236229936707e+00 -7.5848789398570444e-03 -1.2849490070936606e-01 6.3249721009196125e-01 7.8506849894354347e-01 -1.6692670939461032e+00 4.5367724188639160e+00 -3.6446018233247640e-01 -3.8142729919097268e-01 -3.3567332456608923e-01 
        </Neuron>
        <Neuron NSynapses="18">
          -2.0200502266876934e+00 2.6438014066559563e+00 1.8450925536189962e+00 -2.3883969384065202e+00 2.7737481155099823e+00 -4.8756298198448816e-01 3.7176334062542565e-01 3.4849376465340702e+00 3.3582720461646599e-02 -7.5750413216851264e-01 -5.6128664086473135e-01 -8.2543287998570047e-01 2.6609332612273717e-01 1.4202332523183980e+00 -5.9120799297461113e-01 -5.1275637565015419e-01 1.5148581904132472e+00 -1.1212756215300286e+00 
        </Neuron>
        <Neuron NSynapses="18">
          3.1251106785435701e-01 6.3301107199312451e-02 5.2101956427862606e-01 1.5549499965532851e-01 1.8776103406656643e+00 -3.9724109654998232e+00 1.3612008236455304e+00 2.4101709152029809e+00 3.2476261387959821e-01 -2.4570145217833519e-01 1.8595991798942137e+00 1.0428348511342074e+00 1.4552513891314132e+00 2.5332238042848154e-01 -1.1812294623483119e+00 -2.4350647688641144e-02 3.4863554240382904e+00 3.8261728505300727e+00 
        </Neuron>
        <Neuron NSynapses="18">
          7.1991679175069312e-01 -1.2993034816832763e+00 1.2901310244178257e+00 -2.3246177436431514e+00 5.4272683828616297e-01 -3.1576657618488841e+00 -1.2746513534976023e-01 -3.2266474144265480e+00 2.4872693732644562e+00 -9.1002845022820089e-01 1.0301714399117001e+00 -5.0048861505948561e-01 -4.1424430625482334e+00 -7.2120123911471212e-01 3.4032457651409715e+00 1.4497304870818668e+00 1.2665065968706901e+00 -3.6162380216688100e-01 
        </Neuron>
        <Neuron NSynapses="18">
          1.8668120232456922e+00 -2.3549423332168065e+00 -1.1734977997603007e+00 3.5305887047671014e-01 -7.5084435335469575e+00 -1.1964341674036172e+00 -3.4327027747558598e+00 -1.0735179484791710e+00 -2.3902533889413471e+00 -7.5391433008535358e-01 -2.4764896434030903e+00 4.0831208212984693e+00 -1.8525873679036373e+00 -2.0367222550348076e+00 7.9556887634248141e-01 -1.5459793068295553e+00 2.9694370160031309e+00 -4.5393246743779425e+00 
        </Neuron>
      </Layer>
      <Layer Index="1" NNeurons="19">
        <Neuron NSynapses="1">
          -6.0046965767985805e-01 
        </Neuron>
        <Neuron NSynapses="1">
          3.2905200503268626e+00 
        </Neuron>
        <Neuron NSynapses="1">
          7.0402440887744078e-01 
        </Neuron>
        <Neuron NSynapses="1">
          9.2735250182846574e-01 
        </Neuron>
        <Neuron NSynapses="1">
          -1.4321273214930685e+00 
        </Neuron>
        <Neuron NSynapses="1">
          5.8594284233438474e+00 
        </Neuron>
        <Neuron NSynapses="1">
          1.1863225680173282e+00 
        </Neuron>
        <Neuron NSynapses="1">
          -2.6621617451695618e+00 
        </Neuron>
        <Neuron NSynapses="1">
          2.2872189691557527e+00 
        </Neuron>
        <Neuron NSynapses="1">
          3.1909077767387437e+00 
        </Neuron>
        <Neuron NSynapses="1">
          2.5087958694478067e+00 
        </Neuron>
        <Neuron NSynapses="1">
          1.5704182148866357e+00 
        </Neuron>
        <Neuron NSynapses="1">
          -6.2864890629428793e-01 
        </Neuron>
        <Neuron NSynapses="1">
          8.9679455799634911e-01 
        </Neuron>
        <Neuron NSynapses="1">
          -2.2943154702248716e+00 
        </Neuron>
        <Neuron NSynapses="1">
          1.5301082560069788e+00 
        </Neuron>
        <Neuron NSynapses="1">
          4.0876936241421014e-01 
        </Neuron>
        <Neuron NSynapses="1">
          -7.4614448175716153e-01 
        </Neuron>
        <Neuron NSynapses="1">
          -1.9914117358562564e+00 
        </Neuron>
      </Layer>
      <Layer Index="2" NNeurons="1">
        <Neuron NSynapses="0"/>
      </Layer>
    </Layout>
  </Weights>
</MethodSetup>
