<?xml version="1.0"?>
<MethodSetup Method="MLP::MLPMSE">
  <GeneralInfo>
    <Info name="TMVA Release" value="4.1.4 [262404]"/>
    <Info name="ROOT Release" value="5.34/07 [336391]"/>
    <Info name="Creator" value="pseyfert"/>
    <Info name="Date" value="Thu Dec 12 17:14:21 2013"/>
    <Info name="Host" value="Linux lxbuild175.cern.ch 2.6.18-308.4.1.el5 #1 SMP Wed Apr 18 16:26:27 CEST 2012 x86_64 x86_64 x86_64 GNU/Linux"/>
    <Info name="Dir" value="/auto/sigma0/pseyfert/zoontuple/Bender_v22r7/Phys/Tau23Mu/scripts/TMVA_training"/>
    <Info name="Training events" value="52358"/>
    <Info name="TrainingTime" value="1.27769739e+03"/>
    <Info name="AnalysisType" value="Classification"/>
  </GeneralInfo>
  <Options>
    <Option name="NCycles" modified="Yes">600</Option>
    <Option name="HiddenLayers" modified="Yes">N+5</Option>
    <Option name="NeuronType" modified="Yes">tanh</Option>
    <Option name="RandomSeed" modified="No">1</Option>
    <Option name="EstimatorType" modified="Yes">MSE</Option>
    <Option name="NeuronInputType" modified="No">sum</Option>
    <Option name="V" modified="Yes">False</Option>
    <Option name="VerbosityLevel" modified="No">Default</Option>
    <Option name="VarTransform" modified="Yes">N</Option>
    <Option name="H" modified="Yes">False</Option>
    <Option name="CreateMVAPdfs" modified="No">False</Option>
    <Option name="IgnoreNegWeightsInTraining" modified="No">False</Option>
    <Option name="TrainingMethod" modified="No">BP</Option>
    <Option name="LearningRate" modified="No">2.000000e-02</Option>
    <Option name="DecayRate" modified="No">1.000000e-02</Option>
    <Option name="TestRate" modified="Yes">5</Option>
    <Option name="EpochMonitoring" modified="No">False</Option>
    <Option name="Sampling" modified="No">1.000000e+00</Option>
    <Option name="SamplingEpoch" modified="No">1.000000e+00</Option>
    <Option name="SamplingImportance" modified="No">1.000000e+00</Option>
    <Option name="SamplingTraining" modified="No">True</Option>
    <Option name="SamplingTesting" modified="No">False</Option>
    <Option name="ResetStep" modified="No">50</Option>
    <Option name="Tau" modified="No">3.000000e+00</Option>
    <Option name="BPMode" modified="No">sequential</Option>
    <Option name="BatchSize" modified="No">-1</Option>
    <Option name="ConvergenceImprove" modified="No">1.000000e-30</Option>
    <Option name="ConvergenceTests" modified="No">-1</Option>
    <Option name="UseRegulator" modified="Yes">False</Option>
    <Option name="UpdateLimit" modified="No">10000</Option>
    <Option name="CalculateErrors" modified="No">False</Option>
    <Option name="WeightRange" modified="No">1.000000e+00</Option>
  </Options>
  <Variables NVar="16">
    <Variable VarIndex="0" Expression="TMath::Exp(-1000*LifeTime)" Label="TMath::Exp(-1000*LifeTime)" Title="transformed decay time" Unit="1" Internal="TMath_Exp__M_1000_T_LifeTime_" Type="F" Min="1.93987222e-11" Max="7.31256723e-01"/>
    <Variable VarIndex="1" Expression="IPSig" Label="IPSig" Title="IP significance" Unit="1" Internal="IPSig" Type="F" Min="1.11495918e-02" Max="2.49779434e+01"/>
    <Variable VarIndex="2" Expression="VertexChi2" Label="VertexChi2" Title="vertex #chi^{2}" Unit="1" Internal="VertexChi2" Type="F" Min="8.02233350e-04" Max="1.49983969e+01"/>
    <Variable VarIndex="3" Expression="acos(dira)" Label="acos(dira)" Title="pointing angle" Unit="1" Internal="acos_dira_" Type="F" Min="0.00000000e+00" Max="1.37716651e-01"/>
    <Variable VarIndex="4" Expression="pt" Label="pt" Title="p_{T}" Unit="[MeV/c]" Internal="pt" Type="F" Min="4.12933426e+01" Max="5.52403477e+04"/>
    <Variable VarIndex="5" Expression="min(p0_IPSig,min(p1_IPSig,p2_IPSig))" Label="min(p0_IPSig,min(p1_IPSig,p2_IPSig))" Title="min. #mu IP significance" Unit="1" Internal="min_p0_IPSig,min_p1_IPSig,p2_IPSig__" Type="F" Min="2.30495882e+00" Max="1.02738922e+02"/>
    <Variable VarIndex="6" Expression="DOCAone" Label="DOCAone" Title="DOCA (#mu 1 and 2)" Unit="mm" Internal="DOCAone" Type="F" Min="2.63570382e-06" Max="9.23672736e-01"/>
    <Variable VarIndex="7" Expression="DOCAtwo" Label="DOCAtwo" Title="DOCA (#mu 2 and 3)" Unit="mm" Internal="DOCAtwo" Type="F" Min="2.43484504e-08" Max="7.44905770e-01"/>
    <Variable VarIndex="8" Expression="DOCAthree" Label="DOCAthree" Title="DOCA (#mu 1 and 3)" Unit="mm" Internal="DOCAthree" Type="F" Min="6.10736777e-07" Max="1.05343544e+00"/>
    <Variable VarIndex="9" Expression="isolationd" Label="isolationd" Title="isolationd" Unit="" Internal="isolationd" Type="F" Min="0.00000000e+00" Max="7.00000000e+00"/>
    <Variable VarIndex="10" Expression="isolatione" Label="isolatione" Title="isolatione" Unit="" Internal="isolatione" Type="F" Min="0.00000000e+00" Max="8.00000000e+00"/>
    <Variable VarIndex="11" Expression="isolationf" Label="isolationf" Title="isolationf" Unit="" Internal="isolationf" Type="F" Min="0.00000000e+00" Max="8.00000000e+00"/>
    <Variable VarIndex="12" Expression="CDF3" Label="CDF3" Title="cone isolation" Unit="1" Internal="CDF3" Type="F" Min="3.00450996e-03" Max="1.00000000e+00"/>
    <Variable VarIndex="13" Expression="p0_track_MatchChi2" Label="p0_track_MatchChi2" Title="track match #chi^{2} (#mu 1)" Unit="1" Internal="p0_track_MatchChi2" Type="F" Min="4.38715070e-02" Max="8.45542831e+01"/>
    <Variable VarIndex="14" Expression="p1_track_MatchChi2" Label="p1_track_MatchChi2" Title="track match #chi^{2} (#mu 2)" Unit="1" Internal="p1_track_MatchChi2" Type="F" Min="1.31226135e-02" Max="7.59046707e+01"/>
    <Variable VarIndex="15" Expression="p2_track_MatchChi2" Label="p2_track_MatchChi2" Title="track match #chi^{2} (#mu 3)" Unit="1" Internal="p2_track_MatchChi2" Type="F" Min="1.51327997e-02" Max="7.93785172e+01"/>
  </Variables>
  <Spectators NSpec="0"/>
  <Classes NClass="2">
    <Class Name="Signal" Index="0"/>
    <Class Name="Background" Index="1"/>
  </Classes>
  <Transformations NTransformations="1">
    <Transform Name="Normalize">
      <Selection>
        <Input NInputs="16">
          <Input Type="Variable" Label="TMath::Exp(-1000*LifeTime)" Expression="TMath::Exp(-1000*LifeTime)"/>
          <Input Type="Variable" Label="IPSig" Expression="IPSig"/>
          <Input Type="Variable" Label="VertexChi2" Expression="VertexChi2"/>
          <Input Type="Variable" Label="acos(dira)" Expression="acos(dira)"/>
          <Input Type="Variable" Label="pt" Expression="pt"/>
          <Input Type="Variable" Label="min(p0_IPSig,min(p1_IPSig,p2_IPSig))" Expression="min(p0_IPSig,min(p1_IPSig,p2_IPSig))"/>
          <Input Type="Variable" Label="DOCAone" Expression="DOCAone"/>
          <Input Type="Variable" Label="DOCAtwo" Expression="DOCAtwo"/>
          <Input Type="Variable" Label="DOCAthree" Expression="DOCAthree"/>
          <Input Type="Variable" Label="isolationd" Expression="isolationd"/>
          <Input Type="Variable" Label="isolatione" Expression="isolatione"/>
          <Input Type="Variable" Label="isolationf" Expression="isolationf"/>
          <Input Type="Variable" Label="CDF3" Expression="CDF3"/>
          <Input Type="Variable" Label="p0_track_MatchChi2" Expression="p0_track_MatchChi2"/>
          <Input Type="Variable" Label="p1_track_MatchChi2" Expression="p1_track_MatchChi2"/>
          <Input Type="Variable" Label="p2_track_MatchChi2" Expression="p2_track_MatchChi2"/>
        </Input>
        <Output NOutputs="16">
          <Output Type="Variable" Label="TMath::Exp(-1000*LifeTime)" Expression="TMath::Exp(-1000*LifeTime)"/>
          <Output Type="Variable" Label="IPSig" Expression="IPSig"/>
          <Output Type="Variable" Label="VertexChi2" Expression="VertexChi2"/>
          <Output Type="Variable" Label="acos(dira)" Expression="acos(dira)"/>
          <Output Type="Variable" Label="pt" Expression="pt"/>
          <Output Type="Variable" Label="min(p0_IPSig,min(p1_IPSig,p2_IPSig))" Expression="min(p0_IPSig,min(p1_IPSig,p2_IPSig))"/>
          <Output Type="Variable" Label="DOCAone" Expression="DOCAone"/>
          <Output Type="Variable" Label="DOCAtwo" Expression="DOCAtwo"/>
          <Output Type="Variable" Label="DOCAthree" Expression="DOCAthree"/>
          <Output Type="Variable" Label="isolationd" Expression="isolationd"/>
          <Output Type="Variable" Label="isolatione" Expression="isolatione"/>
          <Output Type="Variable" Label="isolationf" Expression="isolationf"/>
          <Output Type="Variable" Label="CDF3" Expression="CDF3"/>
          <Output Type="Variable" Label="p0_track_MatchChi2" Expression="p0_track_MatchChi2"/>
          <Output Type="Variable" Label="p1_track_MatchChi2" Expression="p1_track_MatchChi2"/>
          <Output Type="Variable" Label="p2_track_MatchChi2" Expression="p2_track_MatchChi2"/>
        </Output>
      </Selection>
      <Class ClassIndex="0">
        <Ranges>
          <Range Index="0" Min="1.9398722211905195e-11" Max="7.3125672340393066e-01"/>
          <Range Index="1" Min="1.1149591766297817e-02" Max="2.1987730026245117e+01"/>
          <Range Index="2" Min="8.0223334953188896e-04" Max="1.4998396873474121e+01"/>
          <Range Index="3" Min="0.0000000000000000e+00" Max="1.3410498201847076e-01"/>
          <Range Index="4" Min="6.2147693634033203e+01" Max="5.5240347656250000e+04"/>
          <Range Index="5" Min="2.3049588203430176e+00" Max="1.0273892211914062e+02"/>
          <Range Index="6" Min="2.6357038223068230e-06" Max="8.1560057401657104e-01"/>
          <Range Index="7" Min="2.4348450367028818e-08" Max="6.9920772314071655e-01"/>
          <Range Index="8" Min="6.1073677670719917e-07" Max="1.0170480012893677e+00"/>
          <Range Index="9" Min="0.0000000000000000e+00" Max="6.0000000000000000e+00"/>
          <Range Index="10" Min="0.0000000000000000e+00" Max="6.0000000000000000e+00"/>
          <Range Index="11" Min="0.0000000000000000e+00" Max="7.0000000000000000e+00"/>
          <Range Index="12" Min="3.0045099556446075e-03" Max="1.0000000000000000e+00"/>
          <Range Index="13" Min="4.3871507048606873e-02" Max="7.7615455627441406e+01"/>
          <Range Index="14" Min="1.3122613541781902e-02" Max="7.5904670715332031e+01"/>
          <Range Index="15" Min="1.5132799744606018e-02" Max="7.9378517150878906e+01"/>
        </Ranges>
      </Class>
      <Class ClassIndex="1">
        <Ranges>
          <Range Index="0" Min="2.1115165509399958e-05" Max="7.2934836149215698e-01"/>
          <Range Index="1" Min="1.3430085778236389e-01" Max="2.4977943420410156e+01"/>
          <Range Index="2" Min="2.2036740556359291e-02" Max="1.4991107940673828e+01"/>
          <Range Index="3" Min="0.0000000000000000e+00" Max="1.3771665096282959e-01"/>
          <Range Index="4" Min="4.1293342590332031e+01" Max="2.1269572265625000e+04"/>
          <Range Index="5" Min="2.7823791503906250e+00" Max="5.1121429443359375e+01"/>
          <Range Index="6" Min="3.9169070078060031e-05" Max="9.2367273569107056e-01"/>
          <Range Index="7" Min="4.2437626689206809e-05" Max="7.4490576982498169e-01"/>
          <Range Index="8" Min="3.1205789127852768e-05" Max="1.0534354448318481e+00"/>
          <Range Index="9" Min="0.0000000000000000e+00" Max="7.0000000000000000e+00"/>
          <Range Index="10" Min="0.0000000000000000e+00" Max="8.0000000000000000e+00"/>
          <Range Index="11" Min="0.0000000000000000e+00" Max="8.0000000000000000e+00"/>
          <Range Index="12" Min="3.8299348670989275e-03" Max="1.0000000000000000e+00"/>
          <Range Index="13" Min="1.4428974688053131e-01" Max="8.4554283142089844e+01"/>
          <Range Index="14" Min="1.4624765515327454e-01" Max="6.7723579406738281e+01"/>
          <Range Index="15" Min="4.5327022671699524e-02" Max="6.8506652832031250e+01"/>
        </Ranges>
      </Class>
      <Class ClassIndex="2">
        <Ranges>
          <Range Index="0" Min="1.9398722211905195e-11" Max="7.3125672340393066e-01"/>
          <Range Index="1" Min="1.1149591766297817e-02" Max="2.4977943420410156e+01"/>
          <Range Index="2" Min="8.0223334953188896e-04" Max="1.4998396873474121e+01"/>
          <Range Index="3" Min="0.0000000000000000e+00" Max="1.3771665096282959e-01"/>
          <Range Index="4" Min="4.1293342590332031e+01" Max="5.5240347656250000e+04"/>
          <Range Index="5" Min="2.3049588203430176e+00" Max="1.0273892211914062e+02"/>
          <Range Index="6" Min="2.6357038223068230e-06" Max="9.2367273569107056e-01"/>
          <Range Index="7" Min="2.4348450367028818e-08" Max="7.4490576982498169e-01"/>
          <Range Index="8" Min="6.1073677670719917e-07" Max="1.0534354448318481e+00"/>
          <Range Index="9" Min="0.0000000000000000e+00" Max="7.0000000000000000e+00"/>
          <Range Index="10" Min="0.0000000000000000e+00" Max="8.0000000000000000e+00"/>
          <Range Index="11" Min="0.0000000000000000e+00" Max="8.0000000000000000e+00"/>
          <Range Index="12" Min="3.0045099556446075e-03" Max="1.0000000000000000e+00"/>
          <Range Index="13" Min="4.3871507048606873e-02" Max="8.4554283142089844e+01"/>
          <Range Index="14" Min="1.3122613541781902e-02" Max="7.5904670715332031e+01"/>
          <Range Index="15" Min="1.5132799744606018e-02" Max="7.9378517150878906e+01"/>
        </Ranges>
      </Class>
    </Transform>
  </Transformations>
  <MVAPdfs/>
  <Weights>
    <Layout NLayers="3">
      <Layer Index="0" NNeurons="17">
        <Neuron NSynapses="21">
          -1.0890981496141514e+00 1.1484583706304281e+00 8.0925113727465847e-01 1.1971954315493922e+00 -1.3476047700632696e+00 2.1402959041855354e-01 -4.0505326348019888e-01 1.8173064517973252e+00 -1.0619948597381996e+00 -7.5674976625746027e-01 -1.6458818068604746e+00 -3.5567166928210747e-01 -1.2009811063045790e+00 -2.0508958026441254e-01 2.8791815789105446e-01 7.5615927447496623e-01 -1.9898308232882286e-01 2.2211946879882699e-01 8.8002406987158643e-01 1.3849354777019045e+00 -3.2204591553384382e-01 
        </Neuron>
        <Neuron NSynapses="21">
          -1.5651152923927389e+00 1.3719300376365431e+00 -6.4859202191614188e-02 -1.2284371367443030e+00 2.2415756142160609e-01 3.0277641069397698e+00 -1.0657099722639294e+00 -1.7137581426635666e+00 3.8909612378076663e-01 2.7850027710808972e-01 1.9308346742949174e+00 -4.6604373821221540e-01 -2.1771289773895736e-01 -1.8353311535881791e+00 2.7169239678791640e-01 -1.3919918847050523e+00 1.5737295005869323e+00 -1.1423803627755800e+00 6.7869756366443890e-01 1.2020027623548140e+00 8.8790619442159668e-01 
        </Neuron>
        <Neuron NSynapses="21">
          -6.1958289457390917e-02 9.2047025162432028e-01 -6.7095246944612952e-01 -1.2893939145290627e+00 7.5203907384148938e-01 -2.0346874487060729e-01 1.3991063831774386e+00 1.1633082509471182e+00 1.3933594327349454e+00 8.6773127531430472e-01 -1.0158709687774730e+00 1.1324524971028986e+00 -1.7957575527940515e+00 -5.7692629235092174e-01 -1.2236658266516647e-01 -1.8079250851506408e+00 1.1897985931016060e+00 2.4974113127490671e-01 -4.2847279731130861e-01 3.7224551763746999e-01 -3.5417033467023995e-01 
        </Neuron>
        <Neuron NSynapses="21">
          -5.0320518339752607e-01 2.6287688434167067e+00 -5.8803258162583716e-01 -4.1739937060881904e-01 -4.0437922528039294e-01 1.4579808348995760e+00 -9.4432383938038211e-01 -8.7017039486366421e-01 -1.1386244775684735e+00 2.9237795845431008e-01 8.6538589309094638e-01 1.2336817009187488e+00 -3.9350072675216113e-01 -1.0538125964603784e+00 -1.5225418908912094e+00 1.0858413142384813e+00 8.9667150780750382e-01 2.0256715444280293e+00 -1.0571553571987136e+00 9.9168582350802126e-01 -7.6588841559284748e-01 
        </Neuron>
        <Neuron NSynapses="21">
          -3.7068140853968236e-02 -5.6459925508756659e-01 7.9891688589411547e-01 -1.5522335236752145e+00 -7.2127228374579433e-01 -7.0919294643945596e-01 -4.7382131654791737e-01 -3.2986527227010692e-01 1.9248852960432172e+00 -2.2368628998029214e+00 -1.2579766096593465e+00 1.4879329654595688e+00 -9.3336531773527320e-01 2.9191870593294872e-01 -1.1795171277892618e+00 1.7563087214939707e-01 -1.2983556240330507e+00 -1.0644511613834748e+00 1.1122915252614234e+00 1.6655639258207979e+00 -1.1137421426741692e+00 
        </Neuron>
        <Neuron NSynapses="21">
          3.2654460953324489e+00 -1.0479467802770381e+00 -1.1507197558094382e+00 -4.6778422910629852e-01 1.1223714287958686e+00 -1.8329735406084708e+00 -1.3021880610647305e-01 1.2242078754445382e-01 7.9742280169648616e-01 -2.0834098934885610e+00 1.1116127614267015e+00 2.7443814477250345e-01 -1.0473591121060597e+00 1.6126417488215161e+00 -9.8163251106351668e-01 -1.5137906327467614e+00 7.3503444172077492e-01 2.1275782997501608e-01 2.2346536298501487e+00 7.7555375960339168e-01 -6.4652511979326121e-03 
        </Neuron>
        <Neuron NSynapses="21">
          -7.8993604052896871e-01 4.8830273251837536e-01 -2.0697269243109049e+00 4.8794112224653058e-01 9.0794703772939556e-01 -1.3899690742951634e+00 2.9438767100555174e-01 -1.8358038627356588e+00 2.0858980913314340e-01 4.9094208839252140e-01 1.0363112040080418e+00 -2.4434049980936901e+00 2.6677535883227410e-01 2.2533882818419895e-01 1.4229909717041302e+00 1.6636803050615587e-01 -7.8151778660833504e-01 2.4358769568044045e-01 -1.1684108378294247e+00 1.5688864025612630e+00 1.2673431778858562e+00 
        </Neuron>
        <Neuron NSynapses="21">
          -5.3010802905864030e-01 4.1793695114677848e-01 -7.2392769217606151e-02 -1.8135671891549352e+00 1.3883242572332466e+00 1.0183851675473869e+00 -8.7573213464446609e-01 -8.1744089264212572e-01 4.9707644354668040e-01 3.2918712107781511e-01 -3.1678638970199702e-01 7.9714153487771988e-01 -1.5708135941774473e+00 -8.3895378115776201e-02 5.7525938513107278e-01 5.7622624625694996e-01 1.2375250825144752e+00 9.2202046267451510e-01 -1.2738390035305898e+00 -6.0607529161741480e-01 1.0693994753091698e+00 
        </Neuron>
        <Neuron NSynapses="21">
          -1.5081135636862122e+00 -3.6886601755097598e-01 1.2381867107636477e+00 5.2109072214764540e-01 4.2535763551076994e-01 7.9320660932001918e-01 1.5243175662165114e+00 -2.3706810264573450e+00 9.0952818546373038e-01 -6.6378998838754155e-01 1.3741732188719228e-03 -2.3058051855564528e+00 -1.6052258737783967e+00 9.0201276784806361e-01 1.3897639266569513e+00 -1.7301745854263286e+00 4.8222195586543753e-01 -3.5249771061356489e-01 5.2539171054484590e-01 1.7678792546433115e+00 -3.0684603686511736e-01 
        </Neuron>
        <Neuron NSynapses="21">
          -3.2958553603242957e-01 -6.6129194152994486e-01 6.9518913697489271e-01 7.5750027662928854e-01 1.5990923841456803e+00 6.0106854434017387e-01 -1.0477281991895908e+00 -2.0903564094630740e+00 1.1278526458485378e+00 -3.3902297615819380e-03 -1.5177739983062959e+00 -7.3386419022458105e-01 2.5365170660335512e-01 -6.1502548878266905e-01 -1.6755496823236418e+00 1.6446669044713116e+00 1.4068745613832396e+00 -6.3304197337037638e-01 -9.3568754769820139e-01 1.6326158848522985e+00 1.0994512955027276e+00 
        </Neuron>
        <Neuron NSynapses="21">
          -4.7039759624133631e-01 2.3583385594794162e-01 -2.1262894505839269e+00 -1.7388906395016597e+00 2.1467989091047630e+00 1.0864524113631693e+00 5.0403014510701472e-01 4.6110520619725072e-02 1.9387658093088638e+00 -1.8026834800488107e+00 -1.3984089233666450e+00 -2.2190716272657954e-01 -1.4597401783709250e+00 -1.1007469551662707e+00 1.7035605758120034e+00 -1.1278119637318638e+00 1.4255416118546529e+00 -3.5064791372152004e-01 -1.0181953432068189e+00 -1.0804429870211738e+00 1.0783965082209441e+00 
        </Neuron>
        <Neuron NSynapses="21">
          2.6258697024953476e-01 1.2153566681635180e+00 -1.3346752728766629e+00 8.5581777846260232e-01 -9.1793664086027393e-01 1.1115101794683573e+00 -2.0130257439055560e-01 -1.5493272605081829e+00 -1.0824863946167000e+00 -2.0114430539872798e+00 -4.4751627640710723e-01 -1.8747861245297595e+00 -1.5560897665172044e+00 -9.3753508299074706e-01 1.7000299196850331e-02 -9.0011922679450129e-01 -8.6748509040407673e-01 9.5617672537486109e-01 -1.1100477967546349e+00 1.5349631690462184e-01 -1.0064159447342902e+00 
        </Neuron>
        <Neuron NSynapses="21">
          1.1338696104065250e-01 -2.5647603615490883e-01 1.1218871317186501e+00 -7.3982646393477280e-01 -1.0567647506745752e+00 -3.6048543177018361e-02 -5.6326598979993681e-01 -1.4737742441886208e+00 7.7474919112567464e-01 1.1198816064634232e-02 1.9132672734150427e-01 -4.5857808564038316e-01 1.9946795068058912e-01 -1.2801700559644349e-01 9.5582218187886148e-02 1.2882656817678704e+00 8.0754969175931379e-01 2.6064900800983528e-02 1.2507542143699454e-01 8.7047842206413950e-01 1.2179378003539298e+00 
        </Neuron>
        <Neuron NSynapses="21">
          -8.8875631349950501e-01 3.5102411781442677e-01 -6.1414325909632350e-01 8.6403591400134649e-01 1.6986109888263767e+00 -4.4442428199247841e-01 -5.4403594156471891e-01 1.3619555764702317e-02 6.6290510300701710e-02 -1.6280409954699222e+00 -1.5971334213570096e+00 -1.1008406095375023e+00 -1.4250603570020857e+00 -9.5607593294198689e-01 1.3840083990893892e+00 -1.8628521830600060e+00 1.9949041438587003e+00 -5.7800129950554890e-01 7.9752968182804918e-01 -1.0988751617127541e+00 4.5142358011471173e-01 
        </Neuron>
        <Neuron NSynapses="21">
          -1.2594045544620683e-01 -1.4987757551480680e+00 4.2505601378707240e-03 4.7866211928870923e-02 -1.1393338547812168e+00 -2.5671563971641209e-01 -1.8032436872103730e+00 -9.6718067247516759e-01 1.9617970242676728e+00 -1.1059613753154185e+00 -2.8396842650605425e-01 -6.7700432871329641e-01 -1.2597786656053174e+00 -2.9122505075107830e-01 -8.1051725866613111e-01 -1.3245107228549222e+00 1.5655208624115768e+00 -6.7100798363733138e-01 -1.3789491598138441e+00 1.7540654733137258e+00 3.5722602242677315e-01 
        </Neuron>
        <Neuron NSynapses="21">
          1.1680557482793938e+00 1.3392369752552780e+00 -1.9379315104565129e+00 9.4100694681621855e-01 1.7423404004202956e+00 -1.1082376205035156e+00 -1.1549687313140451e+00 -2.0814786422954401e-01 -9.6177826764522922e-01 -1.1249257185942257e-01 1.1277202205535108e+00 1.0367242278856545e+00 1.4874280094159706e+00 1.0523408160624775e-01 6.8777250864730144e-01 -1.9075865978385282e+00 1.3217621444962873e+00 -5.8651688737673302e-01 -1.4976205134006304e+00 -5.6519627904338329e-02 1.3395692600214404e+00 
        </Neuron>
        <Neuron NSynapses="21">
          3.4183199236804918e-01 8.0314003555164426e-01 6.4434195811242301e-01 4.7122407269650601e-01 -1.6767228045259572e+00 -2.1470581465618900e-02 2.3227328797800859e+00 -1.3458985078808605e+00 -4.3813464350766582e-03 -6.9880734769994801e-01 2.6173157869965052e-01 1.8425913598100144e-01 2.9804283937645931e-01 -2.0157867072007249e+00 1.1026214081490808e+00 1.5794028211021769e+00 -8.8936401374802257e-02 -5.1470393387260649e-01 -7.9164256885747253e-01 -1.4688394483594498e+00 -1.7858599744954484e+00 
        </Neuron>
      </Layer>
      <Layer Index="1" NNeurons="22">
        <Neuron NSynapses="1">
          3.2731504892519425e-01 
        </Neuron>
        <Neuron NSynapses="1">
          -1.4929062740427990e-01 
        </Neuron>
        <Neuron NSynapses="1">
          -3.2822780975310223e-01 
        </Neuron>
        <Neuron NSynapses="1">
          2.1380099070530362e-03 
        </Neuron>
        <Neuron NSynapses="1">
          -1.4326518499046133e+00 
        </Neuron>
        <Neuron NSynapses="1">
          2.4327389017452675e-01 
        </Neuron>
        <Neuron NSynapses="1">
          -1.0499395136796437e+00 
        </Neuron>
        <Neuron NSynapses="1">
          1.2616546666629338e+00 
        </Neuron>
        <Neuron NSynapses="1">
          -1.5131064942998935e+00 
        </Neuron>
        <Neuron NSynapses="1">
          -8.2163384660890604e-01 
        </Neuron>
        <Neuron NSynapses="1">
          -6.3140478356507324e-02 
        </Neuron>
        <Neuron NSynapses="1">
          -3.2580061101394120e-01 
        </Neuron>
        <Neuron NSynapses="1">
          -1.2466747272008771e+00 
        </Neuron>
        <Neuron NSynapses="1">
          2.7363851981470944e-01 
        </Neuron>
        <Neuron NSynapses="1">
          5.6228959314081253e-03 
        </Neuron>
        <Neuron NSynapses="1">
          -9.3993169497617834e-01 
        </Neuron>
        <Neuron NSynapses="1">
          4.7588310795753269e-01 
        </Neuron>
        <Neuron NSynapses="1">
          2.0491728224345092e-02 
        </Neuron>
        <Neuron NSynapses="1">
          2.6805868509117575e-01 
        </Neuron>
        <Neuron NSynapses="1">
          -2.4056799967584905e-01 
        </Neuron>
        <Neuron NSynapses="1">
          9.9630951165903947e-01 
        </Neuron>
        <Neuron NSynapses="1">
          2.0341982431099606e+00 
        </Neuron>
      </Layer>
      <Layer Index="2" NNeurons="1">
        <Neuron NSynapses="0"/>
      </Layer>
    </Layout>
  </Weights>
</MethodSetup>
