<?xml version="1.0"?>
<MethodSetup Method="MLP::MLPCJ">
  <GeneralInfo>
    <Info name="TMVA Release" value="4.1.4 [262404]"/>
    <Info name="ROOT Release" value="5.34/07 [336391]"/>
    <Info name="Creator" value="pseyfert"/>
    <Info name="Date" value="Sat Dec 21 19:42:18 2013"/>
    <Info name="Host" value="Linux lxbuild175.cern.ch 2.6.18-308.4.1.el5 #1 SMP Wed Apr 18 16:26:27 CEST 2012 x86_64 x86_64 x86_64 GNU/Linux"/>
    <Info name="Dir" value="/auto/sigma0/pseyfert/zoontuple/Bender_v22r7/Phys/Tau23Mu/scripts/TMVA_training_v3"/>
    <Info name="Training events" value="41107"/>
    <Info name="TrainingTime" value="8.18412605e+02"/>
    <Info name="AnalysisType" value="Classification"/>
  </GeneralInfo>
  <Options>
    <Option name="NCycles" modified="Yes">600</Option>
    <Option name="HiddenLayers" modified="Yes">N+5</Option>
    <Option name="NeuronType" modified="Yes">tanh</Option>
    <Option name="RandomSeed" modified="No">1</Option>
    <Option name="EstimatorType" modified="Yes">CE</Option>
    <Option name="NeuronInputType" modified="No">sum</Option>
    <Option name="V" modified="Yes">False</Option>
    <Option name="VerbosityLevel" modified="No">Default</Option>
    <Option name="VarTransform" modified="Yes">N</Option>
    <Option name="H" modified="Yes">False</Option>
    <Option name="CreateMVAPdfs" modified="No">False</Option>
    <Option name="IgnoreNegWeightsInTraining" modified="No">False</Option>
    <Option name="TrainingMethod" modified="No">BP</Option>
    <Option name="LearningRate" modified="No">2.000000e-02</Option>
    <Option name="DecayRate" modified="No">1.000000e-02</Option>
    <Option name="TestRate" modified="Yes">5</Option>
    <Option name="EpochMonitoring" modified="No">False</Option>
    <Option name="Sampling" modified="No">1.000000e+00</Option>
    <Option name="SamplingEpoch" modified="No">1.000000e+00</Option>
    <Option name="SamplingImportance" modified="No">1.000000e+00</Option>
    <Option name="SamplingTraining" modified="No">True</Option>
    <Option name="SamplingTesting" modified="No">False</Option>
    <Option name="ResetStep" modified="No">50</Option>
    <Option name="Tau" modified="No">3.000000e+00</Option>
    <Option name="BPMode" modified="No">sequential</Option>
    <Option name="BatchSize" modified="No">-1</Option>
    <Option name="ConvergenceImprove" modified="No">1.000000e-30</Option>
    <Option name="ConvergenceTests" modified="No">-1</Option>
    <Option name="UseRegulator" modified="Yes">False</Option>
    <Option name="UpdateLimit" modified="No">10000</Option>
    <Option name="CalculateErrors" modified="No">False</Option>
    <Option name="WeightRange" modified="No">1.000000e+00</Option>
  </Options>
  <Variables NVar="16">
    <Variable VarIndex="0" Expression="TMath::Exp(-1000*LifeTime)" Label="TMath::Exp(-1000*LifeTime)" Title="transformed decay time" Unit="1" Internal="TMath_Exp__M_1000_T_LifeTime_" Type="F" Min="1.93987222e-11" Max="7.31256723e-01"/>
    <Variable VarIndex="1" Expression="IPSig" Label="IPSig" Title="IP significance" Unit="1" Internal="IPSig" Type="F" Min="1.11495918e-02" Max="2.49779434e+01"/>
    <Variable VarIndex="2" Expression="VertexChi2" Label="VertexChi2" Title="vertex #chi^{2}" Unit="1" Internal="VertexChi2" Type="F" Min="1.89490011e-03" Max="1.49983969e+01"/>
    <Variable VarIndex="3" Expression="acos(dira)" Label="acos(dira)" Title="pointing angle" Unit="1" Internal="acos_dira_" Type="F" Min="0.00000000e+00" Max="1.37716651e-01"/>
    <Variable VarIndex="4" Expression="pt" Label="pt" Title="p_{T}" Unit="[MeV/c]" Internal="pt" Type="F" Min="4.12933426e+01" Max="3.79619180e+04"/>
    <Variable VarIndex="5" Expression="min(p0_IPSig,min(p1_IPSig,p2_IPSig))" Label="min(p0_IPSig,min(p1_IPSig,p2_IPSig))" Title="min. #mu IP significance" Unit="1" Internal="min_p0_IPSig,min_p1_IPSig,p2_IPSig__" Type="F" Min="2.30495882e+00" Max="1.02738922e+02"/>
    <Variable VarIndex="6" Expression="DOCAone" Label="DOCAone" Title="DOCA (#mu 1 and 2)" Unit="mm" Internal="DOCAone" Type="F" Min="2.63570382e-06" Max="9.23672736e-01"/>
    <Variable VarIndex="7" Expression="DOCAtwo" Label="DOCAtwo" Title="DOCA (#mu 2 and 3)" Unit="mm" Internal="DOCAtwo" Type="F" Min="2.43484504e-08" Max="7.44905770e-01"/>
    <Variable VarIndex="8" Expression="DOCAthree" Label="DOCAthree" Title="DOCA (#mu 1 and 3)" Unit="mm" Internal="DOCAthree" Type="F" Min="6.10736777e-07" Max="1.05343544e+00"/>
    <Variable VarIndex="9" Expression="isolationd" Label="isolationd" Title="isolationd" Unit="" Internal="isolationd" Type="F" Min="0.00000000e+00" Max="7.00000000e+00"/>
    <Variable VarIndex="10" Expression="isolatione" Label="isolatione" Title="isolatione" Unit="" Internal="isolatione" Type="F" Min="0.00000000e+00" Max="8.00000000e+00"/>
    <Variable VarIndex="11" Expression="isolationf" Label="isolationf" Title="isolationf" Unit="" Internal="isolationf" Type="F" Min="0.00000000e+00" Max="8.00000000e+00"/>
    <Variable VarIndex="12" Expression="CDF3" Label="CDF3" Title="cone isolation" Unit="1" Internal="CDF3" Type="F" Min="3.00450996e-03" Max="1.00000000e+00"/>
    <Variable VarIndex="13" Expression="p0_track_MatchChi2" Label="p0_track_MatchChi2" Title="track match #chi^{2} (#mu 1)" Unit="1" Internal="p0_track_MatchChi2" Type="F" Min="5.59116006e-02" Max="8.45542831e+01"/>
    <Variable VarIndex="14" Expression="p1_track_MatchChi2" Label="p1_track_MatchChi2" Title="track match #chi^{2} (#mu 2)" Unit="1" Internal="p1_track_MatchChi2" Type="F" Min="1.31226135e-02" Max="7.59046707e+01"/>
    <Variable VarIndex="15" Expression="p2_track_MatchChi2" Label="p2_track_MatchChi2" Title="track match #chi^{2} (#mu 3)" Unit="1" Internal="p2_track_MatchChi2" Type="F" Min="1.51327997e-02" Max="7.93785172e+01"/>
  </Variables>
  <Spectators NSpec="0"/>
  <Classes NClass="2">
    <Class Name="Signal" Index="0"/>
    <Class Name="Background" Index="1"/>
  </Classes>
  <Transformations NTransformations="1">
    <Transform Name="Normalize">
      <Selection>
        <Input NInputs="16">
          <Input Type="Variable" Label="TMath::Exp(-1000*LifeTime)" Expression="TMath::Exp(-1000*LifeTime)"/>
          <Input Type="Variable" Label="IPSig" Expression="IPSig"/>
          <Input Type="Variable" Label="VertexChi2" Expression="VertexChi2"/>
          <Input Type="Variable" Label="acos(dira)" Expression="acos(dira)"/>
          <Input Type="Variable" Label="pt" Expression="pt"/>
          <Input Type="Variable" Label="min(p0_IPSig,min(p1_IPSig,p2_IPSig))" Expression="min(p0_IPSig,min(p1_IPSig,p2_IPSig))"/>
          <Input Type="Variable" Label="DOCAone" Expression="DOCAone"/>
          <Input Type="Variable" Label="DOCAtwo" Expression="DOCAtwo"/>
          <Input Type="Variable" Label="DOCAthree" Expression="DOCAthree"/>
          <Input Type="Variable" Label="isolationd" Expression="isolationd"/>
          <Input Type="Variable" Label="isolatione" Expression="isolatione"/>
          <Input Type="Variable" Label="isolationf" Expression="isolationf"/>
          <Input Type="Variable" Label="CDF3" Expression="CDF3"/>
          <Input Type="Variable" Label="p0_track_MatchChi2" Expression="p0_track_MatchChi2"/>
          <Input Type="Variable" Label="p1_track_MatchChi2" Expression="p1_track_MatchChi2"/>
          <Input Type="Variable" Label="p2_track_MatchChi2" Expression="p2_track_MatchChi2"/>
        </Input>
        <Output NOutputs="16">
          <Output Type="Variable" Label="TMath::Exp(-1000*LifeTime)" Expression="TMath::Exp(-1000*LifeTime)"/>
          <Output Type="Variable" Label="IPSig" Expression="IPSig"/>
          <Output Type="Variable" Label="VertexChi2" Expression="VertexChi2"/>
          <Output Type="Variable" Label="acos(dira)" Expression="acos(dira)"/>
          <Output Type="Variable" Label="pt" Expression="pt"/>
          <Output Type="Variable" Label="min(p0_IPSig,min(p1_IPSig,p2_IPSig))" Expression="min(p0_IPSig,min(p1_IPSig,p2_IPSig))"/>
          <Output Type="Variable" Label="DOCAone" Expression="DOCAone"/>
          <Output Type="Variable" Label="DOCAtwo" Expression="DOCAtwo"/>
          <Output Type="Variable" Label="DOCAthree" Expression="DOCAthree"/>
          <Output Type="Variable" Label="isolationd" Expression="isolationd"/>
          <Output Type="Variable" Label="isolatione" Expression="isolatione"/>
          <Output Type="Variable" Label="isolationf" Expression="isolationf"/>
          <Output Type="Variable" Label="CDF3" Expression="CDF3"/>
          <Output Type="Variable" Label="p0_track_MatchChi2" Expression="p0_track_MatchChi2"/>
          <Output Type="Variable" Label="p1_track_MatchChi2" Expression="p1_track_MatchChi2"/>
          <Output Type="Variable" Label="p2_track_MatchChi2" Expression="p2_track_MatchChi2"/>
        </Output>
      </Selection>
      <Class ClassIndex="0">
        <Ranges>
          <Range Index="0" Min="1.9398722211905195e-11" Max="7.3125672340393066e-01"/>
          <Range Index="1" Min="1.1149591766297817e-02" Max="2.1987730026245117e+01"/>
          <Range Index="2" Min="1.8949001096189022e-03" Max="1.4998396873474121e+01"/>
          <Range Index="3" Min="0.0000000000000000e+00" Max="1.3410498201847076e-01"/>
          <Range Index="4" Min="6.2147693634033203e+01" Max="3.7961917968750000e+04"/>
          <Range Index="5" Min="2.3049588203430176e+00" Max="1.0273892211914062e+02"/>
          <Range Index="6" Min="2.6357038223068230e-06" Max="7.3856800794601440e-01"/>
          <Range Index="7" Min="2.4348450367028818e-08" Max="6.9920772314071655e-01"/>
          <Range Index="8" Min="6.1073677670719917e-07" Max="1.0170480012893677e+00"/>
          <Range Index="9" Min="0.0000000000000000e+00" Max="6.0000000000000000e+00"/>
          <Range Index="10" Min="0.0000000000000000e+00" Max="6.0000000000000000e+00"/>
          <Range Index="11" Min="0.0000000000000000e+00" Max="7.0000000000000000e+00"/>
          <Range Index="12" Min="3.0045099556446075e-03" Max="1.0000000000000000e+00"/>
          <Range Index="13" Min="5.5911600589752197e-02" Max="7.2067237854003906e+01"/>
          <Range Index="14" Min="1.3122613541781902e-02" Max="7.5904670715332031e+01"/>
          <Range Index="15" Min="1.5132799744606018e-02" Max="7.9378517150878906e+01"/>
        </Ranges>
      </Class>
      <Class ClassIndex="1">
        <Ranges>
          <Range Index="0" Min="2.1115165509399958e-05" Max="7.2934836149215698e-01"/>
          <Range Index="1" Min="1.3430085778236389e-01" Max="2.4977943420410156e+01"/>
          <Range Index="2" Min="2.2036740556359291e-02" Max="1.4991107940673828e+01"/>
          <Range Index="3" Min="0.0000000000000000e+00" Max="1.3771665096282959e-01"/>
          <Range Index="4" Min="4.1293342590332031e+01" Max="2.1269572265625000e+04"/>
          <Range Index="5" Min="2.7823791503906250e+00" Max="4.9517536163330078e+01"/>
          <Range Index="6" Min="3.9169070078060031e-05" Max="9.2367273569107056e-01"/>
          <Range Index="7" Min="5.9152989706490189e-05" Max="7.4490576982498169e-01"/>
          <Range Index="8" Min="3.1205789127852768e-05" Max="1.0534354448318481e+00"/>
          <Range Index="9" Min="0.0000000000000000e+00" Max="7.0000000000000000e+00"/>
          <Range Index="10" Min="0.0000000000000000e+00" Max="8.0000000000000000e+00"/>
          <Range Index="11" Min="0.0000000000000000e+00" Max="8.0000000000000000e+00"/>
          <Range Index="12" Min="3.8299348670989275e-03" Max="1.0000000000000000e+00"/>
          <Range Index="13" Min="1.4428974688053131e-01" Max="8.4554283142089844e+01"/>
          <Range Index="14" Min="1.4624765515327454e-01" Max="6.7723579406738281e+01"/>
          <Range Index="15" Min="4.5327022671699524e-02" Max="6.8506652832031250e+01"/>
        </Ranges>
      </Class>
      <Class ClassIndex="2">
        <Ranges>
          <Range Index="0" Min="1.9398722211905195e-11" Max="7.3125672340393066e-01"/>
          <Range Index="1" Min="1.1149591766297817e-02" Max="2.4977943420410156e+01"/>
          <Range Index="2" Min="1.8949001096189022e-03" Max="1.4998396873474121e+01"/>
          <Range Index="3" Min="0.0000000000000000e+00" Max="1.3771665096282959e-01"/>
          <Range Index="4" Min="4.1293342590332031e+01" Max="3.7961917968750000e+04"/>
          <Range Index="5" Min="2.3049588203430176e+00" Max="1.0273892211914062e+02"/>
          <Range Index="6" Min="2.6357038223068230e-06" Max="9.2367273569107056e-01"/>
          <Range Index="7" Min="2.4348450367028818e-08" Max="7.4490576982498169e-01"/>
          <Range Index="8" Min="6.1073677670719917e-07" Max="1.0534354448318481e+00"/>
          <Range Index="9" Min="0.0000000000000000e+00" Max="7.0000000000000000e+00"/>
          <Range Index="10" Min="0.0000000000000000e+00" Max="8.0000000000000000e+00"/>
          <Range Index="11" Min="0.0000000000000000e+00" Max="8.0000000000000000e+00"/>
          <Range Index="12" Min="3.0045099556446075e-03" Max="1.0000000000000000e+00"/>
          <Range Index="13" Min="5.5911600589752197e-02" Max="8.4554283142089844e+01"/>
          <Range Index="14" Min="1.3122613541781902e-02" Max="7.5904670715332031e+01"/>
          <Range Index="15" Min="1.5132799744606018e-02" Max="7.9378517150878906e+01"/>
        </Ranges>
      </Class>
    </Transform>
  </Transformations>
  <MVAPdfs/>
  <Weights>
    <Layout NLayers="3">
      <Layer Index="0" NNeurons="17">
        <Neuron NSynapses="21">
          -1.7680346802764950e+00 1.4433765275398800e+00 8.4600938495040789e-01 2.4315648074354015e+00 -8.7426887531187214e-01 -3.8859402126024034e-01 1.7294409800451224e-01 1.8330896560165273e+00 -1.0179107897452615e+00 -1.9169734712877456e-02 -1.3138153129527959e+00 8.1953113294064961e-01 -1.1712696212275313e+00 4.0117621039242202e-01 2.2560237146683408e+00 7.2514086692925395e-01 -4.8957768957608422e-01 1.7578400947287887e+00 -5.1707766923882281e-01 1.3850213271443823e+00 -7.6318835993773737e-01 
        </Neuron>
        <Neuron NSynapses="21">
          -1.6438840622066215e+00 1.7003190166282386e-01 -4.3349968010774245e-02 -4.0234857568015734e+00 5.7780676809923570e-01 6.2259687271993984e+00 -7.1642101996561003e-01 -1.6037429147192472e+00 -2.4983612147898273e+00 7.5993119464231584e-01 1.7153905391735056e+00 -1.8472876307960240e-01 -2.2742103610877099e-01 -3.0856176787952814e-03 1.1548534514157804e+00 -1.4195578401090752e+00 1.7341321301635544e+00 -3.0758917074582679e+00 -1.7745965469053075e+00 1.2005976151934239e+00 2.1335070951362520e+00 
        </Neuron>
        <Neuron NSynapses="21">
          6.3041372450043953e-01 1.8271522602791828e+00 -7.3802486613409213e-01 -1.0497814137380361e+00 1.3990548658684812e+00 -1.3709495670157329e-02 1.7268262021015741e+00 1.0637108180797961e+00 6.1257694393945272e-01 1.0117787329894374e+00 -1.4599532670640318e+00 1.2791887266427422e+00 -1.7680022002426599e+00 2.4184507954298842e-01 -7.2501076874822123e-01 -1.7876484770348244e+00 1.0756329580055908e+00 1.3340738443153868e+00 -8.8975030310807857e-01 3.7692975249737426e-01 -7.8429901911108868e-01 
        </Neuron>
        <Neuron NSynapses="21">
          -7.2340661106469792e-02 3.0504213530306759e+00 -4.7831760570438969e-01 -1.3432169753175125e+00 9.1307951650909269e-01 1.3720798676402479e+00 -1.1837876187204188e+00 -8.1503019136005739e-01 6.5319815539134285e-01 1.0721823070387082e+00 1.4531956000823674e+00 1.4640490003906790e+00 -3.9426711952033949e-01 -2.2112307109039988e+00 -6.8163428601410725e-01 1.0487600122526735e+00 8.0741863431342431e-01 7.9570872688326710e-01 1.1226496299910198e+00 9.9006479955689186e-01 3.1177900964728983e-01 
        </Neuron>
        <Neuron NSynapses="21">
          -5.5443219340102290e-01 7.3406531068528869e-01 7.9032280503721564e-01 -5.8048726234448655e-01 -1.8081185232145693e+00 -1.7885393113509668e-01 -1.7634110474149436e-01 -2.3219744912192641e-01 1.3248196930831297e+00 -2.1911441804329033e+00 -6.6445577086416219e-01 1.6517879199311936e+00 -9.5328351272700684e-01 -1.9009421423986239e-01 -9.9205998896878045e-01 1.3963884826861567e-01 -1.2991757152073089e+00 -7.0020409855081300e-01 9.1836055602109168e-01 1.6603289098808900e+00 -2.3213743824853217e+00 
        </Neuron>
        <Neuron NSynapses="21">
          5.0211727283593843e+00 -2.5321693132423571e+00 -1.1650843716527726e+00 4.2656811003531037e-01 1.7254733572534531e+00 -4.1213865646136503e+00 -3.5595892007993152e-01 2.5732119221586985e-01 1.5873250380975537e-01 -1.5295910763905498e+00 1.8850026138442777e+00 1.9028093889441244e-01 -1.0749018207591732e+00 5.2304993809018043e+00 -3.1095237390695032e+00 -1.5481935287783122e+00 7.5951665656959400e-01 3.5355313609593148e-01 2.7555446751861106e+00 7.6925929206361554e-01 -3.6167545563445391e-01 
        </Neuron>
        <Neuron NSynapses="21">
          -3.2595885710936807e+00 1.0343094219561606e+00 -2.1227525206933526e+00 2.1854079083506756e-01 -1.1898813781991653e+00 -1.4188676916927212e+00 3.0980843362806426e-01 -2.0390800360352865e+00 -1.6833901469140353e+00 1.2321157860688989e+00 2.2059848263012540e+00 -2.3075774404174165e+00 2.4425481090603610e-01 -1.1625843467137214e+00 8.6631693702186019e-01 1.8216269688521239e-01 -7.7572166550594757e-01 5.7383356233709260e-01 -2.4293102081630997e+00 1.5704586070348585e+00 1.5208585452863181e+00 
        </Neuron>
        <Neuron NSynapses="21">
          -1.5961137496811690e+00 5.2336712071540048e-01 -5.7774763821165261e-02 -4.9311640114023880e-01 -7.7349000200153306e-01 -7.6152893308351921e-01 -7.1656293557514295e-01 -7.2712617684901382e-01 -5.3906609716449916e-01 1.2397221473739322e+00 7.4935932839741382e-01 8.4093712669510401e-01 -1.5867570817708534e+00 -7.2123872237579389e-01 1.8352143916829817e+00 5.4271015509081089e-01 1.2208172520322604e+00 8.3069558510358432e-01 1.5405698462664710e+00 -6.1174741420295820e-01 1.3711589536592383e-01 
        </Neuron>
        <Neuron NSynapses="21">
          -2.9639084333992338e+00 -9.1029099562101101e-01 1.2026551030455390e+00 4.3748538832921907e-01 -3.8924297363196207e+00 9.3738405540348602e-01 1.8189854289395002e+00 -2.5566582916063294e+00 1.8097678185781478e+00 2.9673610222000335e-01 8.2431986737103247e-01 -2.1232199417654756e+00 -1.6295906353659224e+00 4.7348061836751565e-01 4.2725976847885466e-01 -1.7251291996448215e+00 5.2674582197057751e-01 -1.1776498915406411e-01 1.3553804367590820e+00 1.7688060821918323e+00 -8.1929055932982342e-01 
        </Neuron>
        <Neuron NSynapses="21">
          -2.8257695881831763e-01 3.9191217611644125e-01 7.5591915101316787e-01 1.1935630125732732e+00 8.8878551364905889e-01 1.7603913920184997e+00 -1.1639385642172562e+00 -2.0336430801949095e+00 1.7154848447483302e+00 3.4048877594905969e-01 -1.1829899326143314e+00 -3.4390712910804733e-01 2.3768239556120860e-01 -4.8046004598763692e-01 -2.2676380436083914e+00 1.5993781400509475e+00 1.4221956977016910e+00 -1.3506328957731639e+00 -9.1620936420185095e-01 1.6276819832306495e+00 1.1597878919476852e+00 
        </Neuron>
        <Neuron NSynapses="21">
          6.8246865896404907e-01 -8.3306333817248135e-01 -2.0831529208955577e+00 1.4066666057668944e+00 2.4212095011868939e+00 2.9217789709304882e+00 1.1283545255379261e+00 1.4819159637568824e-01 1.5395987408228404e+00 -1.3030879343809192e+00 -1.1075596358701623e+00 5.5315528289745911e-02 -1.4603912119402604e+00 5.8580327881821027e-02 1.4233685138453587e+00 -1.1792656933518804e+00 1.3930798886906262e+00 -7.1488091216265848e-01 -2.7608690444158492e+00 -1.0860765676899191e+00 8.0891537880583009e-01 
        </Neuron>
        <Neuron NSynapses="21">
          9.7764178084652320e-01 1.5547097305538304e+00 -1.3179233356106201e+00 2.3151619200452234e+00 2.8861339065657987e-01 2.9241742326434048e+00 2.8240312600087097e-01 -1.4250830951351119e+00 5.1071475520303944e-01 -1.8783244267685526e+00 -2.2923667160584835e-01 -1.6368667506800363e+00 -1.5592996910222034e+00 -1.9453245584867765e-01 9.9316492256863920e-01 -9.5999557326093798e-01 -9.1021423533323875e-01 -4.3743488369434513e-01 -2.0879339979565237e+00 1.4855878901581451e-01 -1.3107545732789025e-01 
        </Neuron>
        <Neuron NSynapses="21">
          8.5041031915651377e-02 2.5004133709825238e-01 1.1070398484217536e+00 5.1855600032457627e-01 3.9352561874967801e-01 -2.3755417412269872e-01 -2.9734120074647297e-01 -1.4689147741280155e+00 1.0820591538723403e+00 9.1387058770916585e-01 1.3726154714954171e+00 -7.0400383627404695e-01 1.7729211635301170e-01 7.9547198154575516e-01 -8.9773619147788908e-01 1.2727278422622992e+00 1.0383831489448510e+00 -1.5424260559186580e+00 -1.0944475480609199e+00 8.7374079496107504e-01 9.1545528319692171e-01 
        </Neuron>
        <Neuron NSynapses="21">
          7.5323589597321594e-01 -1.2969851621058202e+00 -6.2512420932299939e-01 -9.4273796044552982e-01 -1.3191455657884577e-01 2.4735352369398236e-02 -5.1252369957986010e-01 9.9229712700703590e-02 -6.2565627095932863e-01 -4.6861277902464488e-01 -3.4354164162743078e-01 -1.6368958304659353e+00 -1.4741211444866089e+00 -4.8032907873381347e+00 3.9077045494104166e+00 -1.8453238775622869e+00 1.8433190218615259e+00 -3.0524819201686073e+00 -1.0833371237666880e+00 -1.1044488184990031e+00 -1.5041904081995919e-01 
        </Neuron>
        <Neuron NSynapses="21">
          -6.7332020117746583e-01 -9.0079016891381014e-01 7.6890170733063127e-03 7.1354840432811673e-01 -1.0718483188488976e+00 -2.9349780028721406e-01 -2.6390959159071654e+00 -8.4817339272471393e-01 3.6221873934996935e+00 -8.6354357215187180e-02 4.2674297979085352e-01 -5.8112099889856494e-01 -1.2661521692332576e+00 -6.5995602697665934e-01 -1.4705037364597978e-01 -1.3448275477584606e+00 1.5111450182668600e+00 -1.0985332694308152e+00 -9.0982235162027625e-01 1.7506883401979565e+00 -9.2137162393162986e-01 
        </Neuron>
        <Neuron NSynapses="21">
          1.6587575469292253e+00 1.0528813851919041e+00 -1.8549352886365589e+00 1.4063233396500947e+00 2.6940947753575024e+00 -4.0235413945598508e-01 -6.7589739101318835e-01 -1.1533654988044985e-01 -2.7187818961253716e+00 2.8014144406923508e-01 2.3674189791871321e+00 8.7487648710722798e-01 1.4608040271564964e+00 -7.7641698365975120e-01 2.6844053975082334e+00 -1.9061565095552395e+00 1.3434284249631570e+00 -5.5178270493248338e-01 7.9016612473715808e-01 -6.2306021426988330e-02 4.8900022689637956e-01 
        </Neuron>
        <Neuron NSynapses="21">
          1.0508347515312602e-01 3.6492894745387700e-01 6.5005701775697367e-01 -9.2579290842747886e-01 -8.5857412077407991e-01 7.7723942951253422e+00 2.2932166756107351e+00 -1.4616877856507171e+00 3.9122258904723356e-01 -1.2271656043958645e+00 -6.8706471560171545e-01 2.1738188108652617e-01 3.2647925995960297e-01 -2.7080794523269049e+00 2.3447361029213796e+00 1.6153187627054966e+00 -1.1905023177164367e-01 -1.4727223566096176e-01 -2.9727705173777594e+00 -1.4622962136732121e+00 -1.7018304010739651e+00 
        </Neuron>
      </Layer>
      <Layer Index="1" NNeurons="22">
        <Neuron NSynapses="1">
          8.3612443334357134e-01 
        </Neuron>
        <Neuron NSynapses="1">
          -5.4973360558288542e-01 
        </Neuron>
        <Neuron NSynapses="1">
          1.3976319980097773e-02 
        </Neuron>
        <Neuron NSynapses="1">
          6.9145911918577041e-01 
        </Neuron>
        <Neuron NSynapses="1">
          -7.8955884561570988e-01 
        </Neuron>
        <Neuron NSynapses="1">
          -1.5799631028573671e+00 
        </Neuron>
        <Neuron NSynapses="1">
          -2.1824116621658143e+00 
        </Neuron>
        <Neuron NSynapses="1">
          1.8176355842129752e+00 
        </Neuron>
        <Neuron NSynapses="1">
          -1.3119820354885565e+00 
        </Neuron>
        <Neuron NSynapses="1">
          -2.1323453278099080e-01 
        </Neuron>
        <Neuron NSynapses="1">
          -7.7928848667321216e-01 
        </Neuron>
        <Neuron NSynapses="1">
          -7.6626922437761025e-01 
        </Neuron>
        <Neuron NSynapses="1">
          -1.0307633290869473e+00 
        </Neuron>
        <Neuron NSynapses="1">
          6.4024751986821360e-01 
        </Neuron>
        <Neuron NSynapses="1">
          -6.0642162611558825e-01 
        </Neuron>
        <Neuron NSynapses="1">
          -7.2535730411970034e-01 
        </Neuron>
        <Neuron NSynapses="1">
          5.5048537811025455e-01 
        </Neuron>
        <Neuron NSynapses="1">
          1.3262363263098536e+00 
        </Neuron>
        <Neuron NSynapses="1">
          6.2861880440297091e-01 
        </Neuron>
        <Neuron NSynapses="1">
          -4.4667048975222068e-01 
        </Neuron>
        <Neuron NSynapses="1">
          1.1340928607046397e+00 
        </Neuron>
        <Neuron NSynapses="1">
          2.2328875964947090e+00 
        </Neuron>
      </Layer>
      <Layer Index="2" NNeurons="1">
        <Neuron NSynapses="0"/>
      </Layer>
    </Layout>
  </Weights>
</MethodSetup>
