<?xml version="1.0"?>
<MethodSetup Method="MLP::MLPBNN">
  <GeneralInfo>
    <Info name="TMVA Release" value="4.1.4 [262404]"/>
    <Info name="ROOT Release" value="5.34/07 [336391]"/>
    <Info name="Creator" value="pseyfert"/>
    <Info name="Date" value="Thu Dec 12 21:07:13 2013"/>
    <Info name="Host" value="Linux lxbuild175.cern.ch 2.6.18-308.4.1.el5 #1 SMP Wed Apr 18 16:26:27 CEST 2012 x86_64 x86_64 x86_64 GNU/Linux"/>
    <Info name="Dir" value="/auto/sigma0/pseyfert/zoontuple/Bender_v22r7/Phys/Tau23Mu/scripts/TMVA_training"/>
    <Info name="Training events" value="52358"/>
    <Info name="TrainingTime" value="1.01053873e+04"/>
    <Info name="AnalysisType" value="Classification"/>
  </GeneralInfo>
  <Options>
    <Option name="NCycles" modified="Yes">600</Option>
    <Option name="HiddenLayers" modified="Yes">N+5</Option>
    <Option name="NeuronType" modified="Yes">tanh</Option>
    <Option name="RandomSeed" modified="No">1</Option>
    <Option name="EstimatorType" modified="No">MSE</Option>
    <Option name="NeuronInputType" modified="No">sum</Option>
    <Option name="V" modified="Yes">False</Option>
    <Option name="VerbosityLevel" modified="No">Default</Option>
    <Option name="VarTransform" modified="Yes">N</Option>
    <Option name="H" modified="Yes">True</Option>
    <Option name="CreateMVAPdfs" modified="No">False</Option>
    <Option name="IgnoreNegWeightsInTraining" modified="No">False</Option>
    <Option name="TrainingMethod" modified="Yes">BFGS</Option>
    <Option name="LearningRate" modified="No">2.000000e-02</Option>
    <Option name="DecayRate" modified="No">1.000000e-02</Option>
    <Option name="TestRate" modified="Yes">5</Option>
    <Option name="EpochMonitoring" modified="No">False</Option>
    <Option name="Sampling" modified="No">1.000000e+00</Option>
    <Option name="SamplingEpoch" modified="No">1.000000e+00</Option>
    <Option name="SamplingImportance" modified="No">1.000000e+00</Option>
    <Option name="SamplingTraining" modified="No">True</Option>
    <Option name="SamplingTesting" modified="No">False</Option>
    <Option name="ResetStep" modified="No">50</Option>
    <Option name="Tau" modified="No">3.000000e+00</Option>
    <Option name="BPMode" modified="No">sequential</Option>
    <Option name="BatchSize" modified="No">-1</Option>
    <Option name="ConvergenceImprove" modified="No">1.000000e-30</Option>
    <Option name="ConvergenceTests" modified="No">-1</Option>
    <Option name="UseRegulator" modified="Yes">True</Option>
    <Option name="UpdateLimit" modified="No">10000</Option>
    <Option name="CalculateErrors" modified="No">False</Option>
    <Option name="WeightRange" modified="No">1.000000e+00</Option>
  </Options>
  <Variables NVar="15">
    <Variable VarIndex="0" Expression="TMath::Exp(-1000*LifeTime)" Label="TMath::Exp(-1000*LifeTime)" Title="transformed decay time" Unit="1" Internal="TMath_Exp__M_1000_T_LifeTime_" Type="F" Min="1.93987222e-11" Max="7.31256723e-01"/>
    <Variable VarIndex="1" Expression="IPSig" Label="IPSig" Title="IP significance" Unit="1" Internal="IPSig" Type="F" Min="1.11495918e-02" Max="2.49779434e+01"/>
    <Variable VarIndex="2" Expression="VertexChi2" Label="VertexChi2" Title="vertex #chi^{2}" Unit="1" Internal="VertexChi2" Type="F" Min="8.02233350e-04" Max="1.49983969e+01"/>
    <Variable VarIndex="3" Expression="acos(dira)" Label="acos(dira)" Title="pointing angle" Unit="1" Internal="acos_dira_" Type="F" Min="0.00000000e+00" Max="1.37716651e-01"/>
    <Variable VarIndex="4" Expression="pt" Label="pt" Title="p_{T}" Unit="[MeV/c]" Internal="pt" Type="F" Min="4.12933426e+01" Max="5.52403477e+04"/>
    <Variable VarIndex="5" Expression="Laura_SumBDT" Label="Laura_SumBDT" Title="Laura_SumBDT" Unit="" Internal="Laura_SumBDT" Type="F" Min="-2.57286167e+00" Max="5.00000000e+00"/>
    <Variable VarIndex="6" Expression="min(p0_IPSig,min(p1_IPSig,p2_IPSig))" Label="min(p0_IPSig,min(p1_IPSig,p2_IPSig))" Title="min. #mu IP significance" Unit="1" Internal="min_p0_IPSig,min_p1_IPSig,p2_IPSig__" Type="F" Min="2.30495882e+00" Max="1.02738922e+02"/>
    <Variable VarIndex="7" Expression="DOCAone" Label="DOCAone" Title="DOCA (#mu 1 and 2)" Unit="mm" Internal="DOCAone" Type="F" Min="2.63570382e-06" Max="9.23672736e-01"/>
    <Variable VarIndex="8" Expression="DOCAtwo" Label="DOCAtwo" Title="DOCA (#mu 2 and 3)" Unit="mm" Internal="DOCAtwo" Type="F" Min="2.43484504e-08" Max="7.44905770e-01"/>
    <Variable VarIndex="9" Expression="DOCAthree" Label="DOCAthree" Title="DOCA (#mu 1 and 3)" Unit="mm" Internal="DOCAthree" Type="F" Min="6.10736777e-07" Max="1.05343544e+00"/>
    <Variable VarIndex="10" Expression="iso" Label="iso" Title="track isolation" Unit="1" Internal="iso" Type="F" Min="0.00000000e+00" Max="1.70000000e+01"/>
    <Variable VarIndex="11" Expression="CDF3" Label="CDF3" Title="cone isolation" Unit="1" Internal="CDF3" Type="F" Min="3.00450996e-03" Max="1.00000000e+00"/>
    <Variable VarIndex="12" Expression="p0_track_MatchChi2" Label="p0_track_MatchChi2" Title="track match #chi^{2} (#mu 1)" Unit="1" Internal="p0_track_MatchChi2" Type="F" Min="4.38715070e-02" Max="8.45542831e+01"/>
    <Variable VarIndex="13" Expression="p1_track_MatchChi2" Label="p1_track_MatchChi2" Title="track match #chi^{2} (#mu 2)" Unit="1" Internal="p1_track_MatchChi2" Type="F" Min="1.31226135e-02" Max="7.59046707e+01"/>
    <Variable VarIndex="14" Expression="p2_track_MatchChi2" Label="p2_track_MatchChi2" Title="track match #chi^{2} (#mu 3)" Unit="1" Internal="p2_track_MatchChi2" Type="F" Min="1.51327997e-02" Max="7.93785172e+01"/>
  </Variables>
  <Spectators NSpec="0"/>
  <Classes NClass="2">
    <Class Name="Signal" Index="0"/>
    <Class Name="Background" Index="1"/>
  </Classes>
  <Transformations NTransformations="1">
    <Transform Name="Normalize">
      <Selection>
        <Input NInputs="15">
          <Input Type="Variable" Label="TMath::Exp(-1000*LifeTime)" Expression="TMath::Exp(-1000*LifeTime)"/>
          <Input Type="Variable" Label="IPSig" Expression="IPSig"/>
          <Input Type="Variable" Label="VertexChi2" Expression="VertexChi2"/>
          <Input Type="Variable" Label="acos(dira)" Expression="acos(dira)"/>
          <Input Type="Variable" Label="pt" Expression="pt"/>
          <Input Type="Variable" Label="Laura_SumBDT" Expression="Laura_SumBDT"/>
          <Input Type="Variable" Label="min(p0_IPSig,min(p1_IPSig,p2_IPSig))" Expression="min(p0_IPSig,min(p1_IPSig,p2_IPSig))"/>
          <Input Type="Variable" Label="DOCAone" Expression="DOCAone"/>
          <Input Type="Variable" Label="DOCAtwo" Expression="DOCAtwo"/>
          <Input Type="Variable" Label="DOCAthree" Expression="DOCAthree"/>
          <Input Type="Variable" Label="iso" Expression="iso"/>
          <Input Type="Variable" Label="CDF3" Expression="CDF3"/>
          <Input Type="Variable" Label="p0_track_MatchChi2" Expression="p0_track_MatchChi2"/>
          <Input Type="Variable" Label="p1_track_MatchChi2" Expression="p1_track_MatchChi2"/>
          <Input Type="Variable" Label="p2_track_MatchChi2" Expression="p2_track_MatchChi2"/>
        </Input>
        <Output NOutputs="15">
          <Output Type="Variable" Label="TMath::Exp(-1000*LifeTime)" Expression="TMath::Exp(-1000*LifeTime)"/>
          <Output Type="Variable" Label="IPSig" Expression="IPSig"/>
          <Output Type="Variable" Label="VertexChi2" Expression="VertexChi2"/>
          <Output Type="Variable" Label="acos(dira)" Expression="acos(dira)"/>
          <Output Type="Variable" Label="pt" Expression="pt"/>
          <Output Type="Variable" Label="Laura_SumBDT" Expression="Laura_SumBDT"/>
          <Output Type="Variable" Label="min(p0_IPSig,min(p1_IPSig,p2_IPSig))" Expression="min(p0_IPSig,min(p1_IPSig,p2_IPSig))"/>
          <Output Type="Variable" Label="DOCAone" Expression="DOCAone"/>
          <Output Type="Variable" Label="DOCAtwo" Expression="DOCAtwo"/>
          <Output Type="Variable" Label="DOCAthree" Expression="DOCAthree"/>
          <Output Type="Variable" Label="iso" Expression="iso"/>
          <Output Type="Variable" Label="CDF3" Expression="CDF3"/>
          <Output Type="Variable" Label="p0_track_MatchChi2" Expression="p0_track_MatchChi2"/>
          <Output Type="Variable" Label="p1_track_MatchChi2" Expression="p1_track_MatchChi2"/>
          <Output Type="Variable" Label="p2_track_MatchChi2" Expression="p2_track_MatchChi2"/>
        </Output>
      </Selection>
      <Class ClassIndex="0">
        <Ranges>
          <Range Index="0" Min="1.9398722211905195e-11" Max="7.3125672340393066e-01"/>
          <Range Index="1" Min="1.1149591766297817e-02" Max="2.1987730026245117e+01"/>
          <Range Index="2" Min="8.0223334953188896e-04" Max="1.4998396873474121e+01"/>
          <Range Index="3" Min="0.0000000000000000e+00" Max="1.3410498201847076e-01"/>
          <Range Index="4" Min="6.2147693634033203e+01" Max="5.5240347656250000e+04"/>
          <Range Index="5" Min="-2.5728616714477539e+00" Max="5.0000000000000000e+00"/>
          <Range Index="6" Min="2.3049588203430176e+00" Max="1.0273892211914062e+02"/>
          <Range Index="7" Min="2.6357038223068230e-06" Max="8.1560057401657104e-01"/>
          <Range Index="8" Min="2.4348450367028818e-08" Max="6.9920772314071655e-01"/>
          <Range Index="9" Min="6.1073677670719917e-07" Max="1.0170480012893677e+00"/>
          <Range Index="10" Min="0.0000000000000000e+00" Max="1.3000000000000000e+01"/>
          <Range Index="11" Min="3.0045099556446075e-03" Max="1.0000000000000000e+00"/>
          <Range Index="12" Min="4.3871507048606873e-02" Max="7.7615455627441406e+01"/>
          <Range Index="13" Min="1.3122613541781902e-02" Max="7.5904670715332031e+01"/>
          <Range Index="14" Min="1.5132799744606018e-02" Max="7.9378517150878906e+01"/>
        </Ranges>
      </Class>
      <Class ClassIndex="1">
        <Ranges>
          <Range Index="0" Min="2.1115165509399958e-05" Max="7.2934836149215698e-01"/>
          <Range Index="1" Min="1.3430085778236389e-01" Max="2.4977943420410156e+01"/>
          <Range Index="2" Min="2.2036740556359291e-02" Max="1.4991107940673828e+01"/>
          <Range Index="3" Min="0.0000000000000000e+00" Max="1.3771665096282959e-01"/>
          <Range Index="4" Min="4.1293342590332031e+01" Max="2.1269572265625000e+04"/>
          <Range Index="5" Min="-2.2138717174530029e+00" Max="-5.2525274455547333e-02"/>
          <Range Index="6" Min="2.7823791503906250e+00" Max="5.1121429443359375e+01"/>
          <Range Index="7" Min="3.9169070078060031e-05" Max="9.2367273569107056e-01"/>
          <Range Index="8" Min="4.2437626689206809e-05" Max="7.4490576982498169e-01"/>
          <Range Index="9" Min="3.1205789127852768e-05" Max="1.0534354448318481e+00"/>
          <Range Index="10" Min="0.0000000000000000e+00" Max="1.7000000000000000e+01"/>
          <Range Index="11" Min="3.8299348670989275e-03" Max="1.0000000000000000e+00"/>
          <Range Index="12" Min="1.4428974688053131e-01" Max="8.4554283142089844e+01"/>
          <Range Index="13" Min="1.4624765515327454e-01" Max="6.7723579406738281e+01"/>
          <Range Index="14" Min="4.5327022671699524e-02" Max="6.8506652832031250e+01"/>
        </Ranges>
      </Class>
      <Class ClassIndex="2">
        <Ranges>
          <Range Index="0" Min="1.9398722211905195e-11" Max="7.3125672340393066e-01"/>
          <Range Index="1" Min="1.1149591766297817e-02" Max="2.4977943420410156e+01"/>
          <Range Index="2" Min="8.0223334953188896e-04" Max="1.4998396873474121e+01"/>
          <Range Index="3" Min="0.0000000000000000e+00" Max="1.3771665096282959e-01"/>
          <Range Index="4" Min="4.1293342590332031e+01" Max="5.5240347656250000e+04"/>
          <Range Index="5" Min="-2.5728616714477539e+00" Max="5.0000000000000000e+00"/>
          <Range Index="6" Min="2.3049588203430176e+00" Max="1.0273892211914062e+02"/>
          <Range Index="7" Min="2.6357038223068230e-06" Max="9.2367273569107056e-01"/>
          <Range Index="8" Min="2.4348450367028818e-08" Max="7.4490576982498169e-01"/>
          <Range Index="9" Min="6.1073677670719917e-07" Max="1.0534354448318481e+00"/>
          <Range Index="10" Min="0.0000000000000000e+00" Max="1.7000000000000000e+01"/>
          <Range Index="11" Min="3.0045099556446075e-03" Max="1.0000000000000000e+00"/>
          <Range Index="12" Min="4.3871507048606873e-02" Max="8.4554283142089844e+01"/>
          <Range Index="13" Min="1.3122613541781902e-02" Max="7.5904670715332031e+01"/>
          <Range Index="14" Min="1.5132799744606018e-02" Max="7.9378517150878906e+01"/>
        </Ranges>
      </Class>
    </Transform>
  </Transformations>
  <MVAPdfs/>
  <Weights>
    <Layout NLayers="3">
      <Layer Index="0" NNeurons="16">
        <Neuron NSynapses="20">
          1.1082684081632148e+00 1.7492771172964958e+00 3.6671765737284329e-01 1.5246774926069491e+00 -2.3708753281948018e+00 -1.0237017785499247e+00 7.6673291385002562e-01 1.4270110198979979e+00 -1.1711917098561404e+00 9.8655979504786606e-02 -1.2951375715423394e+00 -3.6162075587767434e-01 -1.0568882725362743e+00 -2.3267008510444909e-01 -2.7104634778552611e-01 5.6699289349869109e-01 -7.1970650894778154e-01 1.7928159736242397e+00 9.7819048884710255e-02 1.3320618783329947e+00 
        </Neuron>
        <Neuron NSynapses="20">
          -4.3077904913211745e-01 -2.2426822991182122e-01 1.7531446388500032e+00 1.0659518971472835e-01 -1.8843261851954245e+00 -1.3410009390594571e+00 1.5996029887706933e-01 -1.7530004868085900e+00 -1.9561637407823491e+00 1.6757984066737025e-01 7.8511527277729898e-01 1.4794017845163860e+00 -1.0180686092920503e-01 1.4413470759124480e-01 1.1311217578621608e+00 -6.4151909921078443e-01 -9.3262272660409717e-01 1.1841023741099830e+00 -1.1582591411205891e+00 1.0690467005622664e+00 
        </Neuron>
        <Neuron NSynapses="20">
          8.0187775414729390e-01 7.1829794022984561e-01 8.8184574077432187e-01 3.8012870405633442e-01 -5.1052059150422180e-01 1.1336819389344401e-01 1.2769695151874629e-02 6.4299428704172001e-01 1.0577282497527571e+00 1.3683587784958027e+00 1.5887893196323801e+00 1.2188988483480643e+00 -1.4369766614608459e+00 6.4985278010540826e-01 -1.6363537347865234e+00 -6.0004641079681509e-01 -3.7477592548741495e-01 -1.7294865433000062e+00 1.5299752273664042e+00 6.4537504847979188e-01 
        </Neuron>
        <Neuron NSynapses="20">
          -6.0501214221596589e-01 4.9318173193436948e-01 -5.5448879654154204e-01 3.1495714836146477e-01 1.2716281252639070e+00 6.9093294001959038e-01 2.7408885627057855e-01 -8.5879175705817468e-01 3.8009324596943195e-01 1.3222560548687248e-01 -4.2978111294549681e-01 -1.1792754307672821e+00 9.3270896960569671e-01 1.3624204196660787e+00 1.1535791609740846e+00 -7.1092292097382559e-01 -1.1087032172991540e+00 -1.9657627786713991e+00 1.2618599521355187e+00 4.7672788352381712e-01 
        </Neuron>
        <Neuron NSynapses="20">
          1.4847238243560268e+00 6.8411092237603111e-01 9.4545737970994082e-01 -1.0324196625630522e+00 -8.0814590336662595e-01 -3.6501562878809729e-01 1.3298446272727844e+00 -1.2867283916851708e+00 -2.0072645027656155e+00 -1.5016915367056944e+00 -4.5348783057467446e-01 9.2815258802975489e-02 1.8119217563306118e+00 -7.4693306518599101e-01 -1.5426768999462515e+00 1.2183824287834997e+00 -1.7949285070883719e-01 -1.7306703664078913e+00 -1.4698265251559883e+00 1.0128471375043049e-01 
        </Neuron>
        <Neuron NSynapses="20">
          -2.2598602468854221e+00 -1.3231879028028684e+00 8.7102399895716287e-01 1.5356319461669827e+00 -1.2440908238386097e+00 1.4851842077118431e+00 -1.5480137630804147e+00 -1.2753713336409853e+00 -2.5284647245851927e-01 1.6529480040832680e+00 -1.7867520275662157e+00 3.5727107104621564e-01 4.8308181357564278e-01 9.3447675039909972e-01 -9.4770304589567644e-01 1.4873991455876021e+00 1.0023940471275976e-01 -1.2929798211655124e+00 6.9456620677287906e-01 -1.0461612915734608e+00 
        </Neuron>
        <Neuron NSynapses="20">
          -1.8267839348899240e+00 2.9493801232415634e-01 -3.9260571126293531e-01 1.5185555758910250e+00 7.6189672590081270e-01 -4.3200668887338523e-01 -2.4006817946913762e-02 -3.2405842208848991e-02 -2.3468730953559716e+00 1.7677280118967253e-01 -1.2328508114079782e-01 -1.5412848587320784e+00 8.1222419592421613e-01 -6.1848047289403285e-01 -9.3225375007499423e-01 8.9254406529692387e-01 4.1442751778839613e+00 -2.0033043903625574e+00 3.0973468259644826e-01 1.5020759244540107e+00 
        </Neuron>
        <Neuron NSynapses="20">
          1.2938723847450846e+00 7.3402780846437121e-01 -1.3696218165228540e+00 -8.8584457280765894e-01 -1.4665440290287119e+00 6.8718795715155168e-01 8.6646672193445073e-01 -2.3839964148511547e-01 -7.9255335387620784e-01 -3.0915845641217871e-01 -1.5130943724754611e+00 7.0532307686764262e-01 1.7925893072134425e+00 2.7254412779839488e-01 -1.1501565675111394e+00 1.5705235375465110e-01 -1.3075192990841977e+00 1.7280249837321171e-01 8.3374165239962306e-01 -1.4400540539775335e+00 
        </Neuron>
        <Neuron NSynapses="20">
          1.0929060642547790e+00 1.2976541725895205e+00 4.3458186631839063e-01 2.9224817996158836e-01 8.1787535585890347e-01 -1.3023336128505021e+00 -1.0939961635862514e+00 8.2828772506876880e-01 -1.2729051205802158e+00 -6.0560341646239135e-01 1.3412155476506933e+00 1.2730800070013315e+00 -2.5896642959705639e-02 1.9457193969785493e+00 8.4760891928916071e-01 -2.0498243927802720e+00 -2.0493997585205365e-01 -3.1693993391684877e-01 4.5295102960058908e-01 -1.6452579851297995e+00 
        </Neuron>
        <Neuron NSynapses="20">
          -1.7636880420750438e+00 1.1752199863677915e+00 1.5985035509237084e+00 -2.3746837462160846e+00 -2.7535357538442368e-01 -1.2168014234288245e+00 -3.8498736723930521e-01 4.8124140738640353e-01 -7.5995825794407457e-01 -1.5219467680276202e+00 -1.2712698785016516e+00 1.3056335299878161e+00 1.7276945690672671e+00 1.4314146612026586e+00 2.9250551751504625e-03 -1.1730772119696837e+00 -4.1375206221755717e-01 7.6995331317259841e-01 4.8734857762762868e-01 -1.3521750803996475e+00 
        </Neuron>
        <Neuron NSynapses="20">
          -9.7499813398243851e-01 4.5006975180707903e-01 6.9815988993939104e-01 -1.7882348732047697e+00 1.2923295883606585e+00 6.5484310274542545e-01 -1.0223239348614459e+00 8.4774781487801931e-02 1.1885875487655642e+00 1.2971354810957414e+00 3.7365207389102922e-01 -1.9743790902999880e-03 -1.5944641426689152e+00 -6.3330951512010347e-02 1.7076645455188306e+00 8.1962027451656494e-01 -2.8541525915067262e-01 -3.2455793603390326e-01 1.6749286389713880e+00 -1.6492537790554527e+00 
        </Neuron>
        <Neuron NSynapses="20">
          -7.0349831389317674e-01 -7.3887253445117929e-01 -7.4170831251581482e-01 1.0070448844664841e+00 1.4254836278953413e+00 -6.3640151792392530e-01 3.4738377650974567e-01 2.4176730578213032e-01 -1.4769744580822732e+00 2.0579333868535690e-01 4.0679069088346748e-01 6.5499718870090096e-02 7.5840876800714851e-01 -7.9134153066004120e-01 6.8502529849303651e-01 -1.2212789948743674e+00 1.7353927300205546e-01 4.7325447820242578e-01 -1.4216525748906865e+00 -1.2418722709245567e+00 
        </Neuron>
        <Neuron NSynapses="20">
          -2.8888599728248963e+00 -9.4782264025309385e-02 -1.4021100439586638e+00 -1.7889720194512850e+00 -1.4493477109501172e+00 -4.5825378323969490e-02 -1.1913056876601624e+00 1.0324580070631970e+00 9.3747425044424859e-01 6.3733282870184774e-02 -1.4229357570631421e-01 -7.8482844268521224e-01 4.5061288653971415e-01 1.7260031625363603e+00 7.6461725810731893e-02 -1.1112272777377352e+00 -1.1030390462868431e+00 -1.1464119546855827e+00 -7.6076590979882086e-01 -1.5718726158061747e+00 
        </Neuron>
        <Neuron NSynapses="20">
          -1.2320072161663093e-01 3.3392252040984421e-01 1.7725960270511911e+00 -4.6700255964778709e-01 5.7880051699096373e-02 -6.4621561995503818e-01 -1.6552943868566121e+00 5.7954199228829473e-01 7.3833231555642798e-01 -9.2148951325335786e-03 -1.0314655388043907e+00 9.8284187567512615e-01 1.2709170348768370e+00 1.2985891032221051e+00 -2.9991510698090035e-01 -6.9247430501390217e-01 -1.9305273110581953e-01 6.0791493640438554e-01 1.0292020723619726e+00 -2.7064492618835861e-01 
        </Neuron>
        <Neuron NSynapses="20">
          -1.0036724235712975e-01 -1.8545090846891174e-01 -1.3783678276978935e+00 -8.5574282861081941e-01 -1.5337097036124467e+00 -6.7168120637946249e-01 -1.5489581399709853e+00 9.4819304447485031e-01 -2.0585678697304943e+00 9.0210076260897498e-01 -1.8324910579404929e+00 1.3125101003834221e+00 -8.2962410221273497e-01 1.0372028239729498e+00 -3.8781913774302090e-01 -2.1544665184313025e+00 1.0922429446335624e-01 2.9781088473595263e-01 -1.9432241432784167e+00 -1.4346849197507656e+00 
        </Neuron>
        <Neuron NSynapses="20">
          -1.2803241426171008e+00 -1.0219475878927577e+00 2.0374043439821330e+00 -2.2179120278398340e-01 3.1863228257477044e-01 -3.2546334999859350e-01 -1.1747792849569514e+00 -1.7978916873045279e+00 -5.2652734869327733e-01 -1.0858504709078241e+00 1.2140925231673021e+00 -1.5813650136982957e+00 -1.4599950217754316e+00 8.3641006222062630e-01 1.2951188372132627e+00 -8.6543867508805189e-02 4.2067152242620209e-01 -1.3382439153812307e+00 1.2936393656445884e+00 9.3721940459050890e-01 
        </Neuron>
      </Layer>
      <Layer Index="1" NNeurons="21">
        <Neuron NSynapses="1">
          1.1676505871023096e-01 
        </Neuron>
        <Neuron NSynapses="1">
          -7.5022237725260288e-01 
        </Neuron>
        <Neuron NSynapses="1">
          -1.8287301174378993e-02 
        </Neuron>
        <Neuron NSynapses="1">
          -4.8442333784432129e-01 
        </Neuron>
        <Neuron NSynapses="1">
          6.3848054808561802e-02 
        </Neuron>
        <Neuron NSynapses="1">
          2.7715746064245794e-01 
        </Neuron>
        <Neuron NSynapses="1">
          4.7523174810362057e-01 
        </Neuron>
        <Neuron NSynapses="1">
          1.3554351405869253e-01 
        </Neuron>
        <Neuron NSynapses="1">
          -3.9188539165522890e-01 
        </Neuron>
        <Neuron NSynapses="1">
          -1.8795113227494645e-01 
        </Neuron>
        <Neuron NSynapses="1">
          -1.2094448190376681e+00 
        </Neuron>
        <Neuron NSynapses="1">
          3.2053209167918334e-01 
        </Neuron>
        <Neuron NSynapses="1">
          -1.5685783566929845e+00 
        </Neuron>
        <Neuron NSynapses="1">
          -9.9238444769075562e-02 
        </Neuron>
        <Neuron NSynapses="1">
          -9.8422858967824503e-02 
        </Neuron>
        <Neuron NSynapses="1">
          -1.7458175674248716e-01 
        </Neuron>
        <Neuron NSynapses="1">
          3.8329439329164761e-01 
        </Neuron>
        <Neuron NSynapses="1">
          5.7583449792520634e-02 
        </Neuron>
        <Neuron NSynapses="1">
          1.1514306689764522e-02 
        </Neuron>
        <Neuron NSynapses="1">
          1.6149309692967065e-01 
        </Neuron>
        <Neuron NSynapses="1">
          -3.2456892029289308e-01 
        </Neuron>
      </Layer>
      <Layer Index="2" NNeurons="1">
        <Neuron NSynapses="0"/>
      </Layer>
    </Layout>
    <InverseHessian NElements="116281" NRows="341" NCols="341">
      <Row Index="0">
        9.6181463942332748e+00 -4.1382070957561601e-01 5.4512846820701499e-01 1.3155281738134406e+00 1.0320174428722395e+00 -7.2874962887742353e-02 -4.2086398545693382e-01 -4.1936067401198374e-02 -1.8196256902074559e-01 3.0476993798997411e-02 3.7583601433010777e-01 4.9063389215304065e-02 1.3191510512278356e+01 1.6797222061163612e+00 -7.7054639147978596e-02 -7.3953032396027782e-02 6.8057286781063653e-02 -1.4618893362715499e+00 3.4060856590273936e-01 -1.4918103777380455e+02 1.5030760624768371e+00 -5.5957307431219738e-01 7.1092121088142257e-01 3.8904193145001642e-01 3.4028482371104962e-01 -1.1777112161984621e-01 -1.3245884843958378e-01 4.1560131648717961e-02 -1.3912147703548734e+00 5.2981998656570085e-02 -2.9941451285095311e+00 1.2487683031812260e+00 6.4638410344510344e+00 6.2924318655291245e+00 -9.5838901398592344e-02 -7.8187012267913164e-02 8.4028465287091555e-02 -3.8357195004309480e-01 1.8021230573550684e+00 -7.5966168121100850e+01 2.2569232422218697e+00 -3.2523159822043657e-01 -4.1390891035415162e-01 1.0592622895597750e-01 4.0112020031433387e-01 2.1060802549333207e-02 1.2417283103359336e-01 -3.8577534314559049e-02 2.7778395364377051e-01 -5.9760173357150649e-02 -9.6287244329271893e-01 8.2152266744444991e-01 7.2269698078807139e+00 -3.1806592021875126e+01 3.3946858324249124e-02 2.8862488027552619e-02 1.6992666574787867e-02 1.2540033344259127e-01 -1.3735619405231791e+00 6.4606700024378341e+01 -6.9474761256418045e+00 -1.6249806296991623e-01 -1.2792866434646122e+00 -1.6352734170998984e+00 1.9932007674153240e-01 8.2207197056953757e-02 1.7309448251397785e-01 -2.0741328792715397e-02 1.6872373543517565e+00 -9.2465484787344260e-02 2.5713554855860465e+00 -2.8500570838458827e+00 -1.0073370948795059e+01 -7.9251631638836351e+00 3.0797629954478378e-01 2.4000229594797107e-01 -2.2645022370958355e-02 1.2344658865879019e+00 -2.1376589844931426e+00 -3.4982967948559804e+01 -5.5870581120377523e+00 1.3553814932360622e+00 -2.3198081619334694e+00 -1.0364747919419992e+00 1.5284624810707745e+00 1.5887579918926004e-01 6.6922588727789556e-01 -1.0137755681376648e-01 -3.4159725269417240e-01 -3.6320498283101915e-01 3.6731254906275170e+00 -2.5349929926916106e+00 -2.3697069029121650e+01 4.7014886016600428e+01 3.7143414114404083e-01 -6.0084710200336811e-01 6.7325748867792107e-02 1.2571010111611987e+00 -5.8984149773698857e-01 3.8903205934591369e+00 -6.7589258657348159e+00 -1.1799329147573658e+00 3.7069053263725871e-01 -2.4313939756054825e+00 -1.6182877731185683e-01 1.4903063015926221e-01 2.3097747540711699e-02 6.6845024004854064e-02 1.2053172985892324e+00 -2.9630700926927683e-02 1.2422755792447049e-01 1.2100394368017007e+00 -9.5995284448528508e+00 -3.0961163720755849e+00 -5.2360474573251548e-02 -2.5699521307657847e-02 -7.2727431971749246e-02 4.1722396866690126e-01 2.4016122282738006e-01 3.6744668616711124e+01 -3.2849764663265713e-01 -1.5636103529940719e+00 2.9472117515939096e+00 -4.8350896086962081e-02 2.0218155986401598e-01 -3.5885085058200061e-01 -1.0723042193386723e+00 1.1999889151143267e-01 5.5284066196417125e-02 2.3760700987951330e-01 -9.9793413194811151e+00 1.5263843268743944e+00 1.5820284186722191e+01 -5.4353100846895813e+01 -9.9827036632337096e-01 -1.8059516313835777e-01 -2.3276093072264192e-01 -1.4792406045825384e+00 4.7928954587586459e-01 1.5580072975870451e+01 4.8838117713334643e+00 -1.0579669739007707e+00 2.4877557949567652e-01 -3.0907544147868116e-01 4.4842134108463977e-01 1.8951711306995855e-01 -3.6925646519328226e-01 -3.2200203921223913e-02 -1.5405963210035623e-02 -6.0322803506477785e-02 -2.5966131839104749e+00 6.8515248073764923e-01 -1.6907377602047742e+01 -1.7823659525960274e+00 -7.1008944854471095e-02 -9.0768128905635237e-02 4.7647707599958469e-02 -1.1368980347533419e+00 9.2140158598583044e-02 -3.2928572350230382e+01 4.5733664781968697e+00 -1.2210770292732982e+00 8.1229260757736121e-02 -1.2345780559075603e-01 -5.9715962656468125e-01 -9.3435495169615967e-02 3.0349883151512547e-01 -1.0305732451781349e-01 2.9469530520631011e+00 -4.2613224240315800e-02 -3.6750321388766931e+00 5.0440970235150395e-01 -4.8797462724205758e+00 -1.2368236411377683e+01 7.1324321371922905e-02 4.0729202430839706e-01 4.7992182218502571e-02 4.1804200936149094e-01 3.1487539920748875e-01 -2.2917763811905843e+01 -3.9965012942994789e+00 -1.5422630230151313e-01 1.0741570913011551e+00 7.6175363065274837e-02 4.4978486796294359e-01 -1.9603149158194516e-01 -3.0006979986577198e-01 1.1734998641995416e-01 -1.0882645571154868e+00 -3.8386770992046571e-02 -1.8658422825624896e+00 1.1303991259081236e+00 1.0351738416056104e+01 -2.8878772173680957e+01 -2.3809292075025815e-01 -2.3090985974925049e-01 1.2910312026275170e-02 -9.0806920817354286e-01 -4.8281551983786386e-01 1.3547313428512915e+01 -2.8103574393886066e+00 -6.0744964367983934e-01 5.1068525792334563e-02 3.0772421035016473e-01 -1.2781171283938235e+00 -2.6436567443713038e-01 2.7007633893959310e-01 1.3870602269321303e-01 -2.9649021576907035e+00 7.7744048526238521e-02 -7.4812042582990834e-01 3.6867894600238005e-01 2.3147084537733221e+01 9.8571032047319420e+00 7.7882932890953382e-02 -3.6680606460321613e-01 -8.2573922800983079e-03 3.4534845635177369e-01 -1.3044344156450220e+00 1.1255520336059966e+01 -2.1636305128620994e+00 1.6466891196072797e-01 1.7657619265221136e-01 1.3992631749551254e-01 -1.0794684045316885e+00 -1.0696495987716670e-01 -2.0401093956131633e-01 -6.7157461300693388e-03 -5.0104773087636523e-01 3.0712338303468437e-02 -7.9100743152900144e-01 2.2895902751225217e-01 -5.7700728572711837e+00 1.4733176981841465e+01 4.3917075459795951e-02 1.8500542894701122e-01 -3.6275395101392827e-02 9.1725523058043268e-02 1.1685985614367320e+00 -1.0993928114371634e+01 -7.6415653655544205e+00 -1.0813667330691441e+00 -2.0674321293805487e-01 -2.8100319348495395e-01 -5.8354340314457698e-01 -5.1818663838155221e-01 -5.0133782870829563e-02 -1.5827552633798858e-01 -1.4050466325794506e+00 1.5534533176123172e-01 -9.1747931003980732e-01 1.8007275671184324e+00 -8.2596197565988518e+00 -1.1482607778979457e+01 -9.7935025458884273e-01 7.4420459773255732e-02 -1.4355317260386571e-01 -9.6937995123836274e-02 1.3716711086210733e+00 2.4861877413488855e+01 5.6338526565614910e-01 -3.2276348283761180e-01 7.3617328768401491e-02 8.0307047599981196e-02 -1.7074434753579837e-02 -8.0585433009744051e-02 3.5718359506775355e-01 9.2691655699887743e-04 1.5463822875512951e+00 -5.2768702024039403e-02 1.4735946227639474e-01 5.6777621767310027e-01 -4.2187101433320073e+00 -2.3861002568188908e+01 3.9940658195179737e-02 -2.6863997810017903e-01 6.2149635946790044e-03 1.6865225930578243e-01 -1.1686528015247133e-01 1.1502570209982153e+01 4.8659661835266643e-01 -2.2507223589585645e-01 -1.3738750385123444e-01 2.1740554092434028e-01 7.3504028295109558e-01 -7.4086315487575938e-02 2.9819962386140009e-01 -1.7631963192931893e-02 -8.5594673266578347e-01 -6.3964720818072168e-02 1.1151068421353725e+00 1.0431257567397427e+00 -9.8016467255923487e+00 -3.5926335983865538e+00 1.7814834599031693e-01 1.9239514708483091e-01 4.0618247212060865e-03 -3.8701477459698985e-01 1.4234398364877101e+00 2.5897953932182929e+01 -5.6933995331692815e+00 -6.1590323355548886e+00 1.0335097043145938e+00 -2.9681381206909769e+00 2.6415555620128311e-01 -1.0342391882899371e+00 -3.7723318696742481e-01 4.4124708900780879e-02 1.9605517691833372e+00 -1.7413224974035701e-01 -1.2573912968276630e+01 2.9135242246137913e+00 -5.1756676681076854e+00 1.5183510247809167e+01 -1.1492758202432871e+00 -1.0874812067258481e+00 -2.0462962343165142e-01 -1.6068645612968862e+00 3.8726476680930294e-01 -1.5740514156160252e+01 -2.2915570665497248e-01 -3.3718506259379186e+00 -5.0006159285901908e-03 2.7736441183592897e-01 5.2825951960315108e-02 -7.5478207229327493e-02 1.2903578345769734e-01 7.0922987237277066e-03 -5.2608506456599891e-01 6.4350141091276680e-03 -1.0064875344328984e+01 -1.1317001880988615e+00 -3.5741744926850791e+00 6.7858489714679671e+00 7.6673326166307731e-03 -4.9304647252064758e-02 1.4877773295112527e-02 5.9685188666729339e-03 1.0005418959371275e-02 2.9020735817877334e+01 -1.9843628149160434e+01 
      </Row>
      <Row Index="1">
        -4.1382128450835520e-01 1.1517887239229339e+02 -8.4397533202701291e-01 1.9263357066934117e+00 -4.2008980636971127e-01 2.8012076247218881e-01 8.8146963075713136e-01 4.6028636886568830e-01 -1.6138250646108645e+00 -4.7771068023781192e-02 -2.9973051479848722e+00 -5.5752778450992801e+00 2.8165897015403679e+01 3.6502007281060662e+02 5.4763014898094975e-01 -1.4894831245437237e+00 -2.0998396838299560e-01 3.0026768022696521e-01 6.2399712664663820e+00 -3.4081395596693085e+02 -1.7409703562756623e-01 -2.0073380615557753e+01 1.7982114269903993e+00 -9.7766469765126929e-01 4.1463078122786889e+00 -1.6119977489791426e-01 -6.8749368960655466e-01 -1.5495221357916709e+00 -6.6752648693165844e+00 -3.3449762934165372e-01 -2.0307441742322019e+00 -1.7562109994559505e+00 -1.2175397650971291e+00 -3.4168484577113858e+01 5.9201365269358042e-01 1.1349579503522045e+00 4.3974051514305501e-01 1.5568757691132351e-01 4.3194061570737183e+00 -1.6805042952932831e+02 -1.2236930692555305e-01 2.9116353950780738e+01 -3.0144248294290504e-01 -2.4285603600078867e-01 -1.6682045800691450e+00 -1.4435857946448238e-01 -3.5178247134860563e-01 5.3478151544413510e-01 6.9259460699623867e+00 -5.3948091748557403e-01 -3.1708704919175736e+00 -4.2696693634295544e+00 -2.9611722311693185e+01 -1.6063678623515722e+02 -5.6583979322013256e-01 1.2294938832140656e-01 2.5092216717593575e-02 -1.4105721805840916e+00 -3.9945336556073383e+00 1.1750923658437841e+02 2.6028580442798153e+00 2.0254829748206767e+01 2.4169625621373223e+00 6.0212458093404138e+00 -5.3002972124526728e+00 1.5590438308766699e-01 2.8315667420164159e+00 -3.2292873579362271e+00 -2.8028314572404218e+00 4.1926146303475909e-01 -4.2637910778810815e+00 5.3092537503519921e+00 6.7513257517558287e+00 -9.1550180319772124e+01 -3.0951625074975564e-01 -2.0049685075114172e+00 6.5440125601005616e-01 -1.2618243776119684e+00 7.0316162222817002e+00 8.4893701319052525e+01 -1.9619795891971719e+00 6.9706227789665377e+01 4.5384934951928226e+00 -3.8551537908796236e+00 -5.4170529539558654e-01 -2.6644134127646468e-01 1.0144589449704320e+00 -2.0880883477025400e+00 -1.2076863278494109e+01 8.9034097789107514e-01 1.0803937268183155e+01 9.4450828554338484e-01 2.8812794232468661e+00 7.8600446510625193e+02 -1.2381012931499922e+00 3.4739350944320311e+00 3.2068651025199135e-01 1.1130449196213874e+00 4.8566065774389422e+00 3.2297145492522191e+01 5.2516399223010990e-01 -9.5524223067378855e+01 -2.5201266444148529e-01 1.1252096061588635e-01 5.5383537938057268e+00 -3.1572448625789384e-01 3.4106595790748884e-01 5.2526492164965223e-02 -9.5228748609819807e+00 -1.2947592162995454e+00 2.7839772708000211e+01 -1.6432728061158912e+01 2.9133110745981270e+00 4.3401109802056260e+02 -8.0185947777841893e-01 1.1456048196855348e+00 2.5349622565639268e-01 2.2547662229759791e+00 -8.4520866147563964e+00 2.4008183238696392e+02 1.6097348050910343e+00 2.1359362346134318e+02 -2.2170738045017568e-01 1.3708130823313454e+00 1.2192952980190627e+01 9.4643525789112282e-01 1.4439010152414002e+00 -1.2081896266619412e+00 -1.0215874823907459e+01 9.5184315805840747e-03 -6.5043110963185811e+00 -1.9886556489343754e+01 1.5573340385200154e+01 -1.7775288306166919e+02 2.9631364957540696e-01 -4.1926455245592811e+00 -3.1772667888373540e+00 -2.2363601505839572e+00 -1.5016315051682771e-01 -3.5299167108132713e+02 -3.2492199641669917e+00 4.5908602570847336e+01 3.8997816732171904e+00 -1.2855381864698749e+00 4.6942977570314870e+00 5.0890381839304855e-01 1.8525566701281715e+00 -5.3004437380366110e-01 -9.5307915273298711e+00 8.1073590934466644e-02 -1.0090218256153371e+01 -1.4879585178286641e+01 -2.1303014432218117e+01 5.6491714343388048e+02 -3.6384340952051097e-01 -2.9486417112272472e+00 8.8288700269650555e-01 6.1489343293176644e+00 -9.5265069496241850e-01 -5.3780822317929506e+02 1.3074160929267484e-01 6.9429373675497430e+01 -1.5312601908154764e+00 2.2264950038294460e+00 -5.6884574202888887e+00 4.1285531827258848e-01 2.3736168725118407e+00 -1.2034565499965120e+00 -1.7931704605806480e+01 4.0110872050975321e-01 -1.3376606356932982e+01 -1.3131134129651075e+01 1.8459686980454251e+01 9.3598630780441113e+01 1.9738828885832085e+00 -2.2890348537363492e+00 -1.0593557497285064e+00 2.5084743087185215e+00 7.4163665935404826e+00 -1.0328330548293252e+02 3.4938837412056127e+00 6.1561491992528964e+01 -1.4645307144020339e+00 2.2848768869610190e+00 -9.9535668471488172e+00 -6.7521253458493646e-01 -5.7152815584813599e-01 -1.3926729241843145e+00 -7.4419750398212159e-01 6.5708898419399686e-01 -3.7326706440040709e+01 4.7819515162433150e+00 3.0538687035562234e+01 -5.6933869952307759e+01 4.5557107153812160e-01 1.7343533935110229e+00 -7.4730110741100553e-01 -6.1832986919311406e+00 2.6801375500425464e+00 -1.0703173491299287e+02 2.3699308768859839e-01 2.9289606653299167e+01 2.4012669714270773e-01 -8.6802973673193007e-01 -4.9915732768586807e-01 1.3019211215399928e-01 2.3554034042644911e-01 -8.2346377164853291e-01 -4.1013860038942340e-01 -4.7261273829721895e-01 1.0981305648645314e+01 5.5818108959902624e+00 -1.0067724486749233e+02 -8.3229965469839186e+01 8.7604327677630667e-01 5.6289236931452491e+00 -2.8584444123411767e-03 -2.9081183534318198e+00 -3.8088882178105035e+00 5.9582688947992253e+01 -2.1666942942869438e-01 -3.3583733296872047e+01 -1.9373782484358566e+00 -2.7596652086873874e-01 2.2802373395910625e+00 8.2070973672337538e-02 2.5515127843166757e-02 8.5146861393494611e-01 -8.7797843452169051e+00 -1.9844221997444028e-01 -1.8716318312913955e+00 1.8779204002339522e+00 3.4515131758119082e+01 -3.2148083340699060e+02 -6.6259582619067725e-02 -8.5910816875699858e-01 3.0903939024785404e-01 3.8788428601151181e-01 5.3608776772737601e+00 2.0902130347086396e+02 8.4167506523631785e-01 -1.7628564612824825e+01 -3.5668722909615176e+00 1.5178657438228266e-01 4.0888209088195850e+00 1.2717322527428496e-01 -2.1619713690169018e-02 1.6521509464514781e+00 8.9505907569888414e+00 -5.5898506939859194e-01 -1.0401516134648215e+01 2.4241224947434240e+01 -2.4033434142996143e+01 -2.9935143423108372e+02 5.2761471704533913e-01 -4.4031106451084101e-01 7.3668096427161323e-01 -1.3557753642047690e+00 7.2914238989626927e+00 3.6289025705323908e+01 -1.0113932061174915e+00 1.5475668920835281e+01 2.8132271566363127e+00 5.3237670492136235e-01 2.3222194305899837e+00 -2.1925378820104335e-01 -8.7328361563784096e-02 3.3026993634862989e-01 6.9588573194496739e+00 6.0543315088402438e-02 7.6891283032570410e+00 -2.7390889947212660e+00 -6.3537477929896351e+00 6.8258144004483825e+01 -5.9673509230011934e-01 2.1807951937381560e+00 -1.8197278950833784e-01 -9.7418848905517308e-01 -2.5485498392480368e+00 -5.8408556535987714e+01 -1.2815721424398285e-01 -1.4534680962015774e+00 -4.6106639330929724e+00 1.9842939472151360e+00 7.4244035668110975e-01 3.1474222862808254e-01 3.9046407532957894e-01 1.2462394984529197e+00 -6.7864744185724728e+00 -2.5327546384999150e-01 4.1652147750148272e+00 -8.9627085821674513e-01 -3.8246416525866920e+01 -6.0910101626271505e+01 -1.7391823199150886e+00 -8.0418841084504811e-01 3.2168797873667498e-01 -3.6233436370537220e-01 1.0628480215134157e+01 1.2578799326982300e+02 1.4025866224695736e+00 4.1005741946855028e+02 2.3203967873989431e+00 7.1601886700927544e+00 6.4763373456410278e+00 9.8825576536162052e-01 8.2211753070878384e+00 -7.7321363283005375e+00 -3.0405378963158565e+01 3.0598791426937555e-01 2.0395557466551395e-01 -5.9510999558453754e+00 -1.2217719690096575e+02 6.9086409704679198e+01 1.7579283881261309e-01 2.4563530329881496e+00 -1.7833950253805357e+00 -2.6607698347745838e+00 2.7724058917743790e+01 -1.1625277751519755e+02 7.8921906233869993e-02 2.8236462205433600e+02 1.8154655922006730e-02 3.3431279183123941e-01 1.4847495022472096e-02 -7.7661535294605066e-02 -9.8825616175767628e-02 -2.3482252113658619e-01 3.6296582133637578e+00 -1.3292695123875828e-01 -9.8513376394810791e+01 -1.3181225397920526e+00 6.9112938159296789e+01 -1.9537001414861635e+02 7.4211871451223668e-02 2.4084261318978450e-01 3.8417285122459499e-01 -6.8619741140039991e-02 6.9168298273123416e-02 2.9002124903228690e+02 -4.1498597405836598e+01 
      </Row>
      <Row Index="2">
        5.4512848359977906e-01 -8.4397441431343090e-01 9.0668035323078477e+00 -5.0068580196648109e-02 -8.0658876525268375e-01 -1.2854103220318547e-02 -1.1771457493687706e-01 -3.3188783184233933e-01 5.3009680680406746e-01 -8.3794924849541888e-02 8.4899415405484979e-01 -4.1284910071337766e-01 4.1407583336795994e+00 -1.3010353319827118e+01 -2.8974910911604868e-01 -2.2943361363734815e-01 1.0366633528880974e-02 -5.2993635292580610e-02 7.2034418115090020e+00 3.1851792063312701e+01 -1.5691939820526732e-02 3.2850015602913141e-01 8.4488771708695385e+00 -3.7988489859993868e-03 -1.5619682670649864e+00 -3.5730872361597393e-01 1.4175457063563185e-01 6.2496787498957262e-01 -6.3462941412289631e-01 -3.0248855741044915e-02 -6.5138575669503016e+00 -2.0086526934334987e+00 1.8865851796430352e+01 -1.9170347010775856e+01 -2.2166641174837590e-02 -9.2708815176067438e-03 -7.5238853424720434e-02 9.2038447493236408e-01 2.7734925483667174e+00 -3.5766789055246591e+01 -1.4784531615895349e-01 -2.9784287476249688e-01 1.8368721278659156e-01 4.3402452357241827e-03 -1.0680575938647463e-01 -1.3301373494192431e-01 1.6383707528534991e-02 -1.3159289952368813e-02 -2.7114281954804631e-01 -6.3267320690830020e-02 -3.1604082349010993e+00 -1.4064241985758219e+00 3.4695835508213861e+01 -2.8737393440184249e+00 -1.2923419786444904e-01 -3.3207335731721965e-02 -3.5550521242808296e-02 2.2607791443024228e-01 -3.3681616288182548e-01 1.7115321445977315e+01 -5.1291571605013475e-01 -2.1522634915602085e-01 -9.0533563472227403e+00 -1.1798084262705810e-01 1.4764947739231071e+00 1.1013328011683421e-02 4.6323705449399899e-02 -2.1438184943038507e-01 7.8357752811756498e-01 5.3183821525439878e-02 4.3200863328629602e+00 2.6437820132055503e+00 -1.6619115493176764e+01 -3.6365155168895225e+00 2.0508039573415648e-01 1.8349868662437530e-01 -8.2660216672923392e-02 -6.7537581290103077e-01 -6.7455788458183825e+00 3.8948579915336268e-01 -5.4641757942692060e-01 1.2666997851953923e+00 -7.4556382040721774e+00 3.7267492724291884e-01 1.8967398596328024e+00 -7.7944538261637564e-01 -5.7111824264552524e-02 6.2377689209947373e-01 -2.7055355107913837e-01 3.1276520206508718e-01 6.1895199175038655e+00 4.0960537003022903e+00 5.2464509517154738e+00 9.5246968945980370e-01 3.1438146603327821e-01 -6.2211181984886776e-01 -5.8468556668222982e-02 7.6626131571078915e-01 -1.1424310300499892e+01 1.2288046026353754e+01 -8.0425210012702397e-01 9.8182225865412676e-01 -3.4949751415618682e+00 5.9309806749316607e-01 4.9725889684147262e-01 6.1711868713873308e-01 -2.3953592338222052e-01 5.2337670504600164e-01 -3.3493799344007158e-01 1.5851825404404885e-02 -1.5499876282523246e+00 2.5431091419031446e+00 -1.7981885472131751e+01 -3.9818993432244724e+01 -7.2718756413078678e-02 9.0947284189184074e-01 2.1781870473540098e-02 1.0207527104728005e+00 -3.8171335956276220e+00 -1.3351294303092118e+01 8.5913494094482790e-01 -4.1078012310028367e-01 8.2187176369107391e+00 6.9747023347659365e-03 -3.3900958967146728e+00 6.0763266765214374e-01 3.3168801796613856e-02 2.7069662242155534e-01 8.8987719510986629e-01 -7.6841285802999801e-02 -1.5394110153784467e+01 -1.7804141700919516e+00 -7.8627196945672040e+00 7.0467872850572348e+00 -8.0694413882518434e-01 3.1323178980693811e-01 2.6147605542072938e-01 -6.3164268835801884e-01 1.1818806562622886e+01 1.9901119585921379e+01 8.7988347601397621e-01 -6.4800820033162676e-01 -4.5207189250416868e-01 1.9935388830645451e-01 1.4876539264304443e+00 3.6540856913813524e-01 -1.2966161828578571e-02 -9.7444207687526818e-02 -2.6359344211519335e+00 2.0130592634306277e-02 9.1985420648388185e+00 -1.0865943658428812e+00 -3.3089766902490339e+01 -2.6714990342246665e+00 -5.5409174985189136e-01 3.5490348774015246e-02 6.6119875150320861e-03 -1.6510393540506740e+00 3.3591779139453344e+00 -1.5424927165154259e+01 3.5514010534613583e-01 -4.1617300790443945e-01 3.1707708790612159e+00 7.0536902158245596e-02 -8.5205093105493290e-01 -6.1533271893451813e-01 2.4003116174222860e-01 -1.0497476967049335e-01 -7.4665849004569651e-01 4.9359626726072303e-02 1.7268278343728340e+00 -1.4924439449412610e+00 2.8603518446538601e+01 -1.3343860880638239e+01 3.5904095416732007e-01 1.3637858317705209e-01 -2.3484931311070309e-02 1.4224118839348421e-01 1.1146290588755452e+00 -5.0715388657026779e+01 1.8382664608267602e-01 5.9624531705431139e-03 5.4707082812078562e+00 -1.2282272250533310e-01 -1.4988288703426171e+00 -5.5923921100528462e-01 6.3004842281615403e-02 4.1092278385380654e-03 -7.1982157328926633e-01 1.2658003215516578e-01 -5.6957540764999841e+00 -1.6178416714452748e+00 -8.6196890455137520e-01 -1.0591413045083755e+01 1.1440813126372618e-01 -5.1299537903310544e-02 -5.5525272292292316e-02 9.4671207482158848e-01 1.2899148784949688e-01 -1.6781332147006612e+01 5.0312460515580248e-03 -2.4528587019066261e-01 -7.6988221717131111e-01 7.4589487289808964e-02 -3.8832470082761361e-02 -9.3065384939596332e-02 1.1623165731832863e-01 -3.5926536785244434e-02 1.1639489612949045e+00 -7.9814972407819818e-02 -1.4959313950630673e+00 -1.3631443218256205e+00 5.0042816383293939e+01 8.6755747379049808e+00 5.0195655816546836e-01 -8.3215501556859550e-01 -3.0066119766951005e-02 -4.3806635792400517e-02 -2.4639811245737508e-01 -3.3069041934050212e+01 -1.3101943112650360e-01 -6.9134690010566491e-02 -1.1144281989561318e+00 -9.0540037978987797e-02 -4.1587023372985760e-01 -2.9728529143616783e-01 -1.1061517135756205e-02 -2.4459184339218898e-01 1.8907850171387430e-01 -3.4234506780386920e-02 7.7233057884834366e-02 -3.0542496611967040e-01 -1.2965092248956706e+01 9.8801608545416926e+00 1.0022512589838561e-01 -1.3724660444872949e-01 -8.9449311576546009e-03 -8.6421405284514030e-02 -5.0126100293937337e-01 -5.1129526038880101e+01 -9.1601656752781757e-02 -4.0539777651648023e-01 -2.0442268845951648e+00 1.8049861432995584e-02 5.1997624849876800e-01 5.9012418680911338e-02 2.3764372346356488e-01 -5.5196536111859251e-01 -5.2350503241137680e-01 -1.7780983899162214e-01 5.3586721409535896e+00 1.5536730351490107e+00 -2.0043621312099901e+01 -2.6743261756178072e+00 -2.7269258057315948e-02 1.3409129674359388e-01 -8.4876595065778548e-02 -1.7748994328116030e-01 1.4768245470757743e-01 -5.9167367898715838e+01 9.1429097303123541e-02 -1.2824896074603132e-01 3.0463688502371853e+00 9.5354235578140489e-02 -9.8609852207132320e-01 -4.0300234328558482e-01 2.5882774708189071e-01 1.6611887436628114e-02 -3.1678938187488370e-01 -6.3011990831492726e-03 2.0022016975805919e+00 -3.9472106076636493e-01 -4.1903462226572827e+00 -3.3559987424074507e+00 2.6068300815805223e-01 -1.9687997677285196e-01 -9.4022302690181414e-02 1.0492674120479428e+00 -9.2735996700088896e-01 -1.1751648709755955e+01 3.7710125620038726e-02 -5.7417058862100134e-01 -1.5447744633293059e+00 7.1527204600833061e-02 9.9852707642573257e-02 -2.8113575483251840e-01 1.8473418891580340e-01 -4.5988624599194772e-01 4.1084314484862361e-01 -1.5858300206276235e-01 2.9870567487119644e+00 -1.6702835422183036e+00 5.9856497073736961e+00 -6.8713064525951992e+00 -9.1865022312615618e-02 2.3518293756847708e-01 -2.0547886334311330e-02 -4.3430506294672000e-01 2.4470541608981478e-01 -2.3225735724598053e+01 1.0564395882165498e+00 -6.0964622386667600e-01 4.2822328300976871e+00 9.4417125916145472e-01 -2.4188386678631302e+00 -1.1247233260378480e+00 6.5190765928000560e-01 5.2531862068262047e-01 -2.3453104400963873e+00 8.7860045212933488e-02 6.8678820468381572e+00 2.0874374355561116e+00 4.7326136260718741e+01 1.2039504557992991e+01 3.2917042388255868e-01 -3.0554365896108632e-01 -1.1822827929213095e-01 4.9650553362074223e-01 -1.0638153599209885e+00 -8.4024005554034673e+00 -8.8439737431064529e-04 -1.5999461750585944e+00 2.7405215680654058e-02 -1.2742872270700789e-01 1.0725300661753156e-02 -1.7795916089658620e-01 5.8387563405055687e-02 3.0158896129079821e-02 -3.5705558908089330e-01 -1.2098845553811313e-02 -2.8828586325097362e+01 5.0007622832501197e-01 -4.0111003580965679e+01 7.0408417504715919e+00 1.7783485957640982e-02 -2.3529167302528853e-02 -1.4383390530324169e-02 5.8118894172531910e-03 -9.0746418174650328e-03 1.2653378341726562e+01 -1.7379870879977570e+01 
      </Row>
      <Row Index="3">
        1.3155283353709719e+00 1.9263353507908676e+00 -5.0068425583276621e-02 2.8704584905833762e+01 8.4352019329821309e-02 1.0119007028743418e-01 1.0248959430113775e+00 8.2323179460079526e-02 1.3745333391125314e-01 -4.7168032363010245e-02 -3.7213058728584518e+00 -6.3102549130817609e-01 -3.7970712526125155e+01 5.5811012820631731e+01 6.0234394062300481e-03 -1.8050284398402311e-01 -6.8749374386783524e-02 1.1067848825359872e+00 -1.1040769202724403e+00 2.3774408892578720e+01 3.9126385888465887e-01 1.1024934343737143e+00 -1.4391114421486317e+00 6.2796722296030003e+00 2.1069777553797320e-01 -8.9690414158419690e-02 5.1742499984294943e-01 -6.7834028069344132e-02 -7.2999089432337705e-01 -1.6377944104982771e-02 1.5195214955549377e+00 2.6928914362663718e+00 -1.4092548282654471e+01 7.1133587956134107e+01 1.1129180086127539e-01 -4.1627173450660288e-01 -5.1308149420385037e-03 1.2394434004563240e+00 1.7977829822709195e+00 4.3542904361927924e+01 4.5744889682918038e-01 -2.4481619452979558e-01 -6.3759383483296905e-01 4.2801041195887022e+00 -3.3063659966653280e-02 1.8183769700816263e-01 -3.9936841845778404e-01 6.3914972085337959e-02 -3.6105221360967965e-01 -2.0795134553122038e-01 5.6046843926321444e+00 1.1693071903752830e+00 -2.2539859636020374e+01 -9.3470478374895166e+01 -2.4062561218001603e-02 4.4340778881371357e-01 -6.6302847560341549e-02 -5.2753054267541921e-01 -1.9721691404900394e+00 2.1965333310054078e+02 -2.0621430163447232e+00 -5.0795435968405400e-01 1.6324865641906883e+00 -4.3835058189962286e+00 -1.1789580199728267e+00 2.1285821327449861e-01 -3.1193582395194897e-01 1.4769369133405441e-01 1.6825478099188198e+00 -1.1962083353475914e-02 1.6337182048687939e+00 -1.6525005215076769e+00 2.6924387889795341e+01 3.8007379505989590e+01 -2.1355181007383273e-01 5.3645717881645549e-01 -5.6751959765934452e-02 -2.0667599841978550e+00 -1.9394349295830251e+00 1.0734337671901130e+01 -1.0117875637789702e+00 -2.9582178839170368e+00 -1.4746422454353423e+00 -4.9213648593644294e+01 1.4507008208433918e+00 -8.1777045242627355e-02 6.9358305010074117e-01 9.7157449370216184e-03 -4.4946565759182988e-02 1.4090510063167611e-01 7.0674496446438466e+00 3.7567350247458462e+00 3.3182928895399826e+01 -7.3758774737744773e+01 -5.5222220033013192e-02 5.8486128772594359e-01 -3.0234246275480901e-02 -1.2987766415046071e+00 3.4491026187020695e+00 -1.3484963697805807e+02 -3.1951017533085544e+00 5.1247404524099593e-01 5.0632455415070510e-01 6.1651183462158023e+00 -7.7023945432379448e-01 4.2599813594836455e-01 -4.5784956853493881e+00 -4.2310548874342768e-03 -1.2094127174630103e+00 -5.0667257284475253e-01 -2.1576454268732597e+01 5.6120782281339352e+00 3.7010978270755004e+00 2.7709909268012711e+02 -4.4094262321002409e-01 1.3585866311013002e+00 -1.8646108536005790e-01 -3.7936654501274929e+00 -4.4512134710703375e+00 1.9034361704435497e+02 -8.2024328664684443e-01 6.3821949762370682e+00 1.9770758882895092e+00 2.4858566993216563e+01 2.0133124533007701e-01 -8.6406369926596907e-03 -2.8692641556107401e-01 -3.7939780540583737e-02 -1.6772101791487071e-01 4.4028304701478865e-02 -7.4806610864312635e+00 -5.4158461212282774e+00 2.3525402536581019e-01 -5.4914566684652755e+02 -3.5618074709366643e-01 -1.0075781856246722e+00 1.3551329208759455e-01 -1.0771840653513935e+00 -2.9970851254225130e+00 1.2700473335964421e+02 1.2541218303859658e+00 1.1511135039605824e+00 1.1785825154359322e+00 -5.8822023574210771e+00 1.5382392171443513e+00 -1.1067510948765882e-01 2.8572761843117962e+00 -1.4994278032005104e-01 9.7180296301576448e+00 8.6246839933272673e-02 -3.7739886327775514e+00 8.0933193431731976e-01 2.2089486547261330e+01 -1.1735536174354768e+02 -6.2922169338082079e-01 -4.6577254059094009e-01 5.4503093325040872e-02 7.0467583257618038e-01 -5.9517742740947410e-01 -5.3736592442481310e+01 1.0844578404966527e+00 1.1124720126452612e+00 1.2763513798896970e+00 5.2017903744357579e+00 -6.7158619402052366e-01 2.6890489534331058e-01 -1.8302727627836148e+00 -1.3921650161718979e-02 3.5157505021619393e+00 3.3363273918159575e-02 9.5726513295122189e+00 1.5670465556766779e+00 -4.3249009861965810e+01 9.3396714433628176e+01 2.0341143919919713e-01 1.0181478057749840e+00 -1.0809135411502670e-01 -2.0896953037014021e-01 -1.3127201988411121e+00 -2.6266087886611172e+02 2.0330153295665743e+00 -1.9692614698370470e-01 -1.0965508743866605e+00 -2.5842775981804184e+01 1.6316348740544555e+00 -8.2104710630499200e-01 2.3410889842602645e+00 -2.8893676128638807e-01 -2.7958980819196100e+00 4.9556177638069487e-01 -9.1643420930657378e+00 1.1118141770176768e+00 2.9286076676936297e+01 -1.0559446164980299e+02 -9.1102901926529634e-01 -6.8567632030174475e-01 1.7175573685767731e-01 -1.0066239140553874e+00 1.5473091613426764e+00 1.9469265311386556e+02 -2.4252372656336219e-01 -4.2321676343550119e-01 -9.7496101724259554e-01 -1.8205753203778563e+01 3.0109880906474018e-01 -3.2196977367070950e-01 5.2824464252182901e-02 -1.5863169757199508e-01 -4.1541074076143119e+00 -1.9946421209877152e-01 2.0083366052065799e+00 1.0457146768503440e+00 -1.1539184532636446e+02 -1.6363997232467182e+02 4.2310615943487395e-02 2.0525943061356200e+00 1.0822440077782856e-01 6.1373913929922796e-01 -2.0772160020554065e+00 -4.1133172394593160e+01 -1.2680703168151688e+00 5.7245745686904304e-01 3.8921253157849328e-01 1.0105442659971720e+01 -8.6987077384474931e-01 -9.4158846836835008e-02 -2.3308681393213709e-01 3.7672093724431352e-02 -1.1068023206832232e+00 -9.7473251581999251e-02 -1.6922511310091850e+00 -2.6231381440343093e-01 1.9946963180967387e+01 -1.1677577069234208e+02 4.3914707936148090e-03 2.7988969158518096e-01 -4.0380398712358989e-02 -4.3826003378006684e-02 7.1964644006744938e-01 -2.0069856180639511e+02 -9.8434817680620368e-01 -6.2164878251295619e-01 1.0170949038898540e+00 -1.3574908008352539e+01 7.3875660171595747e-01 -3.5593361460778927e-01 2.3664094452635620e-01 -1.8082376811075898e-02 -1.0765281186090885e+00 7.9507837515742391e-02 4.7621474039603164e+00 -3.9522463519931899e+00 1.7516255139663429e+01 -8.5045709828381703e+01 -3.7817175026901295e-01 8.8220292706662928e-01 4.3201773126309934e-02 -2.6309552598771586e+00 3.7695867955192508e+00 1.0655258170497203e+02 -1.7243573181894367e+00 7.1904590940759761e-01 -5.4450717123100922e-01 -2.2017502251321410e+00 6.2131490499127029e-02 -8.9118572535404478e-02 -1.7031275796194345e+00 -7.9768905678546664e-03 1.6820050599249450e+00 -1.8703686242004314e-01 -3.9423965925987137e-01 1.1809004570653867e+00 3.8369322249850333e+00 3.3120593915196082e+01 -5.2641329961367965e-02 7.4721952673256542e-01 -1.3468525440162332e-01 -8.4601371469339748e-01 -2.8349263820113535e+00 -2.1717069068652989e+02 -3.6998780736311743e-01 -4.4102196035378705e-01 8.8322760538081457e-01 -4.4320724398452311e+00 2.2330417787942558e-01 -5.3828612278495030e-02 -1.0333045108904517e+00 -7.0375812960178141e-02 -6.1850437008490555e-01 3.0569258495970544e-02 -2.5178473298425037e+00 -9.8423986008299602e-01 -6.1381252081190254e+01 -7.0178179268777001e+01 -3.1803587262522204e-01 2.2730998237280442e-01 8.0237351089404871e-02 -4.7397545439230138e-02 5.2944237027761627e+00 -1.5512114153988105e+02 -1.4985318635637153e+00 1.0851016835717894e+01 2.7249084467092763e+00 -3.7561850326751383e+01 3.4699841655996413e+00 -9.2620788212429073e-01 7.8041794129236908e-01 -6.1801520403818055e-01 7.3107789471115527e+00 2.1466467908882270e-01 -3.5021668619063917e+01 7.6259027732684572e+00 -1.3733590819642319e+02 -1.8206432990025654e+01 -2.4590661818357322e+00 4.0279432149533356e+00 1.1124061960472065e-01 -6.7094690439787836e+00 4.8541903572198197e-01 7.1027467689021549e+01 -6.1968989024756851e-02 9.5690943814024116e+00 -1.0537322072014585e-02 8.0678044348727980e+00 5.3237369868655682e-02 -3.2081435352566690e-02 -6.6109609170104067e-01 -2.7490223120345547e-03 3.3631031172150827e-02 -3.1125658845597037e-02 8.1941408137082504e+01 -5.7940743096087726e+00 1.0109019020742701e+02 1.4359601923441386e+02 7.0441508796152963e-03 -1.7975944567025021e-01 -2.2730245058431655e-02 -2.3539031746540928e-02 2.1379390379688432e-02 3.1691721217712683e+00 1.5615049942237292e+02 
      </Row>
      <Row Index="4">
        1.0320174855148243e+00 -4.2009032236491617e-01 -8.0658877010876040e-01 8.4351898050787300e-02 8.0864584857387172e+01 -3.0512095004529327e-01 2.2811563740815949e-01 2.1618500155724646e-01 2.0934316406273865e+00 -1.0625073818165796e-01 6.2734555155885214e+00 2.0394918614950055e+00 -2.5485831398354378e+01 -1.3631448785023531e+02 -5.9553151784411951e-01 -5.5946833486443204e-01 4.5682669274797144e-01 -3.6467562105337485e+00 -1.1045255288129081e+00 1.6803162144549901e+01 2.9960404556464132e-01 -1.9247351359443647e+00 -2.9401559951159861e-01 -4.9938417968365745e-01 5.7717859281566604e+01 -3.1625691000780060e-01 6.7380248350908833e-02 3.0607071219431725e-01 1.9796848889780725e+00 -1.6018574181640158e-01 -1.7890431024310757e+01 3.0847137119186403e+00 6.4736538046671654e+00 -9.9659883292292733e+01 -1.7689953821739315e+00 8.3895018211303729e-01 2.7960572652044569e-01 -1.5214201913563794e+00 -2.5509710816099220e+00 4.7039536648890135e+01 2.9865727967169858e-01 -1.3403104558944321e+00 9.5860808295273381e-02 2.8176757832634869e-01 9.8839299810627477e+00 2.0352075043797158e-02 1.4870826475972621e-01 -3.7907653531673663e-02 3.4177519706161519e-01 1.0095451601317484e-01 -1.1228927894652402e+01 -1.5405677213658864e-01 -2.1340523986135249e+01 -3.1954054526182233e+01 1.0293543216078158e+00 3.0544893119580929e-01 -7.1290933346511397e-03 3.3839710520538135e-01 7.3025179428667686e-01 7.4100048649421666e+00 -5.9833264370878680e-01 6.5905215201405498e-01 1.1670304743685909e+00 -8.9068725098202101e-02 -4.4807106916795483e+01 -1.1152280911156989e-01 5.8675491069605179e-02 2.2616154602864535e-02 -2.9443027790772560e+00 4.0173872074065570e-01 1.5199065857585339e+01 -1.4206981494817388e+00 -8.5935409341362430e+00 1.0251864844710784e+02 -1.3173625192785257e+00 4.9973334437983574e-01 -8.2702397565341390e-01 -2.2056817716261121e+00 1.0659255720545497e+00 -9.7763104084790484e+00 -2.1626518389070464e+00 -9.4191868552957758e-01 2.1583645985203299e+00 -2.4653258412565897e+00 1.9243662777750723e+00 -2.3651098674905857e-01 -4.6621190207316410e-01 2.2223206617661265e-01 -2.1103193761534578e+00 6.7053723666399478e-01 1.7167989331575022e+00 1.4452791436116308e+00 5.2446525563852653e+01 -1.6153582648689724e+02 -2.2653018362331734e-01 -8.3818997849100718e-01 1.1689971716263550e+00 -5.3090730984143164e-01 2.4557786335764415e+00 -2.3604737182281269e+01 1.0339276534990924e+00 -1.0166936946493898e+01 -1.0875203318633522e+00 1.5504719659320565e-01 2.8863481606817047e+01 2.1369009599119915e-02 -3.7128429133564511e-01 1.1579681660081997e-02 6.6606504902482122e-01 2.9982984123144207e-01 1.1247974435515669e+01 4.1921480337847044e+00 4.9048308903725001e+01 2.3250099527166185e+01 2.3792910465730499e-01 -9.9566732179804163e-01 8.4283582136329382e-01 -9.2066990474870636e-01 -1.3607716260706493e-01 1.4082258045642106e+01 2.4616767710423648e-01 1.7027454251448454e+01 -2.0833753914949789e+00 1.4288379367066195e+00 5.3459134207969441e+01 -4.3798170545682469e-01 4.0217522212545109e-01 1.1787069340099099e-01 8.4218954597154383e-01 -2.7789006728247117e-02 5.5572607888073584e+00 -6.6183492469503236e-01 -5.3263014841637855e+00 -1.8520184983279876e+02 3.9086226651817407e-01 1.2533859603952173e+00 1.1096367427367326e+00 -8.9415807097672229e-01 6.6938942216266284e-02 -3.7111978484141687e+01 5.5039101682341496e-03 -9.2466819859105520e-01 -6.1107712555687410e-01 -7.2937650013951405e-01 4.5311573246236613e+01 -2.0936963029648892e-01 2.0683411734122448e-01 3.9162231202994008e-01 5.2137860390807971e+00 -1.3430247771800291e-01 1.4379365278798797e+01 7.0505343800338238e-01 2.1804870721028394e+01 7.9890251383985401e+01 4.6227431280901377e-01 -1.7858946520980248e+00 -1.8832647829810489e-01 7.7219070114071364e-02 -5.1077723863741298e-01 -5.1147526191591567e+01 -1.3966006925920098e+00 -2.0656440743061755e-01 -3.0343556399074822e-01 1.5603933987286478e-01 -2.0875307379232595e+01 -8.8656044965061964e-02 -2.5238942452417978e-01 -9.5142761860064651e-02 6.8834974571343466e-01 4.4386007141963030e-02 3.3862763493143504e+00 1.2483406380539179e+00 -1.3890811112712584e+01 1.1837280479565220e+02 3.0012391178428111e-01 2.3621125032594774e+00 -5.0173282442566203e-01 3.0115774788551821e+00 1.9400571307435177e-01 -5.0624964362870514e+01 -1.3178996750043313e+00 -4.5953359387611226e-01 8.5685379607744638e-01 5.8066815465031141e-01 1.5510379202848381e+00 -4.2441264131277573e-01 3.9568235824345432e-02 8.7432602802486797e-02 1.6973403433967604e-01 -3.0820639512146741e-01 3.2069142757587379e+00 2.6632095253387806e+00 2.0641325434574554e+01 1.6116540106244031e+01 3.0631798890739526e-01 7.8661780746765597e-01 -3.2866276482697715e-02 -2.0760408487643147e+00 -7.1806997775086545e-01 -1.5167542478476237e+01 -3.9511911964996305e-01 1.3582225512284389e+00 4.9800458406832687e-01 2.2311585504961151e-01 -3.7780283447845420e+01 -2.3021333467927552e-01 -6.4216837508572766e-02 -2.8620847338445887e-01 -9.1679607901060365e+00 -2.1141646523379475e-02 3.1073113345884451e-01 1.3146183343155948e+00 -1.2130329220205192e+02 6.6853466930304322e+01 -6.2768806561582080e-01 2.4617739965764418e-01 -7.6167758101260352e-01 1.3211642245837201e+00 1.9750536963685579e+00 -2.6957814753041816e+01 -3.7483437866744040e-01 2.5011225070446237e+00 2.9065541205179851e-01 2.3290922487930255e-01 -3.9501262239295613e+01 -8.5666817241423970e-02 5.6944825718962477e-02 -3.9759410490959024e-01 1.6863552596688987e+00 -1.0315990879879559e-01 1.9907762611558688e+00 -1.4430018674879115e+00 8.6171266629678840e+00 2.3878853672882542e+01 3.5688730219418535e-01 1.2102392032079194e+00 -6.0193985717491594e-01 1.1565861523038929e+00 -3.5689187870590477e-01 -5.9550539604052403e+01 3.2717633763425535e-01 -1.5779135657844199e+00 -1.3067955500091124e+00 -2.0463081877078737e-01 3.9637342658620945e+01 1.1418636526942227e-01 6.2115902223422337e-02 -1.4275474301863028e-01 1.2369337090769648e+00 -5.5779425061452903e-01 5.3981059019891369e+00 -2.2954368381799686e+00 -9.6365448659296362e+00 1.2630824687456212e+01 -6.4718163279662999e-01 1.5419422994370588e+00 -1.2133513808808546e-01 -1.9139519660459925e-01 -4.3750996904798800e+00 -4.8669457007581968e+01 -2.6409227424820830e-01 -6.7889361126434822e-01 7.6692011098751522e-01 8.1875627203702761e-01 -5.3076513572459305e+00 -4.7175105728718580e-02 -1.3271142943560044e-01 -2.8497476647093578e-01 5.9529283080103923e+00 -1.1335610767704815e-01 4.3499959076588439e+00 9.4586315473531357e-01 2.4409848721737958e+01 1.6607121994343294e+02 2.0829570844462308e-01 -1.8300332618565340e-02 -2.5930328783221612e-01 -9.7546272827970171e-01 -5.3130750480060129e-01 -3.1409784701693241e+01 -1.1025294331713359e-01 -8.3446312166647196e+00 -1.0144531789749276e+00 -3.3662820595766119e-01 4.2469622635081684e+01 -9.9279362796440396e-02 7.8591271161813026e-02 -2.5385161128078132e-01 7.9426057632389391e-01 1.9159839434442164e-01 9.4735556958949569e+00 -3.7485012334670387e-01 5.1041252883968497e+01 -4.2623904486868014e-01 -1.0911014592981452e+00 2.6403286442086937e+00 9.3750173946756110e-01 -1.9100459401055545e+00 -3.5113472607672263e+00 -6.6994982493582086e+01 -3.6190667735541391e+00 2.4840697661576989e+00 -4.3434475310306819e-01 -1.0818374934292931e+00 5.0907122853044349e+01 -1.7669761638545103e+00 -1.3338316084449686e-02 7.4925306415138115e-03 2.8594024855345435e-01 1.7798697837159472e-01 4.0748667094759845e+01 -5.1348761409090571e-01 -1.5542444539187249e+01 -1.6800825229583154e+00 -3.4133386486288222e+00 3.1034812334297146e+00 1.1516709387667254e+00 -7.4725179400561146e+00 -5.0255108469643517e+00 1.2682737502321878e+01 4.6815535732389404e-02 -4.4766500727924452e-01 8.0049879691568501e-03 3.8442028975628523e-01 2.0005481908977090e+00 -9.7012268857405409e-02 -1.0350551165221245e-01 2.6882486964028576e-02 -3.9071461896417148e-01 2.6107662031898737e-02 -4.1296245632277689e+01 2.9762961682737403e+00 6.5852618618160761e+01 8.1716551233475059e+00 -9.6928663109559554e-02 -2.3286930838608771e-01 -2.3025193577595374e-01 4.5142889111224438e-02 -9.5135746297027018e-03 4.1931269868356367e+01 7.4628166614439394e+01 
      </Row>
      <Row Index="5">
        -7.2874966922703233e-02 2.8012012295609101e-01 -1.2854100462050155e-02 1.0119016121968206e-01 -3.0512095030940145e-01 1.1280162476716873e+00 -2.6155612529892582e-03 -1.7839541238278203e-01 -7.9695738276495831e-01 -5.2430107634081236e-02 -3.0359574697337999e-01 5.9470853246766497e-01 -2.0651557355462955e+01 -6.2761463636925328e+00 -7.9115996322015825e-02 -5.9543919321988237e-01 -2.0029090117422325e-02 -5.5186097765185460e-01 6.0735070982131845e-01 -6.4242618346868454e+00 7.1873410859622913e-02 3.8437476002307958e-02 1.1520610435524220e-01 3.8942953217577181e-02 -2.2732848681948581e-01 1.1935821553051256e+00 -1.7410956431265584e-02 -1.9650077443115116e-02 -1.0548105209016545e+00 -7.0267946708150050e-02 1.4031912639342714e+00 -1.3818142277030521e-01 -1.1274568488187080e+01 -2.6059452878022284e+00 -6.9414152315832575e-02 -1.2660864212286366e-01 -2.1826051958119694e-02 -4.7652351516628433e-01 -9.3469338705162064e-01 1.2311465550668572e+01 -1.5493567169196709e-01 2.1392786523598681e-01 2.2847499927483406e-01 3.2993926497123016e-02 -2.5969724453627635e-03 -2.3082027946129935e-01 -9.5079257634144362e-03 -6.4085154311442877e-02 -6.2351697511523207e-01 2.2836499706759640e-02 2.9625101585601810e-01 -4.1925118055546934e-01 -1.6184385341295989e+01 2.6521046795671168e+00 -2.9378136952654878e-02 4.5991615398180352e-01 -7.1515571709571454e-03 1.4610772369128441e-02 1.3996251565791913e+00 -2.9957153062798270e+00 6.9249768680522794e-02 4.3957029209743814e-02 -1.3260879201939302e-02 4.8827230428207496e-02 -8.5766991605082110e-03 -8.9938437220001843e-01 -7.2840446175887696e-02 1.5340389662646137e-01 1.2123194905392118e+00 7.2000802330695488e-02 -7.6139908202334006e-01 -1.6282616902613745e-01 1.5351343333067405e+01 4.3268573087116806e+00 7.0410275488335561e-02 5.1117154498428774e-01 -2.5938387140347116e-02 1.8162336484395947e-01 1.4014671214315668e+00 -4.1250375763231659e+00 6.8250483667826600e-03 -1.6835458123555160e+00 -8.1692768438266672e-02 3.5169447317958058e-01 -3.8375383136033925e-01 6.2742642455138720e-02 -2.5987551781568596e-01 7.1911441347314239e-02 -1.1629989961944620e-01 -6.6126089557025133e-02 -7.2159745595167024e-01 -3.2856607608078670e-01 7.5326621625043373e+00 7.2161737349968007e+00 -6.0892527649729411e-02 -1.8269075172108979e+00 1.6671143661018531e-02 2.7651457214575093e-01 -1.5938097885365927e+00 -5.8221853715429575e+00 1.6655309917115568e-01 1.2998894098837255e-01 1.5100034052825995e+00 -7.1650629890870920e-01 7.9359263435718558e-02 -1.3058949232021120e+00 1.6342783316497533e-01 4.1057716105550826e-02 -6.6921998201903055e-01 1.2629002872671008e-01 -2.7775786460532785e+00 -1.1301256608974004e+00 9.2550790469454185e+00 5.2955363956166622e+01 -4.1263593266470555e-02 -4.0051554260582289e-01 -1.8400904609797993e-02 8.8032934719348654e-01 1.1353190975557921e+00 -2.5682677647964169e-01 3.3027893001167663e-01 -6.6895350633019213e-01 1.9774690210239831e-01 6.8543825184217422e-02 -1.9864477467958133e+00 1.0568673896690721e+00 1.7540104926723826e-01 2.2197537148959945e-02 -3.0059820809020943e-01 -2.9953726089551450e-02 1.5111361578870719e+00 4.3209498235068455e-01 8.4188277223624404e+00 -7.3166358108304621e+00 -8.4805604058969433e-02 -7.2944701065078399e-01 1.5888365319465247e-01 -1.6649453305216655e-01 1.9149339855623368e+00 -1.8189902343070017e+00 -4.3700932938297565e-01 2.5371098316889001e-01 -3.9115898837406493e-01 -1.7071331955865832e-01 3.1115664483687910e-02 -6.4870943630542044e-01 -8.5116349973460043e-02 2.0199303054172640e-02 3.3798796415730825e+00 2.1094923784700209e-02 2.7220734218608911e-01 -5.3081389253013733e-01 2.4232093975605608e+01 9.0673373780044351e+00 -1.8962506011807212e-02 2.8004182041146852e-01 -8.0644207591767589e-02 3.6703148815914233e-01 6.0947695018349868e-01 3.5855951803349825e+01 -2.6545073045662240e-02 1.3198199075326378e-01 -4.8957672078350956e-01 -2.6793768488272374e-01 -2.0204005764139679e-01 9.7089717937934827e-01 1.2122438340010894e-02 -5.3837429331630854e-03 3.7465636861983143e-01 -4.8093384301093167e-02 1.8930817665186925e+00 -2.8326472263175084e-02 5.5767211692556913e+00 6.6238663945732412e-01 5.7218520768485215e-02 5.7291556273347144e-01 3.9641739265932882e-02 -1.9142435504842492e-01 1.0264953782871933e+00 4.4435998331421160e+00 4.0540491078492780e-01 -5.6096026974783442e-03 1.4893415745857413e-01 1.5206077834366294e-01 -3.4872717027886635e-02 1.0016087849797917e+00 -1.8108719745552393e-02 -8.1421317787814806e-03 -4.6599955116643055e-01 -7.1836692336236824e-02 1.8868830450426479e+00 2.4615178397608961e-03 -2.8936896314754676e+00 -4.2774144587254739e+00 6.9040714904122558e-02 3.3239984710440185e-01 1.4034170855106928e-02 -3.6056030266830685e-02 1.3683912844923780e+00 1.6378602782666949e+01 1.3590583221126873e-01 2.1622043942173930e-01 -1.4877202919816954e-01 -5.9066841066903741e-03 1.0891325148303288e-01 -5.9272407717059883e-01 3.4430467146154164e-02 -5.7993261822804315e-02 2.6866083170501565e+00 3.8208749658200328e-02 4.7176822545999642e-02 -1.2264806754534308e-01 1.0804716349306929e+01 -6.6128830848200977e+00 2.1140274646022784e-02 -4.3989448187732572e-01 -1.9883041096582892e-02 -1.5982054951133939e-01 9.2079487777748392e-01 1.6996202666722979e+00 7.3420864777696493e-02 5.1721838718639668e-03 -6.2493227037176835e-01 -1.0410120754851704e-02 2.1991334830020803e-02 4.3828206195646957e-01 -3.6559374143370738e-02 4.4768845353364672e-02 -2.9507018901885529e-01 -2.1705054155370627e-02 6.8297869174590420e-01 7.7108050399472994e-02 -7.2516493657721233e+00 -2.3580004870018456e+00 4.3203584658862315e-02 5.3502813627597590e-01 2.4610794080061539e-02 -1.4556904912162186e-01 -1.6027830947361632e+00 8.5158504094745027e+00 2.8104462697756238e-01 4.4384825641365033e-02 -3.0741475682476749e-01 4.8839860023116966e-02 1.8341242087793053e-01 -1.8107312275548390e-02 3.0605548748698891e-02 -1.0108446023669417e-01 -9.1889913945745150e-01 1.2417387974476047e-02 -1.2972566165176858e-01 -8.8324663477241305e-01 4.5584539034372966e+00 -3.3689523563684709e-01 4.9279937092474253e-02 6.9791186034132346e-01 -1.7708647953496869e-02 2.9473862158849817e-01 -5.9561883250919723e-01 8.2388642705116126e+00 5.2398441412191188e-02 -5.1858277328880042e-03 5.4628758931169419e-01 1.2011680959798487e-02 -7.1299448160087459e-02 5.0537432781139391e-01 7.5813579968028622e-02 -8.5900840248450433e-02 -8.4101800511273517e-01 -5.4363941455438519e-02 -3.3542863294088043e-01 1.6441039407302310e-01 6.1711376423438509e+00 -1.0560369937186849e+00 -4.2325451644313783e-02 1.9386004718748140e-01 2.4468489507662249e-02 -3.6320122799182397e-01 1.7195920271063003e+00 -1.6851108939189487e+01 4.6697129470095258e-02 2.8486251104706461e-01 -9.0411967418089656e-01 -4.7182132551920580e-02 -6.1792734038069730e-03 4.4118865026998810e-01 3.4491769805466088e-02 1.3069412343678973e-02 -6.5729635684403775e-01 1.5980035629857427e-02 -7.7045544927178478e-01 -6.9467160874816081e-01 -2.4262858432938216e+01 -4.2687906322159321e+00 3.0440480338660397e-02 9.5765338305701886e-01 1.9495162938505655e-02 9.9371607120593453e-02 -2.1609634679907739e+00 1.4984620132389921e+01 4.5694267056382237e-01 -1.5890718004863118e+00 -5.0553527717609492e-01 -1.5959231668088886e-01 -2.0799500289238178e+00 1.4543652220295047e+00 -9.1216842825532857e-02 1.2835151488464833e-01 3.6534669005355429e+00 -8.7081640945299882e-02 -1.3740355326716887e+00 -1.8079627626524513e+00 2.8099819203144101e+01 -7.6514581670860800e+00 3.3098397439762499e-02 -1.2125528321049082e+00 1.2483255371504082e-01 1.5623192035234057e-01 3.9613560944996857e+00 7.3472494276783298e+00 7.5240442534678714e-03 4.0064776977993688e-01 8.1598372306184441e-03 -1.8469925264622614e-03 2.3904029488718459e-03 5.0529712957355022e-01 2.2728656800119408e-02 2.6285022142780836e-03 3.2750157894644083e-01 3.9878248665473418e-03 1.2807225826736307e+01 2.0318080981388903e-01 2.9018736634927262e+01 -5.0422471586702198e+00 2.1616876533024874e-03 -1.0126251886502713e-01 -1.3396853624535136e-02 5.7184034552468788e-03 -1.1050926424046512e-02 -7.3276326599676658e+00 1.8359881819044428e+01 
      </Row>
      <Row Index="6">
        -4.2086401930282591e-01 8.8146952828624558e-01 -1.1771459112958382e-01 1.0248960224524637e+00 2.2811561924754642e-01 -2.6155502316259687e-03 2.0666555307557171e+00 1.8111663211861147e-02 -2.2589095234434353e-01 2.1058946771136376e-02 -2.9701057707222573e+00 -2.2851024847902002e-01 3.4426660773813076e+00 2.2868808395505766e+01 -1.7559071353603503e-02 2.5414914211336681e-01 -1.5355334868175402e-03 -1.3872130032144614e-01 1.4446345145904810e-01 -8.8996850073046545e+00 -7.9272230952099343e-02 3.7565806057790263e-01 3.3419554745397199e-02 1.1627909260782778e+00 1.5884521313371515e-02 -1.3641513003266017e-02 1.0376022094185728e+00 -1.0575740539425213e-02 -3.6337087951812153e-01 2.4177716646901794e-02 2.4205060126208475e+00 -4.1743127137620495e-01 7.2928959342710176e-01 -6.6825615437616790e+00 -1.0359545998942740e-01 4.5244168551763830e-02 1.2272213559593024e-02 -1.1997988756780611e-01 -1.6176062412077724e-01 2.0130195954167448e+01 3.9994310064353264e-02 1.7112464730967492e-01 -1.9814483738120288e-02 -3.5777046157447784e-01 -1.5941836549354903e-02 -6.8766485550124726e-03 7.1995453596435194e-02 3.8970264267139073e-03 -8.7828316100121651e-02 -5.3388792656841967e-02 3.3905548865752220e+00 9.9867377244006117e-01 -3.9783330617540460e+00 -1.3870656078216058e+01 3.5647381369178117e-03 -6.0415870978696301e-02 -3.8981844946021221e-03 -2.1173355163061158e-01 2.9058100716336321e-01 9.1950150879874855e+00 4.3126607184799803e-01 2.0711510676967582e-01 1.0063965561343460e-01 -1.0784140239378621e+00 2.5335521463308897e-01 -1.5166017801733600e-02 -1.4460464323297599e+00 4.4635552306552834e-02 5.4753777307093099e-01 -8.0144600455456877e-02 -3.2043796170695948e+00 2.7926923525548606e+00 -5.6300454062928331e+00 -3.4691310398305568e+01 2.4361947869890607e-01 -3.8071779530006955e-01 1.1745641361260030e-02 -1.5083283949673465e-01 2.2159735034135264e-01 8.2561382744117608e+00 3.4879665832544682e-01 1.8635854221808614e+00 -1.3365788434666614e-01 -3.4033968237327068e+00 3.6766921818246168e-01 -3.2789503717514136e-02 -3.4203779578396913e+00 4.9187037817003190e-03 3.0693247006364111e-02 -1.1666143192027664e-01 -4.9338788468966124e+00 3.2853402244838987e+00 -1.9988142327185088e+00 -4.5360356479796017e+01 9.4437449032466758e-02 -5.4220402636653053e-01 1.0351217868744919e-02 -2.1777729549174918e-01 3.0471743109603566e-01 1.2800399530482537e+01 1.3645389682601561e-01 -1.0683916850138644e+00 -3.2490509267437795e-02 -3.7619233558897260e+00 -3.8359007794144673e-01 -8.0423333398872976e-03 -6.0746835532731813e-01 7.5475763437688137e-02 -3.0723385188349805e-01 -1.2906677879020834e-02 4.2068362815103028e-01 1.0310046398172963e+00 -1.9728896883896567e+00 6.0545345449807741e+01 6.5728401895819244e-02 1.9213418040810115e-01 1.5224565031935916e-02 3.9208150954173898e-01 -4.3146380886113878e-01 1.8420992148377763e+01 1.9570043069247423e-02 1.0486623269635298e-01 -1.6770364968714829e-01 -3.1683724955011705e-01 -3.9234905178189772e-01 7.4901205293154027e-02 1.2036851907472270e+00 -2.2923022504094150e-03 -8.2084654457421635e-02 9.9872072868332745e-02 8.5114609491202220e+00 -2.0144318431397412e+00 3.7747751226959281e-02 4.4651021885783337e+01 -9.9712123805149766e-02 4.7939618803531481e-01 2.2813353478586151e-02 -3.2551516234064137e-01 -3.5481729693709119e-01 1.8209929232301420e+01 -2.3206574315467399e-01 2.3521188314198857e-01 2.0637993525389031e-01 1.0123079415573812e+00 6.7201261896296494e-02 4.6481851949260480e-02 2.2519071997637691e-01 6.2634607294474245e-02 1.9297665992998487e+00 -5.2484046969353826e-03 -1.8092887923370933e+00 2.3137463546203296e-01 -6.5389480967078226e+00 2.0810373513254468e+01 8.3451457346556124e-03 -1.1518178125281953e-01 3.4122931179626642e-02 -1.7002557427301168e-01 4.1532455700386872e-01 -1.8764769649259307e+01 -3.1555726365858527e-01 5.7377857716754121e-01 1.3274754352735671e-01 -2.0190163115997084e+00 -5.4639377143701040e-02 3.3647306772721541e-02 -3.7414879156492897e-01 -5.1614239060002287e-02 -2.3849942654727374e+00 7.9314101765170675e-02 1.1740131142701799e+01 5.1793978591706047e-01 1.3783114326890249e+01 -2.5120336399887027e+01 -8.5830889953384254e-02 -3.8903782267051490e-02 -2.9364914356048252e-02 3.3504768929117246e-01 -1.1220860646695108e-01 -2.1514809485941100e+01 -1.4863581726809993e-01 3.4837087250832272e-01 7.2922055272495470e-02 6.0306035490265564e-01 2.0815608788698847e-01 6.2001046846042629e-02 -4.4998394494848526e-01 -1.7757853291295034e-02 2.4682515749484750e+00 3.1672691789535135e-02 -6.3216761360920213e+00 3.4123779247822705e-01 9.9740661256678251e+00 -1.2992225840695824e+01 -5.0993739511193070e-02 7.8241414633797746e-02 -3.7965684996066396e-02 -4.7864450984943319e-01 7.2682007964273987e-02 8.9235977781013354e+00 4.2825968302182427e-01 -1.2898868091872240e-02 -8.7695841940795161e-02 3.9473261608564192e-01 4.3100584611164283e-03 -3.0380998725649845e-02 -9.9530500420110823e-01 -9.1642901429950963e-02 -1.0542690494017459e-01 3.4699835861304994e-03 1.6943923305121293e+00 -3.5120677886630824e-01 -5.1361827239963853e-02 -1.9039393145300352e+01 1.3629527619119709e-02 3.9252275445421247e-01 -1.6033768143853554e-02 5.4283196686038382e-01 3.6972718905573565e-01 -3.7228494830557608e+01 1.1086453866334882e-01 -4.2255786141577745e-01 -9.5782233476220391e-03 -4.3700974497425316e-01 -6.0153843630757903e-02 8.9275162873311172e-03 3.6273186266345114e-01 7.0764377960507302e-03 7.0068339482750597e-03 -1.0701243318496270e-02 8.9064944377522415e-01 -1.6195497789162283e-01 -4.8695457291980659e-02 2.4541399335837923e+01 3.8092711759636938e-02 -2.7591697079896171e-03 4.5036932884969932e-03 6.4521342941219917e-02 -1.6229135384388541e-01 2.8139956550241862e-01 3.1528655549401030e-01 -5.8464511162427479e-01 1.2581499177036332e-01 4.7878344313389576e-01 -3.1418014544563277e-02 5.0224131981240400e-02 -7.2418429423606012e-01 6.4778688727075116e-03 8.3865036148667405e-01 7.2670910581494150e-02 3.4005083411439410e+00 -1.1311782536894510e+00 -2.6958456264177251e+00 -3.2357663395457308e+01 -1.3286468837402948e-02 1.0398278146692186e-01 -8.1695275194899573e-03 1.4474846375354511e-01 -3.8426994724714258e-01 -6.5000834586550766e+00 -2.0575621370245833e-01 3.1645767944094949e-01 -5.9866810588152219e-01 -1.3230647158179365e+00 4.8081558590734041e-03 -7.3617040110413756e-02 -6.1732878971645277e-01 -1.1431786312231679e-01 -6.3968734095988378e-01 9.7635438537435365e-02 9.5169267533993285e-01 -7.2852244836977009e-01 -1.0925562148877788e-01 -1.7265953474517957e+01 -1.6319605504654222e-01 -1.4145975015558676e-01 -7.5134942000269891e-02 7.2530264281935075e-01 -4.5803009521909560e-01 3.4803307642355463e+00 -6.7767697723359333e-03 1.5362753321519418e-01 8.1753145297332941e-01 -2.0220171749461402e-01 -4.3880420270139975e-01 6.4920256435373636e-02 -5.0301450984880169e-01 -7.8999300375432499e-02 -1.0334591474036259e-02 5.3556757993093201e-02 -2.0817380749094938e+00 -8.7059270913072240e-01 4.3918879508727144e+00 -1.3994222445970081e+01 -7.0410903318259527e-02 -5.1084889619373408e-02 2.1640419717573897e-02 8.8048590442731900e-01 8.5090543148480968e-02 -5.0199768870128310e+00 1.1105074018725136e-01 3.0611026283939244e+00 4.1047325178616306e-01 -7.1171507701349235e+00 -3.2485822861495040e-01 1.3913089354633479e-01 -4.2718073708417625e+00 -1.7532698441693184e-01 1.8937060828094316e+00 2.1697091537865307e-01 1.9020694057626066e+00 2.2874537947915830e-01 1.1129245987879006e+01 -1.2289750647863105e+01 -1.2823013343108183e-01 1.6020663942036806e-01 -4.3085264713726180e-02 1.3452316957942871e+00 -1.3179670426244217e-01 -3.4959118948384349e+00 1.3683765650466294e-02 2.7058535023078800e+00 -4.0395904302146732e-04 -2.9806838524591212e-01 2.5777934712268580e-03 -7.5857836435547776e-03 -2.9942061500045664e-01 -7.0387341694644334e-04 2.1615278918679959e-01 -5.6011462508257781e-03 3.4878965300943378e+01 3.4799266426116171e-01 3.6527380482288412e+00 -2.7013564842997706e+00 1.1862463316172078e-03 2.7973967752563250e-03 1.4411700318333991e-03 -7.4216524499584047e-03 -1.7699559928448295e-03 -3.1447346898208171e+00 -2.7363314555107280e+01 
      </Row>
      <Row Index="7">
        -4.1936071971008460e-02 4.6028669923255827e-01 -3.3188783555641521e-01 8.2323156073785611e-02 2.1618500668250817e-01 -1.7839541000370207e-01 1.8111665136662420e-02 8.4729871137979795e-01 5.8969267288921401e-01 -2.9395402373235652e-02 1.0020112116619548e+00 -2.2429253481994427e-01 3.1358226657805091e+00 1.7917867546311754e+00 3.9440877254582410e-02 6.5895624314193518e-02 -2.0959228344771638e-02 -4.8303790107634248e-01 1.2248385643357683e-01 1.2693316909588191e+01 3.9914393830709008e-02 1.6965945764194734e-01 1.5292177276342303e-01 2.3617284765742097e-02 1.5811306408045589e-01 -2.0947786027294549e-01 -5.6224592876822632e-03 -7.9655295758635103e-01 7.4717585577611567e-01 3.7074007808694978e-02 1.0811300272976112e+00 4.2180006491037036e-01 -2.0268337591226118e+00 4.7569427227402628e+00 9.4032582867144471e-02 2.2749255205139374e-01 -5.6793189339866046e-02 1.3213900620821428e-01 -3.1791437479901180e-02 -1.5348351567407333e+01 2.8345129684476694e-02 -6.3143229130217804e-02 -5.9673135685686829e-02 3.0135793400726946e-02 -3.6497039831047517e-02 9.3202275282250682e-02 8.8147287668405849e-03 1.0033319388607849e-01 -3.0571989179370451e-01 1.9182053912513739e-02 -5.2083138119385008e-01 -5.5950242061328703e-02 6.5850577511568158e+00 -2.7704302125581783e+00 2.9033674754437622e-01 -8.8230205500886782e-02 3.0957323859866336e-03 4.3923478388162079e-01 -1.3670921023135124e-01 7.6778810712250731e+00 8.1905014319911817e-03 7.2837096805739410e-02 1.9483429492721860e-01 -6.0758984210856237e-02 2.0200855000437556e-02 8.5789978104871906e-02 -5.6726718303313550e-02 -6.2502045060852651e-01 -6.6673858532973007e-01 5.8018294243077938e-02 -1.0206282591994587e+00 -1.3298490626425696e-01 -1.8470218454994694e+00 -1.1467321453248367e+00 -3.5778497507267182e-01 -1.2439032719238199e-01 1.7403206367917312e-02 4.5033867263053706e-01 -3.7080118914317606e-01 -5.1138058077485766e+00 1.1278332123719448e-01 4.6316308961680264e-01 3.7589348802183176e-01 -1.0952265380593573e-02 -3.4203128020070739e-01 -1.4848531484004557e-02 -1.9914725366911276e-01 -9.8492312018338335e-01 9.3181298754796460e-01 1.2978536817985134e-01 -2.4864185173160127e+00 2.1942501080216914e-01 -7.1624040308042112e+00 -2.2473370567009283e+00 4.6677548261733892e-01 3.6094556548259926e-01 4.6175992080310049e-02 3.4443992497867382e-01 6.8200897391063053e-02 1.3882379061220689e+01 4.6101171505225969e-02 1.9259013709795880e-03 2.8037434378511472e-02 6.3072450218687237e-02 3.7258873109921686e-01 1.6240919461178158e-01 -3.6965428958604107e-03 -7.6410197930768309e-01 1.4794235665760487e+00 9.1561188793461035e-02 9.3642109501353765e-01 5.2445333981631359e-01 -4.6950061703037456e+00 -1.3098950643733360e+00 3.7745980160009174e-01 1.4456542194946909e-01 -2.9702775684182059e-02 3.3807079953664498e-01 -4.0702437524068208e-01 -5.9358779562075199e+00 -1.6697890489365402e-02 2.0163588156204728e+00 -6.2126899451154238e-02 1.1411369980514419e-01 5.2551985795664979e-01 -2.3903304422197272e-01 5.4562930266647047e-02 5.8880709415078347e-01 1.1787593343727174e+00 -1.2632869984706474e-02 3.2210316335882716e+00 -3.0271474176981372e-01 -3.6943871163576887e+00 7.4306785299410549e-01 4.3958349660859863e-01 2.8602884067418066e-01 6.7098718299052340e-04 9.9115602566468675e-01 -4.7865970243575351e-01 9.2561113882416635e+00 1.4658123460091055e-01 2.6146840563979967e-01 4.0655296708884253e-01 -3.6592698583574723e-02 2.3102234505126940e-02 1.1867469985513129e-01 -3.6411157015722874e-02 -2.2245882154063301e-01 -5.3806359536592829e-01 2.2830827365324241e-03 -3.0633684741275147e-02 2.7619354545770691e-01 -7.6757284165153239e+00 -1.1684514461905593e-01 4.3757786571758861e-01 6.5879220319672777e-02 -1.7912875726728630e-02 -1.5259498789307102e-01 8.9401130575763058e-02 -1.0371109999307606e+01 -1.9461990337984258e-01 3.8086994997624596e-01 -3.6459931872301854e-01 -1.4235132007870677e-01 1.1291017017546057e-01 -1.4660449643548007e-01 4.3059721541929608e-02 5.0930808658229121e-01 4.5137266129389353e-01 -3.6877257394755572e-02 -6.2149018488826702e-01 2.3441318009362733e-01 -3.7698730919201324e+00 1.3629080959937170e+00 -3.6653111734061694e-01 -4.7121797279183864e-02 -6.9897436173611237e-03 2.1365912132364873e-01 6.2928253298523362e-02 -7.6542920527308524e+00 5.1133357298670301e-02 4.0959941693882485e-01 -5.7581936317624960e-01 -8.1846195988466264e-02 1.4028310117087919e-01 -1.4279204787588143e-01 4.2479503822683173e-02 2.9726480412577294e-01 1.0230660193630725e-01 -2.3515570597451296e-03 2.4233177930717176e-01 3.3675391997127668e-01 -5.0967450967091894e+00 5.2114297131891192e+00 -5.8117412940537072e-02 -1.2493700806595509e-02 -1.4180421992669303e-02 -2.6714534412414592e-01 -2.1020498337687271e-01 -7.5488275359598491e+00 -3.1446534999190257e-02 5.6982070288725539e-02 -5.3160500033581859e-02 -9.9644366947774343e-02 -4.6105476699214831e-02 5.3176068462047310e-02 1.8796382094915409e-02 9.4049920622101157e-02 -1.4769837762729523e+00 8.1980717734568415e-03 1.5649961869217854e-02 1.1492523180452485e-01 8.4301446988058260e+00 -5.7560328928312643e-01 -6.6744140999947821e-01 -9.6107683752217010e-02 8.6816236566581145e-04 -7.0698612691725060e-02 7.1623725706751795e-02 -5.9919210334671202e+00 -4.1072591231968048e-02 -4.1928616060170498e-01 3.7481602496662145e-02 -6.8044929640951768e-02 3.5905801105179408e-02 -4.8780192330135204e-02 5.6046814229750996e-03 1.5145297224417392e-01 7.5922057884505789e-01 -2.8803180435255146e-03 -2.1613528015713968e-01 -6.2983120191297010e-02 -2.3671956013772615e+00 7.7062676791683771e-02 -2.5384708808972434e-01 -6.2663835262792067e-02 5.1370430084194630e-03 -1.6768808684933001e-01 1.7443381536498437e-01 6.1982266034847697e+00 -1.5805416136251971e-02 -1.9598034235954254e-01 2.2126100739644178e-01 -7.6073653348444625e-02 8.0212048972541750e-02 7.2732854968293500e-02 2.5781750786603969e-02 4.9182622729084680e-01 -5.8745753865974137e-02 -3.1935656660612557e-02 -2.8012819055435845e-01 -4.9672131796138075e-01 -2.4989415518735214e+00 -3.6996684024735060e-01 -2.9837013031483189e-01 -1.1904838556492370e-01 4.1636637842858730e-03 3.3804429365998523e-01 3.0478509931413444e-01 -7.2777090375933540e-01 3.9016859710178542e-02 3.2084084763278398e-02 -5.4188467174314325e-01 2.6910679328080889e-02 6.5413411688853396e-02 -3.8785894443737645e-02 4.1380531347568916e-02 2.4746512866472031e-01 -5.6482649866206702e-01 7.1423495222841527e-03 -1.8341372237928910e-01 1.2302305905652489e-01 -5.3284173944461610e+00 2.2324411887607845e+00 3.6265328537798958e-04 2.6952872991633958e-02 3.3497166617086141e-03 -2.7891830703616749e-01 -8.0938357438492148e-02 2.0086505161604265e+01 -1.9253303756328610e-02 -1.1868452941980578e-01 2.1368599566583990e-01 -8.3284491689036955e-02 6.5167592752211290e-02 1.7719016944931623e-02 2.0907306390777348e-02 3.8234536143228731e-01 1.0923473936217891e+00 -2.7283875857153639e-05 -1.2452505026420485e-01 2.7943468764775004e-01 1.3165577350757060e+01 2.3642241459334628e+00 -8.9793005724011055e-02 -9.2551486238170222e-02 2.5761400724447034e-02 -1.6050636152596010e-01 5.3233750651071476e-01 -7.9187894526168918e+00 1.6312665518680186e-01 2.9204754257209324e+00 2.8327181408892566e-02 -2.2208717533650219e-01 7.6271788285065889e-01 -1.9145801921329186e-01 -6.4329270131144756e-02 -5.2917667606765395e-01 2.5325522682485979e-01 1.6105729186739723e-01 1.2500374546648942e+00 6.7087258391478244e-01 -6.2196292723014048e+00 2.2138949716534531e+00 -3.7499840737857509e-01 5.7135686512646122e-01 2.1273157914905524e-02 5.8775485547525541e-01 -2.3075552500840935e-01 -4.2250497802369020e+00 2.0666355885922295e-03 9.3656118607520078e-01 -2.0963323818826269e-03 1.4906561645268060e-02 -1.3599357203931631e-03 -6.7679267568032914e-02 8.6801837749512761e-03 -8.8709742111614240e-02 -7.2642771349128665e-01 4.9213414306037775e-03 -3.5493264580685580e+00 -1.5644323467683952e-01 -2.1414307184404713e+01 -7.7547190715788705e-01 -3.5854287115859945e-02 1.5598141650106395e-02 -3.2645026735612401e-03 1.9407634423992626e-02 6.9875035646557834e-04 -1.6326641828614434e+00 -1.5530858475292646e+01 
      </Row>
      <Row Index="8">
        -1.8196254329041039e-01 -1.6138262260182605e+00 5.3009679805188625e-01 1.3745339561919068e-01 2.0934316926468455e+00 -7.9695737303791248e-01 -2.2589095825494496e-01 5.8969265600282439e-01 1.6248344973357598e+02 2.5873163435908963e-02 -1.2288125916418386e+01 -1.3280047470107839e+00 4.5549952385701772e+01 -7.1716985482489690e+00 1.3867389713701536e-02 1.3592802301161278e-01 -8.4133468620656085e-03 8.5680133656197299e-01 -1.8565887029479864e+00 -1.8342659706871359e+01 -1.3316040596491510e+00 4.1768462107342486e-01 7.4305850774424025e+00 -6.2159456132230950e-01 -4.5643121696761546e-01 -4.0278676322280784e+00 -3.9473142776451781e-01 -4.4274649702786677e+00 2.1046694374940944e+02 1.4381466073600507e-01 -1.7768753371104374e+01 6.9517382966056096e-01 6.8226089160672643e+01 2.9987387358855599e+01 -5.0956886688560843e-01 -3.7143565811974244e-01 -1.4605968344745493e-01 2.3417138694301212e+00 -1.6228143294104683e+01 -5.0493025649809681e+01 6.6543356375224194e-01 -9.6824841482620927e-01 -1.0616329742011135e+00 -4.1196969456585375e-01 -2.8161795279632873e-01 2.7421897730687532e+00 -4.9524730558296717e-02 3.4925311918177476e-01 -1.2109124952729385e+02 1.6169968660272910e-01 -3.9737394205275449e+00 -7.5494847905526976e+00 -1.1024617016719001e+01 -2.2474062895943192e+01 5.8960276773391884e-01 -9.0987596694687289e-01 2.0481774995059647e-02 -1.0028443010882375e+00 4.6811498820345099e+00 -3.7072586514180728e+00 -1.0339281606526503e+00 7.0658552247480355e-02 -2.5143955458126825e+00 9.7084361431193256e-02 -5.3394712193523408e-01 -1.2354742163198422e+00 -3.1678713859103969e-01 1.1451735399277840e+00 -1.1287952145126907e+02 -3.1184274409769219e-01 1.4707089210340349e+01 2.6678455281494067e+00 -1.3518907917354881e+01 -6.8020325398763379e+00 4.8840044622892548e-01 -1.0997987013194017e+00 1.6478813141362397e-01 -1.4552234818297443e+00 1.5885744423752687e+01 -1.9302257406440378e+02 -4.9453403107171354e+00 -8.7772601523988456e+00 9.3214147714131919e+00 5.9989703133794361e+00 -2.4177012052051321e+00 -7.7822540871416193e+00 3.5532130594728346e+00 9.0660332718597192e-01 1.6816527081830085e+02 -2.7463761751574006e-01 2.5728386084976595e+01 1.3635266093644759e+01 2.1523899517590542e+02 3.7257268040491795e+01 1.8253618631952091e+00 5.6592891278140209e+00 4.2995777763198462e-02 -2.0334325864544205e+00 -1.0609243154658202e+01 2.7687195380217759e+01 8.3144511802850518e-01 -8.7592401468595114e+00 7.7735078987692985e+00 3.5929365102532738e+00 4.9768824741680273e+00 -3.0728759105694485e+00 1.1681497947749788e+00 1.0942377111238086e+00 6.4721739733791537e+01 5.5692378656897246e-01 3.8945178857443501e+01 2.8469025741994720e+00 2.9164712346930322e+01 5.0004018206508363e+01 8.6971233451968577e-01 1.7489189050740968e+00 5.3968188457539379e-01 -3.2234044200827441e+00 1.4007576494649550e+01 1.1531358903843652e+02 -2.9029091908799280e+00 1.8753751897960552e+01 -1.2036532165202587e+00 3.1064932030636072e+00 2.0835804629841292e+01 -9.9553681493969535e+00 -2.1843783686729124e-02 1.2829187247765632e+00 2.5326499876669632e+02 1.3425014448592038e-01 -5.5986014912374280e+00 4.6681384780677568e+00 1.5208096324910304e+02 6.8037325218844444e+01 9.7531311419591082e-01 -5.8261070247415070e-01 3.6990576692054411e-01 3.4153653776546675e+00 7.3852565783251034e+00 -1.4746172093846155e+01 -7.7432017656307117e-01 -4.8181554250924974e-01 -1.6335727215627394e+00 8.5651059363565807e-01 1.3601695028782785e+00 -4.8507679094630424e-01 6.1078327726843462e-02 1.2251109926658548e+00 2.0380428704377272e+02 2.1673855621334837e-02 -4.6299025208994991e+00 5.3776039502975903e-01 -3.6776048447991393e+01 1.1386715499855995e+01 5.5251261767847570e-01 1.2008504364882571e+00 3.0936632978197787e-01 -5.9662184797559359e-02 1.5383584761301035e+01 3.8112809222658996e+01 9.2079860527653423e-01 -1.9357809458934572e-01 -2.1726531322429112e+00 3.8004260365918547e+00 1.3481901800346918e-02 -3.0561617497217206e+00 1.0903229698088019e+00 4.5533092452386731e-01 8.0911429172988491e+01 -5.5445888222113227e-01 -1.0923378885085437e+01 2.9429383875104129e+00 -1.6196987944743049e+02 1.5488473013311477e+01 9.3182215912864774e-01 -2.3358823597441152e+00 -2.6160143138336067e-01 2.0097559607227673e+00 2.5925072388997145e-01 9.8903615352419365e+01 2.9950734008619229e-01 -8.4540320878189679e-01 1.8530563530307944e+00 -3.7407487656915173e-01 -1.3026856383745042e+00 -2.6236932455550974e+00 -7.2420375110736179e-02 -9.4289463311312827e-02 -5.7973414967606203e+01 -6.0831137256125023e-01 -3.5230314346929821e+00 3.7726461906953492e+00 7.2260958595099865e+01 7.7345754034379638e+01 6.4701205865746858e-01 -1.5141876323001342e+00 -1.5138611784277581e-01 1.1317208821098559e+00 -5.7078716169068091e+00 1.3163219899123638e+02 8.1346509646905249e-02 -2.2897498336225669e-01 -7.0548675414137629e-01 -8.2764640965566827e-01 -5.4649567835502300e-01 2.5060009182940979e+00 2.1760575804227100e-01 7.1433850196388138e-01 -1.2959189423829017e+02 2.2238590359028497e-02 -5.2180913762304399e+00 1.0560327582472400e+00 -2.0487502996168882e+02 7.3754053159986128e+00 -8.7387024215625542e-01 2.0993408468265606e-01 -4.4989224497087518e-02 1.3402265678343994e-01 1.1099747725362482e+01 4.1086628407480767e+01 -8.8317177628280019e-01 3.9898397572598396e+00 7.0960009936768254e-01 -2.2894689955036540e-01 9.9780059402826726e-01 -3.0631919991685734e+00 -1.0041468839400065e+00 4.4410939496079618e-03 1.3862112541125595e+02 -8.4924391460876797e-02 -3.8945982140690192e+00 2.6860728279902677e+00 7.7315820132205772e+01 4.0919407543842681e+00 -1.9220920689204146e-01 -2.2598336763542162e+00 -1.4058734413442744e-01 4.4233351609941396e-01 -8.2425284453938445e+00 -2.9645408481135576e+02 -3.6565837305647964e-01 -4.5928256352268004e-01 -7.1433071219479132e+00 -5.1974024667338981e-01 5.1585953230863779e-01 2.8218011905784022e+00 -7.1679259797562178e-02 8.8880271977897563e-01 -1.5485697043325877e+02 1.3892715179201154e-01 1.9681745978497545e+01 3.9346161188099060e-01 -5.4635480423921535e+01 2.0439715555643744e+01 -6.4498536543786089e-01 -2.1886370487608602e+00 7.4637697032046785e-02 2.5485223592442452e-01 -6.5963560167684534e+00 8.1003752618729322e+01 4.1345704792445011e+00 1.2673296230429028e+00 -1.4468343524075715e+00 -3.4264245856813602e-01 -3.9386305925638421e-01 1.5321747958481884e+00 4.1846063110344645e-01 -5.8373388763966094e-01 -1.4434251188148190e+02 -5.4853798562974243e-01 1.4815519979100475e+00 -2.5014101130360729e+00 -2.4549190591839150e+01 6.8315816489629810e+01 6.9533716810724688e-01 -7.3146346145515517e-01 -3.4951468982671807e-01 4.1381132488778869e+00 -6.7297748113685847e+00 -2.7568451817660673e+01 7.1705542443975823e-01 -2.3396536327408364e+00 1.8600658712204901e+00 -1.5843476904105556e+00 1.0601923120481422e+00 -4.7350167962695959e+00 4.1071733959194778e-01 1.2664657072130461e+00 2.2043427750593554e+02 2.7057439159293328e-01 -6.3937615637475798e-02 3.3796767156717351e+00 3.6890716780386515e+02 -2.5761941018098042e+00 -1.4095072544778242e-01 -2.4682990752523848e+00 2.3287901049418280e-01 -8.4302155151111791e-01 -6.8757307013955247e+00 -2.6953649594221707e+02 -2.8624614872046394e+00 5.9794272085682092e+00 5.0804946843500103e+00 1.1138260822045869e+01 1.9299503172298948e+01 -2.2472425209363550e+01 3.9600247017686385e+00 3.5694383336644062e+00 1.0737132966310278e+02 -1.2034925114330708e+00 4.0768282136842515e+01 4.0907088270439317e+01 2.5747495245853884e+02 -1.0664172521208656e+01 3.5928869964421879e+00 -7.3448473715413098e-01 4.8974349079613272e-01 5.7682179650978469e+00 6.9119050039036534e+00 2.2595931672731751e+01 -7.3101134211758984e-02 -2.8922638819620090e+00 8.0509955473699477e-02 4.2714121364476831e-01 5.7358463205150145e-02 -7.0556415493755864e-01 1.0496397996158111e-01 -2.5861857581607473e-01 -1.1348782283457902e+02 4.3252382330603023e-02 -2.0437130957156171e+01 -5.0575055637023967e+00 -1.6347799245655217e+01 -5.3787937930967566e+01 -5.8573106282482801e-02 5.9978075948612164e-01 2.1995356713325732e-02 -2.0936967638811144e-02 -1.0675783784633402e-01 -1.1595841828760783e+01 6.6831900031684938e+01 
      </Row>
      <Row Index="9">
