<?xml version="1.0"?>
<MethodSetup Method="MLP::MLP">
  <GeneralInfo>
    <Info name="TMVA Release" value="4.1.4 [262404]"/>
    <Info name="ROOT Release" value="5.34/07 [336391]"/>
    <Info name="Creator" value="pseyfert"/>
    <Info name="Date" value="Fri Dec 20 21:18:13 2013"/>
    <Info name="Host" value="Linux lxbuild175.cern.ch 2.6.18-308.4.1.el5 #1 SMP Wed Apr 18 16:26:27 CEST 2012 x86_64 x86_64 x86_64 GNU/Linux"/>
    <Info name="Dir" value="/auto/sigma0/pseyfert/zoontuple/Bender_v22r7/Phys/Tau23Mu/scripts/TMVA_training_v3"/>
    <Info name="Training events" value="41107"/>
    <Info name="TrainingTime" value="6.68703555e+02"/>
    <Info name="AnalysisType" value="Classification"/>
  </GeneralInfo>
  <Options>
    <Option name="NCycles" modified="Yes">600</Option>
    <Option name="HiddenLayers" modified="Yes">N+5</Option>
    <Option name="NeuronType" modified="Yes">tanh</Option>
    <Option name="RandomSeed" modified="No">1</Option>
    <Option name="EstimatorType" modified="No">MSE</Option>
    <Option name="NeuronInputType" modified="No">sum</Option>
    <Option name="V" modified="Yes">False</Option>
    <Option name="VerbosityLevel" modified="No">Default</Option>
    <Option name="VarTransform" modified="Yes">N</Option>
    <Option name="H" modified="Yes">False</Option>
    <Option name="CreateMVAPdfs" modified="No">False</Option>
    <Option name="IgnoreNegWeightsInTraining" modified="No">False</Option>
    <Option name="TrainingMethod" modified="No">BP</Option>
    <Option name="LearningRate" modified="No">2.000000e-02</Option>
    <Option name="DecayRate" modified="No">1.000000e-02</Option>
    <Option name="TestRate" modified="Yes">5</Option>
    <Option name="EpochMonitoring" modified="No">False</Option>
    <Option name="Sampling" modified="No">1.000000e+00</Option>
    <Option name="SamplingEpoch" modified="No">1.000000e+00</Option>
    <Option name="SamplingImportance" modified="No">1.000000e+00</Option>
    <Option name="SamplingTraining" modified="No">True</Option>
    <Option name="SamplingTesting" modified="No">False</Option>
    <Option name="ResetStep" modified="No">50</Option>
    <Option name="Tau" modified="No">3.000000e+00</Option>
    <Option name="BPMode" modified="No">sequential</Option>
    <Option name="BatchSize" modified="No">-1</Option>
    <Option name="ConvergenceImprove" modified="No">1.000000e-30</Option>
    <Option name="ConvergenceTests" modified="No">-1</Option>
    <Option name="UseRegulator" modified="Yes">False</Option>
    <Option name="UpdateLimit" modified="No">10000</Option>
    <Option name="CalculateErrors" modified="No">False</Option>
    <Option name="WeightRange" modified="No">1.000000e+00</Option>
  </Options>
  <Variables NVar="14">
    <Variable VarIndex="0" Expression="TMath::Exp(-1000*LifeTime)" Label="TMath::Exp(-1000*LifeTime)" Title="transformed decay time" Unit="1" Internal="TMath_Exp__M_1000_T_LifeTime_" Type="F" Min="1.93987222e-11" Max="7.31256723e-01"/>
    <Variable VarIndex="1" Expression="IPSig" Label="IPSig" Title="IP significance" Unit="1" Internal="IPSig" Type="F" Min="1.11495918e-02" Max="2.49779434e+01"/>
    <Variable VarIndex="2" Expression="VertexChi2" Label="VertexChi2" Title="vertex #chi^{2}" Unit="1" Internal="VertexChi2" Type="F" Min="1.89490011e-03" Max="1.49983969e+01"/>
    <Variable VarIndex="3" Expression="acos(dira)" Label="acos(dira)" Title="pointing angle" Unit="1" Internal="acos_dira_" Type="F" Min="0.00000000e+00" Max="1.37716651e-01"/>
    <Variable VarIndex="4" Expression="pt" Label="pt" Title="p_{T}" Unit="[MeV/c]" Internal="pt" Type="F" Min="4.12933426e+01" Max="3.79619180e+04"/>
    <Variable VarIndex="5" Expression="min(p0_IPSig,min(p1_IPSig,p2_IPSig))" Label="min(p0_IPSig,min(p1_IPSig,p2_IPSig))" Title="min. #mu IP significance" Unit="1" Internal="min_p0_IPSig,min_p1_IPSig,p2_IPSig__" Type="F" Min="2.30495882e+00" Max="1.02738922e+02"/>
    <Variable VarIndex="6" Expression="DOCAone" Label="DOCAone" Title="DOCA (#mu 1 and 2)" Unit="mm" Internal="DOCAone" Type="F" Min="2.63570382e-06" Max="9.23672736e-01"/>
    <Variable VarIndex="7" Expression="DOCAtwo" Label="DOCAtwo" Title="DOCA (#mu 2 and 3)" Unit="mm" Internal="DOCAtwo" Type="F" Min="2.43484504e-08" Max="7.44905770e-01"/>
    <Variable VarIndex="8" Expression="DOCAthree" Label="DOCAthree" Title="DOCA (#mu 1 and 3)" Unit="mm" Internal="DOCAthree" Type="F" Min="6.10736777e-07" Max="1.05343544e+00"/>
    <Variable VarIndex="9" Expression="iso" Label="iso" Title="track isolation" Unit="1" Internal="iso" Type="F" Min="0.00000000e+00" Max="1.70000000e+01"/>
    <Variable VarIndex="10" Expression="CDF3" Label="CDF3" Title="cone isolation" Unit="1" Internal="CDF3" Type="F" Min="3.00450996e-03" Max="1.00000000e+00"/>
    <Variable VarIndex="11" Expression="p0_track_MatchChi2" Label="p0_track_MatchChi2" Title="track match #chi^{2} (#mu 1)" Unit="1" Internal="p0_track_MatchChi2" Type="F" Min="5.59116006e-02" Max="8.45542831e+01"/>
    <Variable VarIndex="12" Expression="p1_track_MatchChi2" Label="p1_track_MatchChi2" Title="track match #chi^{2} (#mu 2)" Unit="1" Internal="p1_track_MatchChi2" Type="F" Min="1.31226135e-02" Max="7.59046707e+01"/>
    <Variable VarIndex="13" Expression="p2_track_MatchChi2" Label="p2_track_MatchChi2" Title="track match #chi^{2} (#mu 3)" Unit="1" Internal="p2_track_MatchChi2" Type="F" Min="1.51327997e-02" Max="7.93785172e+01"/>
  </Variables>
  <Spectators NSpec="0"/>
  <Classes NClass="2">
    <Class Name="Signal" Index="0"/>
    <Class Name="Background" Index="1"/>
  </Classes>
  <Transformations NTransformations="1">
    <Transform Name="Normalize">
      <Selection>
        <Input NInputs="14">
          <Input Type="Variable" Label="TMath::Exp(-1000*LifeTime)" Expression="TMath::Exp(-1000*LifeTime)"/>
          <Input Type="Variable" Label="IPSig" Expression="IPSig"/>
          <Input Type="Variable" Label="VertexChi2" Expression="VertexChi2"/>
          <Input Type="Variable" Label="acos(dira)" Expression="acos(dira)"/>
          <Input Type="Variable" Label="pt" Expression="pt"/>
          <Input Type="Variable" Label="min(p0_IPSig,min(p1_IPSig,p2_IPSig))" Expression="min(p0_IPSig,min(p1_IPSig,p2_IPSig))"/>
          <Input Type="Variable" Label="DOCAone" Expression="DOCAone"/>
          <Input Type="Variable" Label="DOCAtwo" Expression="DOCAtwo"/>
          <Input Type="Variable" Label="DOCAthree" Expression="DOCAthree"/>
          <Input Type="Variable" Label="iso" Expression="iso"/>
          <Input Type="Variable" Label="CDF3" Expression="CDF3"/>
          <Input Type="Variable" Label="p0_track_MatchChi2" Expression="p0_track_MatchChi2"/>
          <Input Type="Variable" Label="p1_track_MatchChi2" Expression="p1_track_MatchChi2"/>
          <Input Type="Variable" Label="p2_track_MatchChi2" Expression="p2_track_MatchChi2"/>
        </Input>
        <Output NOutputs="14">
          <Output Type="Variable" Label="TMath::Exp(-1000*LifeTime)" Expression="TMath::Exp(-1000*LifeTime)"/>
          <Output Type="Variable" Label="IPSig" Expression="IPSig"/>
          <Output Type="Variable" Label="VertexChi2" Expression="VertexChi2"/>
          <Output Type="Variable" Label="acos(dira)" Expression="acos(dira)"/>
          <Output Type="Variable" Label="pt" Expression="pt"/>
          <Output Type="Variable" Label="min(p0_IPSig,min(p1_IPSig,p2_IPSig))" Expression="min(p0_IPSig,min(p1_IPSig,p2_IPSig))"/>
          <Output Type="Variable" Label="DOCAone" Expression="DOCAone"/>
          <Output Type="Variable" Label="DOCAtwo" Expression="DOCAtwo"/>
          <Output Type="Variable" Label="DOCAthree" Expression="DOCAthree"/>
          <Output Type="Variable" Label="iso" Expression="iso"/>
          <Output Type="Variable" Label="CDF3" Expression="CDF3"/>
          <Output Type="Variable" Label="p0_track_MatchChi2" Expression="p0_track_MatchChi2"/>
          <Output Type="Variable" Label="p1_track_MatchChi2" Expression="p1_track_MatchChi2"/>
          <Output Type="Variable" Label="p2_track_MatchChi2" Expression="p2_track_MatchChi2"/>
        </Output>
      </Selection>
      <Class ClassIndex="0">
        <Ranges>
          <Range Index="0" Min="1.9398722211905195e-11" Max="7.3125672340393066e-01"/>
          <Range Index="1" Min="1.1149591766297817e-02" Max="2.1987730026245117e+01"/>
          <Range Index="2" Min="1.8949001096189022e-03" Max="1.4998396873474121e+01"/>
          <Range Index="3" Min="0.0000000000000000e+00" Max="1.3410498201847076e-01"/>
          <Range Index="4" Min="6.2147693634033203e+01" Max="3.7961917968750000e+04"/>
          <Range Index="5" Min="2.3049588203430176e+00" Max="1.0273892211914062e+02"/>
          <Range Index="6" Min="2.6357038223068230e-06" Max="7.3856800794601440e-01"/>
          <Range Index="7" Min="2.4348450367028818e-08" Max="6.9920772314071655e-01"/>
          <Range Index="8" Min="6.1073677670719917e-07" Max="1.0170480012893677e+00"/>
          <Range Index="9" Min="0.0000000000000000e+00" Max="1.3000000000000000e+01"/>
          <Range Index="10" Min="3.0045099556446075e-03" Max="1.0000000000000000e+00"/>
          <Range Index="11" Min="5.5911600589752197e-02" Max="7.2067237854003906e+01"/>
          <Range Index="12" Min="1.3122613541781902e-02" Max="7.5904670715332031e+01"/>
          <Range Index="13" Min="1.5132799744606018e-02" Max="7.9378517150878906e+01"/>
        </Ranges>
      </Class>
      <Class ClassIndex="1">
        <Ranges>
          <Range Index="0" Min="2.1115165509399958e-05" Max="7.2934836149215698e-01"/>
          <Range Index="1" Min="1.3430085778236389e-01" Max="2.4977943420410156e+01"/>
          <Range Index="2" Min="2.2036740556359291e-02" Max="1.4991107940673828e+01"/>
          <Range Index="3" Min="0.0000000000000000e+00" Max="1.3771665096282959e-01"/>
          <Range Index="4" Min="4.1293342590332031e+01" Max="2.1269572265625000e+04"/>
          <Range Index="5" Min="2.7823791503906250e+00" Max="4.9517536163330078e+01"/>
          <Range Index="6" Min="3.9169070078060031e-05" Max="9.2367273569107056e-01"/>
          <Range Index="7" Min="5.9152989706490189e-05" Max="7.4490576982498169e-01"/>
          <Range Index="8" Min="3.1205789127852768e-05" Max="1.0534354448318481e+00"/>
          <Range Index="9" Min="0.0000000000000000e+00" Max="1.7000000000000000e+01"/>
          <Range Index="10" Min="3.8299348670989275e-03" Max="1.0000000000000000e+00"/>
          <Range Index="11" Min="1.4428974688053131e-01" Max="8.4554283142089844e+01"/>
          <Range Index="12" Min="1.4624765515327454e-01" Max="6.7723579406738281e+01"/>
          <Range Index="13" Min="4.5327022671699524e-02" Max="6.8506652832031250e+01"/>
        </Ranges>
      </Class>
      <Class ClassIndex="2">
        <Ranges>
          <Range Index="0" Min="1.9398722211905195e-11" Max="7.3125672340393066e-01"/>
          <Range Index="1" Min="1.1149591766297817e-02" Max="2.4977943420410156e+01"/>
          <Range Index="2" Min="1.8949001096189022e-03" Max="1.4998396873474121e+01"/>
          <Range Index="3" Min="0.0000000000000000e+00" Max="1.3771665096282959e-01"/>
          <Range Index="4" Min="4.1293342590332031e+01" Max="3.7961917968750000e+04"/>
          <Range Index="5" Min="2.3049588203430176e+00" Max="1.0273892211914062e+02"/>
          <Range Index="6" Min="2.6357038223068230e-06" Max="9.2367273569107056e-01"/>
          <Range Index="7" Min="2.4348450367028818e-08" Max="7.4490576982498169e-01"/>
          <Range Index="8" Min="6.1073677670719917e-07" Max="1.0534354448318481e+00"/>
          <Range Index="9" Min="0.0000000000000000e+00" Max="1.7000000000000000e+01"/>
          <Range Index="10" Min="3.0045099556446075e-03" Max="1.0000000000000000e+00"/>
          <Range Index="11" Min="5.5911600589752197e-02" Max="8.4554283142089844e+01"/>
          <Range Index="12" Min="1.3122613541781902e-02" Max="7.5904670715332031e+01"/>
          <Range Index="13" Min="1.5132799744606018e-02" Max="7.9378517150878906e+01"/>
        </Ranges>
      </Class>
    </Transform>
  </Transformations>
  <MVAPdfs/>
  <Weights>
    <Layout NLayers="3">
      <Layer Index="0" NNeurons="15">
        <Neuron NSynapses="19">
          -8.2714453673017024e-02 1.4869785017053547e+00 4.4416443895743529e-01 1.8153020891821434e+00 -1.6149716892251877e+00 -1.3522214388858860e+00 -7.2633188052791908e-01 1.8594142692439959e+00 -2.0218574454910189e-02 -1.2833957951474528e+00 -1.1999476842927097e+00 -4.9211491699336440e-01 -1.1974013679852511e+00 -2.8528736101576863e-01 -2.3650648775722663e-01 1.5426609237988569e+00 -4.8853012998933459e-01 1.5411207378632681e+00 -4.7838007741333788e-01 
        </Neuron>
        <Neuron NSynapses="19">
          1.0638730962402936e+00 -7.1100212454154754e-01 -3.3587857606242805e-01 1.1259376808217041e+00 6.6064922131750670e-01 -1.4510630303939200e+00 -1.8035850397894720e-01 1.3997095667508068e+00 -5.8012095503011885e-01 -1.1724568460495965e+00 3.5251380547561184e-01 -4.2474895308819249e-01 1.7143270345205233e+00 -6.4730931795415847e-01 -3.3788554060815207e-01 1.3773875216883824e+00 -1.0225481468804135e-01 -8.1526046723769408e-01 2.4869354090622551e+00 
        </Neuron>
        <Neuron NSynapses="19">
          -1.0277107122771052e+00 8.7310346396379312e-01 1.1865345138624512e+00 8.8320789539430788e-01 1.7010339385058069e+00 9.8666767259867938e-01 1.3961676505224618e-01 -1.3754077085158420e+00 -9.7029540486578558e-01 -7.3874908904096398e-02 1.4267014531605748e+00 1.5625236996750160e+00 1.6093654549718019e+00 8.9704661741707847e-01 -1.3546701215863821e+00 2.8372370603959157e-01 -1.3746065454604708e+00 -6.4715214933892773e-01 -7.5677227278437453e-01 
        </Neuron>
        <Neuron NSynapses="19">
          -2.2398251209057216e+00 9.5095164358711859e-01 7.9612356623045366e-01 -8.4055605056240612e-01 1.0751289461217053e+00 -7.2229545849662935e-01 5.4359691604003890e-01 1.7017318376989476e+00 -7.1435123748199580e-01 1.9684625088214858e-01 -1.6130299815416318e+00 7.4418610155375886e-01 -7.0625478897152016e-01 -1.2033294010850051e+00 -1.4926204551492357e+00 1.1850087529595497e+00 1.5022183613840303e+00 1.0996407637044192e+00 -4.4408277660893947e-01 
        </Neuron>
        <Neuron NSynapses="19">
          -2.5953211558522868e+00 -2.2768141663387578e+00 1.6269576491046440e+00 1.0953922887420549e+00 2.2048389099787236e+00 2.6315334090282605e-01 8.2419309144147312e-01 -4.4015223365667694e-01 -3.5252456879955202e-01 -4.0350584591878091e-01 8.4001008067298499e-01 -9.8104738825204041e-01 -1.8606727389991897e+00 -2.0387515725531542e+00 -5.2882351417251638e-01 -5.3309642901167253e-01 2.0681496985281123e+00 -1.9262379958395424e+00 -6.8965875239030860e-01 
        </Neuron>
        <Neuron NSynapses="19">
          9.5400398134908126e-01 -6.8859562029762733e-01 -8.6259377251324809e-01 -7.0007913957616452e-01 3.5353798284809584e-01 -2.2796714715580011e+00 -1.9846400425631530e+00 1.1547668194649514e+00 2.1153941629543409e+00 -1.4973416554846157e+00 1.2273091050941389e+00 -6.7546509081180461e-01 -9.6199029284266457e-01 -5.8592586733289220e-01 -1.1046536603155643e-02 -3.2746695258200291e+00 8.0934398871188140e-01 -3.0042446860348676e-01 4.2929217148004135e-02 
        </Neuron>
        <Neuron NSynapses="19">
          -1.5568224504737358e+00 1.3501236374635657e+00 9.7331517982781246e-01 -1.6742873506890388e-01 1.5246439278279813e+00 -1.5998364440831279e+00 -1.4303513326789667e+00 5.8161120445863013e-01 -4.8048050879572707e-01 1.3757936916007494e+00 2.9223801470330307e-01 1.0795017304617538e-01 -4.4243656283103117e-01 -4.3819681877295474e-01 -2.2764106747218746e+00 1.4355365202444532e+00 7.1219855956635458e-01 -2.1344726101214349e+00 -5.1494235152110035e-01 
        </Neuron>
        <Neuron NSynapses="19">
          -1.6986922906133965e+00 -4.2152083491345166e-01 1.9751577116751322e+00 2.1278074785622634e+00 -1.2485240373201569e+00 -1.8133235929531202e-01 1.3483426969216223e+00 2.0871614925507425e+00 2.3958863742415820e-01 -1.9260592554967226e+00 -5.2363113936993133e-01 -1.3810201043725565e+00 1.3339546703913858e+00 6.1165426726500194e-01 -8.3518633711616941e-01 5.1821598437416183e-01 7.3524940912587178e-01 -1.2524800632455477e+00 -3.7663822569931266e-01 
        </Neuron>
        <Neuron NSynapses="19">
          1.0267937360225727e+00 -1.0281444249721905e+00 -1.6255244554110843e-02 1.1021154490824241e+00 1.6100390372198636e+00 2.0502419248603056e-02 9.4860459878766690e-01 -1.0479636249959885e+00 9.1745652949955592e-01 3.5219216308086421e-01 2.2382338816627814e-01 6.1254517229993577e-01 8.4370781125542538e-01 -1.1624796320420008e+00 -1.0100092124463906e+00 9.2980921688924267e-01 -3.4729624491279548e-01 -2.3290902835437016e-01 3.8872573589593828e-01 
        </Neuron>
        <Neuron NSynapses="19">
          5.4951612870472266e-01 -1.0735737782336634e+00 1.9459319418164018e+00 2.0866365884725737e+00 -1.2211692553861557e+00 1.4670287164348356e-01 8.9277897198503031e-01 5.2842491862434926e-01 -1.4773155123041313e+00 -7.8361326307692725e-01 1.2042146518949213e+00 1.5596574064325430e+00 -1.7279684910973563e+00 -7.7369923496334891e-01 -6.2289357140804213e-01 -2.7705420663869981e-02 1.8841742440980673e+00 -6.5881378964226789e-01 4.6117693396023041e-01 
        </Neuron>
        <Neuron NSynapses="19">
          -1.1985502651698614e+00 1.1761812464296180e+00 1.3997940086253036e+00 7.6772082837926348e-01 1.6175887687959978e-01 -5.1687985481431098e-01 -1.2809020783231941e+00 1.0339388054706500e+00 -1.0875105775616206e-01 -1.9083141742296572e+00 2.2923870948518169e-02 8.2318061539639678e-02 -2.5078540045567088e-01 -1.4359791371037653e+00 1.3058110860674228e+00 -3.3911405599181094e-01 -4.2250151005329067e-01 -8.2475753909935834e-01 6.7544255478803925e-02 
        </Neuron>
        <Neuron NSynapses="19">
          6.2771660237127203e-01 1.6043436307730549e-01 3.8519779142745914e-01 -1.0597283717265114e+00 -3.8522982900674135e-01 1.2335249845852594e+00 1.1515285512305113e+00 1.4236767154485077e+00 -1.4168471706158683e+00 1.4841434304466243e+00 -2.0684618838248818e+00 -1.3466387332612966e+00 -1.3078721301685375e-01 -1.6270905501112070e+00 6.5299656855216681e-01 1.1221291123576416e+00 -6.9591570518263024e-01 1.2617665003902304e-01 -1.1252148731064355e+00 
        </Neuron>
        <Neuron NSynapses="19">
          -1.7923901528889532e+00 -1.4430084960650496e+00 9.7583996567716735e-01 1.4114160235629323e+00 1.1612223644191726e+00 -1.0825271634974738e+00 2.2642934587524692e+00 -1.2638573029881095e+00 -6.8955790116560567e-01 -7.5817653631201787e-01 -1.3240096311940581e+00 -1.3837323094238234e+00 -2.1282074770813688e+00 -7.7348035397384762e-01 -1.7591042514021586e+00 -1.4928335752393918e-01 -1.3496171776671635e+00 -5.7836353797951945e-01 -8.6577078207165847e-01 
        </Neuron>
        <Neuron NSynapses="19">
          -2.4040766808735956e+00 9.2127595308814725e-01 -7.3804777334512892e-02 6.1154255102280064e-01 -4.4790920867154616e-01 -2.9072398190680004e-01 2.1796566727874933e+00 1.7744480793087003e+00 -4.3717875696286929e-01 -2.0530268027071163e+00 -1.8961001700371249e+00 -6.6607050034888204e-01 -1.6619678183361077e+00 -2.1597295742372025e-01 -3.4932233508861758e-02 -1.6067656679835070e-02 1.7292274683810679e-01 -1.2518265515778224e-01 -7.7798424370773633e-01 
        </Neuron>
        <Neuron NSynapses="19">
          -1.2978450023867343e+00 1.7581717984040404e+00 4.9601886406794071e-01 -1.7170124534724407e+00 -1.6384286514110711e+00 1.4334349670495152e+00 1.3688616344991571e+00 -9.3352918251817015e-03 -1.5306761307013113e+00 2.3134488616989440e-01 1.9860270853094482e+00 8.6073757088904745e-01 1.1765815524578391e+00 3.6108623390665301e-01 5.9470607542445220e-01 -2.1469836352624165e-02 -2.0576393337878045e+00 -5.2950343226843083e-02 -6.4002293527127641e-01 
        </Neuron>
      </Layer>
      <Layer Index="1" NNeurons="20">
        <Neuron NSynapses="1">
          -6.3901418662340270e-01 
        </Neuron>
        <Neuron NSynapses="1">
          -3.0437147191316288e-01 
        </Neuron>
        <Neuron NSynapses="1">
          7.2208529933979870e-01 
        </Neuron>
        <Neuron NSynapses="1">
          -1.4727881549420310e+00 
        </Neuron>
        <Neuron NSynapses="1">
          6.7590637426741973e-01 
        </Neuron>
        <Neuron NSynapses="1">
          -8.9087384797464164e-01 
        </Neuron>
        <Neuron NSynapses="1">
          -4.2851609783516753e-01 
        </Neuron>
        <Neuron NSynapses="1">
          -1.7918131840491733e-01 
        </Neuron>
        <Neuron NSynapses="1">
          2.3552429966002092e-01 
        </Neuron>
        <Neuron NSynapses="1">
          6.1020305858878843e-01 
        </Neuron>
        <Neuron NSynapses="1">
          -4.4944410607193253e-01 
        </Neuron>
        <Neuron NSynapses="1">
          4.4292768538986399e-01 
        </Neuron>
        <Neuron NSynapses="1">
          7.1127952468218669e-01 
        </Neuron>
        <Neuron NSynapses="1">
          -1.1931258636858972e+00 
        </Neuron>
        <Neuron NSynapses="1">
          -6.8706536460253054e-01 
        </Neuron>
        <Neuron NSynapses="1">
          -3.0880572033494064e-01 
        </Neuron>
        <Neuron NSynapses="1">
          -2.0908039739509032e-01 
        </Neuron>
        <Neuron NSynapses="1">
          1.5078199742691099e+00 
        </Neuron>
        <Neuron NSynapses="1">
          -1.4813069851641322e-01 
        </Neuron>
        <Neuron NSynapses="1">
          5.8740274740548482e-01 
        </Neuron>
      </Layer>
      <Layer Index="2" NNeurons="1">
        <Neuron NSynapses="0"/>
      </Layer>
    </Layout>
  </Weights>
</MethodSetup>
