<?xml version="1.0"?>
<MethodSetup Method="MLP::MLPMSEBFGW">
  <GeneralInfo>
    <Info name="TMVA Release" value="4.1.4 [262404]"/>
    <Info name="ROOT Release" value="5.34/07 [336391]"/>
    <Info name="Creator" value="pseyfert"/>
    <Info name="Date" value="Thu Dec 12 18:00:16 2013"/>
    <Info name="Host" value="Linux lxbuild175.cern.ch 2.6.18-308.4.1.el5 #1 SMP Wed Apr 18 16:26:27 CEST 2012 x86_64 x86_64 x86_64 GNU/Linux"/>
    <Info name="Dir" value="/auto/sigma0/pseyfert/zoontuple/Bender_v22r7/Phys/Tau23Mu/scripts/TMVA_training"/>
    <Info name="Training events" value="52358"/>
    <Info name="TrainingTime" value="3.67668436e+03"/>
    <Info name="AnalysisType" value="Classification"/>
  </GeneralInfo>
  <Options>
    <Option name="NCycles" modified="Yes">600</Option>
    <Option name="HiddenLayers" modified="Yes">N+5</Option>
    <Option name="NeuronType" modified="Yes">tanh</Option>
    <Option name="RandomSeed" modified="No">1</Option>
    <Option name="EstimatorType" modified="Yes">MSE</Option>
    <Option name="NeuronInputType" modified="No">sum</Option>
    <Option name="V" modified="Yes">False</Option>
    <Option name="VerbosityLevel" modified="No">Default</Option>
    <Option name="VarTransform" modified="Yes">N</Option>
    <Option name="H" modified="Yes">False</Option>
    <Option name="CreateMVAPdfs" modified="No">False</Option>
    <Option name="IgnoreNegWeightsInTraining" modified="No">False</Option>
    <Option name="TrainingMethod" modified="Yes">BFGS</Option>
    <Option name="LearningRate" modified="No">2.000000e-02</Option>
    <Option name="DecayRate" modified="No">1.000000e-02</Option>
    <Option name="TestRate" modified="Yes">5</Option>
    <Option name="EpochMonitoring" modified="No">False</Option>
    <Option name="Sampling" modified="No">1.000000e+00</Option>
    <Option name="SamplingEpoch" modified="No">1.000000e+00</Option>
    <Option name="SamplingImportance" modified="No">1.000000e+00</Option>
    <Option name="SamplingTraining" modified="No">True</Option>
    <Option name="SamplingTesting" modified="No">False</Option>
    <Option name="ResetStep" modified="No">50</Option>
    <Option name="Tau" modified="No">3.000000e+00</Option>
    <Option name="BPMode" modified="No">sequential</Option>
    <Option name="BatchSize" modified="No">-1</Option>
    <Option name="ConvergenceImprove" modified="No">1.000000e-30</Option>
    <Option name="ConvergenceTests" modified="No">-1</Option>
    <Option name="UseRegulator" modified="Yes">False</Option>
    <Option name="UpdateLimit" modified="No">10000</Option>
    <Option name="CalculateErrors" modified="No">False</Option>
    <Option name="WeightRange" modified="No">1.000000e+00</Option>
  </Options>
  <Variables NVar="14">
    <Variable VarIndex="0" Expression="TMath::Exp(-1000*LifeTime)" Label="TMath::Exp(-1000*LifeTime)" Title="transformed decay time" Unit="1" Internal="TMath_Exp__M_1000_T_LifeTime_" Type="F" Min="1.93987222e-11" Max="7.31256723e-01"/>
    <Variable VarIndex="1" Expression="IPSig" Label="IPSig" Title="IP significance" Unit="1" Internal="IPSig" Type="F" Min="1.11495918e-02" Max="2.49779434e+01"/>
    <Variable VarIndex="2" Expression="VertexChi2" Label="VertexChi2" Title="vertex #chi^{2}" Unit="1" Internal="VertexChi2" Type="F" Min="8.02233350e-04" Max="1.49983969e+01"/>
    <Variable VarIndex="3" Expression="acos(dira)" Label="acos(dira)" Title="pointing angle" Unit="1" Internal="acos_dira_" Type="F" Min="0.00000000e+00" Max="1.37716651e-01"/>
    <Variable VarIndex="4" Expression="pt" Label="pt" Title="p_{T}" Unit="[MeV/c]" Internal="pt" Type="F" Min="4.12933426e+01" Max="5.52403477e+04"/>
    <Variable VarIndex="5" Expression="Laura_SumBDT" Label="Laura_SumBDT" Title="Laura_SumBDT" Unit="" Internal="Laura_SumBDT" Type="F" Min="-2.57286167e+00" Max="5.00000000e+00"/>
    <Variable VarIndex="6" Expression="min(p0_IPSig,min(p1_IPSig,p2_IPSig))" Label="min(p0_IPSig,min(p1_IPSig,p2_IPSig))" Title="min. #mu IP significance" Unit="1" Internal="min_p0_IPSig,min_p1_IPSig,p2_IPSig__" Type="F" Min="2.30495882e+00" Max="1.02738922e+02"/>
    <Variable VarIndex="7" Expression="DOCAone" Label="DOCAone" Title="DOCA (#mu 1 and 2)" Unit="mm" Internal="DOCAone" Type="F" Min="2.63570382e-06" Max="9.23672736e-01"/>
    <Variable VarIndex="8" Expression="DOCAtwo" Label="DOCAtwo" Title="DOCA (#mu 2 and 3)" Unit="mm" Internal="DOCAtwo" Type="F" Min="2.43484504e-08" Max="7.44905770e-01"/>
    <Variable VarIndex="9" Expression="DOCAthree" Label="DOCAthree" Title="DOCA (#mu 1 and 3)" Unit="mm" Internal="DOCAthree" Type="F" Min="6.10736777e-07" Max="1.05343544e+00"/>
    <Variable VarIndex="10" Expression="CDF3" Label="CDF3" Title="cone isolation" Unit="1" Internal="CDF3" Type="F" Min="3.00450996e-03" Max="1.00000000e+00"/>
    <Variable VarIndex="11" Expression="p0_track_MatchChi2" Label="p0_track_MatchChi2" Title="track match #chi^{2} (#mu 1)" Unit="1" Internal="p0_track_MatchChi2" Type="F" Min="4.38715070e-02" Max="8.45542831e+01"/>
    <Variable VarIndex="12" Expression="p1_track_MatchChi2" Label="p1_track_MatchChi2" Title="track match #chi^{2} (#mu 2)" Unit="1" Internal="p1_track_MatchChi2" Type="F" Min="1.31226135e-02" Max="7.59046707e+01"/>
    <Variable VarIndex="13" Expression="p2_track_MatchChi2" Label="p2_track_MatchChi2" Title="track match #chi^{2} (#mu 3)" Unit="1" Internal="p2_track_MatchChi2" Type="F" Min="1.51327997e-02" Max="7.93785172e+01"/>
  </Variables>
  <Spectators NSpec="0"/>
  <Classes NClass="2">
    <Class Name="Signal" Index="0"/>
    <Class Name="Background" Index="1"/>
  </Classes>
  <Transformations NTransformations="1">
    <Transform Name="Normalize">
      <Selection>
        <Input NInputs="14">
          <Input Type="Variable" Label="TMath::Exp(-1000*LifeTime)" Expression="TMath::Exp(-1000*LifeTime)"/>
          <Input Type="Variable" Label="IPSig" Expression="IPSig"/>
          <Input Type="Variable" Label="VertexChi2" Expression="VertexChi2"/>
          <Input Type="Variable" Label="acos(dira)" Expression="acos(dira)"/>
          <Input Type="Variable" Label="pt" Expression="pt"/>
          <Input Type="Variable" Label="Laura_SumBDT" Expression="Laura_SumBDT"/>
          <Input Type="Variable" Label="min(p0_IPSig,min(p1_IPSig,p2_IPSig))" Expression="min(p0_IPSig,min(p1_IPSig,p2_IPSig))"/>
          <Input Type="Variable" Label="DOCAone" Expression="DOCAone"/>
          <Input Type="Variable" Label="DOCAtwo" Expression="DOCAtwo"/>
          <Input Type="Variable" Label="DOCAthree" Expression="DOCAthree"/>
          <Input Type="Variable" Label="CDF3" Expression="CDF3"/>
          <Input Type="Variable" Label="p0_track_MatchChi2" Expression="p0_track_MatchChi2"/>
          <Input Type="Variable" Label="p1_track_MatchChi2" Expression="p1_track_MatchChi2"/>
          <Input Type="Variable" Label="p2_track_MatchChi2" Expression="p2_track_MatchChi2"/>
        </Input>
        <Output NOutputs="14">
          <Output Type="Variable" Label="TMath::Exp(-1000*LifeTime)" Expression="TMath::Exp(-1000*LifeTime)"/>
          <Output Type="Variable" Label="IPSig" Expression="IPSig"/>
          <Output Type="Variable" Label="VertexChi2" Expression="VertexChi2"/>
          <Output Type="Variable" Label="acos(dira)" Expression="acos(dira)"/>
          <Output Type="Variable" Label="pt" Expression="pt"/>
          <Output Type="Variable" Label="Laura_SumBDT" Expression="Laura_SumBDT"/>
          <Output Type="Variable" Label="min(p0_IPSig,min(p1_IPSig,p2_IPSig))" Expression="min(p0_IPSig,min(p1_IPSig,p2_IPSig))"/>
          <Output Type="Variable" Label="DOCAone" Expression="DOCAone"/>
          <Output Type="Variable" Label="DOCAtwo" Expression="DOCAtwo"/>
          <Output Type="Variable" Label="DOCAthree" Expression="DOCAthree"/>
          <Output Type="Variable" Label="CDF3" Expression="CDF3"/>
          <Output Type="Variable" Label="p0_track_MatchChi2" Expression="p0_track_MatchChi2"/>
          <Output Type="Variable" Label="p1_track_MatchChi2" Expression="p1_track_MatchChi2"/>
          <Output Type="Variable" Label="p2_track_MatchChi2" Expression="p2_track_MatchChi2"/>
        </Output>
      </Selection>
      <Class ClassIndex="0">
        <Ranges>
          <Range Index="0" Min="1.9398722211905195e-11" Max="7.3125672340393066e-01"/>
          <Range Index="1" Min="1.1149591766297817e-02" Max="2.1987730026245117e+01"/>
          <Range Index="2" Min="8.0223334953188896e-04" Max="1.4998396873474121e+01"/>
          <Range Index="3" Min="0.0000000000000000e+00" Max="1.3410498201847076e-01"/>
          <Range Index="4" Min="6.2147693634033203e+01" Max="5.5240347656250000e+04"/>
          <Range Index="5" Min="-2.5728616714477539e+00" Max="5.0000000000000000e+00"/>
          <Range Index="6" Min="2.3049588203430176e+00" Max="1.0273892211914062e+02"/>
          <Range Index="7" Min="2.6357038223068230e-06" Max="8.1560057401657104e-01"/>
          <Range Index="8" Min="2.4348450367028818e-08" Max="6.9920772314071655e-01"/>
          <Range Index="9" Min="6.1073677670719917e-07" Max="1.0170480012893677e+00"/>
          <Range Index="10" Min="3.0045099556446075e-03" Max="1.0000000000000000e+00"/>
          <Range Index="11" Min="4.3871507048606873e-02" Max="7.7615455627441406e+01"/>
          <Range Index="12" Min="1.3122613541781902e-02" Max="7.5904670715332031e+01"/>
          <Range Index="13" Min="1.5132799744606018e-02" Max="7.9378517150878906e+01"/>
        </Ranges>
      </Class>
      <Class ClassIndex="1">
        <Ranges>
          <Range Index="0" Min="2.1115165509399958e-05" Max="7.2934836149215698e-01"/>
          <Range Index="1" Min="1.3430085778236389e-01" Max="2.4977943420410156e+01"/>
          <Range Index="2" Min="2.2036740556359291e-02" Max="1.4991107940673828e+01"/>
          <Range Index="3" Min="0.0000000000000000e+00" Max="1.3771665096282959e-01"/>
          <Range Index="4" Min="4.1293342590332031e+01" Max="2.1269572265625000e+04"/>
          <Range Index="5" Min="-2.2138717174530029e+00" Max="-5.2525274455547333e-02"/>
          <Range Index="6" Min="2.7823791503906250e+00" Max="5.1121429443359375e+01"/>
          <Range Index="7" Min="3.9169070078060031e-05" Max="9.2367273569107056e-01"/>
          <Range Index="8" Min="4.2437626689206809e-05" Max="7.4490576982498169e-01"/>
          <Range Index="9" Min="3.1205789127852768e-05" Max="1.0534354448318481e+00"/>
          <Range Index="10" Min="3.8299348670989275e-03" Max="1.0000000000000000e+00"/>
          <Range Index="11" Min="1.4428974688053131e-01" Max="8.4554283142089844e+01"/>
          <Range Index="12" Min="1.4624765515327454e-01" Max="6.7723579406738281e+01"/>
          <Range Index="13" Min="4.5327022671699524e-02" Max="6.8506652832031250e+01"/>
        </Ranges>
      </Class>
      <Class ClassIndex="2">
        <Ranges>
          <Range Index="0" Min="1.9398722211905195e-11" Max="7.3125672340393066e-01"/>
          <Range Index="1" Min="1.1149591766297817e-02" Max="2.4977943420410156e+01"/>
          <Range Index="2" Min="8.0223334953188896e-04" Max="1.4998396873474121e+01"/>
          <Range Index="3" Min="0.0000000000000000e+00" Max="1.3771665096282959e-01"/>
          <Range Index="4" Min="4.1293342590332031e+01" Max="5.5240347656250000e+04"/>
          <Range Index="5" Min="-2.5728616714477539e+00" Max="5.0000000000000000e+00"/>
          <Range Index="6" Min="2.3049588203430176e+00" Max="1.0273892211914062e+02"/>
          <Range Index="7" Min="2.6357038223068230e-06" Max="9.2367273569107056e-01"/>
          <Range Index="8" Min="2.4348450367028818e-08" Max="7.4490576982498169e-01"/>
          <Range Index="9" Min="6.1073677670719917e-07" Max="1.0534354448318481e+00"/>
          <Range Index="10" Min="3.0045099556446075e-03" Max="1.0000000000000000e+00"/>
          <Range Index="11" Min="4.3871507048606873e-02" Max="8.4554283142089844e+01"/>
          <Range Index="12" Min="1.3122613541781902e-02" Max="7.5904670715332031e+01"/>
          <Range Index="13" Min="1.5132799744606018e-02" Max="7.9378517150878906e+01"/>
        </Ranges>
      </Class>
    </Transform>
  </Transformations>
  <MVAPdfs/>
  <Weights>
    <Layout NLayers="3">
      <Layer Index="0" NNeurons="15">
        <Neuron NSynapses="19">
          -6.6061178980000690e-02 2.6086233600598345e+00 6.6065056655761800e-01 1.3632643060726717e+00 -1.3856350233193673e+00 -5.8957483727712456e-01 1.0272159170301727e+00 2.4945453411696361e+00 -1.5838283249843501e+00 -1.6841998202572142e+00 9.5304935438045846e-01 1.0967532071128514e+00 -4.4388488096451761e-01 -1.1740411172098239e-01 6.9809776318163685e-01 5.6013312111900526e-01 2.0916551022598275e+00 -5.2357730666107862e+00 1.4932587339854930e+00 
        </Neuron>
        <Neuron NSynapses="19">
          -1.5854038684037488e+00 2.4476693877387881e+00 4.1112577145671416e+00 3.1771525864540666e+00 3.4509548066828843e+00 -3.9144983513091383e+00 1.1780317926026425e+00 1.9637969792199452e+00 -1.7021892270300971e+00 -2.8731294178817692e+00 -3.7439438458511312e+00 -4.3085326230591319e+00 3.4440852597339056e-01 6.9133424685533532e-02 -1.1292434904534236e+00 1.2157066235047185e+00 1.6105018343255735e+00 8.8110790505454029e-01 1.8749239940804960e+00 
        </Neuron>
        <Neuron NSynapses="19">
          2.4222320678928067e-01 3.0092791801581189e+00 -4.2374725310851602e+00 3.8365087754859939e+00 -1.9986004711283916e+00 -5.9514144113865033e+00 1.0861766859514047e-01 -7.4774901433193963e-01 1.5914942307743667e+00 -1.4617181381819500e+00 -2.3039603895558760e+00 -2.5971852737024106e+00 3.4251195205942742e-01 8.5097520595862963e-01 -7.5137909439696726e-02 5.0836758029291651e-01 -1.3306933599548609e-01 -3.7995525155622492e+00 -5.7505493043624112e-01 
        </Neuron>
        <Neuron NSynapses="19">
          -4.6606624086689079e+00 5.9888891351095728e+00 4.8472529303400282e+00 2.4010025023230814e+00 3.4955835931410113e+00 -3.9217531308554925e+00 3.0746672779471851e+00 4.2538401444589811e+00 -1.8535592481665109e+00 -3.0001926968566424e+00 -4.2880887347056698e+00 -4.0048815178967612e+00 -2.2442655254998209e+00 -7.7421243599514156e-01 -1.7632535553424014e+00 1.1326310818450491e+00 4.0517292693195808e+00 -3.9320967449242623e+00 1.2307389132263067e+00 
        </Neuron>
        <Neuron NSynapses="19">
          -4.4323483073290788e+00 4.8100302130612365e+00 4.7956047097326335e+00 4.9379982526296757e+00 4.2985275174324533e+00 -1.8337597022357193e-02 4.9866002354818724e+00 1.5619477880271240e+00 -3.5023297323180902e+00 -3.8271574923467746e+00 -1.5463245178745131e+00 -4.7155102815281147e+00 -2.6393050475088913e+00 -2.3253058691344073e+00 -2.5464705256965066e+00 -1.5936826253774833e-01 4.8376198875832284e+00 -6.7598127927517115e+00 1.1811234501883752e+00 
        </Neuron>
        <Neuron NSynapses="19">
          -7.1292981538566980e-01 3.1891563068234996e+00 2.2736037977301304e+00 7.4359584909586718e-01 1.9592209898068564e+00 -2.1654311337675156e+00 2.8294058812405504e-01 2.2004618559745581e+00 1.4847252447678358e-01 -3.2290206495759279e+00 -2.7999630520013236e-01 -3.6174042184159250e+00 -1.5422732361747595e+00 -8.2821763415479011e-01 -8.2879628286217533e-01 1.5022630455855897e+00 2.3755015859538897e+00 -2.9867736909950340e+00 1.7680790881766115e+00 
        </Neuron>
        <Neuron NSynapses="19">
          -4.9802558249292899e+00 7.0394614354340224e+00 6.1448004458570455e+00 3.1816348108592094e+00 4.6179813000833940e+00 -3.6511790564483504e+00 2.3468702924186506e+00 2.4551214224116089e+00 -2.8402745489965531e+00 -1.6370729776811594e+00 -2.7528531667196168e+00 -4.1500562952184215e+00 -1.5969040225129820e+00 -1.0880007233709199e+00 -4.2729787199998288e+00 -1.9374232233214512e+00 2.8546848174626631e+00 -2.9163346673037700e+00 2.1681055706148848e+00 
        </Neuron>
        <Neuron NSynapses="19">
          -5.6131348265116419e+00 4.1833261539260853e+00 7.5610603706677146e+00 4.9102982179666039e+00 2.3575431019619857e+00 -3.6516422144719876e+00 4.9541654296860971e+00 3.5533333282022541e+00 -1.8796653577230786e+00 -4.2707385882647255e+00 -3.9324992068719511e+00 -5.9226581385846861e+00 2.4382176241548167e-01 1.5808236118888343e-02 -2.3786402645357581e+00 8.5116485766144034e-01 2.6915139079526376e+00 -4.5400496946180375e+00 2.2735384567451384e+00 
        </Neuron>
        <Neuron NSynapses="19">
          -1.9614670237726239e+00 4.3654966175590966e+00 6.0329822313651889e+00 3.6267461451360785e+00 4.4964999910518095e+00 -2.7653645953386237e+00 4.4228287137509366e+00 1.0241209876988806e+00 -7.9364053099996734e-01 -2.6111198158860627e+00 -3.1189081380753110e+00 -3.9116081690389395e+00 -3.3748057344180921e-01 -1.7569957481176739e+00 -2.6595278526376736e+00 2.4002457237974792e-01 2.1699314740162787e+00 -5.7374707614595009e+00 3.3711621319484975e+00 
        </Neuron>
        <Neuron NSynapses="19">
          -3.2108550856269211e+00 3.8431482959447409e+00 7.6788760188971272e+00 4.9434451267976653e+00 2.2845680855217356e+00 -3.4070462398212067e+00 3.6096385890044345e+00 2.4384439514396323e+00 -3.6728747397509953e+00 -4.3799914467672521e+00 -2.6430542914443054e+00 -2.6930086603479078e+00 -3.0762901178869093e+00 -1.3683648249242844e+00 -2.5001298768584665e+00 -8.9196202977322683e-02 4.2294724915898874e+00 -4.0902371761811507e+00 1.2734520103554856e+00 
        </Neuron>
        <Neuron NSynapses="19">
          1.2996054090682241e+00 -4.6358075604929971e-01 -2.6152235030912641e+00 2.4366601542377579e+00 -3.2622459447562885e-01 -2.5681811027980705e+00 8.1014625687332253e-01 -2.0599630582709842e+00 2.6959693214684372e-01 1.3634624231448708e-01 -1.3407931978858305e+00 9.6697129487393951e-01 5.0362648167065727e-01 -4.1465901253829568e-01 3.2880416216279978e-01 -9.3885836405385295e-02 -6.7641414792100341e-01 1.2144437653185345e+00 -1.3162484423743193e-01 
        </Neuron>
        <Neuron NSynapses="19">
          -2.5028203427490956e+00 4.4994610723064126e+00 6.0796182106149042e+00 1.9075263062944345e+00 2.9389757995536581e+00 -1.5600894377402352e+00 3.8393671262562141e+00 3.3338836738825992e+00 -1.8291878048602939e+00 -1.3234298269046241e+00 -4.7352341978506116e+00 -5.4693117462603800e+00 -1.2670493217974199e+00 -3.9723534553577716e-01 -1.2193788776811105e+00 1.0607983061585458e+00 1.6197141284780499e+00 -4.2433492955048893e+00 1.6151830872905171e+00 
        </Neuron>
        <Neuron NSynapses="19">
          -1.9667389802559598e+00 9.2107200070847082e+00 4.0016013555831653e-01 5.7507714932608751e+00 3.7890617909077723e-01 2.8991536410462020e+00 3.1026741333444079e+00 1.5562854467708491e+00 -2.2400902763709660e+00 -4.9084580289307533e+00 4.0059428866697483e-01 -5.3637896071948195e+00 -3.0062153492877943e+00 -8.4035428263036505e-01 -2.2383308018773360e+00 4.4312328650795024e-01 1.7060449309261490e+00 -6.4024559672635881e+00 1.5722630589020758e+00 
        </Neuron>
        <Neuron NSynapses="19">
          -6.2011377292577237e+00 3.9671480254214617e+00 6.7422827033470902e+00 3.0527473894904968e+00 3.3951780616022251e+00 -4.7650368200867481e+00 3.2455234830967550e+00 2.3388515385846684e+00 -2.6899978092073442e+00 -3.5661635796384945e+00 -5.8266273292680992e+00 -4.5831385977898638e+00 -2.3994465061069574e+00 -9.4897190516448515e-01 -1.9670750421357575e+00 2.9483856289767318e-01 2.2172018015391641e+00 -4.1060710742933129e+00 9.0240157228579765e-01 
        </Neuron>
        <Neuron NSynapses="19">
          2.1298929323878930e+00 -4.8664820807581206e+00 -5.6278149751919768e+00 -5.1697197549219949e+00 -5.0966059739409797e+00 3.5300594286715268e+00 -3.0156068828468161e+00 -2.2756192020172219e+00 2.3176403527462552e+00 3.5666860256484085e+00 5.1286364773039850e+00 5.6125736884867541e+00 2.3349990007116954e+00 1.0557165360199332e+00 2.7919209415825308e+00 1.8289692524050025e+00 -4.8474215348275491e+00 5.3902846354693814e+00 -3.9211599468233143e+00 
        </Neuron>
      </Layer>
      <Layer Index="1" NNeurons="20">
        <Neuron NSynapses="1">
          2.3109903864971271e+00 
        </Neuron>
        <Neuron NSynapses="1">
          8.1709164115139483e+00 
        </Neuron>
        <Neuron NSynapses="1">
          -6.7040483529418280e+00 
        </Neuron>
        <Neuron NSynapses="1">
          4.3367895830865848e+00 
        </Neuron>
        <Neuron NSynapses="1">
          -1.3351524414546903e+01 
        </Neuron>
        <Neuron NSynapses="1">
          2.1381344604950300e+01 
        </Neuron>
        <Neuron NSynapses="1">
          -3.0368355167444205e+00 
        </Neuron>
        <Neuron NSynapses="1">
          4.7136358185155283e+00 
        </Neuron>
        <Neuron NSynapses="1">
          2.1830088652269941e+00 
        </Neuron>
        <Neuron NSynapses="1">
          -7.3385380842768226e+00 
        </Neuron>
        <Neuron NSynapses="1">
          2.7867287194023924e+00 
        </Neuron>
        <Neuron NSynapses="1">
          -6.4990217928454443e+00 
        </Neuron>
        <Neuron NSynapses="1">
          -1.1857300750034319e+00 
        </Neuron>
        <Neuron NSynapses="1">
          -1.6271194765462000e+00 
        </Neuron>
        <Neuron NSynapses="1">
          -6.9433697460827593e-01 
        </Neuron>
        <Neuron NSynapses="1">
          -4.8657492812222741e-01 
        </Neuron>
        <Neuron NSynapses="1">
          3.3728554069189882e+00 
        </Neuron>
        <Neuron NSynapses="1">
          -6.9482583478029989e+00 
        </Neuron>
        <Neuron NSynapses="1">
          6.0025014631089544e+00 
        </Neuron>
        <Neuron NSynapses="1">
          -3.4805728482357934e-01 
        </Neuron>
      </Layer>
      <Layer Index="2" NNeurons="1">
        <Neuron NSynapses="0"/>
      </Layer>
    </Layout>
  </Weights>
</MethodSetup>
