<?xml version="1.0"?>
<MethodSetup Method="MLP::MLPBNN">
  <GeneralInfo>
    <Info name="TMVA Release" value="4.1.4 [262404]"/>
    <Info name="ROOT Release" value="5.34/07 [336391]"/>
    <Info name="Creator" value="pseyfert"/>
    <Info name="Date" value="Thu Dec 12 18:50:15 2013"/>
    <Info name="Host" value="Linux lxbuild175.cern.ch 2.6.18-308.4.1.el5 #1 SMP Wed Apr 18 16:26:27 CEST 2012 x86_64 x86_64 x86_64 GNU/Linux"/>
    <Info name="Dir" value="/auto/sigma0/pseyfert/zoontuple/Bender_v22r7/Phys/Tau23Mu/scripts/TMVA_training_v3"/>
    <Info name="Training events" value="52072"/>
    <Info name="TrainingTime" value="5.63966896e+03"/>
    <Info name="AnalysisType" value="Classification"/>
  </GeneralInfo>
  <Options>
    <Option name="NCycles" modified="Yes">600</Option>
    <Option name="HiddenLayers" modified="Yes">N+5</Option>
    <Option name="NeuronType" modified="Yes">tanh</Option>
    <Option name="RandomSeed" modified="No">1</Option>
    <Option name="EstimatorType" modified="No">MSE</Option>
    <Option name="NeuronInputType" modified="No">sum</Option>
    <Option name="V" modified="Yes">False</Option>
    <Option name="VerbosityLevel" modified="No">Default</Option>
    <Option name="VarTransform" modified="Yes">N</Option>
    <Option name="H" modified="Yes">True</Option>
    <Option name="CreateMVAPdfs" modified="No">False</Option>
    <Option name="IgnoreNegWeightsInTraining" modified="No">False</Option>
    <Option name="TrainingMethod" modified="Yes">BFGS</Option>
    <Option name="LearningRate" modified="No">2.000000e-02</Option>
    <Option name="DecayRate" modified="No">1.000000e-02</Option>
    <Option name="TestRate" modified="Yes">5</Option>
    <Option name="EpochMonitoring" modified="No">False</Option>
    <Option name="Sampling" modified="No">1.000000e+00</Option>
    <Option name="SamplingEpoch" modified="No">1.000000e+00</Option>
    <Option name="SamplingImportance" modified="No">1.000000e+00</Option>
    <Option name="SamplingTraining" modified="No">True</Option>
    <Option name="SamplingTesting" modified="No">False</Option>
    <Option name="ResetStep" modified="No">50</Option>
    <Option name="Tau" modified="No">3.000000e+00</Option>
    <Option name="BPMode" modified="No">sequential</Option>
    <Option name="BatchSize" modified="No">-1</Option>
    <Option name="ConvergenceImprove" modified="No">1.000000e-30</Option>
    <Option name="ConvergenceTests" modified="No">-1</Option>
    <Option name="UseRegulator" modified="Yes">True</Option>
    <Option name="UpdateLimit" modified="No">10000</Option>
    <Option name="CalculateErrors" modified="No">False</Option>
    <Option name="WeightRange" modified="No">1.000000e+00</Option>
  </Options>
  <Variables NVar="13">
    <Variable VarIndex="0" Expression="TMath::Exp(-1000*LifeTime)" Label="TMath::Exp(-1000*LifeTime)" Title="transformed decay time" Unit="1" Internal="TMath_Exp__M_1000_T_LifeTime_" Type="F" Min="1.93987222e-11" Max="7.31256723e-01"/>
    <Variable VarIndex="1" Expression="IPSig" Label="IPSig" Title="IP significance" Unit="1" Internal="IPSig" Type="F" Min="1.11495918e-02" Max="2.49779434e+01"/>
    <Variable VarIndex="2" Expression="VertexChi2" Label="VertexChi2" Title="vertex #chi^{2}" Unit="1" Internal="VertexChi2" Type="F" Min="8.02233350e-04" Max="1.49983969e+01"/>
    <Variable VarIndex="3" Expression="acos(dira)" Label="acos(dira)" Title="pointing angle" Unit="1" Internal="acos_dira_" Type="F" Min="0.00000000e+00" Max="1.37716651e-01"/>
    <Variable VarIndex="4" Expression="pt" Label="pt" Title="p_{T}" Unit="[MeV/c]" Internal="pt" Type="F" Min="4.12933426e+01" Max="5.52403477e+04"/>
    <Variable VarIndex="5" Expression="min(p0_IPSig,min(p1_IPSig,p2_IPSig))" Label="min(p0_IPSig,min(p1_IPSig,p2_IPSig))" Title="min. #mu IP significance" Unit="1" Internal="min_p0_IPSig,min_p1_IPSig,p2_IPSig__" Type="F" Min="2.30495882e+00" Max="1.02738922e+02"/>
    <Variable VarIndex="6" Expression="DOCAone" Label="DOCAone" Title="DOCA (#mu 1 and 2)" Unit="mm" Internal="DOCAone" Type="F" Min="2.63570382e-06" Max="9.23672736e-01"/>
    <Variable VarIndex="7" Expression="DOCAtwo" Label="DOCAtwo" Title="DOCA (#mu 2 and 3)" Unit="mm" Internal="DOCAtwo" Type="F" Min="2.43484504e-08" Max="7.44905770e-01"/>
    <Variable VarIndex="8" Expression="DOCAthree" Label="DOCAthree" Title="DOCA (#mu 1 and 3)" Unit="mm" Internal="DOCAthree" Type="F" Min="6.10736777e-07" Max="1.05343544e+00"/>
    <Variable VarIndex="9" Expression="CDF3" Label="CDF3" Title="cone isolation" Unit="1" Internal="CDF3" Type="F" Min="3.00450996e-03" Max="1.00000000e+00"/>
    <Variable VarIndex="10" Expression="p0_track_MatchChi2" Label="p0_track_MatchChi2" Title="track match #chi^{2} (#mu 1)" Unit="1" Internal="p0_track_MatchChi2" Type="F" Min="4.38715070e-02" Max="8.45542831e+01"/>
    <Variable VarIndex="11" Expression="p1_track_MatchChi2" Label="p1_track_MatchChi2" Title="track match #chi^{2} (#mu 2)" Unit="1" Internal="p1_track_MatchChi2" Type="F" Min="1.31226135e-02" Max="7.59046707e+01"/>
    <Variable VarIndex="12" Expression="p2_track_MatchChi2" Label="p2_track_MatchChi2" Title="track match #chi^{2} (#mu 3)" Unit="1" Internal="p2_track_MatchChi2" Type="F" Min="1.51327997e-02" Max="7.93785172e+01"/>
  </Variables>
  <Spectators NSpec="0"/>
  <Classes NClass="2">
    <Class Name="Signal" Index="0"/>
    <Class Name="Background" Index="1"/>
  </Classes>
  <Transformations NTransformations="1">
    <Transform Name="Normalize">
      <Selection>
        <Input NInputs="13">
          <Input Type="Variable" Label="TMath::Exp(-1000*LifeTime)" Expression="TMath::Exp(-1000*LifeTime)"/>
          <Input Type="Variable" Label="IPSig" Expression="IPSig"/>
          <Input Type="Variable" Label="VertexChi2" Expression="VertexChi2"/>
          <Input Type="Variable" Label="acos(dira)" Expression="acos(dira)"/>
          <Input Type="Variable" Label="pt" Expression="pt"/>
          <Input Type="Variable" Label="min(p0_IPSig,min(p1_IPSig,p2_IPSig))" Expression="min(p0_IPSig,min(p1_IPSig,p2_IPSig))"/>
          <Input Type="Variable" Label="DOCAone" Expression="DOCAone"/>
          <Input Type="Variable" Label="DOCAtwo" Expression="DOCAtwo"/>
          <Input Type="Variable" Label="DOCAthree" Expression="DOCAthree"/>
          <Input Type="Variable" Label="CDF3" Expression="CDF3"/>
          <Input Type="Variable" Label="p0_track_MatchChi2" Expression="p0_track_MatchChi2"/>
          <Input Type="Variable" Label="p1_track_MatchChi2" Expression="p1_track_MatchChi2"/>
          <Input Type="Variable" Label="p2_track_MatchChi2" Expression="p2_track_MatchChi2"/>
        </Input>
        <Output NOutputs="13">
          <Output Type="Variable" Label="TMath::Exp(-1000*LifeTime)" Expression="TMath::Exp(-1000*LifeTime)"/>
          <Output Type="Variable" Label="IPSig" Expression="IPSig"/>
          <Output Type="Variable" Label="VertexChi2" Expression="VertexChi2"/>
          <Output Type="Variable" Label="acos(dira)" Expression="acos(dira)"/>
          <Output Type="Variable" Label="pt" Expression="pt"/>
          <Output Type="Variable" Label="min(p0_IPSig,min(p1_IPSig,p2_IPSig))" Expression="min(p0_IPSig,min(p1_IPSig,p2_IPSig))"/>
          <Output Type="Variable" Label="DOCAone" Expression="DOCAone"/>
          <Output Type="Variable" Label="DOCAtwo" Expression="DOCAtwo"/>
          <Output Type="Variable" Label="DOCAthree" Expression="DOCAthree"/>
          <Output Type="Variable" Label="CDF3" Expression="CDF3"/>
          <Output Type="Variable" Label="p0_track_MatchChi2" Expression="p0_track_MatchChi2"/>
          <Output Type="Variable" Label="p1_track_MatchChi2" Expression="p1_track_MatchChi2"/>
          <Output Type="Variable" Label="p2_track_MatchChi2" Expression="p2_track_MatchChi2"/>
        </Output>
      </Selection>
      <Class ClassIndex="0">
        <Ranges>
          <Range Index="0" Min="1.9398722211905195e-11" Max="7.3125672340393066e-01"/>
          <Range Index="1" Min="1.1149591766297817e-02" Max="2.1987730026245117e+01"/>
          <Range Index="2" Min="8.0223334953188896e-04" Max="1.4998396873474121e+01"/>
          <Range Index="3" Min="0.0000000000000000e+00" Max="1.3410498201847076e-01"/>
          <Range Index="4" Min="6.2147693634033203e+01" Max="5.5240347656250000e+04"/>
          <Range Index="5" Min="2.3049588203430176e+00" Max="1.0273892211914062e+02"/>
          <Range Index="6" Min="2.6357038223068230e-06" Max="8.1560057401657104e-01"/>
          <Range Index="7" Min="2.4348450367028818e-08" Max="6.9920772314071655e-01"/>
          <Range Index="8" Min="6.1073677670719917e-07" Max="1.0170480012893677e+00"/>
          <Range Index="9" Min="3.0045099556446075e-03" Max="1.0000000000000000e+00"/>
          <Range Index="10" Min="4.3871507048606873e-02" Max="7.7615455627441406e+01"/>
          <Range Index="11" Min="1.3122613541781902e-02" Max="7.5904670715332031e+01"/>
          <Range Index="12" Min="1.5132799744606018e-02" Max="7.9378517150878906e+01"/>
        </Ranges>
      </Class>
      <Class ClassIndex="1">
        <Ranges>
          <Range Index="0" Min="2.1115165509399958e-05" Max="7.2934836149215698e-01"/>
          <Range Index="1" Min="1.3430085778236389e-01" Max="2.4977943420410156e+01"/>
          <Range Index="2" Min="2.2036740556359291e-02" Max="1.4991107940673828e+01"/>
          <Range Index="3" Min="0.0000000000000000e+00" Max="1.3771665096282959e-01"/>
          <Range Index="4" Min="4.1293342590332031e+01" Max="2.1269572265625000e+04"/>
          <Range Index="5" Min="2.7823791503906250e+00" Max="4.9517536163330078e+01"/>
          <Range Index="6" Min="3.9169070078060031e-05" Max="9.2367273569107056e-01"/>
          <Range Index="7" Min="5.9152989706490189e-05" Max="7.4490576982498169e-01"/>
          <Range Index="8" Min="3.1205789127852768e-05" Max="1.0534354448318481e+00"/>
          <Range Index="9" Min="3.8299348670989275e-03" Max="1.0000000000000000e+00"/>
          <Range Index="10" Min="1.4428974688053131e-01" Max="8.4554283142089844e+01"/>
          <Range Index="11" Min="1.4624765515327454e-01" Max="6.7723579406738281e+01"/>
          <Range Index="12" Min="4.5327022671699524e-02" Max="6.8506652832031250e+01"/>
        </Ranges>
      </Class>
      <Class ClassIndex="2">
        <Ranges>
          <Range Index="0" Min="1.9398722211905195e-11" Max="7.3125672340393066e-01"/>
          <Range Index="1" Min="1.1149591766297817e-02" Max="2.4977943420410156e+01"/>
          <Range Index="2" Min="8.0223334953188896e-04" Max="1.4998396873474121e+01"/>
          <Range Index="3" Min="0.0000000000000000e+00" Max="1.3771665096282959e-01"/>
          <Range Index="4" Min="4.1293342590332031e+01" Max="5.5240347656250000e+04"/>
          <Range Index="5" Min="2.3049588203430176e+00" Max="1.0273892211914062e+02"/>
          <Range Index="6" Min="2.6357038223068230e-06" Max="9.2367273569107056e-01"/>
          <Range Index="7" Min="2.4348450367028818e-08" Max="7.4490576982498169e-01"/>
          <Range Index="8" Min="6.1073677670719917e-07" Max="1.0534354448318481e+00"/>
          <Range Index="9" Min="3.0045099556446075e-03" Max="1.0000000000000000e+00"/>
          <Range Index="10" Min="4.3871507048606873e-02" Max="8.4554283142089844e+01"/>
          <Range Index="11" Min="1.3122613541781902e-02" Max="7.5904670715332031e+01"/>
          <Range Index="12" Min="1.5132799744606018e-02" Max="7.9378517150878906e+01"/>
        </Ranges>
      </Class>
    </Transform>
  </Transformations>
  <MVAPdfs/>
  <Weights>
    <Layout NLayers="3">
      <Layer Index="0" NNeurons="14">
        <Neuron NSynapses="18">
          -2.6942253163344448e-01 1.7216781513056985e+00 -7.0026181872991711e-01 1.3964541339574705e+00 -1.2640880236121899e+00 -8.3576674935766027e-01 -7.3693352203369755e-01 1.8911675711537701e+00 -1.4487341009596091e+00 -7.6029196616180938e-01 -1.4542075755374351e+00 -3.2535129364940302e-01 -8.9547308063690834e-01 -1.4765471865049049e-01 -2.6718669260504457e-01 7.8146498851057644e-01 -6.0511532350928210e-01 9.2908221035992200e-01 
        </Neuron>
        <Neuron NSynapses="18">
          2.5019535106589379e-02 1.1614487643249414e+00 -4.1454150894972758e-01 -7.1457474314808267e-01 6.3499853139636020e-01 -3.4973157738842020e-01 -1.3269318358996254e+00 5.2983447400374847e-02 1.4687067279219781e+00 -7.9273986353433290e-01 -1.4873467520691643e+00 1.0276193857239448e-01 1.0968077172438548e+00 1.5493866838396073e+00 1.6876443939862562e-01 -5.6169858391541794e-01 -5.3793687370060746e-02 -1.0186809596708009e+00 
        </Neuron>
        <Neuron NSynapses="18">
          -1.3623541290475989e+00 1.5081079054013860e+00 -1.1024348457613282e+00 8.3634603714540767e-01 6.9219649848339604e-01 3.4219510133849268e-01 1.5368503895863408e+00 1.1528739992731696e+00 -6.9100298407283922e-01 -3.9511854323789208e-01 5.9110810580913753e-01 1.6502070167754904e-01 1.3142153071207958e+00 1.2010098917252328e+00 3.0768759898310349e-01 5.8846704204380085e-01 -1.1329357337674171e+00 5.5804912741146340e-01 
        </Neuron>
        <Neuron NSynapses="18">
          -1.8734953478919132e+00 -7.8404000398075757e-01 -2.1125900839116589e+00 -1.9485269834347663e+00 1.8947619985665884e+00 7.0233577541532283e-02 -1.9074217672218730e+00 4.3765188963749271e-02 -2.4301953453206285e-01 -3.6505252185695097e-01 2.1504372671340883e+00 -4.1383461929951104e-01 -3.8642096596411234e-02 -9.2744861871251449e-01 1.3589936431780303e+00 -5.4206617723799727e-02 -9.7528277156155763e-01 -8.4980060540877489e-01 
        </Neuron>
        <Neuron NSynapses="18">
          7.0557808065876459e-01 1.3708000540853393e+00 5.9224094779339886e-01 -6.1034427509621014e-01 -9.4462737483359249e-01 -2.4220962533368162e+00 6.8492105004170445e-01 9.6560750006924523e-01 1.8558435579594219e+00 4.8863456941026417e-01 1.4351539129721509e+00 -8.2911979587655538e-01 -8.3505459183920638e-01 1.0591180092638423e-01 2.0278183125681206e+00 -1.3577753967507484e+00 -1.9153852609289468e+00 -1.0632332496186752e+00 
        </Neuron>
        <Neuron NSynapses="18">
          -2.3444011702657733e-01 1.6983314768055635e-01 1.7829722695482502e+00 -1.7379377240724481e+00 9.8868463590491881e-02 8.3395601726389401e-01 -1.1296119613907989e+00 -1.0720141243037400e+00 -1.4620356252259583e+00 1.7895532655326329e+00 -1.4092376964338056e+00 -1.6796209017199195e+00 6.3624561930340795e-01 1.8995184812306662e+00 -1.6687041775811312e-01 9.9720668319444850e-01 -1.4194499118892165e+00 -5.9855823363727922e-01 
        </Neuron>
        <Neuron NSynapses="18">
          -4.7746045030014998e-02 5.4535622693373631e-01 -1.6624082839208691e+00 -3.5309737902178263e-02 1.0912638498441549e+00 -2.6994039443031342e-01 -1.7044907357043613e+00 1.4462268467195158e+00 1.0848282456447846e-01 -7.3258123027366961e-01 7.5747473896882522e-01 -1.0604233092027633e+00 -1.6336631985677457e+00 4.4285611631278199e-01 5.3493535876664156e-01 1.4207194255423066e+00 5.5461047264104640e-02 8.8596376275678068e-01 
        </Neuron>
        <Neuron NSynapses="18">
          -3.7956059518827023e-01 4.1765493201027470e-01 -6.5178661134715210e-01 7.5328988005863651e-01 8.4802855845751479e-01 -2.5186172890168588e+00 2.9805963260679341e-01 -8.7651490835414569e-01 1.2317964314586238e-01 -2.3317487200521408e-01 1.7816753111420589e+00 -1.6272313693880340e+00 2.7343869843062817e-02 1.7241435241743217e+00 1.9285797216015503e+00 -2.4168005631885103e-02 -1.9043684828493652e+00 3.8494205773296891e-01 
        </Neuron>
        <Neuron NSynapses="18">
          -1.3939634549801792e+00 1.8502322016432882e+00 1.3216587213236437e+00 -7.7011215466817362e-01 2.6016383988538394e-01 -6.3716673674042046e-01 -1.6594164784031882e+00 4.8883940035548074e-01 1.4420634353458452e+00 -1.2697763867556652e-01 -5.3993018729089702e-02 3.4371493436206396e-01 8.6078804446271595e-01 7.2275544854554030e-01 1.2475830594117312e+00 -1.4625927435292372e+00 1.0332839311551929e+00 -1.5673433270730455e-01 
        </Neuron>
        <Neuron NSynapses="18">
          4.8456431550010681e-01 4.5188860383261548e-01 4.0916888361301451e-01 -6.1821279088759840e-01 -4.6441005122207758e-02 7.9916671093907998e-01 -6.8000561968648265e-01 -2.5033497497045087e-01 1.6515488517139707e+00 1.7651162327137446e-01 -8.0879923698490910e-02 1.5761406638707720e+00 1.1273771755755384e+00 -1.6481540706870883e+00 6.7051136093510710e-01 7.2571155023927900e-02 5.6664331455573980e-01 -1.2362829306553665e-01 
        </Neuron>
        <Neuron NSynapses="18">
          -1.4680993820336847e+00 1.4166182285008659e+00 1.3507608601116630e+00 -1.7212155435081744e+00 5.0443408418378266e-01 -1.2671254281853612e+00 -4.6751559849844450e-02 1.8101330084195801e+00 -3.6811880048590684e-01 -1.2150194196949731e+00 -6.0504108399410939e-01 9.4488982155040779e-01 1.7652082164413709e+00 1.2774018548885855e+00 8.5383567753763279e-01 -1.1677001774430054e+00 -1.8438313797602570e+00 1.2435985821081876e+00 
        </Neuron>
        <Neuron NSynapses="18">
          4.2097983576658787e-01 -1.1056589014048004e+00 -1.4713280519882046e+00 3.1280997420336715e-02 9.3176983618763587e-01 -2.3530528022548993e+00 1.1925197006188597e+00 1.1839074834729868e+00 -5.3126764722404962e-01 -7.5012057108777591e-02 1.7050609993978443e+00 9.6429997487350771e-01 5.2323548227843431e-01 1.6676709459611538e-01 -9.8817165362429527e-01 -1.8153342323987660e+00 1.0967946204132311e+00 3.7718697401791018e-01 
        </Neuron>
        <Neuron NSynapses="18">
          6.8848884723170245e-01 5.0514966849139453e-01 1.0693128306004926e+00 -1.7809761920360054e+00 -3.9538275536861317e-01 -7.3321722432594472e-01 -1.6375337061209601e+00 5.5923814316521780e-01 1.7155888537019013e+00 -5.8280411020173040e-01 1.0034296870372790e+00 -4.3630662227644701e-01 -1.7316615985571511e+00 -7.6959731093799921e-01 1.6599280972798007e+00 -5.6607211104599842e-01 5.2229849347759993e-01 4.6238166552564913e-01 
        </Neuron>
        <Neuron NSynapses="18">
          1.6910760070924284e+00 -2.0586844070626520e+00 1.3071059760155073e+00 3.8396128192009821e-01 -2.4816110328991794e+00 -4.9662117272256318e-01 -1.5149243507398718e+00 -9.4027825780531005e-01 -1.8724648099330126e+00 -2.6489989863057156e-01 -2.3521311251804495e+00 1.1086980408943352e-01 -1.0225087281819212e+00 -1.9130755910254007e+00 4.0558633800958921e-01 -5.6283732063406633e-01 7.5870357535912292e-01 -1.3531095135436197e+00 
        </Neuron>
      </Layer>
      <Layer Index="1" NNeurons="19">
        <Neuron NSynapses="1">
          -2.9295854545477529e-01 
        </Neuron>
        <Neuron NSynapses="1">
          1.4937845842969710e+00 
        </Neuron>
        <Neuron NSynapses="1">
          1.1368180271488773e-01 
        </Neuron>
        <Neuron NSynapses="1">
          -2.7853421146839025e-01 
        </Neuron>
        <Neuron NSynapses="1">
          -7.4330895363400018e-01 
        </Neuron>
        <Neuron NSynapses="1">
          7.6077464463918332e-01 
        </Neuron>
        <Neuron NSynapses="1">
          -1.0305319966700449e-01 
        </Neuron>
        <Neuron NSynapses="1">
          -1.0880049841320802e+00 
        </Neuron>
        <Neuron NSynapses="1">
          1.3481936758945789e-01 
        </Neuron>
        <Neuron NSynapses="1">
          5.5518822276919277e-01 
        </Neuron>
        <Neuron NSynapses="1">
          1.3339700119131463e+00 
        </Neuron>
        <Neuron NSynapses="1">
          1.8867835596589130e-01 
        </Neuron>
        <Neuron NSynapses="1">
          -3.3911400891416511e-02 
        </Neuron>
        <Neuron NSynapses="1">
          -1.5846641372902587e-01 
        </Neuron>
        <Neuron NSynapses="1">
          -1.3737047320411644e+00 
        </Neuron>
        <Neuron NSynapses="1">
          2.5335917467977653e-01 
        </Neuron>
        <Neuron NSynapses="1">
          5.7143092792941819e-01 
        </Neuron>
        <Neuron NSynapses="1">
          3.5872292817297857e-01 
        </Neuron>
        <Neuron NSynapses="1">
          -8.4455567036104928e-01 
        </Neuron>
      </Layer>
      <Layer Index="2" NNeurons="1">
        <Neuron NSynapses="0"/>
      </Layer>
    </Layout>
    <InverseHessian NElements="73441" NRows="271" NCols="271">
      <Row Index="0">
        8.0813456600227425e+01 2.8371457320824579e+01 -2.6995076672321566e-01 7.2135426753828057e+01 3.2343976924841843e+02 2.0954167352373432e+01 2.3592084649947678e+00 8.0080775519802021e+00 -2.9132893339103632e+00 -9.7883289853248831e-03 5.9992765844772975e+01 7.0896266271609387e-02 5.2365481543968784e-01 -4.6661642026079420e+01 1.1400312081025021e+01 -1.8599519274227500e-01 4.0538346253676309e+01 -1.8592813490479983e-02 1.2206154550019439e+01 -8.4532248662236043e+01 -1.9810976680399150e-01 -3.8819313275754119e+01 -3.3102135697942214e+02 6.1766904731958547e+01 4.1851601088444488e+00 -4.3140411536832683e+00 2.6661891551968884e+00 1.9147974536072587e-02 4.3956471364114390e+02 -2.6983672193268560e+00 2.8121246580116765e-01 -3.4904791652128529e+02 4.0846009006298019e+01 -9.5066969233075438e-01 -1.1937371911723119e+01 -7.5973549200732515e-01 8.9974945637426416e+00 -4.5513886139272657e+01 -8.9882905351686859e-02 3.9635504881783838e+01 -4.7548158262174542e+00 1.0968419528671518e+01 -9.4749493728107730e+00 3.1568662249888666e+00 -2.5375040126126867e+00 -4.4284527145499186e-02 -9.2965164270740473e+01 1.3831733707161731e-01 2.6702675961864369e-01 1.5176092015435131e+02 1.3536217794247426e+02 4.3857537746652714e-01 4.1105535196748463e+01 -1.7018353231876504e-02 -1.6949271744659779e+01 1.9079635382190460e+02 8.0930180168017363e-01 4.1404568846222119e+01 -6.1273017153395543e+01 -2.4061818988266605e+01 4.8500621572214175e-01 -8.0405373262591162e-01 -2.3647473843950477e+00 -6.8054928959491123e-01 -3.3968072180487945e+02 1.3850840487626249e+01 -1.0279357079684477e+00 3.7437561385729083e+01 -6.5219161626496430e+01 2.6564814331067663e+00 6.7957810757144401e+01 6.7683209077825962e-02 1.0524451446996878e+02 4.3034738782466491e+01 1.7327350296689240e-01 2.0459496301978611e+01 -6.8489330326110098e+02 -9.3680789821833315e+01 -1.0703389452163229e+01 1.3744480964456049e+01 2.2465401427207583e+00 -3.2826258376280404e-01 4.1555773627541703e+02 7.5188584875746489e+00 5.1432293069609836e-02 4.1554786645330296e+01 4.1822656604240080e+01 7.3233585064883511e-01 -6.4568239713050389e+01 3.8467161607961486e-02 2.0959002955832666e+01 3.7578071135612305e+01 7.6452312782063769e-03 -1.2647300309161650e+01 6.7121622185612637e+01 -6.1688288841203530e+01 1.2381518994980523e+00 -1.3299766455713957e-01 -3.7425312476725798e+00 -9.3079460783103196e-02 -8.4139882615767519e+01 4.0119018890132372e+00 5.2024864315634944e-01 -7.4038490891418860e+01 -1.8573336080257354e+02 1.5116296016585582e+00 6.4489644575534598e+01 4.6384160158187904e-01 -2.0704476626451626e+01 1.1358253125480529e+01 -7.6298922865837282e-01 8.5078271685740560e+01 -3.2820271376588107e+02 1.2489454295835446e+02 9.1039028860127651e+00 1.0709877544928847e+01 -3.4134435184354972e+00 2.6242589727632781e-01 2.9074880071019578e+02 2.2604456032851576e+00 -9.2300914553417757e-01 -2.8032290305424453e+02 1.8443242947796796e+02 -1.7993283719582047e+00 8.4432974785568220e+00 -1.3696825240475285e-01 1.9103723977198612e+01 -3.2099347930133561e+01 -2.9626666466060170e-01 -1.6939686683469176e+02 -1.0104653328208160e+02 7.3417590984474600e+01 -7.4700748127916370e+00 -4.0382428096551370e+00 -6.5134758844531468e+00 1.3881372309614451e-01 -2.1844725480852389e+00 1.2828282212031681e+00 1.2593826467399705e-03 -3.8170611868730737e+02 7.9876917080879281e+01 5.6228125921547956e-01 -1.0288130573957082e+02 1.3466665753473345e-01 -1.3599829134360371e+01 -4.7737552977738673e-01 2.1959434883115643e+00 -4.8629617193718111e+01 3.8501378344350371e+02 -1.2872229516344760e+00 7.5152309534080626e+00 1.2546457706640561e+00 1.2145711254232515e+01 -6.5551323204183842e-01 -3.4530491892708301e+02 -1.1743804920401155e+00 5.2524831271571681e-01 1.7281691383661689e+02 1.8730066820332723e+01 5.5632907775055562e-01 2.5991246563549242e+02 2.0648257923119356e-01 -8.0346004169451568e+00 4.3501036809406468e+00 1.1642456119122813e-01 -1.4485949055647243e+01 -1.0751983542758781e+02 2.8091141368956073e+01 1.3151767665441567e+00 -5.7561192871519140e-01 2.2922939330120160e+00 2.2721975888334245e-02 -1.5450631242631351e+02 2.6204732437791733e-01 1.6046977426131659e-01 -7.2129737801259949e+01 -4.8684349882341706e+01 -8.8511554850239288e-02 -5.3238572004833804e+00 -5.4845997020002632e-03 4.1445948144465277e+01 5.3069912258987415e+00 -2.9821332690190466e-01 -7.8718222865938188e+00 1.1777888922067064e+02 -1.4626469222996775e+01 9.4460222068926747e-01 6.2628697499508466e+00 6.2725104808128052e-01 1.1519063528471835e-01 -1.2491444652175306e+02 -5.6452762454535588e+00 6.9279863453350443e-01 -4.0204808714248657e+00 1.7101042909136635e+02 1.9999190525368027e-01 -1.7243067572378070e+01 -1.0653757203808864e-01 -5.9773919591982178e+01 1.3951477545667993e+02 -1.2343368750999995e-01 4.4169528664634640e+01 -1.8458378201794514e+02 -4.2032088817531530e+01 -8.4492902715068947e+00 6.2468905165218054e+00 -3.0292157002285514e-01 3.7918435026564057e-02 5.0511123360380452e+00 1.3660860242169726e-01 -2.0170846179119217e-01 -2.2894596955846828e+02 -1.9186563023149640e+02 -4.4890655746905095e-01 -1.2603912897338893e+02 -3.3018849400242009e-02 2.7658777980850854e+01 -3.3211047233954318e+01 -1.2287808993302918e-01 -3.9898583342133065e+01 -7.5334140426447433e+01 -4.7761672817307044e+01 3.9195665451304387e+00 2.5716630643735341e+00 2.1244519239712893e+00 -5.6922822352643121e-02 -1.5056050893475680e+02 2.6360510564854591e+00 -1.2160853174746213e+00 1.0583630908607574e+01 1.1266960022312426e+02 -3.3931049284797316e-01 2.7494347627176019e+01 5.1735212645419928e-02 8.4000209816338526e+01 2.7235368395166626e+02 1.5663326537887143e+00 -5.9528626843878698e+01 -2.5492419933650584e+02 7.8921311422451112e+01 -1.0192012489218914e+01 2.1297439100283469e+01 -2.7865218552358950e+00 -1.0598764522216535e+00 1.2980559100638590e+02 4.7854602079390226e+01 -1.1510590458212837e+00 -8.2414206767463213e+01 -8.3645594693698513e+01 3.1219623125423994e+00 1.0111293835350560e+02 6.7454675334316982e-02 -3.6892603287903172e+00 6.4537484496967057e+00 1.9490746447798912e-03 5.2606932586736050e+01 5.8107107368449434e+01 3.9975826403706890e+01 -3.9489984890421354e-01 1.6944968057662482e+01 -6.7333271722406041e-01 -5.9760598057222225e-02 -4.3050471013420960e+01 1.0362758323250581e+01 6.8162130154676426e-03 1.8936314432098558e+02 -6.2472803046414022e+01 3.5308646831204271e-02 -2.6313970948059733e+01 -1.6041372409796345e-01 9.1986909550421828e+01 
      </Row>
      <Row Index="1">
        2.8371480054936910e+01 6.9610184606210796e+03 -1.1040308116850206e+00 -5.7849676267766563e+02 5.2793106930714032e+02 7.9021521082764320e+02 3.2597751107830746e+00 1.2086981558982450e+02 -2.0396756694055409e+01 9.3634280835700312e-01 -1.4548330172126355e+03 7.5833278317300117e+00 -3.1460208071691644e+00 -1.1412896286176160e+03 -1.6682656600096907e+03 7.6511446112166004e+00 9.8900530941774846e+01 3.4224273489579921e-01 -5.2341671979414940e+01 3.3480508034134614e+03 -1.5812689712692336e+00 -8.5156807834170493e+01 -2.7001433038511209e+00 -6.5870659927919246e+02 -9.6866681207079672e+00 5.1253601365052660e+01 4.1247137616252996e+00 -2.4338276318157526e-01 -2.4337818653898375e+02 -1.1927286717677138e+01 -5.7876756024590108e+00 -8.3413652357538422e+02 -2.1662082817963424e+03 -8.1715383377644013e-01 1.4382351198286329e+01 -3.6299562067644695e+00 1.7063535860372339e+00 3.3871929383730808e+03 2.1955440676847777e+00 -1.5565013033081846e+02 3.8064476465396035e+02 2.1177327690875691e+03 1.3666687133972069e+01 3.9733133710262294e+01 -1.4768037675628515e+01 1.4545379638490890e+00 -1.6961808836544913e+02 -1.4555649871059712e+01 -5.9163088473791241e+00 2.0544374556091128e+02 -6.4718451387877690e+02 1.3705199699838204e+00 -1.8515109346800116e+01 3.8191935576608327e-01 5.6771047533279187e+01 -3.0517481315728000e+03 6.3857681807854219e+00 1.0698458375398286e+02 -4.6299233440915737e+02 -1.7031029485968545e+03 3.5913373781707194e+00 -2.5787080229329838e+01 -4.8822818374514156e+00 -1.1266275997489825e+00 2.5197975518573853e+03 1.0883198788383496e+01 1.4288806189501635e+01 6.3558276131406956e+02 3.8489427717630988e+03 -3.7249518350808017e+00 7.3460856421239384e+00 -3.8386105739060392e+00 3.2054990425484903e+01 -7.2350975329598782e+02 1.5041018453483403e+01 -2.0837616014273794e+02 4.2117368032664763e+02 -2.7191218153046975e+02 9.3937707849557526e+01 -3.4587402477322250e+01 1.1122539849965108e+01 1.5075766538232027e+00 -1.3929061273301559e+03 -8.2598046170456058e+01 -3.0983663932103909e+01 3.0420820253729471e+02 -2.2167916075086168e+03 -3.6488400775849726e+01 5.3823989645923075e+02 -1.7660030865368705e+00 -4.0534257392424308e+01 5.1157696613436392e+03 -4.8108064830192561e+00 -3.4802383408541608e+01 -4.8444179700083396e+02 1.1015155247120051e+03 3.1929525427048915e+01 8.5629752951570339e+01 -5.3634812689340468e+00 1.2671758481842981e+00 7.6722592644208294e+02 1.5838336000556538e+01 -6.4033208488133191e+00 3.9083662597634975e+02 4.8217095902941937e+03 -2.9548112790579246e+00 -4.8477712236617708e+02 1.9622527482668062e+00 -6.1491465191314546e+01 3.9609970846122428e+02 7.0741103447546632e+00 -4.7732658155514582e+02 8.0685361472848967e+01 -8.0998229816511957e+02 3.7507745112185496e+01 -3.9177856249594551e+00 -6.2291846552798660e+00 7.4590797279702969e-01 -1.3698034916335087e+03 3.5721492547022180e+00 -1.9291616287558519e+01 -2.3661776578715417e+03 -3.9124835363993070e+03 2.0096339541835659e+00 1.5221992902776975e+02 -2.0743655354447856e+00 6.7754673462621440e+01 6.9954213091283589e+02 6.6816476676136922e+00 5.1086440003554890e+02 4.3173805364463925e+02 4.0435289255622183e+02 -4.6543120184874169e+00 2.1142120233658943e+00 -1.8663183375994635e+01 -1.2185670557088315e+00 1.4611820223057462e+03 3.8427784515250494e+00 7.5265922868973014e+00 -1.1286968465505804e+03 4.8973047107376551e+03 8.8241781675596762e+00 -2.4465251293225145e+02 1.5008824856443033e+00 -6.2588960289149071e+01 3.5133515621079982e+03 -6.5207648877515947e+00 5.6001507830000992e+02 3.4901288398717332e+02 7.8073465276462957e+02 1.1026658049843206e+01 6.2351806731181860e+01 7.5910705410259425e+00 4.1362921904537444e+00 -2.0312963724624460e+03 -5.0740003562819766e+01 -2.0279911331987666e+01 5.8160221502551940e+02 -2.9552295581289654e+03 -4.2348928227189532e+01 7.3224014725901998e+02 2.5316045678392678e+00 -4.1152017289161549e+01 7.2967370759625305e+02 1.9259134638147304e+00 2.5568236285325327e+01 5.5184815094490219e+01 -1.3089352632902824e+03 4.2620445184799127e+00 -5.3113552553117160e-01 8.9936073537482741e+00 6.4983747615020571e-01 -3.4701830719150200e+02 -2.8544516614207860e-01 -5.2564510703515737e+00 -2.6717496998627726e+03 7.4629893411416401e+02 3.6751480757302613e-02 1.1364706544241177e+01 7.5497925380026476e-01 6.1427707287010890e+01 2.8211379834304312e+03 -6.7875662708089521e+00 -4.1305557362186860e+01 2.3554947516034008e+02 -6.5266878177168110e+01 1.6108636963087775e+01 4.8873118690184079e+01 -6.0430394154218163e+00 -1.1143429690586961e+00 2.8347501243349325e+02 -3.5329943065224256e-01 -6.9611042764486974e-01 9.4401275056520547e+01 6.1947523821020604e+02 -4.1805497333758499e+00 -1.8962008849425098e+02 1.4361060635646368e+00 -3.2749458258346309e+01 -1.7464090669333707e+03 4.7734429701363297e+00 7.3586208544844339e+01 -1.9026306958383520e+02 1.0478519030584471e+03 2.6297895244880536e+01 1.7104633499539823e+01 1.7592621898003131e+01 -7.0567976492579998e-01 3.7747030099225526e+02 6.1336084157981645e+01 9.2334356014207053e+00 -2.7579521589847127e+02 -2.5468101123196857e+03 -9.6278740803334131e+00 -2.8729591288438064e+02 -1.9962632526495661e+00 7.4741230666295280e+01 1.3107685440784562e+03 2.3527837962732434e+00 -1.4390338617377182e+02 8.4957606014956264e+02 -1.6175579131836312e+03 -3.2709742600832392e+00 3.0923375756543749e+01 1.1602028479407522e+00 -1.5650301020976352e+00 5.7949215025415469e+01 -6.0342719127506896e+00 -4.4798583458865693e-01 -1.2126871013169211e+03 2.3583298492663789e+03 -6.0842168728993888e+00 1.2993810763288093e+02 1.1964896466234602e+00 -1.6547440289807817e+01 1.7917632819091798e+03 2.0995305520264964e+01 1.5733547249230358e+02 1.5482550353179206e+03 -1.8535749184783194e+03 1.7629874532649762e+02 8.4422329125220557e+01 -4.6803404783009100e+01 2.0843710040985108e+00 -1.3443184191099438e+03 9.4798378231967320e+01 -4.0222393936496012e+01 -2.8099759211469586e+02 -1.7888495525098504e+03 -7.1590358544570023e+01 1.4326715839813298e+03 -3.1989303521680119e+00 1.0596825456843888e+00 -3.5769362838095940e+03 5.7489746470650471e-01 -1.8701137140569836e+02 -2.0609263014070910e+02 2.3780587167014482e+02 2.2718190001442689e+00 4.1302773104782602e+01 1.5346582758898784e+00 -1.1689789434901785e+00 4.8109039298015841e+02 4.9464313036052232e+01 4.4304503275668594e-02 1.5445708508903381e+03 1.6314249431437947e+03 -1.9530906461496969e+00 8.1380556434895595e+02 -1.3886966336319135e+00 -9.9931792706259375e+02 
      </Row>
      <Row Index="2">
        -2.6995084505295353e-01 -1.1040306985812391e+00 8.9761281041567231e-01 -1.1860216782050056e+01 2.2817249719321069e+00 -1.9533570862079119e+00 -1.9452854245534229e-01 -1.8915795628054433e-01 7.4715869442729232e-02 -1.2839213279308845e-01 2.1530041968456921e+01 -4.1780444154951579e-01 -2.8410927638167514e-02 1.3730652456058301e+00 -8.5165382088171100e+00 -3.1655717108651303e-02 -3.8470026419252035e-01 1.3471418402156304e-02 -5.9333488465204982e-02 -1.7444597331294531e+00 5.4291797197266267e-01 5.6315399961495620e+00 2.0124392363212920e+00 1.4926261672319612e+00 5.0522102315819384e-02 8.0981690706951992e-02 -9.2131958158953475e-02 -7.5596768501027159e-02 2.3705519090963662e+01 4.5610834906450903e-02 2.7582411041130622e-01 -4.7529496726537275e+00 -1.8856349144354610e+01 6.0109568202635424e-02 4.6411528445924155e-01 3.9143337045875609e-02 2.3282061834342113e-01 -1.5070975259153219e-01 2.1581385089574770e-01 -5.2681015919368832e+00 2.5669339396602275e+00 5.5720803758069906e+00 -2.5026664542559973e-02 -6.9989191893445768e-02 -1.2890621878582653e-01 -1.6410120722821234e-02 -4.7465716664249324e+00 3.4050273707002593e-01 -4.2178969917862880e-02 -1.9075302719537035e+00 -3.5497961104485594e+00 -1.6642740932655409e-01 7.4143197310341113e-01 -4.0758799383186217e-03 4.9084574660439184e-01 2.4897306616324215e+00 -1.7303103474993656e-01 5.8448230289460952e+00 -1.1317264021769375e+00 -1.2801792878485188e+00 3.6014783776717652e-01 3.5737195746097239e-03 -2.3032998201351607e-01 1.0425815031176960e-01 -4.4612202976144900e+01 4.6919471112659039e-02 -4.7807445820476890e-01 1.0887910693152207e+00 -3.9841729171478732e+00 -1.0651795421929089e-01 -1.2471358817751543e-01 8.7738356607149903e-03 -1.8884898601763922e-01 4.0571167420919796e+00 -1.5919672327627166e+00 -9.7252915925137273e+00 8.1628547445670563e+00 -7.6344668585628028e+00 1.2699299404774886e+00 2.9999070499252989e-02 -6.4575312471751467e-02 2.1810186913149016e-01 1.8301941715517586e+01 -1.7951329299975893e-01 -2.6732095778045550e-01 -3.0780476940287826e-01 1.0151226147455056e+01 1.3498551526663438e-01 2.3592275215950593e+00 1.6209041921796952e-04 8.8461448241979834e-01 6.4497219361178537e-01 9.8526841858874836e-01 5.0056590816121256e+00 -2.4832241422280745e+00 -9.8997362167708616e+00 -8.5889031141313232e-01 -7.5683043993930710e-01 4.7740519447520402e-01 -1.4341494397208462e-01 -3.5815850322003726e+00 -9.2550934602497814e-01 3.2658330910862876e-01 -1.6194849860152516e+00 3.2821082504575543e+00 1.3319164547316459e-01 -2.3779439540991945e+00 -9.0241777692415537e-03 -2.1839505698403994e-01 -2.5256589864103240e-01 7.0624618625146840e-01 -4.2429310396066739e+00 -1.7393450670527830e+00 7.9719455964834083e+00 -8.6622999487889096e-02 -2.1313707721536668e-01 -1.4851963952165786e-01 -6.9758168802978332e-02 -9.6558839135481058e+00 -5.8911089475856993e-01 -4.6054021545140700e-01 -7.6932400362375120e-01 2.5747777213720440e+00 -3.7285995253178295e-01 -4.7315754128994669e-01 1.3817686992131629e-02 -1.0037155606712211e-01 2.5128548656839982e+00 2.5013514914044954e-01 -3.8933901924797851e+00 2.8095443965846982e+00 -3.1722611911494596e+00 -2.0438630400121838e-01 6.7225478707209074e-02 7.6971374879768240e-02 -1.7581230912596391e-02 -3.7979214381197949e+01 -5.1822298106994980e-01 -1.1039259383576999e-01 -2.0292163885338255e+00 -1.4172914367328389e+01 -3.4960052409828690e-02 1.1841120996075372e-01 -2.1411646827217745e-02 3.3393253553252356e-01 4.0412466417654613e-01 -3.6003205230305313e-01 -1.3904640222079934e+00 -4.9792288172933468e+00 5.8417415855629429e+00 5.0961666739356715e-01 7.8935526971807501e-02 3.8992576406735191e-01 6.9178763339427518e-03 -2.6061326686893835e+00 -3.6515885066620068e-01 6.3555805471355775e-01 -8.7275300225427372e+00 -9.7938101669612934e+00 2.6915486876882611e-01 -1.0363793951094991e+00 -3.2943793906037300e-03 -3.7758893569597163e-02 -3.3752184954980968e-01 -1.3798785212338049e-01 4.7388402451702092e+00 -1.9583070407288119e+00 2.8708114580064716e+00 4.6234272761806389e-02 -3.2632185875245343e-02 -4.1082902562779751e-02 1.1644121828060787e-02 4.0378822071074296e+00 6.1425813600427559e-01 2.4437072458561973e-01 -2.6079844188192851e+00 -4.0404287067770586e+00 -5.8686493322779004e-02 -2.4006305741552048e-01 -4.5978881857912223e-03 1.3521365472331937e-01 6.8665324889032675e-01 -4.8317827875455632e-01 3.9348478068255837e+00 -7.2007724522087813e-02 -6.2152783416809143e-01 1.5369084087108931e-01 -7.5007317341079432e-02 1.0058995355027189e-01 -3.7206380055998134e-02 1.2203579084788316e+00 -5.1409789594844746e-01 6.8260794463581220e-01 -3.6740379594637531e+00 6.7283254144126090e+00 5.7483345532896274e-02 5.9179123448203175e-01 -1.3982259596645008e-02 -1.4810454914181870e-01 -7.3076173490807150e-01 3.6128708946432342e-01 8.3139500536816513e-01 -7.1833389020426353e-01 -7.9321795126415964e+00 2.9638091887525686e-01 -1.2604326819362677e-01 3.5533952377209133e-01 2.0186898301317008e-02 -2.7707712107924987e+01 1.0909364728749207e+00 -3.7596546913981677e-01 9.4978388087289431e+00 5.9585646951791205e-01 2.7607563923960310e-01 5.5029449106068284e-01 -2.3820572272860163e-02 -3.1312764847575281e-01 2.3855792855509179e+00 -2.8693886920291267e-01 6.2935991853624955e+00 -5.0458160458959753e+00 6.7670582782930069e+00 2.0392143235702642e-01 4.8570312166145158e-03 -1.0809356870377673e-01 -1.6843084119742183e-02 -1.6811930894510567e+01 -5.2394214508210979e-01 2.5240482671052078e-01 1.2873164315215035e+00 -9.2000705100638349e+00 -4.1362714545452373e-02 -6.2062523473499454e-01 -3.0059703015178126e-03 4.9801003304555991e-01 9.9255914855560157e+00 -3.2487054020993578e-01 -2.3711230996963408e+00 2.3372939342755217e-01 7.1222583275529487e+00 1.1244182464901287e+00 -8.2747249120008903e-01 6.8494537606383910e-01 1.2815600115191226e-03 -1.7301675674658252e+01 -3.0956762308915864e+00 1.3731282873303546e-01 -7.6065506509824310e-01 3.5241251996212704e+00 -4.4615800054531168e-03 -6.8291579653484504e+00 -9.3602476065565259e-03 -2.0908552633027611e-01 -2.1146786046000550e+00 2.7659122610642399e-02 -1.0965229151742594e+01 5.6722503564429250e+00 -6.5570773740187827e-01 2.8566968363039208e-03 -4.8376205052804844e-01 3.4254470152457535e-02 -2.8015236778058075e-02 -1.0415715071673056e+01 -6.4520360465460036e-01 4.4857996255315280e-03 -5.0986283845869274e-01 -5.4378779816570120e+00 4.3463849664424237e-02 -4.8863568787569607e+00 8.5870316934419950e-03 4.0708408516712780e+00 
      </Row>
      <Row Index="3">
        7.2135764441365609e+01 -5.7849772337655793e+02 -1.1860224938311148e+01 6.4863270107201854e+04 -1.0887452345055436e+02 2.3179048144705453e+03 8.2158558224554511e+01 -1.3757587749861399e+01 1.1208253090140191e+02 2.0234726177309472e+00 4.7478930927287740e+02 5.0211159562082095e+00 1.5077770135346897e+00 -4.4001292998634754e+03 1.0699408033667132e+04 1.9112995050768209e+01 -8.6803212368511595e+02 2.3059964448574194e-01 -8.2328882098422067e+00 -3.3765276492019075e+02 2.3924294695645596e+00 -5.0153610829397576e+03 -1.1271149837794007e+03 -1.6540914789679623e+03 -5.9878372786006302e+01 -3.3681345625138455e+01 6.0004157600800838e+01 1.1499785485974472e+00 1.5920202125291012e+03 9.2971103967257321e+01 -1.2560240051381287e+01 1.1767324411705481e+03 6.0709019736541723e+03 -1.8894045920541814e+01 -5.4231334294408987e+02 4.0423824346443817e+00 -6.0429229500470967e+01 3.8880708428452095e+01 -4.3777500106433127e+00 1.9899305955964875e+04 2.1469208370770264e+02 8.6893574799601447e+02 -6.6512179384270837e+01 -1.5312500112130820e+01 -5.1271534582892286e+00 -1.2363635891250566e+00 2.6829470496723303e+02 1.3586603866391398e+01 -2.2187140131868275e+00 2.9290699999393269e+02 1.0186061331447157e+04 -9.0598623554121218e+00 -1.0417357763047646e+03 5.4803824493072129e-01 9.7857897571553547e+00 -1.9517086699358060e+01 -9.4704919464755335e+00 -2.5521728439602350e+04 1.2629036207030927e+03 -1.9298825094948954e+03 -5.9136653928328514e+01 4.3190570253518665e+01 -1.2947223401376903e+01 3.6549358004760899e+00 2.1482301031015486e+03 -1.4280727321098590e+02 5.7470601391543951e+01 1.2488977335429590e+03 -3.2580960132498258e+03 4.2946909010289538e+01 9.8378051023079558e+02 -2.9777742125606181e+00 1.8737243307862855e+01 2.3139075809568790e+03 3.8873757422923745e+01 1.5428793153355942e+04 -7.7599356019710467e+02 7.2049412895256210e+03 9.1561810505146070e+01 1.0092911635056672e+02 9.2134954554157616e+01 -9.1177414944407662e+00 -1.2933936021406225e+03 1.4676854658944359e+02 2.4515260062681126e+00 -5.9912417004332601e+03 4.4283199874735619e+03 -5.7003659885046318e+01 -2.9515253632107933e+03 8.8932036827480321e-01 -2.0852204373221161e+02 -1.0650402773594806e+03 -9.0714649242718465e+01 -6.6262084688640225e+03 -5.8695871682819052e+02 8.2063530413001831e+02 -1.4526656018483493e+01 -7.2367905706942736e+01 -3.2385736888569932e+02 1.7337676976897292e+01 -2.1474210366724874e+03 -1.0977131798629568e+02 1.1440755696677599e+01 -7.6684805011856297e+03 8.4527188277453970e+03 1.7314900604812118e+02 -5.4066131167945241e+02 -9.6139748542855088e+00 -1.4816858950996809e+02 3.2128008891334315e+02 -1.9508437367536288e+01 2.7873975214380960e+04 -9.0514005605044531e+01 6.5231208695506702e+03 1.1378533726627754e+02 2.3540027725194072e+01 -5.5633186355731134e+01 1.7239920161620301e+00 3.8428248131694904e+03 -3.4124672338837030e+01 -8.9218690395999474e+00 9.7108354230636905e+01 1.4134885726140685e+03 7.0678132866926035e+01 -1.5894633353273330e+03 1.2575806013108046e+00 1.0039665674106546e+02 2.0287766468807979e+03 8.8891811836281409e+00 9.7393556437177813e+03 -7.0864879613468520e+02 5.3630737021267232e+03 4.0693143118643729e+02 3.1417733215562507e+00 -1.3746859043144980e+02 -2.9887706857573848e+00 -3.5579360938496029e+03 -8.0253807592952143e+01 2.9494284870978831e+01 -2.6017139884737435e+03 3.7408403507691241e+03 -1.5911292441120171e+01 -1.9719130052194560e+03 3.3280977591336769e+00 -1.0796364042751125e+02 -2.0819555679288032e+02 1.8615043051458201e+01 1.9634222328211959e+04 1.4510990957032454e+03 -3.7748586309578968e+02 -6.4030487591522899e+01 -3.9549726899726041e+00 -1.0333341228691921e+01 -7.8310017423839651e-01 3.7170616057344796e+02 -2.7701118016775609e+01 1.0996052839522406e+01 -1.3190871091989202e+03 7.5578869311029985e+03 3.7390646763837978e+01 1.1266824465029060e+03 2.6471095574281378e-01 2.5017135200482350e+01 3.1880661055595613e+02 -2.9087458583427588e+00 -1.2493041955657449e+04 -5.0365400693030267e+02 -6.3634578963031163e+02 -1.0998204792818811e+00 1.0438752100914659e+01 7.7037202693164346e+01 1.5202944991644523e+00 -1.4984185002275660e+03 -6.8890428763901980e+01 7.2792866734657231e+00 -3.3390342173725985e+03 1.2010399629404114e+03 2.0582292382061766e+01 1.1892556363417937e+03 -1.2608575041533887e+00 1.0024424493212237e+02 -5.6436517726413081e+02 1.4543215579129630e+01 -1.3962094047155899e+03 -2.0329343973126051e+03 -8.8648439566638554e+03 -3.7325151024364823e+02 -1.9245614176296002e+01 1.9659450675434624e+02 4.7666788321244447e-01 -6.2908110935811710e+03 3.9090512499465817e+01 4.6374353172872858e+01 -3.8683929302638940e+03 -1.6479883987146241e+04 7.7133436715599117e+01 -1.2129281907199047e+03 -3.7285743873089459e+00 -3.2331728853383439e+01 -2.1001343448886928e+01 1.7310857874224830e+01 9.7058898469832566e+03 7.4213210103670872e+02 5.6552345726035128e+02 -1.7947729840761366e+02 2.2556217494395337e+01 6.2997004514152792e+01 -6.2284974946886198e+00 1.5317635319686642e+03 6.7839806421285672e+01 -1.5737635878313228e+00 -3.5387707434962740e+03 -9.9091220469334694e+03 -2.2188146001370509e+01 5.5640833995294508e+02 -5.7032374820813336e-01 1.0843468176713094e+02 -4.2133825520154664e+02 3.1597157960860240e+00 -1.5303307707814176e+04 2.5258349329088546e+03 -8.5145644583042686e+03 -6.3316189741765861e+01 4.4605308881083602e+01 -9.6783108162816461e+01 2.7315753990336136e+00 2.2198971821778537e+02 -6.5186778296750902e+01 2.8356210744073948e+01 -1.4336605905716278e+04 -1.2246655667244363e+03 8.8528228754662138e+01 1.3107644920869402e+03 -2.4858939304707883e+00 -6.8703210433584047e+01 -7.2002442831155122e+02 -1.7367115893847348e+01 -9.8118034899180348e+03 3.5032819212035997e+03 -2.7101927552880511e+03 -3.5437758287361106e+01 8.5389109883949999e+01 -1.1952165920461283e+02 6.5004469455084006e+00 -6.8155374750370102e+03 -8.1929799409713974e+02 1.4577594034100724e+02 -1.0170270487849921e+03 -8.0019944802103500e+03 3.5683368497947720e+02 -1.8326279916170068e+04 -9.4267158948202461e+00 -1.9412124401772871e+01 7.4740069847647683e+03 -4.9148392734893065e-01 6.9626549700354037e+04 4.5373368871725143e+03 -5.5096041744601771e+03 -1.3229083065798932e+01 -1.3497688431853021e+01 -3.0073310196362399e+01 1.0593639118959355e+00 4.7552578297204636e+03 -2.4650093705024847e+02 -9.3725428115931209e-02 1.0879434594122955e+04 1.0203039901241274e+04 2.3085475925722676e-01 -1.8734179531877180e+04 1.0421278551269024e+00 -7.2979205554235086e+03 
      </Row>
      <Row Index="4">
        3.2343977182192975e+02 5.2793025486405270e+02 2.2817300585388693e+00 -1.0889110629603860e+02 2.8016884584519499e+04 -3.2448212454853015e+03 -9.9123399597873991e+00 6.7325987274020932e+01 1.7672328115211485e+01 -3.5662152648742871e+00 9.2238148989925394e+03 -2.7567653074490700e+01 1.0226912000723466e+01 1.1249757740221248e+03 1.3892238784911460e+03 7.0357402405661249e+00 2.6187032188712607e+02 3.8624513901716204e+00 -4.4246175638319176e+02 -5.4433966411135464e+02 -5.5295601912608641e+00 -5.7574574876824045e+02 1.8945804536092612e+03 5.0059254983319588e+03 -4.1362941013454446e+01 -1.7345361439053200e+01 2.3290767525523584e+01 -3.4220557391484152e+00 3.0037183393157356e+03 -6.3704499465035397e+01 2.4150732032144234e+01 8.8005958395497419e+02 6.4053664780383815e+02 -3.9478865613637693e+00 -3.2086934789029232e+02 -1.0023066975243662e+01 2.8523107691031419e+02 -3.6284206110848589e+02 5.3207772530980559e+00 -1.2456871548952361e+03 -3.2193047434035373e+02 -1.3724625192803592e+03 1.4651565735430786e+01 1.3441064933783162e+01 -2.6875073364747529e+01 1.1181175577008315e+00 -1.3597598260626603e+03 -8.4743192737712079e+00 8.7481823025923102e+00 5.6908173556374086e+03 1.7585536226747961e+03 -4.4553464507755010e+00 3.3871969665346381e+02 -2.0515051745698520e-01 1.7721715652083140e+02 -4.7949607910434315e+02 1.2499856983709222e+01 1.1324865349271790e+03 -1.7855078786860664e+04 2.1708765524511532e+03 4.9574342353958031e+01 -3.2280342110845368e+01 -8.8930937869111133e+01 2.1991077193100277e+00 -6.1351416409659687e+03 6.6331324195574780e+01 -5.3284624111734132e+01 -6.4979687076302271e+03 -5.3031280112687364e+02 6.4621801626692061e+00 3.6285680478884194e+02 -1.6301743905288792e+01 -5.8978315923033233e+02 5.1819531377382066e+02 -1.0808374781961080e+01 -1.9287033262093962e+03 -4.2034852912197850e+04 -1.1779774750975048e+02 2.3392812461284507e+02 7.6728159637310199e+01 2.0052374673870332e+01 -1.7277950552157071e+00 -6.9604083121952353e+03 1.1282131862197696e+02 -1.8073438244437199e+01 6.4328222050277782e+03 4.2126618990799134e+03 -9.7662605750747389e+00 7.4401379240805409e+02 -2.3359837804286974e+00 -1.3118566042096722e+02 3.9943037477204252e+03 1.4841307329482348e+01 8.8370614771515943e+02 1.0833035713612940e+03 6.6539389590530482e+02 2.6698974096214670e+01 2.8445240412945816e+02 -5.0284140157427906e+01 9.7206899105533644e+00 -4.0279294082407605e+03 5.7768254772591924e+01 5.4538151969063229e+00 4.9856987572580811e+03 -1.6784032091468835e+03 1.6607135301032812e+01 5.7736349993209592e+02 5.1987127762882519e+00 -3.8257702132646239e+02 8.4938020061595736e+01 -4.0333743688716064e+00 -7.6255084305078162e+02 -8.4809736164073147e+03 -3.1216004798089380e+03 -2.8039718937233076e+01 6.3898175168296689e+01 5.9282231352640252e+01 8.1630094249012828e+00 1.4671324043410868e+03 -9.2272734336838109e+00 -3.9647918986197524e+01 -7.7447822943301362e+03 -5.1783081916159040e+02 -5.4716131954071479e+01 -2.0102961688145729e+02 -5.8573076030657152e+00 -6.7668192514547718e+02 -7.2294399324576801e+01 2.4936099229175994e+01 -2.2968485079238599e+03 7.5774405575768851e+03 -2.6768727859955397e+03 -1.7016776788222128e+02 -5.0561484175419494e+01 -1.3718212842238685e+01 5.7148123136916373e+00 -3.7243878723453963e+03 1.3334298661684230e+02 -3.1716955980133129e+01 -4.1601321072585297e+03 -5.4497133584232722e+02 8.6992984542942988e+00 7.3594570824545679e+02 -9.4172981751459499e+00 2.3175521570954868e+02 9.6421656457557745e+01 7.4377306610276790e+00 7.3023255479853833e+02 7.9903016310145995e+02 -1.1466888200867834e+03 2.5980239186992884e+02 3.0441868068237738e+00 3.7988869762035563e+01 -5.5131951542529363e+00 -4.6229236406958989e+02 -2.1440378509476878e+02 2.0603765514869988e+01 7.5666241456252374e+03 3.3777615438996072e+03 2.8472984909494727e+01 -2.0846334883829395e+03 3.6175240609357062e-01 -1.0926790512567474e+02 -1.4059226722542860e+02 -1.9998548328153525e+00 2.4757805080863216e+02 -1.0566527840347178e+03 -2.5389342560518753e+03 3.5228947487397022e-02 -2.8020986822583225e+01 1.6326968277579319e+01 -1.3095342762531464e-01 4.1422678851360706e+02 -7.3403790594207109e+01 1.0543439321996551e+01 -8.5483398869942121e+03 2.5784406317827177e+02 1.3214326805820766e+00 -2.7457604939455393e+02 -3.4134678747174707e-01 2.1692586171745796e+02 4.9226811246338741e+01 -1.2973737457171286e+01 6.3082267162567985e+02 1.0795033453779293e+04 2.2370368364384194e+03 4.5546322158191401e+01 4.8211825542397932e+01 -4.4725873722086533e+01 -2.6213517209239043e+00 1.0280668664682857e+04 -8.3945529277678787e+01 2.2390727805600307e+01 6.0510602458702920e+02 2.1132489464193268e+03 -7.3936749122659506e-01 6.8454314223976814e+02 3.7006142499465966e-01 -2.1674316658862296e+02 -4.0281175080875209e+02 1.5552733261855636e+00 1.5273522559913467e+03 -9.3040794035661056e+03 -4.6104096821648709e+03 5.4478415858467422e+01 3.2343026492651589e+01 2.6053020975082291e+00 6.8449876476874394e+00 -1.1870547630374197e+03 -6.9087561860145073e+01 -3.0109009725707843e+00 -4.7722159781611263e+03 8.1767286931854869e+02 -6.0122315390253362e+00 -1.2106714256349019e+03 -4.7045174926221129e+00 9.2079152520216212e+01 2.5077172529465997e+02 -1.2768107209130342e+01 5.7921557413625806e+02 3.5541205190045384e+03 -2.8892596432695718e+03 1.4396100255552753e+01 3.3488226136687445e+00 -3.2611741122888702e+00 -4.8667156463777310e+00 -3.5348872965615165e+03 5.2997236566356150e+01 -1.8334017105525930e+01 -7.2960770235259988e+03 6.1586705136003707e+02 -1.7700006326650879e+00 -2.0891275688170981e+02 1.5506260932836389e+00 -1.7942779713306215e+03 3.1161760940503873e+03 1.4335825339783234e+01 -1.1061288971655144e+03 -1.6305908108609805e+04 -3.1670129198587597e+02 4.0048607537359294e+02 3.5339658732068727e+02 -9.6138381085081562e+01 1.4450161985726675e+01 -4.5164459043338297e+01 2.6479604761922985e+02 -7.8725640619446693e+01 -2.1781087501906541e+03 3.9648532322304318e+03 -4.7370691070277982e+00 1.2415202725417257e+03 -3.5515571008067624e+01 -1.5205382035398893e+02 6.9969376205840763e+02 1.1853237183338905e+00 -5.2574310399747037e+02 -5.8323815411993806e+01 6.2115490307511527e+02 2.7568851141866091e-01 1.4917548858999072e+02 1.5837975772702260e+00 -5.0788129839857277e+00 -4.6309754750512525e+02 1.3280930819177581e+02 5.4176885538595343e-01 5.7986245468789257e+03 -1.7457476079410867e+03 3.6403927706760015e+00 3.9137083374796630e+03 -3.2029569389855417e+00 3.8924050846044429e+02 
      </Row>
      <Row Index="5">
        2.0954196897808288e+01 7.9021557367456558e+02 -1.9533533617977810e+00 2.3178851727602309e+03 -3.2448185988430478e+03 2.9024606112760352e+05 -4.5677417814661396e+01 1.5718952529480279e+02 -5.6175966316330005e+01 -1.2332006759572005e+00 2.1200718770001535e+04 1.0951740832062939e+01 1.0262003688268633e+01 -6.7421350767157101e+03 2.2444210126991384e+03 9.6671840899801182e+01 -7.4206827092809306e+02 -8.2433248014773319e-01 -1.0535350364270926e+02 4.1397035978058248e+03 6.9653845694630743e+00 -1.9420491986906854e+03 8.0088502977971984e+01 5.5092497070303776e+04 -6.3866865832446898e+01 -5.1326909255713893e+01 -5.5190680103474989e+01 5.9924392063696743e+00 4.0272394695091634e+03 -6.2635371500650990e+01 8.9174088297805554e+00 6.6614322395520867e+02 -5.6547848942267610e+03 -3.7211564983833135e+01 -2.4133005151852925e+02 7.9901412252555462e+00 7.9976825768154896e+01 -1.2431361555360222e+03 -2.9477937278787522e+01 1.7103492796793307e+02 -2.9514217758758459e+03 -2.8323195864823407e+04 5.1457278527547629e+01 -1.9455008639476577e+02 -4.5529433542505693e+00 -2.0653114293260311e+00 -1.3140882142264161e+04 -1.8213802016896886e+02 1.8583706859297870e+01 2.5653823079382173e+03 5.6379486342887067e+03 8.0290397557668083e+00 -3.7185980934073393e+02 -1.2240683358715077e+00 -1.5117728522969730e+02 -5.3191466934407099e+03 -5.7604050584118916e+01 2.4056385754678995e+03 2.0866319284810979e+03 -1.8425342520429046e+05 -1.9321206646700162e+01 -9.3365784926073758e+01 1.1777072478080555e+01 -9.3023125049444602e+00 -1.3553878471093267e+04 2.6136434042903306e+02 -3.0672730338881134e+01 -1.4720697018012288e+03 3.2917529545302350e+03 4.8277539567196726e+01 9.9321595915459886e+02 2.9353863543538708e+01 1.0540105392792984e+03 -1.3707262045320208e+03 4.0734916221773346e+01 1.7485174173180217e+03 7.8167389508538827e+03 -1.1118879489073724e+04 2.2122065220822117e+02 -1.1136835601730493e+02 -5.1814277045622589e+01 -6.9456273731727496e+00 -7.8984768228395878e+03 5.8907183957261839e+02 -6.0222789977949148e+01 8.8939382643986028e+02 3.6646793948568047e+03 4.0867840656056600e+01 -4.2595748469534101e+02 1.0726043164917060e+01 3.3131406090601342e+02 -2.5778017829138935e+02 5.9853099571091221e+01 7.1856615503080957e+02 8.5677700236154851e+02 5.3420013900705089e+04 2.2777744122030413e+01 -6.6715288810477432e+02 -7.6334101902111456e+01 -8.0178164968892300e+00 -3.5383796198641467e+04 2.9609876811372880e+02 2.2414106511167962e+00 -3.1560639922200717e+03 -2.8875737031798344e+03 6.3524375564837115e+01 1.5682833163762975e+03 7.0097486394221296e+00 2.8762660301136691e+02 3.3325263954094885e+02 -1.0044839709030988e+01 6.4084525940737112e+03 -2.5782530330234240e+03 1.9548840024748570e+04 -2.3365302140994064e+02 1.9302334286140294e+02 -3.2998938729172266e+02 -1.4061758986701697e+01 -4.8010181023212172e+03 1.0999037321687695e+02 5.4050144975866573e+01 2.7754269062909734e+03 3.2537824271683526e+03 5.4859224881542502e+02 -7.9676897316228769e+02 7.9102147462643302e+00 9.2438851005306219e+01 2.8481974500377901e+03 9.8409562713880572e+00 -5.6103903524238849e+03 -2.0303720772718098e+03 6.9997481476347908e+04 2.4194877042975315e+02 2.6493784301688038e+01 -2.7069962740551694e+02 -1.5225414484287414e+01 1.4958861340340409e+03 5.6338411059888597e+02 1.2823361548911933e+01 -1.9093701955124798e+03 4.8549769723839836e+02 2.7912672541104183e+02 1.5792241269965893e+03 5.4572033862588327e+00 -2.7429753645653466e+02 1.0386825895290035e+03 4.7671414174877214e-01 1.7190028409112729e+03 7.4750238345655134e+02 -5.2155680723025653e+03 1.6584034282348279e+02 -1.5235445462104570e+02 1.4066565816372176e+02 1.1916648708908626e+01 5.9950334689521897e+03 3.1892847218309328e+02 -7.7272273598162599e+01 2.2240770982686736e+03 -3.7675840068254911e+02 -2.8153129940819917e+02 1.0348944054395724e+02 -2.5640748856667539e-01 -1.5117213682576812e+02 2.7280848799616706e+03 -2.1766817610532794e+00 -5.1867436332291766e+02 1.7404415218313443e+02 -7.3684821183828608e+03 -5.3690074679402642e+01 -8.9455368330388509e+00 -6.8295464504189667e+01 2.0567722038911600e+00 -4.5022775686002515e+03 -3.3064973641091774e+02 1.5457244506662001e+01 2.0054804554585617e+03 9.7735308572497433e+02 -8.4833639863232676e+01 -6.6549539913769024e+01 -2.6464536199440918e+00 8.3048473718620244e+00 -1.3580714600234005e+03 1.0803097897982167e+02 1.1962896879845539e+03 -2.6735016572342429e+03 9.7756743171174719e+04 7.0589748449839931e+00 1.4433835533662162e+01 1.3552771022706020e+02 7.2964800585944678e+00 3.4567102875636338e+04 -2.4190791088358912e+02 1.8560818465393353e+01 2.6062906772500837e+03 6.5429083945146522e+03 -3.0705485007604953e+01 8.4978960141763196e+01 -7.2547039038748586e+00 2.0392557424576557e+02 -4.9437706222486268e+03 -6.7331650277497459e+01 2.3298580609122564e+03 1.8787423353816844e+03 4.4273753465160480e+04 1.8433969380086117e+02 3.3270306709518474e+02 2.8680394413907834e+02 -2.3116592418299700e+00 7.1764980459565213e+03 -3.7604704918949454e+02 -2.9626192536119518e+01 -4.3276343875911953e+03 -8.4826384092851113e+03 -3.1929912718343587e+00 -1.4637046022201607e+03 -1.1233344272811035e+01 3.3224872151185764e+02 -2.4941248533757262e+03 6.7727013100359954e+01 -1.5494218123445137e+02 -9.0944423535820315e+03 4.3164298368980701e+04 -1.9721868066566628e+01 4.1932250922327540e+01 -1.2886086685694454e+02 2.4091661585659532e+00 -9.6532663642913740e+03 9.0166050593173424e+01 -9.8459374653714455e+00 4.2571336825008912e+03 -1.1447367292727431e+03 9.1774354319047937e+00 1.2419233855223465e+03 1.6255445712834842e+00 1.6056507497197863e+03 -8.8909419617284620e+03 1.4791660909516213e+02 4.9051228488187326e+03 -7.5846398160956960e+02 -1.1671322199192711e+04 5.7196181737741188e+02 -2.0814926473768116e+02 -2.3869778051848007e+02 -2.8490114948701937e+01 3.9455169523828017e+03 1.9952418396717685e+03 -9.7040263549856661e+01 1.0458476964327383e+02 -2.5259968406907587e+03 5.3973542877185196e+02 5.6312379738722411e+03 4.3710769844807295e+01 1.3109911566915753e+02 -1.1720650778533172e+03 -6.0249491927460959e+00 2.7765699023520892e+03 2.9538036017088525e+03 5.7815336550282209e+03 3.6429172365387590e+00 7.1282801621280328e+02 9.1013682249056096e+00 5.9138139574127138e+00 3.5282405036113173e+03 3.8513031307529326e+02 2.3950808352851283e-01 1.5508877639835837e+03 3.0486915787312778e+03 -6.2692778069725826e+01 3.9160418587912868e+03 5.5496522130261461e+00 -2.2939015675872452e+03 
      </Row>
      <Row Index="6">
        2.3592093595626125e+00 3.2597816114888829e+00 -1.9452863359231287e-01 8.2158860512406889e+01 -9.9123059617721907e+00 -4.5677330292199258e+01 3.4969132652736278e+01 -2.7225322540432140e-02 -1.0320269625084961e+01 2.4563922403931970e-01 -9.0216877663659915e+01 6.9073874386718548e-01 5.7208815445483907e-01 -3.2219127924018451e+01 6.3324334561693831e+01 -7.7343909716977910e-01 -3.5533346165918023e-01 -1.5082221824298470e-01 6.9754995893740954e+00 -2.6131475914358475e+00 -4.0187172435288887e-01 -1.2526128012275331e+02 2.7578804523950176e+00 -4.4731495046033217e+01 1.9820722297705579e+01 -9.4729147919029311e-02 4.0086100206380513e+00 -9.8270486253757602e-02 -3.2299980757585899e+01 -3.8164464048807289e-01 -4.4592819786258842e-02 -8.7309758261962742e+01 -5.7991410282221551e+01 -5.0540374143689082e-01 4.6347248936444778e+00 -9.2994403230044209e-01 -4.5018863947570464e+00 8.2248000552589264e+00 3.5940121727440669e-02 1.7669171358277346e+01 -8.0290192854785346e+01 -4.7988804184746300e+01 -1.8507060649547082e+01 8.1041295067115882e-02 2.7111769833947177e+00 1.7041738781791799e-01 6.8788843350037226e+01 -8.2767535783009860e-01 3.1187631005005895e-01 5.1831266786134336e+00 -1.2404566099978942e+02 5.5959623078877840e-01 -1.0389118518340929e+01 -2.6364889029677444e-02 -3.1644106818380999e+00 1.4020108113378171e+01 5.6606142018244165e-01 1.5953928125417914e+02 2.8991697486894353e+01 5.3828231133886987e+01 5.8148753718511186e+00 -2.2197528458693605e-01 -1.7763219079275103e+01 -5.5748679107580001e-01 2.6516162758041126e+01 2.4491301248024824e+00 2.0532803085479667e-02 2.1663718779279657e+02 1.0878012519713052e+02 1.1054546859601362e+00 -9.0744354170996253e+00 3.7214575242998649e-02 -4.0946387335395684e+00 2.1818152961180260e+01 5.4200967664973443e-01 5.6798792863892686e+01 -6.6742942788105495e+00 -1.0989393656902166e+01 -7.4562143804677106e+01 5.3250751321211620e-01 8.1710860329015365e+00 -6.7973161949350180e-01 -3.6915967763207345e+02 -2.2381568518640496e+00 -1.6008183948085533e+00 -1.7015445583208248e+01 -5.8695564813814144e+01 9.4352446629250730e-01 -4.1791886165406424e+00 4.1397570300362474e-01 -2.5245922252810210e+01 -5.8665199827742256e+01 7.6392154366162535e-02 -6.1648733600450747e+01 -1.4293592141341662e+01 -5.1119435871316909e-01 5.1295317260399401e+01 4.8150411746657795e-01 -1.0099601984001360e+01 1.7694429559243183e-01 -3.0232226441616490e+01 2.0730358121658070e+00 4.9372748956666612e-01 -7.8722075111291133e+01 2.4614411875069379e+02 -4.9251099893988703e-01 2.2673660905582782e+00 1.3988739417693796e-01 9.8371929272559111e-01 4.6676229471515640e+00 2.4343456600852809e-01 3.5221356843391885e+02 3.8896662841502447e+01 -9.7070145427920693e+01 3.3834311351328765e+01 -1.2632269971076582e-01 7.1769529026288803e-01 3.6692718232983965e-02 1.4947317706495463e+02 1.7357854357970877e+00 -5.2290836757445125e-01 6.4818111024568452e+01 -9.4053349468816478e+01 8.5613918513550225e-01 -7.4493582145618102e+00 -4.4484321434334950e-02 -6.8338598675983562e+00 1.6029370435670007e+01 8.9030084449668256e-02 -1.6741044554013502e+02 -5.1443188744358224e+01 2.7313934105372937e+00 -1.3620820857981258e+01 6.9381410647392450e-02 -1.0692484335405279e+00 1.0009403933464722e-02 6.5218288272140967e+01 -1.7476843080103954e-01 -1.2725319711928167e+00 -4.2957944191641218e+01 -8.6755770765424941e+01 3.8220051981983127e-01 3.6625486583262514e+00 5.4024261478355068e-02 2.1665224693749803e+00 4.6660474604853945e+00 -2.9248581366475590e-01 -8.9142341546273656e+00 3.2288261289054105e+01 1.2510549436682140e+01 2.9958889718509862e+00 4.4038945599399515e-01 -3.5482415464914769e+00 -1.4287184037433484e-01 1.4950754081901300e+02 3.5267559850060302e+00 -7.1974243160735352e-01 -1.6335097239744300e+01 2.1036863256484096e+01 -1.0814723492106069e+00 -2.9261121730052821e+01 -4.4481128313209384e-02 4.1082092147698446e-01 -2.2937504021105215e+00 5.5422038046573432e-02 -5.6071562727048843e+01 2.9268159578700562e+01 9.2756661323567869e+01 6.9689702048499056e+00 3.2287175083242597e-01 9.5288111036115843e+00 -2.7338984904492686e-02 -3.7997649863446327e+01 1.7243808893004111e+00 1.1103130945435269e-01 8.4828186974317134e+01 1.1255563227179866e+01 6.7415745798047100e-02 5.0958755645969482e+00 6.4403756819584074e-02 -2.7813039574698379e+00 7.5620511105867507e+00 -2.8267729884024151e-01 -1.2916420298585123e+02 -2.9334311980815357e+01 -1.5821366485699400e+01 -3.4068652735943807e+00 -2.5268388817405629e-01 -4.8276121393622162e-01 4.9081237636310712e-02 -1.0176434007593937e+01 1.9940923043882828e+00 1.0785619953687631e-01 -4.8668236803482273e+01 -5.4960531744402971e+01 -1.2294320182863450e-01 -2.0628380886399613e+00 4.5761187421370253e-02 3.0250795801354258e-01 9.5118967048571790e-01 6.4798541133954779e-02 -5.0837746873151900e+01 -6.5376550940082439e+00 -3.8462711364824486e+01 -1.0451626799951544e+01 -5.2871081439318957e-02 1.3845766011605143e-01 1.6002610796222250e-01 1.3049733228605993e+02 3.0015747979649383e+00 4.1885116483242602e-01 2.1178450846729447e+01 -2.0037811633007271e+02 -1.2463175979613639e-01 -1.4640675399474418e+01 3.7737918521973890e-02 4.3773529034207925e+00 6.8167001182254410e+00 -3.0999372540719439e-01 -2.0921861617295224e+02 3.6788978832323338e+01 4.6345624372159136e+01 1.3023354965083133e+01 2.4863461811096599e-01 2.5650856958045409e+00 -1.4350503138783227e-01 1.8088029117305939e+02 -2.2046360786670078e+00 -1.9792126211566159e+00 -2.6714435057470837e+01 -1.3236498755448389e+02 -1.1220973146040021e+00 3.4234002182121479e+00 1.4021827818297394e-01 -2.3237571328655605e+01 -8.0982867505698479e+00 3.6032193989735872e-01 -6.4866887717829911e+01 4.7513272946610442e+01 7.0429159171553728e+00 -1.8212891239179580e+01 -1.4551795785902577e-01 -2.9438279904676072e+01 -9.6223316439062034e-01 -1.0994545562101577e+02 1.5459229883969240e+01 -4.3374399073483811e+00 2.5071743824024153e+01 -1.6421197066990672e+01 5.7034857596252508e-01 -1.5321305412526232e+02 7.3594421709666236e-03 -7.7743845185921590e-01 1.6284326401139545e+01 1.3124542817461810e-02 1.7733823878102100e+02 -2.5413935653102513e+00 -3.3216389349982165e+01 -1.3790916482382922e+00 -1.9719273093217708e+00 -1.2185715733204656e+00 -1.4677658963096046e-01 -1.2815804377684067e+01 1.7545146211724898e+00 8.4468250429017289e-03 -3.9839362348781776e+01 3.3547776405706188e+01 3.0652421027531851e-02 -1.2364257098477776e+02 -2.2732552008773269e-01 -2.8751211879311413e+01 
      </Row>
      <Row Index="7">
        8.0080775316118036e+00 1.2086981010739693e+02 -1.8915784019975490e-01 -1.3757925867880974e+01 6.7325984080012006e+01 1.5718947873635807e+02 -2.7226069391474539e-02 4.0363301411561231e+01 -1.2264673678981017e+00 7.4672422403106162e-02 -7.6274094569658700e+01 2.8345998558072401e+00 -2.1892235523317630e-01 -1.5636541070272321e+02 -1.5881337439601339e+01 5.0165520447615686e-01 8.4152481185106627e+00 3.4812687916129195e-02 -6.7616351376749257e+00 1.0719558693218852e+02 -3.7336226751694757e-01 -2.6186327133518716e+01 -3.5517006972797589e+01 -8.9252359278320483e+01 -9.0133128162245835e-01 4.0014736981391058e-01 3.3889931224778258e-01 -1.5772251864875203e-01 6.6486591935959183e+00 2.6536804646099355e-01 -4.5150252014176273e-01 1.0767833175126356e+00 9.9734456417753954e+00 -2.5918510314031951e-01 -2.1118541621409463e+01 -1.3989114535870246e+00 8.5338777684627143e-01 9.7626721959277575e+01 3.6880827460140669e-01 -7.5818104610172092e+00 4.0579523443373546e+01 1.2215199160804400e+02 6.8108640646549146e-01 2.0790035958663957e+01 -2.1561485427544208e-01 8.4329447875380326e-02 6.2616762513697168e+01 3.6339359260325033e-01 -2.9473012136802357e-01 5.6618433608078391e+01 6.2511602450446389e+01 3.0513949533395651e-01 9.9214887720054392e+00 -6.1667013358583767e-02 2.1563855912924299e+00 -9.4478940143879754e+01 3.0981831015932798e-01 7.4608810056528938e+01 -6.2319088080311360e+01 -2.7027958591222864e+02 -2.5844201178554838e-01 -4.7787873765038720e+00 -1.6877850695974539e-01 9.4177034194611112e-02 9.1662960446813813e+01 -2.9105668912146276e-02 8.6381566403635357e-01 -4.1249953323781476e+01 -8.8925637112338620e+00 8.2058699633367715e-01 2.3525880275841509e+01 -1.5139836514509086e+00 2.3311916168694008e+01 -1.6810970342279806e+01 -2.7350994594062090e+00 -1.4404672256907567e+01 -1.2467147904665188e+02 6.1744449223238931e+01 -4.3332858396669369e+00 7.6423697615944937e+00 -8.1069346818218602e-01 -2.7491339751448840e-01 -1.9297109875753677e+01 4.4477229289737510e+00 -2.2982148091142931e+00 8.1143987399600178e+01 -1.4008387568403458e+02 -4.0710993404211887e-01 9.5692543494162550e+00 -1.3908352608916186e+00 -2.5891485951006658e+01 1.4048457407601001e+02 1.2208802780650475e-01 5.9808182271612029e+00 2.1261323625524113e+00 9.6586219523472181e+01 1.1570091269281297e+00 1.8780049104928150e+01 -4.3129393110742997e-01 -1.6409607292038447e-01 -2.6209438244852109e+01 4.3171104212600024e+00 5.5518967457029833e-02 6.9536609779258924e+01 -6.4773162226677641e+01 1.2177197264869388e-01 4.3112722330451120e+01 1.0122055342239009e+00 5.8815453216298383e+00 4.3155996072119315e+01 1.1510398906851976e-01 6.9795253260337759e+01 -9.9634016661420333e+01 7.3093581132363738e+01 2.2485995673425929e+00 2.1832714133953914e+01 -1.0822940756311490e+00 1.7648904614557701e-01 3.8534325109414915e+01 5.8555115961725539e+00 -7.7914162811872478e-01 -5.8529716341826543e+01 3.0344210800499376e+01 1.0525848526517843e+00 -1.7009111265798659e+01 -1.6363669480710819e-01 2.5715306316113384e-01 8.3959522786267627e+01 -1.1280787800424907e-01 -1.0696909813723164e+02 3.9054691068410229e+01 1.1237027164961501e+02 -1.3681284566877787e+00 -1.8542659010969778e+01 -3.4183608805529264e+00 5.5571608385246107e-01 5.2654164363546407e+01 -3.9032345434238680e-01 2.2063877175383126e+00 -5.6156364613147993e+01 3.9991046261153762e+01 3.5071623103915606e-01 2.5931332575182175e+01 4.7328345002372751e-01 -3.3703562053069698e+00 7.9126648942776924e+01 -1.1875733046823052e+00 -4.8491462410693003e+01 6.8944004295015063e+01 -1.5332440181059837e+01 -1.7631083506334431e+00 1.2814109038630150e+01 1.4871402045364568e+00 -1.8070586258919760e-01 -9.6579298523099091e+00 1.8026467156952588e+00 -1.3844247693434788e+00 7.9282249362104977e+01 1.4689741528811737e+00 -1.0595355046096167e+00 -1.6312558381057016e+01 -1.1134476852431058e-01 -2.9953514381188930e+00 4.4689848040439898e+01 1.2310303649077423e-01 2.8276385148159768e+00 -1.9918878434083038e+00 -7.0196328607889512e+01 9.5233709140510658e-01 -2.6915611402087078e+00 9.6424462076784390e-01 -2.5978378836147425e-03 -3.5331669625360121e+01 -1.8977736971667669e+00 3.3686392864771930e-02 -5.0565776146290119e+01 -1.6223509928625049e+01 -1.7822506506107111e-01 -1.5665883485699633e+01 7.2553347727190201e-02 5.9514743398307752e+00 8.5125198057329129e+01 -1.5958794066529860e+00 -8.1501312413010680e+00 -2.4140715078026574e+01 -2.0931790574339981e+01 -2.3113058283695764e-01 3.0999516070224768e+01 -1.0215846132314859e+00 1.1312474204560308e-01 1.3523555079313439e+01 -3.5045462777267096e+00 3.7065217727755617e-01 2.2628615677267039e+01 7.4246675687628539e+01 1.5193979368712107e-01 6.6815301939636376e+00 2.1037820221433748e-01 -3.9711664083821749e+00 -1.0412780887022151e+02 7.6624188954581562e-01 1.2733007888365172e+01 4.1034880750544261e+01 2.2359900016659611e+02 -1.0774978931677026e+00 2.1711372755848089e+01 1.6282989519017370e+00 -1.3620544920162075e-01 4.1521287915585262e+01 5.7672199876122558e+00 -9.4578115645090222e-02 -1.3814456451510739e+02 1.3907869161307781e+02 -2.3721059526833682e-01 -4.3439139425538229e+01 -3.0004321485900021e-01 1.5067279088086060e+01 7.8302979124678302e+01 -6.2782619538314521e-01 -2.1186542883389073e+01 -9.7640532671058125e+01 -1.0931798794186670e+02 -1.5417514316698799e-02 9.8801092056887825e+00 6.6110069308405794e-02 -2.9860945487778484e-02 -3.0799405528596822e+00 1.8968014880603197e+00 1.7042579983537215e-01 -2.5232234591154565e+01 4.0935785682139546e+01 -1.3658201332159758e-01 -1.9888309219278405e+01 8.7635801740679448e-02 8.7725977605786447e+00 1.0181497671094097e+02 -4.1591998008188016e+00 -3.9540711084836904e+00 -8.3933159884714328e+01 -1.5815812024275388e+02 -4.7787885404125152e+00 6.1471684627693477e+01 -4.4453237297261348e+00 4.2053393671657335e-01 4.0507900705342720e+01 3.0000921407295156e+01 -9.2853102986787639e-01 -3.6471175630027545e+01 -3.7586716741619099e+00 1.0209760891308903e+00 2.1099919722387611e+01 -2.0810067817843079e+00 -4.8337665288138548e-01 -1.6342790921740381e+01 1.0782928032461464e-01 -2.4574934871754586e+01 6.1202465003820393e+01 1.2635481728332027e+02 -2.4256678229711191e-02 8.4368711354072772e+01 -1.6532380709555539e-01 1.1857424288975937e-01 -5.4718584904664311e+00 5.0052762788901930e+00 2.2602798205752089e-03 7.7467314045344523e+01 -1.9944449873573753e+01 -1.5197883878558405e-01 5.2681023409010820e+01 -6.6850424530348951e-01 2.1418928852214094e+01 
      </Row>
      <Row Index="8">
        -2.9132892657029572e+00 -2.0396771106771389e+01 7.4715832001331250e-02 1.1208247916682319e+02 1.7672372628984874e+01 -5.6175991917980809e+01 -1.0320270123341430e+01 -1.2264676467985560e+00 1.2691788330519144e+02 -4.0456080283081161e-02 -4.2526875890393924e+01 -2.2540277031431777e+00 1.7427644465890424e+00 2.4060265584525752e+01 1.1003956475898667e+02 -1.0429701695471567e+00 4.9296039877370017e+00 -2.0895412468456137e-01 -2.6844401787870500e+00 -2.9678306303671164e+01 1.0896155810890660e+00 1.4445068786310912e+01 1.8646071581063463e+01 2.2958742783046851e+01 -4.2805440594843365e+00 -2.5456740634245068e-01 -3.9245244740160778e+01 -1.3005225065665957e-01 1.1301924748556985e+01 1.4141201551765354e+00 4.1677151461259658e+00 -7.4456827866898266e+01 1.6583466423055268e+02 -5.4478035577387685e-01 -1.3374050013323497e+00 4.9612644466507561e-01 -4.6577040835471362e+00 -3.6829469969611722e+01 -3.0163371853572768e-01 -2.0826393168740935e+01 2.0607161082993116e+01 -7.1480785489688827e+01 4.7559644374304249e+00 -5.7555548683880087e-01 1.6831890133049122e+01 -1.6887894171606022e-02 4.5201926535332397e+00 2.7595206151610139e+00 -3.7833807772276176e+00 -2.4510409535624198e+01 -3.3101463739662290e+02 2.9647279491348222e-01 1.8691186331140241e+01 -1.1339222967910825e-01 -3.8430767618700394e+00 4.2722441702962314e+01 -4.8171403065140161e-01 4.2419049268123217e+01 6.9443973202334774e-01 3.8024995657134390e+01 -1.0060054086754874e+01 8.4902360655093823e-01 -1.0977974362946952e+01 2.4195804119162614e-01 6.3660996968908876e+01 -5.6797480831752685e+00 -5.3228651116205690e+00 -5.2053511484761941e+01 -3.7567755228069041e+02 8.9491467515235534e-01 1.6928671756716177e+01 -8.0765763649376376e-03 1.2742057847370805e+01 2.3907268332804598e+01 1.7952199106559796e-01 -9.7672649398711542e+01 2.1870094182296270e+01 2.8783471159965757e+01 2.8482964933368415e+01 1.0595276023160669e+00 -1.2170205295147399e+02 -9.8186157915340688e-02 1.7862046114873448e+02 -2.9107353608156794e+00 9.9418549025556380e-01 7.0792954700021710e+01 -4.4586746416707115e+01 9.9080154549798882e-01 3.4987185282162784e+01 3.3444511158817258e-01 1.8677480345628361e+01 -3.1198498557067865e+01 -1.9277368954531500e+00 9.2567940103037884e+01 4.9194632764578813e+01 -4.4583409428758955e+01 -8.9776719283505244e+00 6.2267633290539699e+00 9.3892325000572811e+01 9.0762984395724655e-01 -1.1325941996080928e+01 -9.7513461057142727e+00 -3.7100124087593813e+00 -2.1559191661401883e+01 6.8817581545465600e+00 -2.3423912127405710e-01 -1.9973278021255005e+01 -2.8232678387835441e-01 -4.6723001099554882e+00 2.3539324047644072e+00 3.4655806532422306e-01 -2.1020396557095646e+02 1.1064179551896586e+01 -1.5489144725686401e+01 -9.0726517224984224e+00 -1.0168744037062416e+00 7.9856402102146156e+00 -1.8817377841367947e-01 1.3127405461191557e+01 -5.7683104567932890e+00 4.0591629627506700e+00 -2.5182123900226088e+01 6.7341745956379654e+01 -2.4543676464226429e+00 -6.7993945970630563e+00 -2.6846151598933304e-02 -1.5101674140298798e+00 2.3638000971013966e+00 -1.1854081106863457e-01 2.3047183155948346e+01 1.6978332003983326e+01 3.8084327128974564e+01 9.6445459309710166e+00 1.3413231032204314e+00 1.8750377080981657e+01 -1.3252080579850525e-01 -4.5037513728366321e+00 -4.3988395522863204e+00 1.2968737699898542e-01 -3.5360280941712062e+01 -1.6865500852404443e+02 -5.6202671695384843e-01 -4.2499588587539527e+00 3.9460219714326575e-02 -4.8741712422706955e+00 -1.9367852501273369e+01 -3.1177879425936605e-01 1.1078417612616704e+02 -2.7728062362184346e+01 -1.3598692087964992e+01 -6.4420251147515373e-02 4.2139393910314427e-01 -4.7449921722574871e+01 1.0274001024865630e-01 2.4238738676165539e+01 1.3897939615095236e+00 1.1342811208767691e+00 -3.8115295985039666e+00 -5.0367553206741604e+01 7.3441854873307144e-01 -1.0906715296177724e+01 3.8017712145827429e-02 1.3205714191024001e+00 -8.7190236549347713e+00 6.1312186822617010e-01 2.4124898664303899e+01 -1.7915083414019426e+00 7.6351632647966909e+01 1.8970615968489226e+00 5.6489629761432525e-01 -6.7729713634943110e+01 -5.1565184437562639e-02 9.2526509641373337e+01 8.1031674033728489e+00 1.7813386579053168e+00 -1.2148622045621687e+02 -7.9699264356293753e+00 -7.9617264661682663e-01 -1.2052748573414409e+01 1.5321020477951758e-01 -3.8135748547342558e+00 -9.2960183524489999e+00 -8.6603493573752266e-01 8.7628851457497333e+01 4.0178101490905988e+01 -1.0921733942827177e+02 -6.8825589289995150e+00 -1.0403241450606373e+00 8.6039639426724364e+00 5.2585538604485366e-02 -1.3717015845244919e+02 1.4994852616566909e+00 -3.9522081411725538e+00 -4.6520111654226866e+01 -4.6953924272789254e+02 5.8295770296697746e-01 1.8827581707667452e+01 -4.1298630902626665e-01 -3.7969288577372140e+00 3.0556518943042050e+01 -1.2390238149129651e-02 6.9937054798365807e+01 -2.4773126160565198e+01 -1.1712093405821815e+02 8.4148059434404558e+00 -1.5002451864367630e+00 2.4913707606848270e+01 -2.6553327013479400e-02 -2.0600535819314246e+01 6.9382997939130950e+00 -2.3870152049867857e+00 4.8242665206035838e+01 -1.9150307895068727e+02 1.1838180617616316e+00 -1.6931588642952406e+01 2.1247661003068720e-02 5.1568409035813669e+00 1.0424830129307679e+01 8.5784408557084380e-01 5.9697035304708834e+01 -6.4240371598578463e+00 7.4805349483713144e+01 -3.5554748298440648e+00 2.8109631727592266e-01 -6.8541288040063336e+01 -2.3838211823871691e-01 4.2277857138835543e+01 -1.0167630315044640e-01 9.2301941129478386e+00 8.4959929449559127e+01 -7.3366270074365360e+01 1.7183195138692042e-02 -7.5480829768180513e+00 4.7673242865479581e-02 2.2294644050076961e+01 7.7883017522213720e+01 -1.3420403448861644e+00 -6.3044850972944801e+01 3.5892172166984068e+01 6.8021640357551462e+01 2.3770900925385853e+01 5.9953527180521569e+00 2.5981676057425062e+01 5.0455486532738880e-01 7.3294035901130982e+01 -2.4905690830583673e+01 3.6713218244911179e+00 -8.5825210188391381e+00 -4.7017175377764966e+02 -5.5180394174804182e-01 7.3668380731163367e+01 1.3639414713455678e-01 2.0673061054016268e+00 2.1982456948587348e+01 2.4255317884046002e-02 6.8919196388972523e+01 -3.8717277044971809e+01 -3.2016003788660385e+01 3.8762180358315446e-01 -5.9121638852074172e+00 1.6274444503331431e+01 -6.6028269732835376e-02 1.3910906396888343e+01 -7.0302066547398283e+00 -4.9136051882878118e-02 1.7865334037540492e+00 1.5928140970095663e+02 1.6120120027990056e-01 1.2342996978134993e+02 1.4660736021009246e-01 1.2795007840981754e+01 
      </Row>
      <Row Index="9">
        -9.7883163378853777e-03 9.3634305841784560e-01 -1.2839213307286912e-01 2.0234731802709010e+00 -3.5662149920764303e+00 -1.2331995660597506e+00 2.4563921574511122e-01 7.4672440223979508e-02 -4.0456063305091217e-02 7.0662431805623385e-02 -4.6590584932892209e+00 -9.1047691331577307e-02 -4.4004412655360849e-02 -2.6322425572765967e-01 1.4494460455937848e+00 2.8944873595184203e-02 -5.9223776094528247e-01 -3.5033862717017326e-02 2.8997033651296175e-02 7.3071639947068601e-01 -7.5557037243206338e-02 3.8227726833975151e-01 -1.8474980614480607e-02 -6.8988462718129995e-01 1.2523078915841679e-01 -6.1324789634506653e-02 1.1416049227591840e-01 3.3174754370430264e-02 -5.0194778589315305e+00 6.7403177759981697e-02 -7.1419483753219437e-02 -5.6867948154707220e+00 9.5318417681452772e-01 7.6211049154986310e-03 -1.0401170493544820e-01 -4.1994576880176875e-02 1.5831185775976911e-01 1.4174658213688598e+00 -2.2752402498698580e-02 2.9721491660121311e+00 -1.0432627136346184e-01 -1.8198088558565644e+00 -1.0302246165887752e-01 8.0240093225976694e-02 2.4432508403688602e-02 9.2674902605579465e-03 1.4263172379039077e+00 6.4545738745589746e-03 5.2667869960991279e-02 -4.0016290960044785e+00 1.3375535828010749e+00 7.5809257156587206e-02 -1.0993657892144197e+00 2.8077619673106333e-03 2.7758053657714260e-01 -5.9350666612854042e-02 5.6873311243426143e-02 1.2526844311732290e+00 3.9914181970803684e+00 1.4863880202728339e+00 -1.4187964759771704e-01 9.1781342431999785e-03 -2.6709141762877975e-02 -3.7031851798058228e-02 1.0470462449018083e+01 1.0513525368269938e-01 -1.1000384186681086e-01 1.4434913040197799e+00 4.5100369285437765e+00 4.8627328256705016e-02 -7.0989397582051583e-01 -3.6299137442623031e-03 3.0893474185059588e-01 1.2039074020410565e+00 1.9898310031001912e-01 4.5925342640724054e+00 -2.6264678804044976e+00 3.2694265632906934e+00 -7.8691505705773979e-01 1.8522161932428971e-01 1.0158007427812873e-01 -1.0178273369942420e-01 -3.0658720840632441e+00 1.2241841847979362e-01 -9.1349193826480324e-02 7.8366898543586672e-01 1.0651796448474329e+00 -4.3912529165117897e-02 -1.8567446828935532e+00 5.5530987713511858e-02 7.4470547158321265e-01 -4.8575892276391874e+00 -1.5737758236421306e-01 -4.2337629045041714e-01 4.9274277304694820e+00 2.1956820849214900e+00 6.3278324761383464e-01 -1.7548698608304625e-01 -2.0639890752145651e-01 6.4806397204607083e-03 -4.0355494543747739e-01 -1.0080557119441735e-01 1.6762707459558523e-01 -3.0670438029251557e+00 3.4870740758210701e+00 -1.7674130580212849e-01 -8.9644340401755995e-01 -4.5878235194860603e-02 8.7108009209829529e-02 5.4261441276002920e-01 -1.0314274277716022e-01 -2.6944596628618456e-01 2.0045714153575451e+00 -5.7537863011912407e+00 2.1453835478521199e-01 4.9108794494253760e-02 9.8647614990198251e-02 4.8004603343857949e-02 5.0853655495106942e+00 7.6298487446279428e-02 -7.4628812393472702e-02 2.4990114848189933e+00 8.8456398950529547e-01 1.0532568123930455e-01 1.1178537698579571e-01 -1.5822838095384130e-02 2.0125980352635930e-01 1.3292373497624332e-01 -3.5553406192467246e-02 -5.6193828301319400e+00 -1.0496291925452788e+00 3.3295014563409495e+00 -2.5543978451058491e-02 -5.5061840914145621e-02 -5.0862270278357213e-02 9.6624129349011725e-03 7.1941317656034869e+00 -4.1591606930611147e-02 3.9400222080674174e-02 4.7804867553816877e-01 3.4739594462962806e+00 -6.9298354946276119e-03 -1.6164596033539391e+00 5.2521360750182218e-03 2.6500472596940450e-01 7.1705833505853844e-01 2.9705178647579808e-02 6.9818079228770102e-01 1.3904336547150891e+00 -3.1737510043106170e+00 -1.3890513532113236e-02 3.3354836348206018e-02 -2.6156811776011035e-02 -3.0451142049420128e-03 3.0570678521629233e+00 1.3638078764650929e-01 -7.9991604367633529e-02 -5.4715479359452033e+00 4.1079947028378356e+00 -1.2343913509222182e-01 9.0546382223519828e-01 -4.0021917244029703e-03 -6.9779085162780197e-02 1.2005251594690661e-01 1.8029642561933353e-02 -6.6790951597575088e-01 -4.3099497912622020e-03 -2.2434307387425605e+00 4.6370225946249496e-02 1.3527928428815700e-02 1.0984022795658221e-01 -9.0100773625650284e-03 -1.0884496363276241e-01 3.5452565524612012e-02 3.4749898297049220e-02 1.3151793647451662e+00 6.7279215269842885e-01 3.4204633819131351e-03 4.8573551651597713e-01 4.6191017480028953e-03 1.6722637816568442e-01 1.3130705955133504e+00 4.6203398078318102e-02 6.1021381487099724e-01 -1.2494319823582121e+00 5.0540109033076988e+00 -9.7113671170544258e-02 6.5953959316591426e-02 -2.8236902989142498e-02 3.2638859470529247e-02 -5.8465748373418975e+00 2.7412514597561244e-01 -8.7993903912578886e-02 -3.5842620688773756e+00 7.1137352571556534e-01 -2.8736893658134366e-02 -1.2445194305782379e+00 -2.6267016027327061e-03 1.5235912738489787e-02 -5.2208819340382462e-01 -4.0638823213657513e-02 -1.0558547966575418e+00 1.8746163745159135e+00 2.0541740428414528e+00 -3.3326353237655759e-02 5.8953277365548673e-02 -1.3543016796958351e-01 -9.2356187875949694e-03 8.2799021202210810e+00 1.5362646608597919e-01 7.5869851126335097e-02 -2.8440428430747460e+00 -6.9859994017276961e+00 -8.8293154327447776e-02 1.9017880326811323e+00 1.3014225489054405e-02 -1.7297996387265169e-01 -6.8097829705419599e-01 4.0688276091842224e-02 -3.7988621844640713e-01 -1.0014915370170030e-01 -3.3451952522412398e+00 4.4948733115429351e-02 -2.4524168420667958e-02 1.1227383788858658e-01 2.2462274588255594e-02 6.2103920049315917e+00 6.1929501491533312e-02 -2.3330399067189866e-01 1.8094849616595639e+00 2.6249909973139296e+00 -7.6968030309246815e-03 3.7668134190978630e-01 -8.7605249585139457e-03 1.2142752433520232e+00 -3.7023762452444782e+00 4.1865060038503016e-03 2.1212058307405535e-01 1.5861925340498111e+00 -1.2184041654672253e+00 -1.6795509835245725e-01 -1.0103921969317642e-01 -1.7986370904068105e-01 2.2200213273440780e-03 3.8551729688963712e+00 5.5012252517221605e-01 -4.0656281942726524e-01 2.5765258057831086e-01 3.0638917003272907e+00 -1.5242261274288146e-01 -1.6669264059224878e+00 -2.8002321834477869e-02 -2.8120419294621710e-02 -1.5084072374685824e+00 -2.2958745783063670e-03 1.1978899317239251e+00 7.4603768800823711e-01 8.0936286127792645e-01 -7.3834906235217077e-03 7.1844447171326611e-02 -2.8165261559145852e-02 2.4601399324641251e-02 1.3766865596883098e+00 -7.7100683400940978e-02 1.4020758113887713e-03 1.8623627504553542e-01 -1.1147239401057152e+00 -1.4475599310771130e-02 -2.1965137822258129e+00 -1.0997099541587972e-02 1.5490622399145372e-02 
      </Row>
      <Row Index="10">
        5.9992743275647626e+01 -1.4548320584153671e+03 2.1530044808583284e+01 4.7477013451346738e+02 9.2238155952967645e+03 2.1200719622158635e+04 -9.0216944609622942e+01 -7.6274068076635842e+01 -4.2526837276420252e+01 -4.6590593204794573e+00 1.0643132623532494e+05 1.1497791412545479e+02 -2.4890571063573450e+01 2.6719528128752472e+01 6.7833991769548156e+03 2.7932109237406770e+01 -5.1534286640101880e+02 1.0331164433026068e+01 -2.6685781820061413e+02 -1.1296447966334244e+03 1.6426880714437054e+01 -1.2500681272805450e+03 1.4663435679224181e+03 1.4787232422516638e+04 -8.9890541748276945e+01 -6.1624057205070706e+00 4.1712225733015124e+01 -5.4131306981027363e+00 4.0570097399836697e+04 1.1602424497006967e+02 -4.2949670687619793e+01 -4.2491670209398135e+03 -2.4009373628825433e+03 3.2850326346776455e+01 -4.6780458301657950e+02 3.2749625909255613e+00 1.5250189212883745e+02 -2.8359436635927494e+02 1.3083114585388758e+01 6.3612977325982797e+01 -6.4586194365961273e+02 -1.3451055779954906e+04 5.8522228547825549e+01 -3.2299785191004602e+01 -1.1784314806734983e+01 1.9066274315660734e+00 -2.8938636466892978e+04 -6.3811147092732213e+01 -1.5973573918111160e+01 4.0432825699269924e+03 9.1941279352006077e+03 1.8547474175952551e+01 5.3729084148859352e+00 -1.8469795935833289e-01 1.3282845451130066e+02 1.5731283525433553e+03 2.5747203115961335e+00 2.2654087210187963e+03 -6.1318974265190755e+03 -1.9634482304663492e+04 1.1350346997890564e+02 1.3837210445048903e+01 2.5950854888072200e+01 8.7225941385355004e+00 -9.7257838832815483e+04 -1.6314778614561465e+02 2.7701024807166647e+01 8.5942651266262947e+03 -8.0923810781863158e+03 -5.8387495930876057e+01 9.4664948448229666e+02 -1.5923705108104743e+01 3.5957040346110330e+02 1.0338035922879631e+03 -6.3024931246607437e+01 1.2469660521225562e+03 -1.1121130392123996e+03 1.4815075449892036e+04 5.4006395950771844e+02 4.4786906033848965e+01 1.1721775970867677e+02 1.0220740779840387e+01 -4.1583814288383248e+04 2.0511547707737097e+02 7.5688457878596338e+01 -2.0223518699321867e+03 -4.6232218227837448e+03 -8.8613532143070515e+01 4.0541843835020336e+02 -1.3401810673679019e+01 -1.0959492684474860e+03 1.9658845331109660e+01 3.7335028556632317e+01 -2.5391996295842819e+02 7.9811005005543666e+02 1.2125598443698478e+04 4.4299069022877234e+01 1.3906518748020187e+02 -4.0086729117578528e+01 -3.7660775399045043e+00 5.6862793758482090e+04 2.4108637662315937e+02 -8.0274119318348895e+01 3.6718382733440376e+02 1.6135493889009194e+02 5.2748960013301286e+01 -1.2861635201051411e+02 1.2399790327899368e+01 -2.7165715971897305e+02 4.5439818301254979e+02 6.7031527057178941e+00 3.1532726445992321e+03 -1.6932756172074037e+03 -1.1082758364805770e+04 1.3185366080481145e+02 3.9865558847089879e+00 6.2228015270374840e+01 7.6860193159144812e+00 -1.1038797479556422e+04 2.4954807648020093e+01 4.2710475082679437e+01 -4.5663794466340987e+03 1.5215922327080564e+03 -3.9396514646591747e+01 -3.2578698803442364e+02 -6.7223860488750002e+00 8.0568450982485473e+01 1.6654637467155403e+03 -2.2585623132160300e+01 -6.4064601520925135e+02 9.8213138969601869e+02 -1.3605339890556068e+04 3.4989946500210692e+02 -2.9090985326087658e+01 -1.8770733856989281e+01 8.4343734065504776e+00 -5.1389344025619823e+04 3.3279185793546515e+02 9.3735099648441249e+01 -7.0026984858199903e+03 -8.9279751265616069e+03 2.3687438876766453e+01 1.0339940802740198e+03 -1.6386302659678428e+01 -1.5822977870880004e+02 -7.0580574327271324e+02 -4.0646251469006643e+01 -4.5469771535535765e+03 -2.7463601852129759e+03 8.8451040421078796e+03 -3.8362763650376849e+01 2.9441367763796293e+00 7.2815823768225783e+01 -2.6209135184200081e+00 4.5744423915322841e+02 -2.0261463752195237e+02 1.0278038069043873e+00 1.0407203798890509e+04 -2.8868387171623181e+02 -5.8095889633727012e+01 -5.0615938922961823e+02 3.2758377097792142e+00 -4.3113055171982182e+01 1.8451722042823650e+02 -7.9536760046649952e+00 -6.7744156158769829e+02 5.8902052368962768e+02 -1.4368613835628024e+04 -3.7262369477003094e+00 3.2054870518804819e+00 8.2437695746607460e+01 -8.2901848693963220e-02 5.7768470511194610e+03 -3.1309496016510218e+02 -2.9278378660143609e+01 -2.8521976550500276e+03 1.1777187505097258e+02 -1.2364964630002007e-01 1.7483031661337122e+01 -1.6038084146607610e+00 8.2743458616904022e+01 -1.7615561256821570e+02 -2.7788041327284144e+01 -6.1371048339902745e+02 4.0274173397078912e+03 2.2605562125956043e+04 1.7136054271156461e+01 -3.3319176040847665e+01 -4.6832887681630098e+00 -7.0088725508015424e+00 2.9003484879123931e+04 -2.1394389260377307e+02 -4.9729576537491099e+01 1.7357004233153148e+03 2.4385827247386414e+03 -3.8605977808190062e+00 3.4610504162638463e+01 7.5937864608679959e+00 5.2382135606158522e+02 6.6978713092432827e+02 2.2137581924908687e+01 -2.3964588250153884e+02 -3.0462766522451375e+03 6.1011554480670748e+03 2.2554061139550521e+02 -2.9063973573255048e+01 4.8637849864777991e+01 1.0019328675548177e+01 -5.6592347299194473e+04 -9.4638821468271249e+02 8.4597535709857681e+01 2.6878901620124925e+03 1.3073753485561712e+04 -4.4996571858170022e+01 1.2866267868582083e+03 -1.5489416658056975e+01 -4.8180371740780674e+02 1.6298158956278530e+03 -8.5286819451265629e+01 -1.8267404870981368e+03 -1.9144956678800318e+04 -9.6774205769832006e+03 7.2921791971096269e+01 5.0842774694846185e+00 3.7610210877001350e+01 -1.2210890892854280e+00 -2.3462476508216161e+04 -1.0718747319099194e+01 9.0152206111075614e+01 7.7033636290986087e+03 -6.3292708892974824e+03 -3.2153599877902828e+01 -8.4772335373802866e+02 -3.8243019773921878e+00 -1.0659655259796577e+03 5.0753719677335775e+03 -1.4083589828559346e+02 9.4706215047777994e+02 -1.0483658811913037e+04 -1.0585856356092669e+04 1.2633747497587131e+03 1.0320182529690197e+02 2.4859730542842772e+02 2.4353656424837006e+01 8.8144163174840724e+03 -2.1612375552151059e+02 2.3975198313439142e+02 8.2848907931691883e+02 2.3643468682386128e+02 -1.8797389832520759e+02 1.7798090344326879e+03 -4.0908822539317427e+01 -4.0809905369092078e+01 2.4270143187543376e+03 3.0168267601096623e+00 -4.5122821790355783e+02 5.0548901499167187e+03 7.0180016389650482e+03 1.0731883786498706e+00 -1.7218753006557125e+02 -2.4378169575013203e+01 -3.2735362321668902e+00 3.2443941395429115e+03 2.4787021968295244e+02 -4.9075834506708560e-01 -2.8475221287381537e+03 -1.5327513258442224e+02 -1.2897546783761697e+01 6.8154883341962363e+02 -2.1336059346031901e+00 8.3003831696587966e+01 
      </Row>
      <Row Index="11">
        7.0895665332130875e-02 7.5833371791245554e+00 -4.1780442491992176e-01 5.0209551466587250e+00 -2.7567657539748936e+01 1.0951725844504381e+01 6.9073843956547876e-01 2.8345995850384540e+00 -2.2540275814553681e+00 -9.1047696901036090e-02 1.1497788858770713e+02 2.5954618957010858e+01 1.0776228993933246e+00 8.8151918669933423e+01 -2.2647399633984605e+01 9.5754367636373294e-02 4.4150813694816744e+00 1.1904586598711410e-01 -6.4857243358521421e-01 3.8656535565614973e+00 -4.6683277184558031e-01 -5.1326761417694797e+01 2.2500587046016399e+01 2.7781548945620987e+01 -7.5261170432720692e-01 1.1595625868786206e+00 9.3024795200516575e-01 -4.7333587953746009e-02 4.9202906170677380e+01 1.2980002079509907e+01 -1.0326227513906401e+00 9.6307256341066591e+01 -5.4028904688976951e+01 -1.2155181973192654e-01 -4.6314098041945879e+00 -2.5322511278486876e-01 -1.4846499801782249e+00 8.2459350841142118e+00 3.6181201038107597e-02 -2.6281742058832862e+01 2.0250503441600813e+01 -3.0930536843403615e+01 1.2006878496862912e+00 1.4504409340093058e+00 2.6687132399405211e-01 1.3445667179365403e-01 -1.1096171054082140e+02 -2.1767903658666174e+00 -1.0341664500007819e+00 -8.1689073184259584e+01 7.0714323490949710e+01 2.2235545724959249e-01 -7.1084685233796785e-01 1.2003007790410403e-01 -7.3968538014051255e-01 9.4022371100662383e+00 2.5237295892845285e-01 4.3462477904791740e+01 8.0099453709321651e+00 -7.2374980525478385e+00 -3.0614512129937577e-01 -7.0950803747729818e-01 3.6344350919472390e-01 1.6325042917510033e-01 -2.3133891107710349e+02 -1.8724779896665538e+01 7.7586454575260733e-01 7.3296929505919479e+00 -2.1001788642674683e+01 5.6291492316514002e-01 9.5897365269193813e+00 -5.1420606090505883e-01 -1.5260551976584964e+01 8.7063833000289748e-01 3.8015436901560229e-01 -2.7475800214032915e+01 2.6398394648782329e+01 4.1243070511925936e+01 -9.2679661868252694e-01 1.1875777817183728e+00 -3.0477123445937176e-01 5.5617368604390760e-02 9.1902288535738080e+01 -3.4895829907238145e+01 3.7382860345525443e-01 -1.0886413498297014e+02 -2.6088211056439150e+01 -3.4036946646731603e-01 -2.8444640687769791e+00 -4.5382138284532447e-01 -4.0065564941910736e+00 2.7115548899035730e+01 1.1579454177419224e+00 -2.5378132488872367e+01 -3.1228314967689244e+01 -3.5733198505457040e+01 2.0886294321227439e+00 6.9634298163148429e+00 4.1942276053378258e-01 -4.6617848221780855e-01 1.9525464909137952e+02 2.4604981554889889e+01 -2.5668492954952775e+00 2.2087140708167453e+02 -7.2573984337851243e+01 2.2185334241841410e+00 3.9283305301841779e+01 1.2603237077727802e-01 2.2601186372627846e+00 2.8338130420869305e+00 2.5050805239607232e-01 4.7170036007856027e+01 2.6823044465326859e+01 -2.0091829214963013e+01 -8.7733634758246382e-01 1.3892214989478924e+00 -9.6672481520254250e-01 -7.9982988766511207e-03 2.7883986411396386e+01 6.8464496447834744e+00 2.7151696365665585e+00 -8.1466808012023535e+01 8.2221053469222454e+01 7.0871464088609404e-01 4.8449236184243745e+00 -7.9926143044086517e-02 1.7860883184888046e+00 -1.1509462540047629e+01 3.1601086655975186e-01 9.6458075232124429e+01 1.1015247696146275e+01 1.8541905773773124e+01 -1.3574508858909606e-01 -9.0629104824167950e-01 -2.5133314058705079e+00 -1.0759695662353619e-01 1.1101130361602941e+01 3.2360076345683062e+00 -1.5319242073343717e+00 5.2476731725192138e+01 4.8927712542563398e+01 7.2758046285132183e-01 2.8987428833355281e+01 -1.1044885850141713e-01 -9.9633560100706120e-01 1.8214833269968318e+00 -4.4140403658302979e-01 -3.3475000640548160e+01 -1.9758592828445771e+01 5.7294718468768792e+01 -8.5830670568712364e-01 1.1947752503294105e+00 -1.2268032019723929e-02 -7.6083851664591792e-02 -2.1432856942279852e+02 2.4636418654268022e+00 -1.3718435200094232e+00 1.5533066535029621e+02 -9.7983053820969872e+01 -4.6327983450758703e-01 -1.7003625098510234e+01 9.2768241755882039e-02 6.4584550191307244e-01 -6.9994959589840597e+00 3.7816841560950998e-02 -2.0048099912190139e+01 2.9124386150514823e+01 5.5902526312107170e+01 2.4967961240034953e-01 -4.6568296213936833e-01 1.5954165158884734e+00 1.3651607542195709e-01 -1.7403156614081672e+02 -6.8198984845572275e+00 -4.6710599495286487e-01 4.8613061934910775e+01 -2.3976941584092767e+01 -2.0218042607855224e-01 -3.3478387624756021e+00 6.0110314902148465e-02 -1.2687225735763654e+00 1.0153155156032280e+01 -6.2458947871071180e-01 -7.8880118786645653e+01 7.8688146758786388e+00 7.8652868371922523e+01 -1.2796298970821951e+00 1.6202043805768893e+00 8.3965189408096963e-01 5.9980843911178541e-02 -1.4719695045282856e+02 1.1263255049030287e+01 -1.1049039920960047e+00 3.7802590919116824e+01 7.8015622437082527e+01 -2.5327877174099395e-01 4.6487852046331604e+00 3.4750588013120165e-01 -1.6722439889537544e+00 1.3465481135269215e+01 5.2993651878137538e-02 -3.5973221193338986e+01 2.6588381764638143e+01 4.7359778759422852e+01 -7.1047642931121935e-01 8.0944205768037403e-01 1.2711260575665406e+00 1.9167765682128421e-01 -2.2387292973674806e+02 -1.3969153550737436e+01 1.4001948192448677e+00 4.1149535365944303e+01 5.1174135169348801e+01 -6.1078744717072408e-01 -9.8542617085639108e+00 9.7766544208220590e-02 -2.6794143931929284e+00 2.1069596946256070e+01 -8.4136005162434846e-01 -9.8368664596130998e+01 -2.3038937209276568e+01 -6.9227895287423962e+01 -6.1054342930974048e-01 1.0202246049383286e+00 6.8177559063429172e-01 -3.4612879923278772e-02 -3.5843423119042484e+01 1.0513749617172765e+00 2.4613327440087391e+00 -6.6971250196153846e+01 4.4993894812268820e+01 -3.6799512368082510e-01 -1.4942158949481083e+01 7.0525305132748753e-02 -1.6190797801193430e+01 4.7958191998424887e+01 4.1383372511463312e-01 3.1030295836012659e+01 2.1176235173194314e+01 1.1159567229632962e+01 -2.2026296188769656e+00 9.4098085671540765e+00 -1.3914910301087868e+00 -2.0176993428850321e-01 -5.3071113026514197e+01 3.1971321971857797e+01 1.4173091605485699e+00 2.8372259673998499e+01 2.4000520635696887e+00 2.3181057580804469e+00 8.5490356031302667e+01 -5.3633223178939460e-01 -8.8987923303222760e-01 4.2143381003734220e+01 4.0334282959479800e-02 -8.3780749543838002e+00 5.5480455640208490e+01 -2.4380057451664381e+01 -1.3041749265932767e-02 3.3184158511593229e+00 -3.6704912374706217e-01 -1.4968521164593573e-02 -1.2250454115493739e+00 1.5158615471773167e+01 -4.5002357786461333e-02 -8.1272067581007093e+01 1.4811278353672764e+01 -9.6890050683884232e-02 6.8227706357070488e+01 -1.5912227830479414e-01 -1.6943761657805059e+01 
      </Row>
      <Row Index="12">
