<?xml version="1.0"?>
<MethodSetup Method="MLP::MLPMSE">
  <GeneralInfo>
    <Info name="TMVA Release" value="4.1.4 [262404]"/>
    <Info name="ROOT Release" value="5.34/07 [336391]"/>
    <Info name="Creator" value="pseyfert"/>
    <Info name="Date" value="Thu Dec 12 16:22:11 2013"/>
    <Info name="Host" value="Linux lxbuild175.cern.ch 2.6.18-308.4.1.el5 #1 SMP Wed Apr 18 16:26:27 CEST 2012 x86_64 x86_64 x86_64 GNU/Linux"/>
    <Info name="Dir" value="/auto/sigma0/pseyfert/zoontuple/Bender_v22r7/Phys/Tau23Mu/scripts/TMVA_training_v3"/>
    <Info name="Training events" value="52072"/>
    <Info name="TrainingTime" value="8.16727984e+02"/>
    <Info name="AnalysisType" value="Classification"/>
  </GeneralInfo>
  <Options>
    <Option name="NCycles" modified="Yes">600</Option>
    <Option name="HiddenLayers" modified="Yes">N+5</Option>
    <Option name="NeuronType" modified="Yes">tanh</Option>
    <Option name="RandomSeed" modified="No">1</Option>
    <Option name="EstimatorType" modified="Yes">MSE</Option>
    <Option name="NeuronInputType" modified="No">sum</Option>
    <Option name="V" modified="Yes">False</Option>
    <Option name="VerbosityLevel" modified="No">Default</Option>
    <Option name="VarTransform" modified="Yes">N</Option>
    <Option name="H" modified="Yes">False</Option>
    <Option name="CreateMVAPdfs" modified="No">False</Option>
    <Option name="IgnoreNegWeightsInTraining" modified="No">False</Option>
    <Option name="TrainingMethod" modified="No">BP</Option>
    <Option name="LearningRate" modified="No">2.000000e-02</Option>
    <Option name="DecayRate" modified="No">1.000000e-02</Option>
    <Option name="TestRate" modified="Yes">5</Option>
    <Option name="EpochMonitoring" modified="No">False</Option>
    <Option name="Sampling" modified="No">1.000000e+00</Option>
    <Option name="SamplingEpoch" modified="No">1.000000e+00</Option>
    <Option name="SamplingImportance" modified="No">1.000000e+00</Option>
    <Option name="SamplingTraining" modified="No">True</Option>
    <Option name="SamplingTesting" modified="No">False</Option>
    <Option name="ResetStep" modified="No">50</Option>
    <Option name="Tau" modified="No">3.000000e+00</Option>
    <Option name="BPMode" modified="No">sequential</Option>
    <Option name="BatchSize" modified="No">-1</Option>
    <Option name="ConvergenceImprove" modified="No">1.000000e-30</Option>
    <Option name="ConvergenceTests" modified="No">-1</Option>
    <Option name="UseRegulator" modified="Yes">False</Option>
    <Option name="UpdateLimit" modified="No">10000</Option>
    <Option name="CalculateErrors" modified="No">False</Option>
    <Option name="WeightRange" modified="No">1.000000e+00</Option>
  </Options>
  <Variables NVar="13">
    <Variable VarIndex="0" Expression="TMath::Exp(-1000*LifeTime)" Label="TMath::Exp(-1000*LifeTime)" Title="transformed decay time" Unit="1" Internal="TMath_Exp__M_1000_T_LifeTime_" Type="F" Min="1.93987222e-11" Max="7.31256723e-01"/>
    <Variable VarIndex="1" Expression="IPSig" Label="IPSig" Title="IP significance" Unit="1" Internal="IPSig" Type="F" Min="1.11495918e-02" Max="2.49779434e+01"/>
    <Variable VarIndex="2" Expression="VertexChi2" Label="VertexChi2" Title="vertex #chi^{2}" Unit="1" Internal="VertexChi2" Type="F" Min="8.02233350e-04" Max="1.49983969e+01"/>
    <Variable VarIndex="3" Expression="acos(dira)" Label="acos(dira)" Title="pointing angle" Unit="1" Internal="acos_dira_" Type="F" Min="0.00000000e+00" Max="1.37716651e-01"/>
    <Variable VarIndex="4" Expression="pt" Label="pt" Title="p_{T}" Unit="[MeV/c]" Internal="pt" Type="F" Min="4.12933426e+01" Max="5.52403477e+04"/>
    <Variable VarIndex="5" Expression="min(p0_IPSig,min(p1_IPSig,p2_IPSig))" Label="min(p0_IPSig,min(p1_IPSig,p2_IPSig))" Title="min. #mu IP significance" Unit="1" Internal="min_p0_IPSig,min_p1_IPSig,p2_IPSig__" Type="F" Min="2.30495882e+00" Max="1.02738922e+02"/>
    <Variable VarIndex="6" Expression="DOCAone" Label="DOCAone" Title="DOCA (#mu 1 and 2)" Unit="mm" Internal="DOCAone" Type="F" Min="2.63570382e-06" Max="9.23672736e-01"/>
    <Variable VarIndex="7" Expression="DOCAtwo" Label="DOCAtwo" Title="DOCA (#mu 2 and 3)" Unit="mm" Internal="DOCAtwo" Type="F" Min="2.43484504e-08" Max="7.44905770e-01"/>
    <Variable VarIndex="8" Expression="DOCAthree" Label="DOCAthree" Title="DOCA (#mu 1 and 3)" Unit="mm" Internal="DOCAthree" Type="F" Min="6.10736777e-07" Max="1.05343544e+00"/>
    <Variable VarIndex="9" Expression="CDF3" Label="CDF3" Title="cone isolation" Unit="1" Internal="CDF3" Type="F" Min="3.00450996e-03" Max="1.00000000e+00"/>
    <Variable VarIndex="10" Expression="p0_track_MatchChi2" Label="p0_track_MatchChi2" Title="track match #chi^{2} (#mu 1)" Unit="1" Internal="p0_track_MatchChi2" Type="F" Min="4.38715070e-02" Max="8.45542831e+01"/>
    <Variable VarIndex="11" Expression="p1_track_MatchChi2" Label="p1_track_MatchChi2" Title="track match #chi^{2} (#mu 2)" Unit="1" Internal="p1_track_MatchChi2" Type="F" Min="1.31226135e-02" Max="7.59046707e+01"/>
    <Variable VarIndex="12" Expression="p2_track_MatchChi2" Label="p2_track_MatchChi2" Title="track match #chi^{2} (#mu 3)" Unit="1" Internal="p2_track_MatchChi2" Type="F" Min="1.51327997e-02" Max="7.93785172e+01"/>
  </Variables>
  <Spectators NSpec="0"/>
  <Classes NClass="2">
    <Class Name="Signal" Index="0"/>
    <Class Name="Background" Index="1"/>
  </Classes>
  <Transformations NTransformations="1">
    <Transform Name="Normalize">
      <Selection>
        <Input NInputs="13">
          <Input Type="Variable" Label="TMath::Exp(-1000*LifeTime)" Expression="TMath::Exp(-1000*LifeTime)"/>
          <Input Type="Variable" Label="IPSig" Expression="IPSig"/>
          <Input Type="Variable" Label="VertexChi2" Expression="VertexChi2"/>
          <Input Type="Variable" Label="acos(dira)" Expression="acos(dira)"/>
          <Input Type="Variable" Label="pt" Expression="pt"/>
          <Input Type="Variable" Label="min(p0_IPSig,min(p1_IPSig,p2_IPSig))" Expression="min(p0_IPSig,min(p1_IPSig,p2_IPSig))"/>
          <Input Type="Variable" Label="DOCAone" Expression="DOCAone"/>
          <Input Type="Variable" Label="DOCAtwo" Expression="DOCAtwo"/>
          <Input Type="Variable" Label="DOCAthree" Expression="DOCAthree"/>
          <Input Type="Variable" Label="CDF3" Expression="CDF3"/>
          <Input Type="Variable" Label="p0_track_MatchChi2" Expression="p0_track_MatchChi2"/>
          <Input Type="Variable" Label="p1_track_MatchChi2" Expression="p1_track_MatchChi2"/>
          <Input Type="Variable" Label="p2_track_MatchChi2" Expression="p2_track_MatchChi2"/>
        </Input>
        <Output NOutputs="13">
          <Output Type="Variable" Label="TMath::Exp(-1000*LifeTime)" Expression="TMath::Exp(-1000*LifeTime)"/>
          <Output Type="Variable" Label="IPSig" Expression="IPSig"/>
          <Output Type="Variable" Label="VertexChi2" Expression="VertexChi2"/>
          <Output Type="Variable" Label="acos(dira)" Expression="acos(dira)"/>
          <Output Type="Variable" Label="pt" Expression="pt"/>
          <Output Type="Variable" Label="min(p0_IPSig,min(p1_IPSig,p2_IPSig))" Expression="min(p0_IPSig,min(p1_IPSig,p2_IPSig))"/>
          <Output Type="Variable" Label="DOCAone" Expression="DOCAone"/>
          <Output Type="Variable" Label="DOCAtwo" Expression="DOCAtwo"/>
          <Output Type="Variable" Label="DOCAthree" Expression="DOCAthree"/>
          <Output Type="Variable" Label="CDF3" Expression="CDF3"/>
          <Output Type="Variable" Label="p0_track_MatchChi2" Expression="p0_track_MatchChi2"/>
          <Output Type="Variable" Label="p1_track_MatchChi2" Expression="p1_track_MatchChi2"/>
          <Output Type="Variable" Label="p2_track_MatchChi2" Expression="p2_track_MatchChi2"/>
        </Output>
      </Selection>
      <Class ClassIndex="0">
        <Ranges>
          <Range Index="0" Min="1.9398722211905195e-11" Max="7.3125672340393066e-01"/>
          <Range Index="1" Min="1.1149591766297817e-02" Max="2.1987730026245117e+01"/>
          <Range Index="2" Min="8.0223334953188896e-04" Max="1.4998396873474121e+01"/>
          <Range Index="3" Min="0.0000000000000000e+00" Max="1.3410498201847076e-01"/>
          <Range Index="4" Min="6.2147693634033203e+01" Max="5.5240347656250000e+04"/>
          <Range Index="5" Min="2.3049588203430176e+00" Max="1.0273892211914062e+02"/>
          <Range Index="6" Min="2.6357038223068230e-06" Max="8.1560057401657104e-01"/>
          <Range Index="7" Min="2.4348450367028818e-08" Max="6.9920772314071655e-01"/>
          <Range Index="8" Min="6.1073677670719917e-07" Max="1.0170480012893677e+00"/>
          <Range Index="9" Min="3.0045099556446075e-03" Max="1.0000000000000000e+00"/>
          <Range Index="10" Min="4.3871507048606873e-02" Max="7.7615455627441406e+01"/>
          <Range Index="11" Min="1.3122613541781902e-02" Max="7.5904670715332031e+01"/>
          <Range Index="12" Min="1.5132799744606018e-02" Max="7.9378517150878906e+01"/>
        </Ranges>
      </Class>
      <Class ClassIndex="1">
        <Ranges>
          <Range Index="0" Min="2.1115165509399958e-05" Max="7.2934836149215698e-01"/>
          <Range Index="1" Min="1.3430085778236389e-01" Max="2.4977943420410156e+01"/>
          <Range Index="2" Min="2.2036740556359291e-02" Max="1.4991107940673828e+01"/>
          <Range Index="3" Min="0.0000000000000000e+00" Max="1.3771665096282959e-01"/>
          <Range Index="4" Min="4.1293342590332031e+01" Max="2.1269572265625000e+04"/>
          <Range Index="5" Min="2.7823791503906250e+00" Max="4.9517536163330078e+01"/>
          <Range Index="6" Min="3.9169070078060031e-05" Max="9.2367273569107056e-01"/>
          <Range Index="7" Min="5.9152989706490189e-05" Max="7.4490576982498169e-01"/>
          <Range Index="8" Min="3.1205789127852768e-05" Max="1.0534354448318481e+00"/>
          <Range Index="9" Min="3.8299348670989275e-03" Max="1.0000000000000000e+00"/>
          <Range Index="10" Min="1.4428974688053131e-01" Max="8.4554283142089844e+01"/>
          <Range Index="11" Min="1.4624765515327454e-01" Max="6.7723579406738281e+01"/>
          <Range Index="12" Min="4.5327022671699524e-02" Max="6.8506652832031250e+01"/>
        </Ranges>
      </Class>
      <Class ClassIndex="2">
        <Ranges>
          <Range Index="0" Min="1.9398722211905195e-11" Max="7.3125672340393066e-01"/>
          <Range Index="1" Min="1.1149591766297817e-02" Max="2.4977943420410156e+01"/>
          <Range Index="2" Min="8.0223334953188896e-04" Max="1.4998396873474121e+01"/>
          <Range Index="3" Min="0.0000000000000000e+00" Max="1.3771665096282959e-01"/>
          <Range Index="4" Min="4.1293342590332031e+01" Max="5.5240347656250000e+04"/>
          <Range Index="5" Min="2.3049588203430176e+00" Max="1.0273892211914062e+02"/>
          <Range Index="6" Min="2.6357038223068230e-06" Max="9.2367273569107056e-01"/>
          <Range Index="7" Min="2.4348450367028818e-08" Max="7.4490576982498169e-01"/>
          <Range Index="8" Min="6.1073677670719917e-07" Max="1.0534354448318481e+00"/>
          <Range Index="9" Min="3.0045099556446075e-03" Max="1.0000000000000000e+00"/>
          <Range Index="10" Min="4.3871507048606873e-02" Max="8.4554283142089844e+01"/>
          <Range Index="11" Min="1.3122613541781902e-02" Max="7.5904670715332031e+01"/>
          <Range Index="12" Min="1.5132799744606018e-02" Max="7.9378517150878906e+01"/>
        </Ranges>
      </Class>
    </Transform>
  </Transformations>
  <MVAPdfs/>
  <Weights>
    <Layout NLayers="3">
      <Layer Index="0" NNeurons="14">
        <Neuron NSynapses="18">
          -4.6140894760451751e-01 1.7415042680153423e+00 -3.8204147208796349e-02 1.4504043030231579e+00 1.5222009305104123e-01 -9.0335871001513759e-02 3.8376334210732665e-01 1.8594861300334342e+00 -1.4933854216378095e+00 -1.1702471356877904e+00 -1.4564145215147164e+00 -3.3673441815072105e-02 -3.1556475019119251e-01 -1.4717234653842853e-01 -9.9925870241719894e-02 2.4504417215818058e-01 -5.2211985364066738e-01 -2.0335613656032100e-01 
        </Neuron>
        <Neuron NSynapses="18">
          1.0433406325178297e-01 1.1074204718101031e+00 -6.6251461908352050e-01 -7.5424313776582452e-01 2.3050087798298247e+00 -5.3857144860875103e-02 -3.0289162418065687e+00 1.3188334697569967e-01 1.4656460097443331e+00 -2.0457428841038583e+00 -1.5823318251360130e+00 1.1085821918574958e-02 1.0523957716017531e+00 1.6027866486664941e+00 2.3059807257340600e-01 -3.6757364249182189e-02 -1.3510634538114771e-01 -2.3578867802556114e+00 
        </Neuron>
        <Neuron NSynapses="18">
          -1.2837899357149223e+00 1.6837260664180504e+00 -5.2531957181556266e-01 8.8991902032191528e-01 1.6807603622723443e-02 1.0675021990777260e-01 6.9549056606923143e-01 9.6836065896498080e-01 -7.9498684684276422e-01 -3.4954617454148312e-01 6.1969021867222063e-01 1.1810449371825378e-01 2.2148949931870421e-01 1.2645642696664865e+00 9.3544467115182739e-01 3.8561684101626942e-01 -1.2554380104438234e+00 -2.7908275259341420e-01 
        </Neuron>
        <Neuron NSynapses="18">
          -1.9879016142788761e+00 -9.3378437532217073e-01 -2.0659629829667199e+00 -2.0003960663231521e+00 1.8024603642908656e+00 6.5013764045525679e-01 -1.6471379683853875e+00 5.8453466162057455e-01 -4.2738762848189132e-01 -1.0290822595457820e+00 2.1879774680805557e+00 -1.2626135523900166e-02 2.0320296311664848e-01 -9.4217717648353994e-01 1.4417854872277380e+00 -2.9607854450193077e-01 -1.2094564884576608e+00 -1.2941470677161306e+00 
        </Neuron>
        <Neuron NSynapses="18">
          7.1479249042611637e-01 1.3565958688032520e+00 5.6239165610118302e-01 -6.0496531901670902e-01 -1.2101458759341508e+00 -1.5358462218035283e+00 1.2170596864881023e-01 1.0891598079263112e+00 1.8413760592935267e+00 6.3606387332287984e-01 1.4172507809472807e+00 -4.1460476573038341e-01 -8.6852751566351938e-01 1.1881078328378805e-01 2.0550922856536760e+00 -8.3122524058302982e-01 -2.0780144443642299e+00 -5.4013592864666574e-02 
        </Neuron>
        <Neuron NSynapses="18">
          -2.2580623111131246e-01 1.0109299557792356e-01 1.8288447219821831e+00 -1.7224678270814067e+00 -1.0992248921206675e+00 1.5150599297780267e+00 -7.8606762196280155e-01 -9.1289006022392016e-01 -1.5916148939825767e+00 2.8629046222267434e+00 -1.4911445444694902e+00 -1.0680969536615179e+00 6.1045227411256286e-01 1.9507676203464599e+00 -2.5409133860758848e-01 1.4674518495213362e+00 -1.5149607003946393e+00 6.0589179385839553e-01 
        </Neuron>
        <Neuron NSynapses="18">
          -5.7067573816235062e-02 3.7669593858206296e-01 -1.4454850803860813e+00 -2.5607169098381330e-02 -3.6550568942659067e-02 6.2849302223047498e-01 -1.1501671627133301e+00 1.9106685094001326e+00 2.0528608438140719e-01 -9.9730268074119810e-01 8.3503281393034523e-01 -5.5264512797956622e-01 -1.3954073873731803e+00 4.6157107794455182e-01 5.6542227543384849e-01 7.3680680155802913e-01 9.9954623925301868e-04 -4.5688569977734134e-01 
        </Neuron>
        <Neuron NSynapses="18">
          -2.9587493807046067e-01 3.7100876446235587e-01 -6.0812042108525266e-01 7.7833092946628701e-01 9.8599785846041210e-01 -1.4328978528460967e+00 7.0619296113162178e-01 -8.6384737446054716e-01 -5.5375315579722265e-02 -5.6107419673281655e-01 1.8121908268065183e+00 -1.2306682420641251e+00 -1.7578726943054840e-01 1.7631231874607369e+00 2.1626225815371498e+00 1.0107427769382975e-01 -2.0707888912839647e+00 2.6479904308278379e-01 
        </Neuron>
        <Neuron NSynapses="18">
          -1.3987252303425797e+00 1.7564729244147783e+00 1.2607764509574471e+00 -7.8295612419628291e-01 -1.5847462925591035e-01 2.2487218886417309e-01 -1.1341921223948226e+00 6.9708324117074016e-01 1.5660153061839013e+00 -6.8946992229721971e-01 -1.4148168436649894e-01 7.2197840499097810e-01 7.0035046156530845e-01 7.5124022736418083e-01 1.1782897580204037e+00 -1.3929796406158470e+00 9.8651957464875406e-01 4.5198326288747981e-01 
        </Neuron>
        <Neuron NSynapses="18">
          4.1754469454179882e-01 5.4813659749631016e-01 4.2983448730200696e-01 -6.2334536000676655e-01 -3.0765382157606264e-01 1.9868652920955160e-01 1.5755754630453488e-02 -3.2643948215612284e-01 1.6835167012918335e+00 2.6753195736429808e-01 -1.2365255900912185e-01 4.9080649273076267e-02 3.4481587330161229e-01 -1.7129608381497718e+00 4.1971380516496720e-01 -3.8151519210410302e-02 5.7649708051955728e-01 2.1412976934776065e-01 
        </Neuron>
        <Neuron NSynapses="18">
          -1.3874601901459307e+00 1.5029700161120423e+00 1.2388121833551915e+00 -1.7850460506451580e+00 -3.2097081243472131e-01 -5.1711422738211732e-01 8.0357945000963149e-01 1.8668538442881371e+00 -4.8702414776822439e-01 -1.3335168727329063e+00 -6.6975146632210769e-01 1.0258707975912105e+00 1.0982959440453068e+00 1.2911537888161644e+00 1.0170514240141593e+00 -2.5168280244218083e-01 -1.8416889061254991e+00 -5.7164763458097112e-01 
        </Neuron>
        <Neuron NSynapses="18">
          4.6376609369881694e-01 -1.2197455535111494e+00 -1.3543823271706201e+00 4.7421805674566060e-02 5.7061753772831769e-01 -1.4825388604486356e+00 1.1033138438990577e+00 1.4830121908086744e+00 -6.8905749247176429e-01 -2.2694947556691675e-01 1.7984468566401302e+00 1.0544388932922579e+00 9.9328269848543205e-01 1.8027896322264378e-01 -1.0897778819608908e+00 -7.7420639684177572e-01 1.1109930079358348e+00 4.8906040416406271e-01 
        </Neuron>
        <Neuron NSynapses="18">
          7.8695210011446237e-01 4.6012353143440982e-01 6.6471384998553540e-01 -1.8147957345630406e+00 -1.4601822726464837e+00 9.6404831250865505e-02 -1.9820692234265838e-01 1.0882819193348878e+00 1.6231782624836846e+00 -4.4468036128943028e-01 1.0291722683613895e+00 1.7581325019852817e-01 -1.6787475863615537e+00 -7.9664996914185449e-01 1.6329827825421190e+00 -2.9701413095717766e-01 4.6718715444362341e-01 -3.0231650301885676e-01 
        </Neuron>
        <Neuron NSynapses="18">
          1.7239158017672627e+00 -2.0082342290017858e+00 1.4256346479622588e+00 3.7920763742506519e-01 -1.5447602346574381e+00 -1.6031257310914264e+00 -1.8246561980573508e+00 -1.0675046444661409e+00 -1.7574656145970942e+00 -8.7844790046209720e-01 -2.3364795081821468e+00 -4.2291000284679581e-01 -1.2568015818087579e+00 -1.9526898585994568e+00 4.4736437467966478e-01 -5.5735078301504437e-01 8.2164620406314737e-01 -1.5243178204674726e+00 
        </Neuron>
      </Layer>
      <Layer Index="1" NNeurons="19">
        <Neuron NSynapses="1">
          8.1869296698568975e-02 
        </Neuron>
        <Neuron NSynapses="1">
          1.5508093465872528e+00 
        </Neuron>
        <Neuron NSynapses="1">
          2.2069195029338395e-01 
        </Neuron>
        <Neuron NSynapses="1">
          3.8935719534360355e-02 
        </Neuron>
        <Neuron NSynapses="1">
          2.1529809254737439e-01 
        </Neuron>
        <Neuron NSynapses="1">
          -3.3035208725784942e-02 
        </Neuron>
        <Neuron NSynapses="1">
          -1.3184319668962266e-01 
        </Neuron>
        <Neuron NSynapses="1">
          -1.4413973183889457e+00 
        </Neuron>
        <Neuron NSynapses="1">
          4.4867143568866112e-02 
        </Neuron>
        <Neuron NSynapses="1">
          3.4986891069929715e-01 
        </Neuron>
        <Neuron NSynapses="1">
          1.3382631285606768e+00 
        </Neuron>
        <Neuron NSynapses="1">
          3.8863919811684591e-02 
        </Neuron>
        <Neuron NSynapses="1">
          -1.1317775385580482e-01 
        </Neuron>
        <Neuron NSynapses="1">
          -3.4818322493209980e-01 
        </Neuron>
        <Neuron NSynapses="1">
          -1.4907547272684218e+00 
        </Neuron>
        <Neuron NSynapses="1">
          8.1696315570073827e-02 
        </Neuron>
        <Neuron NSynapses="1">
          8.2135728129850527e-01 
        </Neuron>
        <Neuron NSynapses="1">
          1.9412235787219032e-01 
        </Neuron>
        <Neuron NSynapses="1">
          -8.3108359151210887e-01 
        </Neuron>
      </Layer>
      <Layer Index="2" NNeurons="1">
        <Neuron NSynapses="0"/>
      </Layer>
    </Layout>
  </Weights>
</MethodSetup>
